// Auto generated data file
// Copyright (c) 2018-2023, Shiqi Yu, all rights reserved.
#include "facedetectcnn.h"

float backbone__model0_pw_weight[16 * 32 * 1 * 1] = {0.00122, 0.00239, 0.00216, -0.000522, -0.000684, -0.000736, -0.000954, -0.00216, -0.002, 0.00161, 0.0028, 0.00249, -0.00101, -0.00134, -0.00135, -0.00173, -0.00327, -0.00285, 0.000681, 0.00167, 0.00173, -0.000645, -0.000979, -0.00069, 0.00197, 0.00065, 0.00131, 0, 0, 0, 0, 0, -0.000824, -0.000333, 0.000789, -0.000837, -0.000305, 0.000751, -0.000499, -0.000182, 0.000651, -0.000318, 0.000213, 0.00169, -0.000913, -0.000345, 0.00107, -0.00021, 0.000193, 0.00138, -0.000765, -0.000598, 0.000856, -0.00168, -0.00147, -0.00012, -0.000548, -0.000455, 0.000664, 0, 0, 0, 0, 0, 0.000267, 0.000202, -0.00129, 0.000959, 0.00074, -0.000962, 0.000595, 0.000413, -0.00122, 0.000586, 0.000369, -0.00127, 0.00123, 0.000849, -0.00101, 0.000819, 0.000482, -0.00131, 0.000605, 0.000515, -0.00114, 0.000838, 0.00059, -0.00127, 0.000568, 0.000361, -0.00144, 0, 0, 0, 0, 0, 8.6e-06, -0.000646, -0.000371, 0.000425, -0.000181, 0.00088, 0.000776, 9.39e-06, 0.00128, 0.00059, -4.05e-06, -4.02e-05, -0.000884, -0.00152, -0.000677, -0.00183, -0.00271, -0.00148, 0.00126, 0.000459, 0.000762, 0.000513, -0.000232, 0.000953, -0.000887, -0.00186, -0.0002, 0, 0, 0, 0, 0, -0.00151, 0.00131, -0.0002, -0.00127, 0.00132, 7.72e-05, -0.000569, 0.00177, 0.000582, -0.00202, 0.000843, -0.000669, -0.00229, 0.000385, -0.000894, -0.00255, -0.000113, -0.00141, -0.000926, 0.00233, 0.000315, -0.000176, 0.00303, 0.0012, -0.00099, 0.00205, 0.000166, 0, 0, 0, 0, 0, 0.00141, 0.00304, 0.00173, 0.00349, 0.0049, 0.00241, 0.00303, 0.00445, 0.00229, -0.00143, -0.00115, -0.000904, -0.0015, -0.00152, -0.00236, -0.000391, -0.000231, -0.000779, -0.00148, -0.00193, 9.87e-05, -0.00282, -0.00362, -0.00268, -0.00153, -0.0022, -0.00108, 0, 0, 0, 0, 0, -0.00081, 0.00102, -0.00146, -0.00033, 0.00134, -0.00134, -0.000464, 0.00119, -0.0011, 0.000263, 0.00181, -0.00111, 0.000472, 0.0019, -0.00125, -0.000123, 0.00134, -0.00142, 0.000428, 0.00189, -0.00112, 0.000642, 0.00204, -0.00122, -4.28e-05, 0.00144, -0.00145, 0, 0, 0, 0, 0, 0.00112, -0.00111, 0.00124, 0.000165, -0.00198, 0.000625, 0.000405, -0.0018, 0.000435, 0.000595, -0.00141, 0.000509, -0.000725, -0.00268, -0.000502, 0.000188, -0.0019, 1.33e-05, 0.0013, -0.000741, 0.000617, 0.000943, -0.00107, 0.000532, 0.00149, -0.000687, 0.000744, 0, 0, 0, 0, 0, 0.000174, -0.00194, 0.000721, 0.000694, -0.00127, 0.00207, 0.000667, -0.0019, 0.00139, -0.000267, -0.00228, 0.000145, 0.00118, -0.00072, 0.0025, 0.000492, -0.00212, 0.00121, 0.000531, -0.00194, -0.000488, 0.00235, -4.66e-05, 0.00227, 0.000804, -0.00234, 0.000199, 0, 0, 0, 0, 0, 0.00212, 0.00056, 0.00146, 0.000984, 0.000783, 0.000573, 8.54e-05, 0.00171, 0.00101, -0.00292, -0.00494, -0.00354, -0.00226, -0.00278, -0.00269, 0.00104, 0.00263, 0.00205, 0.000944, -0.000911, 0.000855, -0.000849, -0.00139, -0.000898, 0.00111, 0.00249, 0.00251, 0, 0, 0, 0, 0, 3.91e-05, 0.00114, 0.00118, -0.000464, 0.000576, 0.00048, -0.000301, 0.000772, 0.000801, -0.000459, 0.000515, 0.000659, -0.00108, -0.000132, -0.000147, -0.000775, 0.000225, 0.000304, -7.52e-05, 0.000696, 0.00117, -0.000429, 0.000336, 0.000621, -0.000162, 0.000675, 0.00102, 0, 0, 0, 0, 0, -0.000205, -0.0017, -0.000313, -0.00314, -0.00441, -0.00293, 0.000865, 6.66e-05, 0.000775, 0.00142, 0.000645, 0.00165, -0.000631, -0.00108, -6.76e-06, 0.00218, 0.00228, 0.00267, 0.000907, 0.000391, 0.00105, -0.000888, -0.00101, -0.000385, 0.000438, 0.000818, 0.000845, 0, 0, 0, 0, 0, 0.000383, 0.00171, 0.0014, 0.00206, 0.00365, 0.00388, 0.000981, 0.0024, 0.00225, 2.34e-05, 0.000112, 0.000178, -0.000917, -0.000846, -0.000328, -0.000119, -0.000137, -0.000195, 0.000305, -0.001, -0.00103, -0.00266, -0.00437, -0.00381, -0.00015, -0.00178, -0.00182, 0, 0, 0, 0, 0, 1.41e-05, -0.00121, -0.000165, -0.000174, -0.00103, -0.000719, 0.000261, -6.83e-05, -1.55e-06, -0.000357, -0.00167, -0.000651, -0.000568, -0.00153, -0.00109, 0.000146, -0.000218, 0.000139, 0.00069, -0.000961, 0.000727, 9.9e-05, -0.00121, 8.09e-06, 0.000364, -0.000414, 0.000911, 0, 0, 0, 0, 0, 0.000526, 0.000758, 3.26e-05, 7.85e-05, 0.000488, 0.00033, 0.000207, 0.000276, 0.000458, -8.38e-05, 0.00018, 0.000215, -0.000188, 0.00037, 0.000939, 0.000118, 0.000407, 0.00123, 0.000217, -0.000292, -0.000752, -7.5e-05, -0.00031, -0.000252, 0.000548, 0.000113, 0.00036, 0, 0, 0, 0, 0, -7.91e-05, -0.000881, -0.000466, 0.00014, -0.000772, -0.000223, -0.000355, -0.00111, -0.000468, -3.67e-05, -0.000494, -0.000328, -0.000187, -0.000788, -0.000391, -0.000816, -0.00127, -0.000725, 0.000428, 9.96e-05, 0.000111, 4.36e-05, -0.000408, -8.04e-05, -0.000694, -0.00105, -0.000514, 0, 0, 0, 0, 0};
float backbone__model0_pw_bias[16] = {0.323, 0.213, 0.388, 0.507, 0.203, -0.415, 0.128, 0.723, 0.072, 0.252, -1.44, 0.107, 0.318, 0.561, 0.101, 0.368};
float backbone__model0_dp_pw_weight[16 * 16 * 1 * 1] = {-0.00499, -0.0456, -0.0892, -0.18, 0.0462, -0.0811, -0.00909, 0.00591, 0.0865, -0.071, -0.0135, -0.0402, 0.0855, -0.247, 0.719, -0.426, -0.183, 0.0144, 0.0105, -0.0969, -0.0133, -0.215, 0.0843, 0.058, -0.00789, 0.252, 0.308, 0.236, 0.232, 0.0842, 0.573, -0.128, 0.0363, 0.069, 0.425, 0.213, -0.499, -0.0665, 0.459, 0.595, 0.428, 0.0303, 0.0453, 0.0938, 0.0576, 0.0941, 0.0175, 0.00336, 0.0563, -0.402, -0.286, -0.0531, -0.421, 0.0366, -0.522, 0.348, 0.497, 0.0924, 0.205, -0.0867, -0.0959, 0.0709, -0.0629, -0.00406, -0.0793, 0.128, -0.0541, -0.242, -0.295, -0.0372, 0.0981, -0.173, 0.000686, -0.116, 0.122, 0.00786, 0.0491, -0.32, 0.0987, -0.359, 0.181, -0.0175, 0.0816, 0.0631, 0.0855, 0.383, -0.0797, 0.0579, -0.012, -0.234, 0.0727, 0.101, -0.424, 0.00754, 0.0848, 0.0885, 0.186, -0.0298, 0.0952, 0.0176, -0.0509, -0.331, -0.0831, -0.0276, -0.101, -0.0775, -0.128, -0.0774, 0.356, -0.0316, -0.655, 0.209, 0.331, 0.0939, 0.0617, 0.155, -0.0547, -0.0155, 0.025, 0.155, -0.214, -0.0262, 0.131, 0.152, 0.16, 0.0163, -0.058, 0.241, 0.113, 0.13, 0.15, -0.132, -0.0976, 0.196, -0.0896, -0.192, -0.0985, -0.075, 0.111, 0.323, -0.32, 0.143, 0.0367, -0.0448, 0.104, 0.0507, -0.106, 0.105, -0.0913, -0.364, 0.107, -0.0408, -0.0527, -0.0748, -0.0705, -0.117, 0.527, -0.134, -0.00942, -0.0233, 0.0254, 0.187, -0.0818, 0.0852, -0.0957, 0.0582, 0.073, 0.138, -0.156, 0.245, 0.411, 0.0683, -0.0689, 0.525, -0.173, 0.532, 0.000937, -0.00496, -0.045, -0.22, -0.0401, 0.00207, -0.035, -0.000227, -0.0184, -0.0612, 0.0545, -0.057, -0.0137, -0.22, 0.655, -0.331, -0.0707, -0.764, 0.433, -0.254, -0.147, 0.0434, -0.129, -0.261, -0.426, 0.0156, -0.399, -0.14, -0.0562, -0.0896, -0.0804, -0.0462, 0.265, -0.0596, -0.0216, 0.175, 0.0696, 0.1, -0.0099, -0.0218, 0.0516, -0.266, 0.0283, -0.0205, -0.312, -0.0773, -0.0374, 0.192, -0.256, -0.00165, -0.062, -0.114, -0.0706, -0.147, 0.0674, 0.124, -0.215, 0.272, 0.0458, 0.173, 0.129, 0.199, 0.0539, -0.127, 0.254, 0.0761, 0.0475, 0.245, -0.0642, -0.138, 0.0294, 0.0377, 0.0428, -0.159, 0.103, -0.281, 0.34, -0.0506, -0.0829, 0.115};
float backbone__model0_dp_pw_bias[16] = {-0.434, -0.21, -0.0273, -0.164, -0.11, -0.126, 0.0578, -0.439, 0.179, 0.0698, 0.0218, 0.147, -0.00541, 0.133, -0.119, -0.15};
float backbone__model0_dp_dw_weight[16 * 1 * 3 * 3] = {-0.875, -0.0483, -0.138, 0.0147, -0.957, 0.157, 0.154, 0.617, 0.23, 1.3, -0.345, 0.52, -0.147, 0.086, 0.345, -0.306, -1.46, -0.39, 0.62, -0.44, -1.13, -1.76, -0.394, 0.557, 0.411, 1.57, -0.0385, 1.3, 0.217, 0.21, 0.381, -0.699, -0.799, 0.0224, 0.0741, -0.665, -0.88, -0.89, 0.097, -0.374, 0.255, 0.106, 0.557, 0.8, -0.114, 0.162, -0.221, 0.224, -0.32, -0.0732, -0.162, -0.263, 1.68, 1.3, -0.324, 0.311, -1.26, 0.534, -0.406, -0.735, 0.0868, -1.56, 0.224, -2.06, 0.426, -0.545, 0.654, -0.29, 2.7, 1.96, -0.453, 1.84, -1.83, -1.79, 1.35, 0.255, 0.671, 2.32, 1.97, 0.816, -0.243, -0.092, 0.665, 0.123, 2.22, -1.32, -0.28, -2.78, -1.66, -0.888, 0.111, 0.359, 0.352, 0.0539, -1.03, 1.28, 0.773, -0.184, 0.363, 0.128, -0.75, 0.276, -0.0827, 0.43, 0.959, -0.605, 0.0564, -0.724, -0.152, -1.32, -0.551, -0.63, 1.12, -0.154, -0.411, 0.124, -1.49, 1.13, -0.13, 0.949, 1.3, -0.514, 0.143, -1.23, 0.23, -0.296, 1.62, 1.87, 0.959, 0.0101, -0.00507, -0.0286, -1.35, -0.0225, -0.0739, -1.55, 0.968, -0.276, 0.22, -0.725, -0.0691, 0.9, -1.95, -0.243};
float backbone__model0_dp_dw_bias[16] = {0.347, 1.57, -0.714, -0.0687, -0.0442, 0.052, 0.348, -0.0556, 0.0415, 0.097, 0.331, 0.366, 1.61, -0.0599, 0.0049, -0.0429};
float backbone__model1_dp1_pw_weight[16 * 16 * 1 * 1] = {0.187, 0.693, -0.0894, 0.0417, -0.018, -0.0313, -0.442, 0.117, 0.0207, 0.00872, 0.371, -0.0354, 0.0174, -0.0921, 0.0463, -0.0266, 0.338, -0.17, 0.0522, 0.00663, 0.047, -0.197, -0.0636, -0.595, 0.116, 0.36, 0.0251, 0.11, 0.0255, -0.514, -0.709, -0.0834, 0.166, 0.178, -0.095, -0.0519, -0.158, 0.00233, 0.295, -0.0936, -0.275, 0.0458, 0.00784, -0.337, 0.0999, -0.017, -0.21, -0.103, -0.256, 0.441, -0.17, -0.0484, -0.124, -0.121, -0.448, -0.0835, -0.0806, -0.0534, -0.107, -0.391, -0.272, -0.102, -0.00661, -0.0541, 0.0391, 0.172, 0.233, 0.402, 0.0181, 0.0157, -0.0026, -0.00366, 0.0177, 0.0432, -0.0415, -0.0102, 1.37, 0.014, -0.0102, 0.0311, -0.229, 0.174, 0.0231, 0.054, -0.677, -0.03, 0.209, 0.21, -0.731, -0.477, 0.263, 0.0131, 0.0847, 0.189, 0.189, -0.0824, 0.0666, 0.401, 0.0637, 0.026, 0.0537, -0.023, -0.539, 0.0178, 0.0438, 0.0442, 0.443, 0.102, -0.00493, 0.0221, 0.0155, 0.0414, -0.14, 0.192, 0.0141, 0.0406, -0.255, -0.619, 0.269, 0.207, -0.237, 0.307, 0.283, -0.189, 0.0332, -0.45, 0.0352, 0.533, 0.121, 0.165, -0.582, 0.821, -0.00434, -0.0564, 0.107, -0.00408, -0.0252, 0.00463, 0.0549, -0.0601, -0.0209, -0.0249, 0.0223, -0.0755, -0.658, -0.333, -0.0513, -0.0438, -0.213, 0.0854, -0.592, -0.0427, -0.144, -0.0954, -0.0832, 0.345, -0.146, -0.0319, -0.0371, -0.0319, 0.032, 0.494, 0.000255, -0.0212, -0.00864, -0.0134, -0.598, -0.0271, 0.00153, -0.00362, 0.208, -0.167, -0.133, 0.0171, -0.0309, -0.0884, 0.104, -0.139, 0.0154, 0.0304, 0.0978, 0.57, -0.0697, -0.415, 0.099, -0.429, -0.0307, 0.0933, -0.0248, 0.386, -0.131, -0.723, -0.0688, -0.124, 0.16, 0.0695, 0.133, 0.0151, -0.0424, -0.0336, -0.0869, -0.366, -0.245, -0.0205, 0.128, 0.00677, -0.00342, 0.151, -0.0557, 0.33, 0.132, 0.112, 0.00838, 0.206, 0.227, 0.0833, 0.112, 0.072, 0.617, -0.0323, 0.122, 0.138, 0.0789, 0.0412, 0.712, 0.189, 0.0103, -0.0187, 0.0497, -0.021, 0.324, -0.12, -0.0503, 0.0306, 0.0368, -0.591, 0.00653, 0.00243, -0.0259, 0.0867, 0.0165, -0.426, 0.956, 0.423, 0.081, 0.0199, 0.105, -0.0398, 0.0381, -0.0324, 0.299, 0.0265, 0.186, -0.0185, -0.0663, 0.0523};
float backbone__model1_dp1_pw_bias[16] = {-0.143, -0.094, -0.1, 0.31, -0.133, -0.0161, -0.252, -0.0366, -0.0368, 0.165, 0.199, -0.0272, 0.146, -0.167, 0.00272, -0.124};
float backbone__model1_dp1_dw_weight[16 * 1 * 3 * 3] = {-0.499, 0.0958, 0.231, -0.187, -0.0622, 0.0493, 0.606, -0.014, 0.0859, -0.0927, 0.0966, 0.0235, 0.133, 0.0164, -0.0466, 0.0889, -0.631, 0.701, 1.26, 0.542, 0.123, -0.585, 0.0964, 0.364, -0.182, -0.00624, 0.243, 0.574, 1.34, 0.023, 0.141, -0.0172, -0.459, 0.0669, 0.214, -0.00365, -0.0872, 0.0243, -0.658, 0.0297, 0.128, -0.039, -0.219, 0.246, -0.0659, -0.00783, -0.0594, 0.0788, -0.0799, -0.0271, 0.00154, -0.392, 0.205, 0.0143, 0.842, 0.0596, -0.0705, -0.242, 0.364, -0.037, 0.214, 0.101, -0.0653, -0.093, 0.494, 0.21, -1.45, 1, -1.03, -0.414, -0.159, 0.915, 0.787, 1.88, 1.34, 0.559, -1.57, -1.2, 1.06, 0.965, -0.16, -0.0693, 0.0765, 0.176, 0.127, 0.0348, -0.799, 0.0852, 0.0273, -0.159, -1.05, 0.149, -0.405, 0.0475, 0.0168, -0.0453, 0.223, -0.0126, -0.0993, -0.0781, -0.0532, -0.0395, 0.294, -0.0239, -0.0657, 0.0807, -0.118, 0.0439, 0.0884, -0.06, 0.0633, -0.138, 0.972, -0.024, -0.0524, -0.54, 0.182, -0.0231, -0.00895, 0.00242, 0.33, -0.209, -0.228, -0.0273, 0.23, 0.25, -0.177, 0.112, 0.172, 0.00596, 0.0294, -0.148, -0.093, 0.0351, -0.184, 0.0364, -0.116, 0.0115, -0.316, -0.0168, -0.0749, -0.0359, 0.0416, -0.103};
float backbone__model1_dp1_dw_bias[16] = {0.107, 1.04, -0.0479, 0.932, 1.68, 0.747, 0.139, -0.335, 0.0955, 1.55, 0.317, 0.744, 0.0206, 1.56, -0.478, -0.134};
float backbone__model1_dp2_pw_weight[32 * 16 * 1 * 1] = {-0.139, -0.349, -0.102, -0.0583, 0.325, -0.148, -0.0863, 0.00421, 0.0135, -0.0235, 0.184, -0.124, -0.0451, 0.0355, -0.0648, -0.22, -0.0726, 0.445, 0.0925, 0.00799, -0.0513, 0.35, 0.143, 0.267, 0.0753, 0.0527, -0.117, 0.147, -0.0525, 0.0999, 0.0312, 0.0442, 0.137, 0.322, 0.217, 0.159, -0.0739, -0.106, -0.135, -0.0942, 0.0238, 0.305, 0.0144, 0.158, 0.245, -0.136, -0.0481, 0.0668, 0.0667, 0.0367, 0.0761, -0.042, -0.649, 0.0386, -0.0727, 0.01, -0.0347, -0.0167, 0.0607, 0.0294, -0.00755, 0.411, 0.0884, -0.0105, 0.0543, 0.43, -0.0313, 0.202, 0.0445, -0.0403, 0.0523, -0.08, 0.00348, -0.31, 0.0394, 0.127, -0.0327, 0.0076, 0.0189, -0.206, -0.116, -0.398, -0.0927, -0.192, 0.0544, 0.0596, 0.24, -0.512, -0.0271, 0.00116, -0.134, 0.302, -0.297, -0.305, -0.194, -0.00758, 0.192, 0.233, 0.469, -0.219, -0.126, 0.132, 0.0315, 0.0527, -0.00153, 0.328, -0.0711, 0.134, 0.323, -0.172, 0.214, 0.00837, -0.0992, 0.434, -0.102, 0.0159, 0.0071, 0.0145, -0.0192, 0.198, 0.234, 0.171, 0.0275, 0.0774, 0.00551, 0.42, -0.101, 0.198, 0.452, -0.0985, 0.0541, 0.0417, -0.0361, -0.195, 0.485, -0.0177, -0.00496, 0.0488, 0.288, 0.126, -0.0522, -0.0894, -0.375, 0.024, 0.0546, -0.14, 0.0165, -0.188, -0.0473, -0.336, 0.0104, -0.405, 0.0106, 0.23, -0.0412, 0.583, -0.231, -0.09, -0.0173, -0.0522, 0.316, -0.0485, 0.0641, -0.00148, -0.00514, -0.0114, -0.407, 0.0295, 0.00095, 0.22, -0.0261, 0.107, 0.298, -0.17, -0.179, 0.0529, 0.124, -0.105, -0.0138, -0.378, -0.142, -0.184, -0.0591, 0.283, 0.0349, -0.0813, 0.0216, -0.142, 0.0627, -0.345, 0.0129, 0.746, -0.122, 0.0439, -0.094, 0.356, -0.124, 0.0527, 0.283, 0.231, 0.0258, -0.275, 0.396, 0.00541, 0.194, -0.0181, 0.222, 0.0693, -0.679, 0.0387, 0.222, 0.162, 0.162, -0.254, -0.0972, -0.0486, -0.0921, -0.228, 0.151, -0.00261, -0.218, 0.222, 0.0128, 0.044, -0.124, -0.541, -0.366, 0.159, -0.169, -0.323, 0.15, 0.332, 0.058, -0.193, -0.111, -0.317, -0.0767, -0.173, -0.0229, -0.0137, 0.064, 0.214, -0.00891, 0.509, 0.00278, -0.0297, -0.821, -0.08, -0.0393, -0.0716, -0.439, 0.19, 0.0805, -0.0561, -0.0617, 0.0247, 0.022, 0.191, -0.0416, -0.162, -0.0407, 0.78, 0.0126, -0.15, 0.0669, 0.0597, -0.0507, -0.142, 0.181, -0.0806, 0.0194, 0.0394, 0.108, -0.0145, 0.179, -0.385, -0.296, 0.287, -0.042, -0.177, 0.0033, 0.14, -0.135, -0.0017, 0.109, 0.209, 0.178, -0.249, 0.0192, 0.107, 0.017, -0.0535, 0.087, -0.0893, -0.00903, 0.012, -0.653, -0.0228, -0.00362, 0.0334, 0.0628, -0.103, 0.0925, 0.416, 0.148, 0.247, 0.225, -0.102, 0.07, -0.287, -0.0162, -0.00629, 0.051, 0.303, -0.0831, 0.105, -0.0468, 0.424, 0.0928, 0.217, -0.0694, -0.0533, 0.039, -0.073, 0.396, 0.154, 0.0522, -0.0202, -0.687, -0.0856, -0.0576, -0.0206, -0.00377, 0.143, 0.019, -0.457, -0.117, 0.057, -0.0503, -0.023, 0.365, 0.00774, -0.0836, -0.00886, 0.29, 0.0339, 0.000872, 0.135, -0.0863, 0.351, -0.204, 0.168, 0.0343, -0.26, -0.0307, 0.164, -0.0687, 0.199, -0.032, -0.00858, -0.00995, -0.135, -0.402, -0.081, -0.00646, -0.267, 0.422, 0.0306, -0.0307, -0.0271, -0.0374, -0.0161, -0.9, -0.11, -0.0458, -0.00272, 0.178, -0.0702, 0.0131, 0.0243, -0.0808, -0.0332, 0.00482, 0.129, 0.084, 0.212, 0.328, -0.395, -0.104, -0.0599, -0.0482, -0.104, 0.136, -0.216, -0.128, 0.217, 0.137, 0.00201, 0.634, -0.0521, -0.0831, -0.028, -0.0469, 0.0245, 0.218, -0.0559, 0.0524, -0.0363, -0.192, -0.0379, 0.0331, 0.302, -0.214, 0.13, 0.074, -0.162, 0.518, -0.1, 0.00618, 0.115, -0.013, 0.187, 0.118, 0.0878, -0.0627, -0.23, 0.0293, 0.0857, 0.128, 0.061, 0.272, -0.144, -0.186, -0.0821, -0.0308, 0.391, -0.0295, -0.184, -0.139, 0.0445, -0.0557, -0.272, 0.156, 0.136, -0.104, -0.0332, 0.434, -0.012, 0.0594, 0.102, -0.184, -0.00309, -0.0349, -0.00747, -0.219, -0.0635, 0.0226, 0.0233, 0.534, 0.12, 0.0569, -0.256, -0.0734, -0.0255, 0.0881, 0.0459, 0.0465, -0.0627, 0.722, -0.0225, 0.0268, 0.0882, 0.383, -0.0256, -0.159, 0.0714, -0.0375, -0.184, 0.0514, 0.0637, 0.0821, -0.0192, 0.0581, -0.048, 0.6, 0.0339, -0.012, 0.0177, -0.373, -0.0355, -0.0197, -0.0302, 0.0409, 0.00637, 0.12, -0.355, -0.132, -0.178, -0.174, 0.0948, -0.126, -0.169, 0.0182, 0.109, 0.108, -0.134, 0.141, -0.165, -0.0408, -0.202, -0.0963, 0.246};
float backbone__model1_dp2_pw_bias[32] = {0.349, -0.0689, 0.015, 0.185, -0.0971, 0.0646, -0.0267, -0.31, -0.096, -0.0015, 0.0176, -0.0715, -0.0261, 0.0034, 0.0254, -0.0605, -0.00821, -0.147, -0.0732, -0.00382, 0.089, -0.201, -0.0468, -0.0104, -0.0238, 0.12, 0.293, -0.141, -0.038, -0.551, -0.149, 0.0599};
float backbone__model1_dp2_dw_weight[32 * 1 * 3 * 3] = {-0.36, -0.242, 0.134, 1.09, -0.302, 0.0239, -0.311, 0.438, -0.648, -0.221, -0.0755, 0.0411, 0.151, -0.196, -0.0689, 0.114, 0.242, -0.77, -1.03, -0.142, -0.164, 0.773, -0.292, -0.66, 0.0237, 0.403, -0.723, 0.452, 0.109, -0.557, 0.719, 1.19, -0.809, 0.00508, 0.0717, -0.308, -0.517, 0.258, 0.437, 0.186, 0.164, -0.159, 0.357, -0.101, -0.593, 0.166, -0.373, -0.0387, -0.126, -1.66, -0.922, 0.268, 0.29, -0.986, 0.382, -0.587, 0.724, -0.111, -0.238, -0.742, -0.226, -1.38, -0.238, -0.348, -0.51, 0.273, 0.281, -0.807, -0.0576, 0.167, -0.0478, -0.129, -0.232, 0.259, -0.481, 0.12, -0.449, -0.0818, -0.226, 0.0954, -0.205, -0.148, -0.663, -0.288, -0.196, -0.33, -0.0602, -0.479, -0.12, -1.41, -0.309, 0.284, 0.306, -0.164, -0.856, -0.901, -0.158, -0.164, 0.0166, 0.997, -0.146, 0.105, -0.425, 0.374, -0.722, -0.0508, -0.257, -0.11, -0.709, -0.193, 0.224, 0.568, 0.051, 0.497, 0.0646, -0.00668, 0.271, 2.07, -0.604, -0.35, -0.149, 0.159, 0.0941, 0.149, -1.75, -0.432, 1.48, 1.17, 0.0696, -0.339, 1.25, 0.318, -1.23, 0.631, -1.29, -0.658, -0.0855, -0.629, -1.34, -1.07, -0.00288, -0.0647, -0.591, 1.27, -0.685, 1.62, 0.636, -1.35, 1.44, -0.404, -0.256, 0.0999, -1.74, -1.18, -0.53, 1.25, 1.72, -0.633, 0.194, -0.801, -0.37, 0.201, 0.886, -1.33, -0.514, -0.00563, -0.168, -0.51, 0.132, 0.0348, 0.177, 0.167, 0.15, -0.159, 0.367, -0.211, -0.698, -0.0413, -0.302, 0.0399, -0.171, -1, 0.471, -0.084, 0.027, 0.0862, 0.0463, -0.203, 0.0544, -0.695, -0.919, -0.237, 0.627, 0.929, -0.604, 0.612, 0.435, 0.188, -0.0954, 0.0276, 0.113, 0.368, -0.0733, 0.042, -0.507, 0.23, -0.00378, 0.184, 0.126, 0.104, 0.557, 0.156, -0.226, 0.577, -0.316, 0.512, 0.0437, -0.389, -0.406, 0.0361, -0.234, 1.19, 0.346, 0.217, 1.1, 2.08, -1.04, 0.366, 2.11, 0.282, 0.0706, -0.211, -0.0919, -0.283, -0.147, -0.122, 0.345, 1.76, -0.543, 0.098, 0.149, 0.475, 1.21, 0.233, -0.385, -0.556, -1.1, 1.07, -0.314, -0.164, -0.0248, 0.305, -0.447, 2.02, -0.102, 0.00533, 0.606, -0.739, -0.528, -0.794, 0.467, -0.0941, 0.0335, -0.389, -0.0942, -0.557, 0.409, 0.0826, 0.0736, -0.0116, -0.0281, 0.0649, 0.111, 0.11, 0.388, 0.0498, 0.081, 0.0409, -0.129, 0.441, 0.0467, 0.948, -0.519, 0.229, -0.113, 0.522, -0.628, -0.207};
float backbone__model1_dp2_dw_bias[32] = {0.223, -1.4, -0.152, -0.0601, -0.104, 1.5, 0.568, 0.907, 0.2, 0.0467, -0.00768, 0.0175, 1, -0.0166, -0.482, -0.295, 0.822, 0.0923, -0.0446, 0.839, 0.298, 0.00922, -0.569, 0.286, 0.18, 0.292, 1.65, 0.214, 0.377, -0.0535, -0.009, 0.0448};
float backbone__model2_dp1_pw_weight[32 * 32 * 1 * 1] = {0.0504, -0.103, 0.16, 0.0124, -0.112, 0.051, 0.261, 0.254, -0.062, 0.118, -0.0599, 0.0232, -0.235, 0.392, 0.1, 0.0204, 0.000275, 0.00203, -0.0387, 0.405, -0.0934, -0.087, -0.248, 0.0499, -0.183, -0.0574, -0.0218, -0.0926, 0.11, -0.017, 0.0217, 0.0826, -0.223, 0.101, -0.344, 0.112, -0.194, 0.161, 0.00954, 0.174, 0.0128, 0.122, 0.149, 0.0659, 0.0378, -0.0427, -0.171, -0.0189, 0.191, -0.634, -0.343, -0.0599, 0.073, 0.0747, 0.0404, -0.185, 0.11, 0.122, -0.0067, -0.181, 0.058, -0.36, 0.209, 0.145, 0.0783, 0.0476, 0.00177, -0.136, 0.094, -0.603, -0.33, 0.1, -0.106, -0.0299, 0.142, 0.174, 0.157, 0.142, -0.142, 0.0766, -0.0741, -0.0354, 0.119, -0.0255, 0.104, 0.0095, -0.13, 0.0272, 0.14, 0.0647, 0.000237, -0.109, 0.101, -0.0596, -0.0839, 0.075, 0.0429, -0.0616, 0.0813, 0.0253, -0.098, -0.185, -0.0941, -0.0107, 0.0284, -0.206, -0.0455, -0.181, -0.0572, -0.0579, -0.11, 0.0375, 0.0514, -0.0579, -0.0874, -0.0605, 0.719, 0.0656, 0.0525, 0.0378, -0.0529, -0.21, 0.181, 0.122, -0.0489, -0.0259, 0.523, 0.12, 0.156, -0.0689, 0.143, -0.0925, -0.242, -0.223, -0.0534, 0.267, -0.199, -0.102, -0.0571, 0.142, -0.0684, 0.116, -0.0931, -0.287, -0.188, -0.167, -0.0294, -0.176, 0.086, -0.303, 0.134, 0.122, 0.0361, -0.0775, 0.154, 0.0082, -0.395, -0.0865, -0.195, -0.00358, 0.0682, 0.117, -0.000717, 0.0209, -0.0153, -0.0411, -0.246, -0.000439, -0.357, -0.139, -0.0601, 0.299, -0.174, -0.0427, -0.0144, -0.437, 0.0308, -0.0493, -0.0465, -0.248, 0.0965, -0.27, -0.0827, -0.0268, 0.19, 0.0351, 0.0977, -0.171, -0.105, -0.0942, -0.0637, -0.0623, 0.0843, 0.238, 0.202, 0.144, 0.205, -0.258, -0.284, 0.196, 0.0248, -0.256, 0.0859, -0.523, 0.161, 0.359, -0.17, 0.0383, -0.0353, 0.222, 0.102, -0.0559, -0.0531, -0.0344, 0.0113, 0.0629, -0.193, -0.135, 0.00348, 0.000692, 0.0138, 0.12, -0.0282, 0.149, 0.0414, -0.045, -0.11, 0.00952, 0.0034, 0.05, 0.223, -0.0995, 0.128, 0.331, 0.128, 0.141, -0.344, 0.0234, -0.0274, -0.344, 0.155, 0.0555, -0.032, 0.0153, 0.0396, 0.0751, -0.113, 0.0287, -0.18, 0.147, 0.136, 0.0784, -0.25, -0.0652, 0.0268, -0.0475, 0.163, 0.142, -0.0317, 0.0501, -0.0689, 0.275, -0.0858, 0.196, 0.0294, 0.0481, -0.0564, -0.127, -0.0339, -0.0212, -0.152, -0.181, 0.0563, 0.000283, 0.0102, 0.0868, 0.205, -0.0716, -0.25, 0.0581, 0.419, -0.0899, 0.136, 0.0867, 0.0391, -0.0203, 0.0829, -0.061, -0.232, 0.223, -0.0636, 0.00944, 0.209, -0.0508, -0.0912, -0.0423, 0.143, -0.0985, 0.0588, 0.259, -0.285, 0.165, 0.269, 0.101, -0.101, -0.0703, -0.0231, 0.0377, 0.127, 0.00502, -0.0864, 0.047, -0.231, -0.00613, 0.0739, 0.152, -0.158, 0.0575, 0.0237, -0.0288, 0.0517, 0.00872, 0.0305, 0.24, -0.0488, 0.115, -0.107, 0.0403, -0.0378, -0.231, -0.11, -0.00189, -0.129, -0.0446, -0.407, 0.1, 0.0232, 0.0876, 0.0738, 0.0827, -0.00773, 0.172, 0.185, -0.0325, 0.139, 0.016, -0.142, 0.0979, 0.0771, -0.0554, 0.15, 0.355, 0.0192, -0.237, 0.156, -0.21, 0.0256, 0.0123, -0.134, 0.457, -0.205, 0.218, -0.0714, 0.327, 0.034, 0.107, 0.0966, -0.00357, -0.205, -0.154, -0.197, 0.288, -0.0795, -0.326, 0.0265, -0.651, -0.133, -0.285, 0.129, 0.11, 0.000774, -0.0422, -0.0628, -0.242, -0.054, -0.212, 0.217, -0.102, 0.161, -0.0321, -0.0481, 0.0792, -0.445, 0.269, 0.209, 0.142, 0.00272, 0.00541, 0.331, 0.0204, 0.264, 0.151, 0.00843, 0.11, 0.106, -0.159, 0.0305, -0.116, -0.345, 0.0701, 0.055, -0.161, -0.138, -0.0163, 0.0466, -0.0476, -0.0387, 0.00386, 0.159, 0.173, 0.0592, 0.181, -0.324, -0.1, -0.0153, 0.0655, 0.129, 0.0446, -0.0643, -0.113, 0.155, -0.289, 0.0273, -0.00943, 0.0697, 0.234, -0.0421, 0.00367, -0.308, -0.0311, -0.0961, -0.0212, -0.368, 0.0173, 0.00295, 0.0666, 0.031, 0.0611, -0.437, 0.0511, -0.031, -0.00982, 0.107, 0.164, -0.132, 0.0306, 0.0819, -0.0101, -0.0953, 0.161, 0.0123, 0.189, -0.376, -0.0299, -0.275, -0.0714, 0.197, 0.108, 0.0856, -0.0259, 0.0309, 0.422, -0.0376, -0.0146, 0.122, 0.295, -0.000417, 0.0782, -0.139, -0.0824, 0.11, -0.0272, -0.128, 0.0299, -0.188, -0.0941, -0.00456, 0.0623, -0.0612, -0.02, 0.0406, 0.263, 0.0546, -0.123, -0.242, 0.103, 0.0555, -0.319, -0.143, 0.044, 0.108, -0.00935, -0.104, -0.0337, 0.328, 0.0354, 0.0992, -0.255, 0.0676, -0.155, 0.0589, 0.0591, 0.0102, 0.0316, -0.0216, 0.0743, 0.0524, 0.164, 0.0424, -0.144, 0.193, -0.266, -0.144, -0.515, 0.00695, 0.095, -0.207, 0.0538, -0.0625, 0.0542, -0.00813, 0.0255, -0.167, 0.101, -0.119, 0.0112, 0.0325, 0.024, -0.042, -0.0132, 0.0793, 0.0212, 0.00106, -0.146, 0.0296, 0.0604, 0.0184, -0.0878, 0.0483, -0.168, -0.238, -0.215, -0.0544, -0.192, 0.141, 0.0556, -0.0343, -0.0697, -0.171, 0.0428, 0.456, 0.0603, 0.0189, -0.183, -0.0281, -0.0568, -0.139, -0.00352, 0.142, 0.187, -0.109, 0.135, -0.0299, 0.0936, -0.0423, -0.198, 0.118, 0.0399, 0.12, -0.0505, 0.065, 0.0836, -0.0941, -0.244, -0.236, 0.0902, -0.053, -0.0359, -0.258, -0.0803, 0.136, -0.292, 0.00953, 0.0455, 0.0355, 0.0189, -0.0424, -0.0701, 0.167, 0.0317, 0.193, -0.0528, 0.0271, -0.142, -0.371, 0.0465, -0.0154, -0.0084, -0.0428, -0.029, -0.0947, 0.00872, 0.0539, 0.339, 0.11, 0.0399, 0.277, 0.172, 0.0663, -0.0485, -0.219, 0.0823, 0.174, -0.236, -0.146, -0.0576, -0.0616, -0.095, 0.0909, 0.0484, 0.0921, -0.063, -0.204, 0.02, 0.00907, 0.138, -0.149, -0.0242, -0.0233, -0.0763, 0.35, 0.185, -0.166, 0.0266, 0.23, -0.0291, 0.0794, -0.339, 0.238, -0.164, 0.162, -0.254, -0.00295, 0.291, -0.139, -0.233, 0.0843, 0.205, 0.0859, -0.0556, -0.0111, 0.0165, 0.225, 0.108, 0.033, 0.108, -0.253, 0.297, -0.0572, 0.333, -0.174, -0.0713, -0.117, -0.138, 0.203, -0.0344, 0.155, 0.117, -0.0583, 0.228, -0.0683, 0.253, -0.0713, 0.137, 0.132, -0.0204, 0.229, 0.162, -0.167, 0.0161, 0.0413, 0.256, 0.239, -0.0721, -0.000336, 0.0605, 0.107, -0.187, -0.118, -0.249, -0.0141, -0.0462, 0.133, 0.0726, -0.0131, 0.0879, 0.0256, 0.0327, -0.156, 0.0586, 0.0644, -0.27, -0.228, -0.199, -0.154, 0.295, -0.0924, -0.108, -0.0985, 0.0976, 0.313, 0.00913, 0.0491, -0.275, -0.116, -0.0129, 0.265, 0.08, 0.157, -0.035, 0.114, 0.189, -0.0245, 0.0762, 0.0123, 0.113, 0.0414, -0.0177, -0.0498, 0.0868, 0.166, 0.0692, -0.0909, -0.0357, -0.315, -0.0823, 0.153, -0.199, -0.109, -0.176, 0.0758, -0.377, 0.00523, 0.25, 0.0728, -0.219, 0.0128, 0.0153, 0.208, 0.117, 0.0733, 0.105, -0.271, -0.0755, -0.42, 0.0412, 0.0449, -0.196, -0.221, 0.082, 0.188, -0.0584, -0.0172, -0.0582, -0.184, -0.124, 0.0441, -0.135, 0.0165, 0.0619, -0.0688, 0.106, -0.101, -0.0354, -0.573, -0.183, 0.00428, 0.251, 0.14, 0.0488, 0.153, -0.0837, -0.029, -0.0254, 0.0208, -0.189, -0.239, -0.0992, -0.0796, -0.289, -0.159, 0.0927, 0.0859, -0.113, -0.00179, 0.338, 0.112, -0.0682, -0.00744, -0.0524, -0.377, -0.00506, -0.165, 0.194, 0.355, -0.112, 0.158, -0.0897, -0.0762, -0.0932, 0.0948, 0.0366, 0.0704, -0.0598, -0.0647, -0.0649, 0.0751, 0.172, -0.0444, -0.0704, -0.0982, -0.306, 0.115, -0.0453, 0.0048, 0.263, -0.0437, 0.0854, -0.0116, 0.157, 0.112, -0.148, 0.126, -0.0932, -0.0419, 0.0186, -0.0935, 0.302, 0.202, 0.165, 0.0397, -0.0868, -0.232, 0.409, 0.287, 0.0602, -0.0686, 0.1, -0.0245, -0.0102, -0.12, -0.062, 0.368, 0.0801, -0.0317, 0.0059, 0.134, -0.00462, -0.155, -0.115, 0.148, 0.127, 0.00446, 0.0759, -0.0267, 0.323, 0.114, 0.0805, 0.00494, 0.111, -0.106, 0.12, 0.0771, -0.0342, 0.424, -0.0657, -0.0228, 0.1, 0.14, -0.28, 0.249, -0.146, -0.0315, 0.0137, 0.04, 0.0772, 0.076, 0.309, 0.0543, 0.0938, 0.0406, -0.253, -0.11, 0.1, 0.0368, -0.0472, -0.105, -0.2, 0.475, -0.353, -0.156, 0.418, 0.0377, 0.222, 0.0623, -0.162, -0.0666, 0.106, 0.0806, 0.154, 0.282, 0.102, -0.252, -0.15, 0.0503, 0.136, -0.0914, 0.00437, 0.0114, -0.0215, 0.285, -0.36, 0.121, 0.0527, -0.192, -0.0843, 0.0594, 0.0314, -0.315, 0.0965, -0.0932, 0.0952, 0.308, 0.0842, 0.178, -0.0902, -0.175, 0.0276, 0.0469, -0.289, -0.133, 0.177, -0.249, 0.0161, 0.137, -0.0535, 0.11, -0.246, -0.335, 0.0518, -0.253, -0.0434, 0.0576, 0.0572, -0.205, -0.239, 0.199, -0.0319, 0.13, 0.362, 0.194, 0.029, -0.229, 0.00392, -0.0412, 0.0385, -0.172, 0.0313, -0.246, 0.0638, 0.0969, 0.0989, 0.0959, 0.0159, -0.0906, 0.161, 0.189, 0.125, 0.134, -0.205, -0.0509, 0.028, 0.0372, 0.00017, -0.0458, -0.109, -0.0446, 0.0114, 0.215, -0.248, 0.0787, 0.145, -0.064, 0.154, 0.0526, 0.0977, 0.0767, 0.143, -0.0287, -0.1, -0.104, -0.0603, 0.089, -0.00704, -0.318, -0.0665, -0.0448, 0.0167, 0.217, 0.173, 0.228, -0.0437, -0.086, -0.109};
float backbone__model2_dp1_pw_bias[32] = {0.0103, -0.146, 0.0708, -0.0476, 0.0129, 0.0824, -0.0213, -0.00832, 0.143, 0.0058, -0.00942, -0.114, -0.00738, 0.0648, -0.0913, -0.145, -0.0481, 0.121, 0.177, -0.026, -0.0722, 0.0136, 0.132, 0.043, -0.0366, -0.188, -0.15, -0.0546, 0.0135, 0.00173, -0.00419, 0.0361};
float backbone__model2_dp1_dw_weight[32 * 1 * 3 * 3] = {0.573, 0.0742, -0.378, -0.0295, -0.0786, 0.295, -0.0683, -0.125, 0.0616, 0.251, -0.186, 0.0534, 0.199, 1.53, 0.053, 0.374, -1.38, 0.182, -0.303, 0.21, 0.216, -0.378, 0.401, -0.109, -0.0395, 1.11, 0.102, -0.695, -0.345, -0.0317, -0.455, -0.724, 0.74, 0.466, 0.183, -0.0598, 2.07, 0.875, 0.45, -0.429, 0.453, 0.652, 0.665, 0.821, -0.19, -0.041, 0.381, 0.405, -1.18, 0.126, -0.0838, 0.0929, -1.04, -0.372, -0.608, -0.235, 0.183, 0.761, -0.158, -0.832, -0.241, -0.478, -0.0542, 0.193, 0.587, 0.419, -0.153, -0.0909, -0.489, 0.568, -0.0621, -0.14, 0.287, 0.602, -0.0398, 0.598, 0.0484, -0.462, -0.0526, -0.457, 0.0802, 0.443, 0.143, -0.111, -0.375, 0.0103, -0.802, -0.741, 0.173, -0.381, -1.18, -0.544, 0.00395, -0.223, 0.181, 0.984, -0.212, -0.103, -0.0868, 0.249, -0.0067, -0.157, -0.175, -0.61, 0.281, -0.749, -0.382, -0.138, -0.323, 0.475, 0.194, 0.975, -0.0656, -1.23, 0.00971, 0.291, -0.267, -0.778, 0.709, -0.215, -0.34, 0.395, 0.101, -0.31, -0.0904, -0.294, -0.188, -0.487, -1.08, 0.145, 1.3, -0.633, 0.41, 0.194, -1, -0.161, 0.36, 0.735, 0.675, 0.162, 0.541, -0.214, 0.72, 0.635, 0.781, -1.28, -1.72, 1.51, 0.0554, 0.271, 0.572, 0.00929, -0.601, -0.176, -0.0903, 1.24, -0.768, -0.0795, -0.538, -1.1, -0.262, 0.482, 0.528, -0.68, -0.275, 0.881, -0.22, 1.55, 0.477, 0.211, 0.585, -0.00558, -0.282, -0.277, 0.0793, -1.22, 0.173, 0.636, 1.06, -2, -0.279, 0.849, -0.882, -0.648, -0.317, -0.342, -0.515, -0.432, -0.279, -0.0231, -0.164, 0.635, -0.299, 0.0623, -0.31, -0.0982, 0.207, -0.245, 0.236, 0.0136, -0.474, 0.00975, -0.949, 0.0432, 0.298, -0.254, 0.00221, 0.126, -0.136, 0.21, 0.0378, 0.79, -0.0466, -0.665, 0.847, -0.0333, -0.319, -0.518, -0.258, 0.157, 0.0951, -0.116, -0.0527, -0.0528, -0.269, -0.193, 0.156, -0.0568, -0.209, -0.283, -0.674, 1.13, -0.892, -0.491, -0.227, 0.16, 1.15, -0.201, 0.305, -0.241, 0.948, -0.153, -0.362, -0.503, 0.101, 0.21, 0.371, 0.0355, -0.914, -0.48, 0.035, 1.04, -0.19, -0.261, -0.108, -0.24, -0.501, 0.224, 0.119, -0.302, 0.101, -0.485, 0.251, 0.0476, -0.635, -0.166, 0.499, -0.0129, 0.575, -0.353, 0.0538, -0.363, 0.306, 0.929, 0.262, -0.658, -0.391, 0.745, -0.372, 0.0376, -0.18, -0.109, -0.0821, -0.0188, 0.151, 0.0393, -0.102, 0.735};
float backbone__model2_dp1_dw_bias[32] = {0.489, 0.568, 0.474, -0.0598, 0.736, 0.585, -0.342, -0.152, 0.539, -0.0808, 0.302, 0.144, -0.434, 0.208, 0.274, 0.125, -0.176, -0.0018, -0.0441, 0.118, -0.0118, 0.256, -0.038, -0.737, -1.54, 0.537, 0.471, 0.23, 0.365, 0.6, 0.369, 0.0246};
float backbone__model2_dp2_pw_weight[64 * 32 * 1 * 1] = {0.132, -0.127, 0.104, 0.0428, -0.0552, -0.126, 0.0982, -0.113, 0.0625, 0.000905, -0.156, 0.133, -0.0837, 0.0843, -0.0932, -0.0514, -0.0832, -0.0184, 0.0247, -0.19, -0.0681, -0.0664, -0.154, 0.0899, 0.0543, -0.115, 0.0349, 0.0299, -0.0871, -0.246, -0.041, -0.109, -0.194, -0.138, -0.0848, 0.0316, 0.107, 0.18, 0.058, -0.0482, 0.0557, -0.183, 0.118, -0.225, 0.318, 0.189, 0.0267, -0.0167, -0.0255, 0.0869, -0.0541, -0.0653, 0.187, 0.102, -0.0559, -0.169, 0.00363, 0.128, 0.0939, -0.174, -0.365, 0.0208, 0.109, -0.00131, 0.0716, 0.0691, 0.0254, 0.0155, 0.0475, -0.0168, -0.0609, 0.0611, -0.0311, -0.00307, 0.0904, 0.138, -0.00817, 0.103, -0.0932, -0.0796, 0.0895, -0.141, 0.0529, -0.0146, -0.326, -0.071, -0.0898, 0.0753, 0.0639, 0.0683, -0.0682, 0.0846, 0.245, 0.0997, -0.0868, 0.127, 0.101, -0.125, -0.0156, -0.17, 0.346, 0.0266, -0.06, -0.0749, -0.122, -0.133, 0.0243, 0.0194, 0.0341, 0.0541, -0.0283, -0.246, -0.05, -0.00309, -0.0569, -0.0541, -0.0156, -0.353, -0.101, 0.0642, 0.0164, -0.00629, 0.0707, 0.0359, 0.082, -0.331, -0.126, -0.0294, -0.184, 0.132, -0.282, -0.111, -0.0981, 0.236, -0.000866, -0.402, -0.0344, 0.167, 0.125, 0.0991, 0.0675, -0.0194, 0.0815, -0.168, -0.196, -0.0558, -0.0726, -0.298, -0.00967, -0.199, 0.0462, 0.255, 0.0151, 0.0419, -0.161, 0.0662, 0.0692, -0.139, 0.213, -0.0362, -0.048, -0.0391, -0.108, -0.0106, 0.0189, 0.0348, 0.158, -0.103, 0.0313, 0.0303, 0.0975, 0.00661, 0.0388, 0.268, -0.109, -0.141, -0.134, 0.0272, 0.0656, -0.209, -0.207, -0.0328, 0.0941, 0.136, 0.114, -0.354, 0.307, 0.0664, -0.0248, 0.106, 0.138, 0.0483, 0.136, -0.0207, -0.0545, -0.0308, -0.148, -0.0173, 0.121, -0.208, 0.161, -0.0284, -0.0175, -0.142, -0.00287, -0.205, -0.0966, 0.0378, -0.0446, 0.0404, 0.203, 0.113, 0.218, -0.175, 0.0699, -0.204, -0.0542, 0.0357, -0.0565, 0.03, -0.355, -0.0734, 0.0302, 0.0361, -0.0851, -0.117, 0.12, -0.205, -0.0563, -0.204, 0.0813, 0.0229, -0.0596, -0.0265, -0.00117, 0.353, 0.0827, -0.16, 0.0611, -0.075, 0.151, 0.0486, -0.0273, 0.000686, -0.175, 0.0977, -0.118, 0.187, -0.0686, -0.125, -0.184, 0.175, 0.0198, -0.0705, -0.151, -0.0141, -0.0368, 0.169, -0.0299, 0.111, -0.0428, -0.109, -0.357, 0.194, 0.000892, -0.086, 0.119, -0.0687, 0.0382, -0.0772, 0.127, 0.131, -0.106, -0.0564, 0.079, 0.0583, -0.144, -0.0898, -0.164, -0.0657, 0.0577, 0.278, 0.0441, -0.0576, 0.0525, 0.136, -0.0486, 0.0409, -0.127, 0.0541, 0.28, 0.167, -0.0103, -0.242, -0.156, 0.231, -0.0811, -0.0231, 0.106, 0.0157, 0.0579, -0.0404, -0.0226, 0.159, -0.0227, 0.0171, -0.0679, 0.0397, 0.0281, -0.0856, 0.209, -0.0816, 0.00664, 0.0555, 0.158, -0.182, -0.146, 0.148, -0.0971, -0.052, 0.141, -0.195, -0.186, 0.00461, 0.095, 0.343, -0.0199, -0.332, 0.049, 0.0338, 0.138, 0.0627, 0.0491, -0.0272, 0.0283, 0.0648, -0.176, 0.207, 0.403, -0.104, -0.0123, -0.000616, 0.211, 0.0301, 0.109, 0.137, -0.163, -0.145, 0.0872, -0.0385, 0.127, 0.359, -0.0146, -0.164, 0.0641, 0.108, 0.0444, -0.0394, -0.219, 0.13, 0.169, 0.241, 0.143, -0.0167, -0.0225, 0.0656, 0.235, -0.104, 0.227, -0.206, -0.181, -0.08, -0.0212, 0.229, 0.118, -0.0715, 0.124, 0.0259, 0.0428, -0.0201, -0.137, -0.0787, 0.15, -0.153, 0.252, 0.0587, 0.0897, -0.0257, -0.127, -0.083, 0.186, -0.199, 0.279, 0.0442, -0.0908, -0.0723, 0.0189, 0.018, -0.0159, -0.131, -0.142, -0.00648, -0.178, 0.0393, -0.00687, 0.0567, -0.0194, 0.0481, -0.00402, 0.0191, 0.0736, 0.191, 0.144, -0.0876, 0.0946, -0.293, 0.0629, 0.0364, 0.139, -0.0343, -0.238, -0.0266, -0.0255, 0.129, 0.162, -0.0446, -0.158, 0.0116, 0.01, -0.0855, -0.0137, -0.162, -0.0636, -0.00163, 0.145, 0.195, -0.00499, -0.0478, -0.0374, -0.103, 0.0215, -0.0632, 0.0384, -0.0289, 0.176, -0.165, 0.0722, -0.0515, -0.154, 0.215, -0.181, -0.0551, -0.101, 0.00134, 0.289, -0.0506, 0.191, 0.0248, 0.0207, -0.0857, 0.0871, -0.0363, -0.111, -0.0273, -0.206, 0.247, 0.0013, 0.216, 0.0793, 0.0915, 0.0834, -0.0928, -0.0929, 0.0232, 0.0694, -0.159, -0.029, -0.19, -0.193, 0.0355, 0.13, 0.122, -0.0724, 0.131, 0.0954, -0.0327, 0.0227, 0.0475, -0.0709, 0.0555, -0.104, -0.0109, 0.213, -0.0158, -0.0612, -0.145, -0.00122, 0.101, -0.117, -0.0444, 0.0648, 0.0855, -4.11e-05, -0.225, -0.0828, -0.0137, 0.122, -0.0617, -0.23, 0.133, 0.0607, -0.117, -0.224, 0.0454, 0.0184, -0.0655, -0.136, 0.19, 0.0223, 0.0325, 0.0606, 0.198, 0.0932, -0.148, 0.0799, -0.115, -0.106, 0.00584, -0.025, 0.134, -0.0108, 0.204, -0.0378, -0.1, -0.0768, -0.0798, -0.0228, 0.0247, -0.0736, -0.0497, 0.106, 0.0208, -0.0352, -0.00485, 0.0891, 0.0943, 0.218, -0.141, -0.00114, -0.172, 0.218, -0.132, 0.143, -0.104, 0.0235, 0.0962, -0.22, 0.0137, -0.0314, 0.261, 0.144, -0.0363, -0.158, 0.0885, 0.0439, -0.201, -0.0133, -0.0304, 0.0684, -0.000579, -0.322, 0.0144, -0.0868, -0.0704, -0.148, -0.0859, -0.0534, 0.277, 0.00445, -0.0683, -0.00709, 0.0104, -0.0736, -0.151, 0.0441, -0.137, -0.0129, -0.137, -0.113, 0.138, -9.8e-05, 0.148, -0.113, -0.303, 0.128, -0.115, 0.0877, 0.107, -0.0827, 0.0897, -0.065, -0.324, 0.0183, 0.134, 0.254, -0.139, 0.0854, 0.117, -0.016, -0.201, 0.0405, 0.176, -0.112, 0.214, 0.000246, -0.0594, -0.315, -0.0331, 0.102, -0.114, 0.0185, 0.159, 0.0609, -0.0713, 0.00277, -0.303, 0.0335, -0.127, 0.116, -0.198, -0.303, 0.0117, 0.0533, 0.201, 0.0185, 0.0911, 0.00372, 0.191, 0.0733, 0.0201, 0.157, 0.0596, 0.0588, -0.107, -0.202, 0.0203, 0.0727, -0.0197, 0.127, 0.0424, -0.0817, 0.0417, -0.162, -0.0345, -0.0343, 0.0255, 0.0601, 0.0133, 0.0501, -0.153, -0.0926, 0.00477, -0.0651, -0.213, -0.0829, -0.0309, 0.0129, -0.0421, -0.148, -0.191, -0.0244, -0.0637, 0.0109, -0.0742, 0.0381, 0.0677, -0.118, -0.0855, -0.0107, -0.00351, 0.0677, -0.00731, -0.017, -0.155, -0.174, -0.0183, -0.0679, -0.0226, -0.0844, 0.0393, 0.0725, 0.0435, 0.188, -0.00783, 0.0616, 0.254, 0.127, 0.0713, -0.0681, 0.0354, -0.317, -0.0139, 0.000487, 0.0706, 0.179, 0.0278, -0.0957, -0.0443, -0.0537, -0.143, 0.00931, -0.104, -0.109, -0.033, 0.000835, 0.0661, 0.0812, -0.0726, 0.0888, -0.000246, 0.0129, -0.0228, -0.186, 0.122, -0.0285, 0.00776, 0.0502, 0.0463, 0.108, -0.0447, 0.0399, -0.0362, -0.0779, -0.0887, 0.0443, 0.0851, 0.11, 0.0578, -0.148, 0.0838, -0.136, -0.0433, 0.0167, -0.186, -0.00579, 0.102, 0.0907, 0.0742, 0.205, 0.204, -0.156, -0.0503, -0.06, 0.0303, -0.161, -0.234, -0.0404, 0.0566, -0.00166, -0.15, 0.124, 0.224, 0.224, 0.125, -0.179, -0.179, -0.0728, 0.0782, 0.151, -0.139, 0.232, 0.141, -0.0106, -0.119, -0.0966, -0.138, 0.00336, 0.258, -0.0883, -0.0582, 0.126, -0.0231, 0.214, 0.0904, 0.0447, 0.0519, -0.188, -0.0306, -0.117, 0.0523, -0.0238, -0.18, 0.0664, -0.161, 0.0247, -0.0137, 0.0923, 0.136, -0.107, -0.139, 0.11, 0.00142, -0.113, -0.0616, 0.216, 0.00891, 0.257, -0.244, -0.091, -0.314, -0.177, -0.12, -0.105, -0.0821, -0.262, -0.0755, -0.186, 0.0358, -0.0542, 0.00464, 0.134, 0.0301, 0.116, -0.086, -0.159, -0.193, 0.026, -0.0295, 0.208, -0.0678, -0.177, -0.123, 0.353, -0.224, -0.107, 0.167, -0.0402, -0.0808, 0.0602, 0.07, -0.0332, 0.0174, 0.0235, 0.0744, -0.0528, 0.11, 0.307, 0.0959, -0.183, -0.0619, 0.187, 0.134, -0.0892, -0.025, 0.191, -0.153, 0.177, 0.117, 0.31, -0.114, -0.0389, -0.0517, 0.124, -0.0784, 0.0376, 0.153, -0.131, -0.05, -0.00914, 0.0932, -0.22, 0.03, -0.0918, -0.115, 0.0797, -0.137, -0.0499, 0.0648, 0.00701, 0.0828, 0.00521, -0.0446, 0.0513, 0.0498, 0.039, -0.0613, -0.00105, -0.0418, -0.113, 0.151, -0.00476, -0.228, -0.125, 0.167, 0.0729, 0.0082, 0.0153, -0.197, -0.0533, 0.0474, -0.0869, 0.0768, -0.0915, -0.0711, 0.0333, 0.0113, 0.145, 0.373, -0.0413, 0.0259, -0.138, -0.161, -0.21, 0.0769, -0.0922, -0.0416, -0.048, -0.157, -0.122, 0.037, -0.0173, -0.117, -0.084, 0.293, 0.0163, 0.331, -0.028, -0.0439, 0.00331, -0.0266, -0.0248, 0.00581, -0.0448, 0.235, -0.079, 0.0152, -0.18, -0.117, -0.0141, -0.192, -0.0151, 0.0907, 0.09, 0.217, -0.0867, 0.086, 0.163, 0.106, 0.0624, 0.0377, 0.0604, 0.0848, 0.0133, 0.0297, 0.187, -0.093, -0.0496, 0.129, -0.0097, 0.0638, -0.0813, 0.205, -0.0841, 0.124, 0.00571, -0.0275, 0.00184, -0.0991, -0.00932, 0.0148, 0.0886, -0.023, 0.00641, -0.0672, -0.13, -0.0319, -0.0704, -0.0791, -0.0616, -0.146, -0.3, -0.0967, -0.195, 0.151, 0.166, -0.0279, 0.0783, 0.0116, 0.129, 0.133, -0.0793, -0.068, -0.06, 0.0789, 0.0228, -0.067, 0.00852, -0.0448, -0.0719, -0.186, 0.0621, -0.0238, 0.0814, 0.152, 0.0221, -0.00287, -0.213, 0.0472, 0.0371, -0.0399, 0.126, -0.0269, 0.0452, 0.172, -0.139, -0.0867, -0.0281, 0.0726, -0.0658, 0.072, -0.26, 0.062, -0.00948, 0.0537, 0.159, -0.0379, 0.195, 0.105, -0.124, 0.158, -0.128, 0.0717, 0.112, 0.192, 0.0939, 0.00876, 0.239, -0.0398, 0.217, 0.153, -0.0365, -0.202, 0.154, 0.164, -0.245, -0.0526, 0.0159, -0.1, 0.196, 0.146, 0.0581, -0.0798, -0.142, -0.11, 0.133, 0.0243, 0.195, 0.0148, -0.0358, 0.145, 0.23, -0.0415, -0.11, 0.258, 0.137, 0.12, 0.0154, -0.0912, 0.00137, -0.001, 0.0612, -0.0109, 0.0968, 0.154, 0.0597, 0.136, -0.2, 0.145, 0.115, -0.0231, 0.131, -0.166, -0.0933, 0.0843, -0.0174, -0.141, 0.0218, 0.222, -0.172, -0.0938, 0.075, 0.0678, 0.25, 0.134, 0.0101, -0.0518, 0.0342, -0.17, 0.0126, -0.0987, 0.261, 0.301, 0.0575, -0.0657, 0.0901, 0.026, -0.0384, -0.126, -0.0223, 0.142, -0.109, -0.00987, 0.0689, 0.0763, 0.0135, 0.104, -0.155, 0.0728, -0.102, 0.0566, -0.0687, 0.396, -0.0768, 0.0504, 0.14, -0.0478, -0.0475, 0.173, 0.0533, -0.055, -0.0176, 0.0301, 0.0981, -0.135, -0.0517, 0.049, 0.0786, 0.0615, 0.489, 0.266, 0.0113, 0.0374, 0.116, -0.0183, 0.0928, 0.237, -0.0105, -0.0721, -0.00517, -0.0512, 0.0138, 0.259, -0.21, -0.0224, -0.05, 0.0114, -0.19, -0.0359, -0.094, -0.065, -0.146, 0.155, -0.0428, 0.00968, 0.139, -0.222, 0.105, -0.0559, -0.0656, -0.0999, 0.0471, -0.0756, -0.181, 0.167, 0.0885, -0.105, 0.0334, 0.0785, 0.0482, 0.102, -0.16, 0.135, 0.17, 0.116, -0.233, 0.0884, 0.00745, 0.233, 0.0947, -0.157, 0.065, -0.0399, 0.215, 0.0488, -0.0308, 0.154, -0.223, 0.208, -0.0609, 0.051, -0.216, -0.264, -0.0785, 0.035, -0.202, 0.0417, 0.257, -0.00629, 0.109, 0.121, -0.0476, -0.109, 0.0545, -0.0328, 0.118, -0.0993, -0.0776, -0.359, 0.166, -0.106, -0.174, -0.13, 0.0446, -0.102, 0.0165, 0.0834, -0.166, 0.138, 0.0986, -0.104, 0.202, -0.288, -0.0538, -0.0548, -0.172, -0.144, -0.0774, -0.0539, -0.0105, -0.208, 0.0729, 0.279, -0.00609, 0.0827, -0.0317, -0.0621, 0.14, -0.293, -0.00616, 0.1, 0.277, -0.428, -0.0711, 0.0903, 0.348, 0.0322, 0.0747, -0.119, 0.0362, 0.295, 0.17, 0.0528, -0.0129, -0.0204, 0.0149, -0.133, 0.0388, -0.00999, -0.174, 0.0874, 0.0894, 0.0326, -0.0877, -0.0704, -0.138, 0.306, -0.00147, -0.196, 0.0637, -0.0746, -0.155, -0.00126, -0.155, -0.144, 0.0618, 0.041, 0.248, -0.13, -0.232, -0.0599, -0.134, 0.118, 0.00792, -0.106, -0.172, 0.00104, -0.0143, 0.102, -0.0275, -0.0533, -0.0449, 0.0745, -0.123, 0.105, -0.0315, -0.0286, -0.0932, 0.184, 0.0192, -0.316, -0.204, -0.0488, -0.0679, -0.0494, 0.0444, -0.131, 0.219, 0.00234, 0.0244, -0.0436, -0.101, -0.278, 0.178, 0.0326, 0.116, 0.0375, 0.0259, 0.0416, -0.00384, -0.0411, -0.0964, -0.00765, 0.0727, -0.0608, 0.174, 0.132, -0.0211, 0.066, -0.331, 0.0391, 0.0533, -0.0878, -0.251, 0.0543, 0.0935, 0.00601, 0.000456, 0.0692, -0.0757, 0.0489, 0.374, -0.0477, 0.123, -0.0254, -0.0264, 0.282, -0.0344, -0.0457, -0.223, -0.0923, -0.157, 0.1, 0.0338, 0.0435, 0.11, 0.236, 0.228, 0.0295, 0.0567, 0.0623, -0.0329, 0.0636, -0.227, -0.0292, -0.00147, -0.0138, 0.125, -0.0356, 0.0545, 0.0224, -0.137, 0.0267, 0.0214, -0.0113, 0.0587, 0.194, 0.0562, 0.109, 0.205, -0.0119, 0.238, 0.164, -0.0778, -0.234, 0.124, 0.172, -0.176, 0.0203, -0.0431, -0.197, 0.0834, 0.149, 0.115, -0.0439, -0.212, -0.074, 0.163, -0.0341, 0.0886, -0.158, 0.188, 0.0113, 0.0686, -0.0221, 0.0455, -0.0162, 0.00745, -0.0396, -0.189, -0.105, -0.114, -0.0449, -0.0254, -0.0807, 0.0819, -0.0415, -0.0544, 0.104, -0.0548, 0.186, -0.154, -0.167, 0.0107, 0.19, 0.0475, -0.0191, 0.0397, 0.313, -0.186, -0.0866, 0.1, -0.123, -0.153, 0.0582, -0.108, 0.162, 0.0521, -0.0651, -0.044, 0.173, 0.313, 0.00689, 0.143, 0.105, 0.134, -0.168, -0.126, 0.247, -0.000658, 0.00577, -0.0764, -0.216, -0.18, 0.146, 0.0526, 0.0248, 0.129, -0.154, 0.00592, -0.0124, 0.0812, 0.0201, 0.0392, -0.0685, 0.0938, -0.0154, -0.158, 0.223, -0.0835, 0.0975, 0.0922, -0.0123, 0.00731, -0.0535, -0.157, -0.136, -0.206, -0.174, 0.0726, 0.128, -0.0145, 0.0245, 0.202, -0.073, 0.237, 0.0936, -0.123, -0.232, -0.0314, -0.0389, 0.228, -0.165, -0.0342, -0.0904, 0.0456, -0.115, -0.122, 0.371, -0.0565, 0.0639, -0.181, -0.0123, -0.145, -0.0229, 0.0301, -0.264, 0.19, 0.0255, -0.104, -0.0707, -0.0289, 0.0152, -0.027, -0.0892, 0.0705, 0.000934, 0.0513, -0.0982, 0.0986, 0.00541, 0.128, -0.103, -0.162, 0.0805, -0.018, -0.0654, -0.0947, -0.0835, -0.0974, 0.0228, 0.0473, 0.314, -0.0989, -0.0453, 0.0765, 0.0626, 0.152, 0.0305, -0.0253, 0.133, -0.0206, -0.00702, -0.0165, 0.0788, 0.00986, 0.0695, 0.0775, 0.0447, -0.0266, -0.103, 0.0485, 0.00481, 0.0524, -0.0123, 0.0694, -0.0301, 0.16, -0.151, 0.0525, 0.0968, -0.0629, 0.199, -0.169, 0.00295, -0.0463, 0.166, 0.0202, 0.0952, 0.0207, 0.169, -0.122, -0.033, 0.0582, -0.0339, 0.0111, 0.0535, 0.0114, -0.0437, 0.0361, -0.0986, 0.0633, -0.0377, 0.155, 0.0821, -0.0788, -0.187, -0.134, -0.106, 0.108, 0.0459, -0.00187, 0.0471, 0.0438, 0.00518, -0.097, -0.199, 0.317, -0.0433, 0.081, -0.115, -0.0508, 0.252, 0.167, -0.00615, -0.132, 0.174, 0.206, 0.0454, -0.094, 0.122, -0.17, -0.0762, 0.0265, -0.0315, 0.0538, -0.0319, -0.209, 0.191, 0.0149, -0.0251, 0.0618, -0.162, -0.0858, 0.354, -0.191, -0.0537, 0.0486, -0.12, 0.123, -0.0398, 0.144, -0.0276, 0.101, -0.0634, -0.179, 0.00674, -0.102, -0.0172, -0.0319, -0.0495, 0.0217, 0.00361, -0.0194, -0.0574, 0.0358, 0.0998, 0.0445, -0.031, 0.0792, -0.017, -0.0391, 0.173, -0.173, -0.0878, 0.0138, -0.12, -0.214, -0.0697, -0.168, 0.0478, 0.0693, -0.0428, -0.0111, 0.107, 0.178, -0.0692, -0.00733, 0.0472, 0.159, -0.0508, -0.097, 0.0836, 0.0812, 0.0102, -0.0913, -0.0762, 0.101, 0.176, -0.0158, 0.0235, -0.088, 0.00973, -0.0213, -0.0584, 0.275, 0.162, -0.0683, 0.17, -0.0246, 0.0983, 0.135, 0.0607, -0.0674, -0.0235, -0.0478, -0.0273, -0.116, 0.114, 0.164, -0.0671, 0.0154, -0.013, 0.246, -0.131, -0.253, -0.0682, -0.18, 0.0743, 0.0661, -0.502, 0.00675, -0.0203, 0.0688, -0.00215, 0.168, 0.0846, -0.0227, -0.291, -0.158, 0.0672, -0.0276, 0.034, -0.129, 0.213, -0.111, -0.156, 0.0574, 0.0837, -0.0226, -0.108, 0.233, 0.031, 0.0365, 0.132, -0.0352, -0.0205, 0.197, -0.0164, -0.11, 0.156, 0.0858, -0.119, 0.0378, -0.0122, 0.222, -0.00153, -0.126, 0.168, 0.115, 0.164, -0.0958, 0.395, 0.0982, -0.0923, 0.0395, 0.0169, -0.0224, -0.0601, -0.0849, -0.00582, -0.0483, -0.00429, -0.0217, 0.0999, -0.11, 0.241, -0.0467, -0.153, 0.165, 0.0604, -0.097, 0.0148, 0.0377, 0.0453, 0.369, 0.138, 0.169, -0.0457, -0.0341, 0.221, 0.0469, 0.0597, -0.0199, 0.247, 0.105, 0.299, -0.0607, -0.182, -0.074, 0.0244, 0.0431, -0.0547, -0.258, 0.0182, 0.118, 0.0731, 0.0907, -0.064, 0.133, -0.0853, 0.107, 0.0785, 0.101, 0.147, -0.0857, -0.0924, 0.195, -0.00128, 0.214, -0.0227, -0.015, -0.094, -0.18, 0.163, -0.0355, -0.127, -0.0256, 0.0542, -0.0379, -0.192, 0.00124, -0.142, -0.197, 0.0757, -0.0727, 0.0302, 0.000545, -0.38, 0.0101, 0.00785, 0.0796, -0.0709, -0.0167, -0.0639, -0.0789, 0.215, 0.221, 0.0136, 0.0446, -0.159, -0.00298, -0.182, -0.171, 0.285, 0.187, -0.139, -0.0322, 0.149, -0.0233, 0.0854, -0.0186, -0.073, 0.0575, -0.108, 0.0274, 0.00488, 0.375, -0.174, -0.159, 0.19, 0.0451, -0.0449, -0.103, -0.0332, 0.162, -0.0491, -0.00222, -0.0794, 0.222, -0.241, -0.0271, 0.367, -0.0251, 0.0553, 0.0919, 0.0829, 0.181, 0.202, -0.296, 0.0872, 0.0113, 0.249, -0.0187, 0.0781, 0.381, -0.139, -0.0725, 0.0971, -0.093, 0.0168, -0.122, -0.0409, 0.0426, -0.105, -0.0216, -0.00581, -0.257, -0.257, 0.187, -0.138, 0.0424, 0.00589, 0.177, 0.0145, 0.0128, 0.0947, 0.0958, 0.00427, -0.0544, -0.0588, -0.154, -0.19, -0.0413, -0.0547, -0.0629, -0.0768, -0.0494, 0.12, 0.0207, 0.261, 0.048, -0.0241, 0.0589, 0.00395, 0.0581, -0.102, 0.142, 0.0816, 0.201, -0.0018, -0.275, 0.069, -0.0554, 0.131, -0.0991, 0.16, -0.144, -0.0177, 0.343, 0.000882, -0.188, 0.21, -0.137, -0.0566, 0.0559, -0.0107, -0.156, -0.197, 0.0685, 0.143, -0.0388, -0.107, -0.0172, 0.0475, 0.0786, 0.162, 0.0902, 0.0332, -0.113, -0.0914, -0.04, -0.103, 0.0418, -0.0791, -0.0332, 0.362, -0.119, 0.0325, -0.213, 0.0347, -0.349, -0.0987, 0.0267, -0.00203, -2.08e-05, -0.11, 0.189, 0.215, -0.0173, 0.111, -0.111, 0.0296, -0.103, 0.0661, -0.0761, -0.246, -0.0448, 0.073, -0.165, 0.0405, 0.0994, -0.0729, -0.0231, -0.0288, -0.236, -0.306, -0.102, 0.164, 0.177, 0.0506, 0.0384, -0.049, 0.187, -0.0454, 0.0162, -0.0751, -0.227, 0.109, -0.0264, -0.0792, -0.029, 0.0268, -0.0873, 0.0272, -0.0127, -0.0994, 0.103, -0.0603, 0.104, 0.123, -0.0258, 0.0551, -0.158, 0.0384, 0.303, 0.069, -0.123, -0.0634, 0.2, 0.0657, 0.171, 0.0634, -0.00468, 0.0627, -0.0859, 0.241, 0.084, 0.233};
float backbone__model2_dp2_pw_bias[64] = {0.217, 0.0817, -0.0332, 0.028, 0.0791, -0.0234, -0.0149, -0.0791, -0.115, 0.0661, -0.0112, 0.0528, -0.0149, -0.0034, 0.0364, -0.0214, -0.0176, -0.0806, 0.0942, 0.00853, 0.00797, -0.101, 0.00112, 0.0201, 0.0547, 0.14, -0.139, -0.0232, 0.0161, -0.214, 0.051, -0.14, 0.034, 0.0134, 0.0319, -0.158, 0.0264, -0.104, 0.000625, -0.0661, 0.0559, -0.126, 0.0499, 0.0407, -0.0374, -0.014, -0.0836, -0.213, 0.0469, 0.0439, 0.139, 0.0202, -0.0157, 0.0017, -0.0381, 0.028, -0.0644, 0.0324, -0.131, -0.0474, 0.102, -0.0658, -0.0249, -0.146};
float backbone__model2_dp2_dw_weight[64 * 1 * 3 * 3] = {-0.549, -0.343, 0.601, 0.679, 0.305, -0.0271, 0.106, 0.329, -0.0826, 0.649, -0.182, -0.195, 0.0922, -0.0489, 0.113, -0.413, 0.449, -0.0254, 0.302, -0.333, -0.268, 0.612, -0.0924, -0.245, 0.519, 0.358, -0.773, 0.0282, -0.385, -0.871, -0.496, 0.00401, -1.02, 0.259, 0.692, -0.321, -1.82, -0.301, -0.0552, 0.0417, -0.00546, 0.0613, 0.148, 0.103, 0.722, -0.263, 0.911, 0.468, -0.0821, 0.442, -0.461, 0.574, -0.257, 0.569, 0.479, 0.182, -0.308, -0.318, -0.523, 0.326, -0.425, 0.403, -0.0869, -0.394, 0.102, -0.12, 0.586, 0.497, 0.407, -0.578, -0.197, -0.398, -0.269, 0.184, -0.279, -0.117, -0.111, 0.72, -0.301, 0.318, -0.632, 0.101, 0.384, -0.422, 0.663, 0.181, 0.643, -0.199, -0.0334, -0.113, -0.914, 0.843, -0.411, -0.226, -0.644, 0.16, -1.18, 0.372, 0.21, -0.583, -0.341, -0.328, -0.0125, 0.19, 0.621, 0.381, 0.385, 0.425, 0.521, -0.0212, 0.608, 0.604, -0.569, -0.379, 0.143, 0.274, 0.797, 0.524, 0.0485, 0.172, 0.156, -0.317, -0.393, 0.337, -0.419, 0.593, 0.114, -0.371, 0.581, -0.0871, 0.49, -0.321, 0.302, -0.189, -0.274, -0.194, -0.225, -0.719, -0.224, -0.193, 0.194, -0.781, 0.167, 0.67, 0.177, 0.0868, 0.0968, -0.395, -0.508, -0.587, -0.495, -0.161, -0.661, -0.125, -1.03, -0.619, -0.335, 0.475, -0.738, 0.642, 0.196, 0.0969, -0.721, -0.415, -0.0751, -0.182, 0.116, 0.214, 0.136, 0.637, -0.163, 0.481, 0.496, -0.69, -0.121, 0.0948, -0.402, -0.423, 0.296, 0.488, 0.939, 0.214, -0.228, 0.101, 0.611, -0.203, -0.316, 0.0153, -0.367, 0.314, 0.0388, 0.64, -0.454, -0.199, 0.123, 0.125, 0.112, -0.464, -0.168, 1.24, 0.129, 0.33, -0.191, -0.0629, 0.127, -0.062, 0.328, -0.828, -0.603, 0.108, 0.366, -0.425, -0.545, 0.379, -0.573, -0.046, 0.0581, 1.17, 0.0205, -0.399, -0.213, -0.709, 0.0966, 0.656, -0.0774, 0.375, 0.509, -0.356, 0.195, -0.269, 0.266, 0.148, -0.119, -0.101, 0.555, -0.436, 0.951, -0.323, 1.38, 0.356, 0.392, 0.756, -0.566, 0.0873, -0.696, 0.241, -0.449, 0.179, -0.445, -0.0891, -0.526, 0.286, -0.176, 0.316, -0.204, -0.0515, 0.274, -0.603, -0.296, 0.956, 0.342, -0.33, -0.358, 0.0763, -0.258, -0.554, -0.413, -0.111, 0.393, -0.234, 0.504, -0.141, -0.868, 0.846, 0.466, -0.637, 1.05, 0.0734, -1.37, -0.377, -0.148, 0.215, 0.0941, 0.686, -0.22, -0.0539, 0.195, 0.509, 0.188, 0.366, -0.185, -0.416, -0.144, -0.407, 0.32, 0.299, 1.31, 0.218, 0.31, -1.5, 0.015, -0.633, -0.142, -0.168, -0.338, -0.674, -0.333, -0.0785, -0.651, 0.345, -0.782, 0.225, -0.765, -0.584, -0.0562, 0.394, -0.266, 0.177, -0.22, -0.24, 0.612, 0.0403, 0.00233, 0.266, 0.361, 0.174, -0.115, -0.697, -0.373, -0.484, -0.234, -0.0277, 0.452, 0.964, 0.643, 0.333, 0.276, 0.471, -0.157, -0.692, -0.385, -0.656, 1.7, -0.302, -0.913, 0.0413, 0.0253, -0.839, -0.134, 0.501, -0.0949, 0.2, 0.0712, 0.221, -1.53, -0.254, -0.118, -0.178, 0.39, 0.375, 0.161, 0.199, -0.476, -1.3, -0.424, -0.336, -0.381, 0.241, -0.558, -0.53, 0.375, 0.474, 0.269, 0.287, -1.26, 0.175, -0.194, -0.402, 0.00807, 0.282, -0.201, 0.102, 0.204, 0.242, -0.495, -0.16, -0.727, -0.761, 0.0272, -0.54, -0.356, 0.162, 0.236, -0.24, -0.311, -0.45, 0.216, -0.0409, 0.462, -0.559, -0.665, -0.308, 0.694, -0.0695, 0.147, 0.514, 0.653, -0.276, -0.134, 0.304, 0.0429, 0.239, -0.144, -0.678, 0.372, -0.737, -0.1, 0.201, 0.174, -0.103, 0.024, -0.18, 0.259, 0.0687, -0.334, 0.0031, -0.281, 0.0471, -0.188, -0.284, 0.489, -0.753, 0.838, 0.467, -0.0839, -0.571, -0.322, 0.182, 0.247, 0.00245, -0.0213, -0.539, -0.384, 0.251, -0.147, -0.0344, -0.352, -0.845, 0.236, -0.279, -0.431, 0.00194, 0.0552, 0.138, -0.429, 0.247, -0.508, -0.309, -0.346, -0.631, 0.747, 0.0543, 0.717, -0.714, 0.657, 0.177, 0.0892, -0.272, 1.32, -0.0267, 0.668, -0.442, -0.295, 0.0632, 0.209, 0.609, -0.172, 0.256, 0.496, -0.855, -0.17, 0.138, 0.104, -0.0575, -0.302, -0.183, 0.268, 0.35, -0.283, 0.412, -0.917, 0.0116, -0.518, -0.436, -0.303, -1.27, 0.478, -0.791, -0.752, -0.867, -0.75, 0.0747, 0.452, 0.281, 0.0767, -0.159, -0.0449, 0.321, -0.221, 0.248, -1.06, -0.738, 0.538, -0.133, -0.288, 0.441, 0.362, 0.141, -0.27, -0.373, -0.82, -0.024, -0.106, -0.359, 0.483, 1.45, 0.312, 0.347, 0.555, 0.255, -0.141, -0.483, -0.254, -0.646, -1.05, -0.303, -0.3, 0.0485, -0.0188, -0.141, -0.149, 0.664, 0.531, -0.3, 0.0154, 0.139, -0.512, 0.137, -0.0779, -0.135, 0.338, 0.281, -0.2, 0.48, -0.354, 0.299, -0.0919, -0.182, -0.454, 0.129, -0.415, -0.204, -0.482, -0.264, -0.192, 0.214, -0.155, 0.2, -0.966, -0.323, -0.0215, 0.423, -0.143, 0.178, -0.294, -0.0441};
float backbone__model2_dp2_dw_bias[64] = {-0.0572, 0.124, -0.0891, 0.472, 0.295, -0.0776, -0.442, -0.0607, -0.0929, 0.12, 0.497, 0.321, -0.707, -0.186, -0.593, -0.141, -0.147, 0.136, -0.131, -0.611, 0.11, -0.156, -0.0645, 0.105, -0.0498, 0.147, -0.15, -0.0343, -0.149, -0.141, 0.0605, 0.00992, 0.41, -0.534, -0.277, 0.829, -0.711, 0.118, 0.579, -0.228, 0.366, 0.4, 0.00502, 0.0483, -0.347, 0.0212, 0.00614, -0.358, -0.0604, -0.0324, 0.19, -0.0743, -0.33, -0.118, -0.0351, -0.523, 0.187, -1.12, 0.624, -0.0207, 0.302, 0.532, -0.396, 0.0455};
float backbone__model3_dp1_pw_weight[64 * 64 * 1 * 1] = {0.0836, 0.0325, 0.0804, 0.071, 0.0368, -0.07, -0.137, -0.118, -0.114, 0.037, 0.0359, -0.0489, -0.00652, 0.00635, 0.0172, -0.101, -0.0014, 0.0409, 0.119, 0.0777, -0.0879, 0.0116, 0.00303, -0.101, -0.0231, -0.0301, 0.189, -0.00755, 0.336, 0.0604, 0.0999, 0.0947, 0.121, 0.172, -0.0226, 0.0446, 0.0883, 0.0332, -0.0398, 0.103, -0.045, 0.00988, 0.101, 0.0325, -0.0819, -0.00411, 0.00965, -0.311, 0.083, 0.00534, 0.173, -0.0566, 0.0059, -0.0909, 0.0141, -0.0367, 0.00214, 0.0868, -0.0663, -0.0148, -0.193, -0.235, -0.138, 0.0662, -0.0894, -0.00932, 0.0481, 0.0833, 0.236, -0.235, -0.192, 0.0367, -0.0733, -0.0955, -0.04, 0.0973, -0.0524, 0.003, 0.0654, 0.183, 0.0399, 0.0118, 0.131, -0.0197, -0.0315, 0.0222, 0.0261, -0.0391, 0.127, -0.0956, 0.1, -0.159, 0.00838, 0.0189, 0.0557, 0.037, -0.0431, -0.011, 0.138, -0.0646, -0.0814, 0.0908, -0.00707, 0.0443, 0.0179, 0.105, -0.154, 0.0657, -0.0282, -0.127, -0.1, -0.0418, -0.0417, -0.204, 0.153, 0.0243, -0.00259, -0.129, 0.0441, 0.0469, -0.104, 0.0215, -0.0249, -0.098, -0.0541, 0.203, 0.0517, 0.22, -0.0422, 0.0309, -0.00882, -0.0291, -0.0925, -0.0123, 0.134, -0.0292, -0.128, -0.0423, -0.0656, -0.283, -0.0983, 0.0317, -0.356, -0.0252, -0.0058, -0.121, 0.182, -0.158, 0.0205, 0.0373, 0.0459, 0.208, -0.0868, -0.179, 0.0414, 0.0558, -0.0344, -0.0555, -0.0666, 0.135, -0.13, 0.117, 0.0853, 0.0167, -0.106, 0.0967, -0.128, -0.137, -0.0283, 0.00711, -0.021, 0.0431, 0.0683, -0.234, 0.0045, -0.0752, -0.12, 0.0706, -0.0453, -0.0782, 0.0648, -0.0502, -0.0273, -0.144, 0.108, -0.123, -0.156, 0.188, -0.0545, -0.0279, -0.151, -0.225, -0.00159, 0.0601, 0.0191, 0.103, 0.0644, -0.109, -0.141, -0.022, -0.0078, -0.199, 0.156, -0.0793, 0.0332, -0.0705, 0.14, 0.072, 0.0855, 0.278, 0.0911, 0.00939, 0.022, -0.104, -0.0566, 0.016, -0.158, 0.154, 0.105, -0.00663, 0.12, -0.0588, 0.0633, -0.0259, 0.373, -0.0765, 0.0728, -0.0597, 0.204, 0.0234, 0.0553, 0.0349, 0.0327, 0.0284, 0.107, 0.0833, -0.125, -0.0546, 0.0114, 0.14, 0.0146, -0.021, -0.0545, -0.0955, -0.118, 0.0572, 0.168, 0.132, 0.115, -0.0879, -0.0941, 0.0444, -0.0565, 0.0488, 0.108, -0.036, -0.0427, 0.118, -0.013, -0.00939, 0.0405, 0.000532, 0.0571, 0.0632, 0.0596, 0.0456, -0.0257, 0.0542, -0.0724, 0.0108, -0.212, -0.0463, -0.0228, -0.0334, -0.086, -0.123, 0.0448, -0.0805, 0.0255, -0.0862, 0.0296, 0.115, 0.138, -0.00456, -0.101, -0.0586, 0.083, 0.0998, -0.0901, 0.0745, 0.087, -0.151, -0.0274, 0.187, 0.134, -0.0965, -0.00252, -0.0622, -0.101, 0.288, 0.0305, -0.178, 0.169, 0.042, -0.0306, 0.153, -0.141, -0.0932, 0.0965, 0.124, 0.142, 0.000841, 0.0116, -0.0833, 0.116, -0.0408, 0.163, 0.051, 0.0462, 0.118, 0.101, -0.0406, -0.134, -0.0207, 0.102, 0.0559, -0.0248, 0.0366, 0.0151, -0.0884, -0.14, 0.0845, -0.00322, -0.0257, -0.127, 0.0996, -0.00351, 0.00906, -0.0173, 0.0781, 0.143, 0.0476, -0.0388, 0.108, 0.0638, 0.0377, -0.0315, 0.0995, 0.0175, 0.0108, -0.114, -0.0828, -0.0611, 0.167, -0.0016, -0.0364, 0.0283, 0.0149, 0.00713, -0.0873, 0.0303, 0.126, 0.0119, -0.0546, -0.0141, 0.0817, 0.0076, 0.0396, 0.0413, -0.0608, 0.11, -0.0301, 0.00716, 0.00397, -0.058, 0.398, -0.0271, -0.113, -0.0695, -0.0371, 0.0126, -0.0973, 0.0536, -0.0543, 0.0461, -0.0573, 0.0653, 0.041, -0.1, -0.00909, -0.105, -0.024, -0.00255, -0.201, -0.134, 0.162, 0.116, -0.169, 0.0909, 0.0454, -0.0703, -0.0406, -0.0633, 0.00924, -0.0929, -0.0841, -0.0572, -0.224, -0.159, -0.0508, 0.233, 0.0812, -0.0672, 0.0733, -0.0204, 0.167, -0.0547, -0.0225, -0.0245, 0.0805, -0.109, 0.203, 0.0673, 0.0124, 0.0469, 0.0608, -0.066, 0.214, -0.297, -0.0505, 0.104, 0.202, -0.137, -0.0143, 0.012, 0.177, -0.0584, 0.103, 0.175, -0.0405, 0.0579, -0.0245, 0.0972, -0.00286, -0.175, -0.00573, 0.0258, 0.135, 0.00766, -0.123, -0.077, -0.0371, 0.00696, 0.0504, 0.178, -0.155, -0.122, -0.0424, -0.107, -0.0266, 0.0668, -0.00845, 0.0881, -0.319, 0.0465, 0.0962, 0.0871, 0.0556, -0.0813, 0.0538, 0.156, 0.0521, 0.0661, -0.0973, -0.0987, -0.0521, 0.0544, 0.0429, -0.0679, -0.25, 0.165, -0.0155, 0.0226, -0.0151, 0.0523, 0.0434, 0.0504, 0.0147, 0.113, -0.107, 0.0162, -0.0204, 0.0234, 0.0566, 0.0361, -0.138, -0.45, 0.00335, -0.178, -0.124, -0.243, 0.0176, -0.109, -0.0106, -0.169, 0.0413, -0.0194, -0.11, -0.0203, 0.136, 0.125, -0.00228, -0.0392, -0.0603, -0.0897, 0.107, -0.0871, 0.0185, 0.0472, 0.0241, -0.0457, -0.0688, -0.015, 0.00411, 0.019, -0.00918, -0.185, -0.0659, -0.0194, -0.0779, 0.00495, -0.00984, 0.172, 0.0492, -0.0274, 0.0474, 0.0186, 0.0256, 0.129, 0.0433, -0.127, -0.106, 0.0502, 0.0172, 0.033, 0.0019, 0.112, -0.13, 0.0836, 0.00344, -0.176, -0.0778, 0.0332, 0.152, 0.0867, 0.0161, -0.00772, -0.233, 0.266, 0.0842, -0.00112, 0.0689, -0.015, -0.0414, -0.00995, -0.0153, 0.0415, 0.0217, 0.0266, 0.124, 0.02, -0.048, -0.134, -0.0114, -0.00633, 0.0901, -0.0495, 4.12e-05, -0.0584, 0.00893, 0.0995, 0.191, -0.0316, -0.0447, 0.154, -0.0351, 0.201, -0.169, 0.193, -0.135, 0.025, 0.0805, -0.123, 0.191, 0.124, 0.0233, -0.195, -0.0828, -0.189, -0.171, 0.125, -0.00374, -0.0684, 0.0861, -0.0161, 0.119, 0.0916, -0.159, -0.00587, 0.121, -0.0317, 0.201, -0.079, -0.111, 0.147, 0.0799, 0.0466, 0.0227, 0.0875, -0.027, -0.0132, 0.0837, 0.15, -0.0595, -0.0408, 0.0196, 0.0814, 0.157, 0.122, -0.0893, -0.0844, 0.228, 0.123, 0.0303, -0.00545, 0.289, -0.0839, -0.0427, -0.177, 0.0955, 0.0722, 0.131, -0.0171, 0.0467, -0.0213, 0.118, 0.0893, 0.0127, 0.0159, -0.0623, -0.0687, 0.0976, -0.209, -0.132, 0.00439, -0.0215, -0.0558, 0.0357, 0.0463, -0.221, 0.014, 0.0802, -0.0273, 0.135, 0.131, -0.05, 0.0338, 0.0752, -0.1, 0.0722, 0.039, -0.0548, -0.0496, 0.221, -0.0522, 0.0262, -0.0555, 0.0657, -0.00658, -0.0674, 0.038, 0.0681, -0.00159, 0.00235, -0.0227, 0.0866, 0.0265, -0.00855, -0.102, 0.0397, -0.0855, -0.0576, 0.0278, -0.0494, -0.0273, 0.0511, -0.0232, 0.0518, -0.0216, 0.124, -0.327, 0.0734, -0.0834, -0.0603, -0.0178, 0.0547, 0.139, 0.102, -0.0701, -0.106, -0.148, 0.0684, -0.00772, 0.0695, -0.0192, -0.0272, 0.293, 0.165, 0.0702, 0.0521, 0.0178, 0.172, -0.0884, 0.0333, 0.0648, -0.0164, -0.0805, -0.0686, -0.00536, -0.00488, 0.101, -0.103, -0.0479, -0.0878, 0.0324, 0.0848, -0.107, 0.0328, 0.14, -0.081, 0.165, 0.0513, 0.0935, 0.0604, -0.178, -0.121, 0.0783, 0.000652, -0.0255, -0.106, -0.0327, -0.0733, 0.157, 0.0732, -0.064, 0.0166, 0.0208, -0.00921, 0.101, -0.0861, 0.0882, 0.224, -0.116, -0.00596, 0.0358, -0.0266, -0.089, -0.141, -0.0897, 0.134, -0.0312, 0.0148, 0.201, -0.127, 0.0334, -0.0393, -0.0286, 0.0207, -0.0447, -0.0677, 0.142, 0.0808, 0.0064, -0.0666, -0.0604, 0.0809, 0.0173, -0.112, -0.162, 0.000982, 0.067, -0.0709, 0.0494, -0.0408, -0.0134, -0.097, 0.0234, -0.126, 0.0816, -0.0962, 0.0411, -0.0286, -0.047, 0.159, 0.0449, -0.0202, -0.0843, -0.104, 0.102, -0.0928, 0.0238, -0.0471, -0.0326, -0.0601, 0.0974, 0.043, 0.15, -0.128, 0.0666, -0.0709, 0.145, 0.054, -0.0327, -0.0837, 0.198, 0.188, 0.0626, -0.04, 0.249, -0.0841, -0.0436, -0.0922, -0.0554, 0.269, 0.371, -0.059, -0.119, 0.101, 0.046, -0.114, -0.156, 0.0153, -0.0144, -0.0359, 0.227, -0.164, -0.0854, -0.0849, -0.043, 0.0368, 0.135, 0.0498, -0.146, -0.0833, 0.0164, 0.0346, -0.0021, -0.0824, 0.0338, -0.148, -0.000424, -0.0714, 0.273, 0.114, -0.0361, 0.152, 0.0452, 0.169, -0.171, 0.142, 0.112, 0.286, -0.0564, -0.0474, -0.0251, -0.067, 0.0607, -0.0352, -0.0238, 0.0396, 0.0455, -0.145, -0.0406, 0.091, -0.129, -0.0917, -0.0764, -0.115, 0.0706, 0.0786, -0.00753, 0.103, -0.0145, 0.0088, -0.0684, -0.0962, 0.0312, 0.303, 0.108, -0.0414, -0.169, -0.00899, -0.0285, -0.0582, 0.0446, -0.0596, -0.101, 0.109, 0.00302, -0.103, -0.129, -0.0204, -0.137, -0.061, 0.0169, -0.124, 0.0598, 0.0333, -0.0606, -0.125, -0.0175, 0.107, -0.0189, 0.0216, -0.226, -0.0445, -0.0907, -0.0859, 0.0798, -0.00925, 0.0365, -0.234, 0.00216, 0.0418, 0.055, 0.0931, -0.0183, -0.0391, 0.0243, -0.136, 0.00701, 0.0383, 0.134, 0.0369, -0.0652, 0.0719, 0.0454, -0.0791, -0.0665, -0.157, 0.0782, 0.0273, -0.212, -0.044, 0.00124, -0.125, -0.137, -0.0632, 0.0471, 0.13, 0.105, -0.0543, -0.0746, -0.129, -0.171, 0.0582, 0.0118, 0.179, -0.217, 0.123, -0.093, -0.186, -0.167, -0.00333, -0.112, -0.113, -0.0615, 0.257, 0.0596, 0.00145, -0.0166, 0.0682, -0.0716, 0.107, 0.0137, 0.336, -0.116, 0.146, -0.0144, -0.0144, -0.0915, -0.0156, 0.201, -0.224, -0.0376, -0.138, -0.0319, -0.125, -0.156, -0.108, 0.296, 0.0379, 0.336, -0.0471, -0.00776, -0.183, -0.054, 0.00686, -0.049, -0.0635, 0.191, 0.016, 0.0264, 0.0824, -0.0437, -0.282, -0.00116, -0.0308, -0.143, -0.0922, 0.0876, -0.00603, -0.151, -0.0701, -0.0491, -0.234, -0.0655, 0.00123, -0.0264, 0.00357, -0.145, 0.0556, 0.0546, 0.168, 0.0455, -0.0987, 0.00691, 0.0615, 0.0497, -0.106, -0.0626, 0.0707, -0.127, 0.0158, -0.0863, -0.00813, 0.00745, 0.0441, 0.195, 0.0372, -0.11, -0.0555, -0.0296, 0.0219, -0.119, 0.0653, -0.075, -0.0354, -0.3, -0.0686, -0.0823, 0.0856, -0.109, -0.0826, 0.0171, 0.0314, 0.0672, 0.00979, -0.0951, -0.00726, 0.0788, -0.0718, 0.00691, 0.024, -0.0452, -0.0887, -0.0102, 0.0125, -0.0137, -0.079, -0.0239, 0.164, -0.0255, 0.0155, -0.0298, -0.138, -0.0539, -0.0311, 0.0371, 0.113, 0.0766, -0.0117, 0.0201, 0.0637, 0.0996, 0.00461, -0.042, 0.0216, -0.138, 0.0344, -0.0361, 0.113, 0.00101, 0.00729, 0.0477, 0.0271, -0.0191, 0.0938, 0.0351, -0.0789, 0.105, 0.018, 0.0367, -0.027, 0.0872, 0.0507, 0.0352, 0.0739, 0.191, 0.0862, -0.082, -0.0329, 0.0274, -0.0703, -0.00917, 0.168, -0.0103, 0.211, -0.0123, 0.0685, 0.162, 0.0127, 0.0671, 0.0394, 0.138, 0.0499, 0.0785, 0.0639, -0.0269, 0.0537, 0.0345, 0.069, -0.00049, 0.105, 0.122, 0.0248, 0.169, -0.25, 0.129, 0.0278, 0.137, -0.0667, -0.027, -0.139, -0.0317, -0.00964, -0.049, 0.0354, -0.13, 0.00172, -0.292, -0.162, 0.059, -0.353, 0.096, -0.0442, 0.0328, -0.0478, 0.0282, 0.0192, 0.00104, -0.0787, 0.0193, 0.0532, 0.0113, 0.0298, -0.0394, -0.0414, -0.0675, -0.146, -0.151, -0.0495, -0.056, -0.0718, 0.202, 0.0666, -0.0132, 0.0773, -0.103, -0.161, 0.0385, -0.217, -0.133, 0.134, 0.0135, -0.117, 0.033, 0.0695, 0.0201, -0.107, -0.0908, -0.0995, -0.0127, 0.0805, 0.0149, -0.12, -0.102, -0.0285, -0.0383, -0.0468, -0.0868, 0.168, -0.129, -0.066, -0.182, 0.0893, 0.0582, -0.0633, -0.0329, 0.102, 0.0595, 0.0152, -0.00524, 0.0563, -0.154, 0.0226, -0.0109, 0.0768, -0.0679, 0.187, 0.165, -0.0339, 0.0534, -0.1, -0.13, -0.0445, 0.0565, -0.112, -0.0253, -0.0145, -0.114, -0.127, 0.0232, -0.0115, 0.00404, -0.0741, 0.0796, 0.0783, 0.0215, 0.00523, 0.0573, -0.015, -0.0945, 0.178, -0.0244, -0.153, 0.134, -0.0247, -0.0733, 0.0323, -0.0563, -0.0147, -0.0247, -0.0557, -0.0525, -0.0222, 0.0231, 0.000758, -0.0519, -0.205, 0.0287, -0.0437, -0.000409, 0.00955, 0.113, -0.0788, -0.117, -0.246, 0.188, -0.0521, -0.00254, -0.0842, 0.0134, -0.0207, 0.0843, -0.0767, -0.127, -0.144, -0.273, -0.0721, 0.0991, -0.00831, -0.0241, -0.0169, 0.0817, 0.103, -0.0068, -0.0316, -0.0559, -0.0613, 0.0356, 0.113, -0.00513, -0.0314, 0.116, -0.0912, -0.106, -0.0346, 0.0651, -0.0517, 0.00742, -0.045, 0.0639, -0.0286, 0.0361, 0.0483, 0.0492, -0.0765, -0.0279, -0.105, 0.0455, 0.0492, -0.00943, -0.118, 0.0969, 0.00272, -0.0209, -0.0986, -0.0272, -0.0831, -0.129, -0.0128, 0.273, -0.185, -0.00394, 0.013, 0.0666, -0.0476, 0.137, 0.186, 0.215, -0.0323, -0.0568, 0.0155, -0.0314, 0.148, -0.148, -0.2, 0.0436, -0.00688, -0.168, -0.0026, 0.168, -0.0952, 0.0761, -0.111, 0.237, 0.00773, -0.0716, 0.00547, -0.136, -0.0169, 0.0295, 0.0246, -0.0419, 0.00219, -0.0299, 0.0152, 0.105, 0.24, 0.063, -0.00387, -0.0221, -0.087, -0.175, -0.0339, 0.0135, 0.0631, -0.00942, 0.114, -0.0741, -0.0971, -0.0719, 0.0849, -0.0602, -0.0888, -0.0025, -0.0442, 0.0286, 0.179, 0.0435, -0.0153, 0.0604, -0.0398, -0.0216, -0.0692, 0.106, 0.0651, -0.144, 0.0527, 0.14, 0.00516, -0.111, 0.127, -0.0123, 0.139, -0.184, -0.0389, 0.00547, 0.24, -0.0283, -0.1, -0.0673, 0.00259, -0.0929, -0.00134, 0.0544, -0.0225, 0.117, 0.0194, 0.0162, 0.0493, 0.0315, -0.00424, 0.051, 0.141, 0.00344, 0.0242, -0.0268, -0.0627, 0.0713, -0.0491, -0.0998, -0.16, 0.0572, -0.0433, -0.169, 0.0225, 0.0105, 0.107, 0.0296, 0.105, -0.0409, -0.0244, -0.0251, 0.133, 0.192, -0.0284, 0.00721, -0.0607, -0.0122, 0.0191, -0.0489, -0.00568, -0.0355, 0.0246, -0.0657, -0.0233, -0.0467, -0.0243, -0.133, -0.175, 0.0902, -0.0731, -0.101, -0.0771, 0.0498, -0.0287, -0.149, 0.136, -0.0322, 0.0334, 0.0246, -0.0226, -0.155, -0.105, -0.135, 0.231, 0.0988, 0.112, 0.0606, 0.0337, 0.0832, -0.0329, 0.0741, -0.0579, 0.101, -0.123, 0.00654, 0.229, 0.0453, -0.101, 0.0632, -0.0142, 0.111, 0.127, -0.0245, -0.00418, -0.166, 0.0525, -0.00218, 0.0274, -0.0935, -0.137, 0.15, -0.0889, -0.151, -0.0397, 0.12, 0.0784, 0.0683, -0.11, -0.0374, -0.0843, 0.278, -0.0073, 0.178, 0.0942, 0.0291, -0.00101, 0.0151, 0.0617, -0.0504, 0.0537, -0.113, 0.057, 0.013, -0.00751, -0.102, 0.262, 0.0355, -0.0309, 0.0446, -0.0309, -0.151, -0.255, 0.238, -0.22, 0.078, -0.0528, -0.0919, 0.188, 0.173, -0.122, 0.0798, 0.211, 0.0103, -0.0716, 0.204, 0.00164, 0.0456, -0.109, 0.0979, 0.0203, 0.0473, -0.142, 0.137, 0.302, -0.146, -0.00801, 0.289, 0.013, 0.0422, 0.0807, -0.0714, 0.185, -0.0398, 0.202, -0.0975, 0.0834, 0.0733, -0.0114, 0.0785, -0.00506, -0.0551, -0.0806, -0.0111, 0.0261, 0.132, -0.0106, 0.318, -0.0254, -0.00792, -0.00508, -0.313, 0.123, -0.163, -0.0891, -0.0845, -0.0121, 0.00594, 0.061, -0.178, 0.00525, 0.057, -0.0555, -0.0787, -0.0176, -0.0611, -0.0662, 0.135, -0.0971, -0.0222, -0.0867, -0.0759, 0.0215, -0.0342, 0.051, 0.0325, 0.0426, -0.0286, -0.0346, -0.102, 0.000227, 0.0454, -0.00537, -0.0187, 0.0481, 0.204, 0.0896, 0.0251, 0.0872, 0.0193, 0.0444, 0.00327, 0.0707, -0.0967, 0.0593, -0.102, 0.0466, 0.0101, -0.0611, 0.0428, -0.0978, -0.0325, -0.165, 0.0312, -0.0654, -0.322, -0.112, 0.0365, 0.0719, -0.00411, -0.0286, 0.129, 0.108, 0.147, 0.0213, 0.0408, 0.0818, 0.0587, -0.127, -0.0574, 0.15, -0.0466, 0.139, 0.0639, 0.0696, 0.0914, 0.112, -0.0666, 0.0191, -0.0475, -0.1, -0.0784, 0.00887, -0.0763, -0.0996, 0.0233, -0.133, 0.0347, -0.0211, -0.0528, 0.0273, 0.0365, 0.116, 0.0495, 0.105, 0.0149, -0.148, 0.151, -0.0502, -0.0269, 0.0208, -0.0215, -0.282, 0.353, 0.255, 0.0517, -0.201, 0.188, -0.137, 0.109, -0.0133, -0.085, 0.203, 0.0552, -0.128, -0.0792, -0.0254, 0.0163, -0.0963, 0.061, -0.0654, 0.168, -0.145, -0.0207, 0.192, 0.0257, -0.0881, 0.0601, -0.0107, -0.0113, -0.19, -0.109, -0.0458, -0.00604, -0.128, 0.105, -0.216, -0.128, -0.0409, 0.121, 0.106, -0.168, -0.0276, 0.082, 0.074, -0.0413, -0.256, -0.134, 0.0424, -0.0411, -0.0516, -0.234, -0.0672, -0.18, -0.0751, 0.0524, -0.0295, 0.0748, 0.0859, 0.0174, 0.0716, -0.00753, 0.0148, 0.0216, 0.151, 0.00305, -0.0817, 0.0204, -0.0857, -0.00811, 0.0494, -0.0019, 0.0576, -0.0539, 0.0472, -0.0384, 0.125, 0.0303, 0.153, -0.0588, 0.0138, -0.00382, 0.0152, 0.203, -0.0288, 0.101, -0.0199, 0.00308, -0.0734, -0.0787, 0.05, -0.109, 0.00312, -0.00012, 0.0585, 0.083, 0.118, -0.128, -0.198, 0.0209, 0.0487, -0.0958, -0.0408, -0.00399, 0.14, -0.284, -0.278, 0.103, -0.129, -0.0857, -0.198, 0.168, -0.103, -0.114, 0.118, 0.18, 0.0389, -0.0671, 0.112, 0.202, -0.164, 0.0852, 0.0971, 0.0306, -0.139, 0.0818, 0.0616, 0.0759, 0.187, 0.00567, 0.0799, 0.0555, -0.0274, -0.0365, -0.0246, 0.0411, 0.0493, 0.00831, 0.0872, 0.071, 0.195, 0.0561, -0.00264, 0.0154, -0.032, -0.026, -0.00385, 0.105, -0.0584, 0.016, 0.0977, 0.0451, -0.0244, 0.104, -0.0549, 0.0732, -0.0129, 0.124, -0.0135, 0.0831, 0.0672, -0.112, 0.0172, 0.0594, 0.0588, -0.153, 0.143, -0.187, -0.0791, 0.0293, 0.11, 0.0644, 0.0945, 0.107, -0.0638, -0.0731, 0.118, -0.0853, -0.0389, -0.0999, -0.104, -0.105, -0.0574, -0.0774, 0.0122, -0.0698, 0.0975, -0.0205, 0.0155, 0.188, 0.106, 0.051, -0.124, 0.013, 0.0947, -0.0263, -0.1, -0.0493, 0.267, 0.338, -0.17, -0.0785, 0.00452, -0.114, -0.089, 0.0437, -0.0196, -0.108, -0.0143, -0.0568, 0.0181, 0.00291, 0.0845, 0.00435, 0.00933, -0.0268, 0.238, -0.072, -0.0307, 0.0221, 0.00461, -0.0379, -0.0849, 0.0613, -0.213, -0.0915, 0.172, 0.359, 0.0926, -0.0509, -0.0597, -0.102, -0.0279, -0.0669, 0.0936, 0.114, 0.0585, 0.0385, -0.106, 0.0303, -0.0831, -0.16, 0.232, 0.107, -0.0101, -0.0167, 0.019, 0.314, -0.0168, 0.0401, -0.0288, 0.0987, -0.112, 0.0385, 0.085, -0.0448, -0.147, 0.00782, 0.0998, -0.0722, -0.0386, 0.0777, -0.127, 0.0297, -0.00245, -0.171, 0.112, -0.0471, -0.0261, 0.0208, 0.022, 0.0939, 0.0189, 0.0174, 0.0206, 0.00837, -0.00847, -0.0529, 0.175, 0.033, -0.00504, 0.0175, 0.0341, 0.000117, -0.0166, -0.121, -0.0899, -0.158, -0.0509, -0.0495, 0.0576, -0.0111, -0.00413, -0.125, 0.0206, -0.0244, -0.0699, -0.0505, -0.0217, -0.0401, 0.0662, -0.00883, 0.144, 0.00387, -0.0411, 0.0286, 0.00863, 0.0734, 0.0663, 0.0594, 0.036, -0.146, -0.0554, -0.106, 0.0514, 0.0487, 0.141, -0.0078, -0.0668, 0.0372, 0.0278, -0.0616, -0.0368, 0.0136, 0.155, 0.0196, 0.0419, -0.133, 0.0647, -0.0568, 0.216, 0.0202, -0.0439, 0.0215, 0.0143, -0.145, -0.0291, -0.0934, -0.151, -0.00878, -0.0769, -0.0866, 0.0122, 0.0104, -0.0425, -0.0334, -0.108, -0.0958, 0.0178, 0.0101, -0.0896, 0.135, -0.0604, 0.102, -0.132, 0.0795, -0.0785, -0.054, -0.129, -0.113, 0.0205, 0.204, 0.0675, 0.127, 0.0524, -0.109, -0.0399, 0.0127, -0.044, 0.126, -0.318, -0.0978, 0.0534, -0.176, -0.101, -0.0669, 0.0503, -0.0176, 0.00414, -0.0211, -0.00576, 0.00693, 0.0278, 0.0157, -0.0175, 0.0525, -0.113, 0.0299, 0.0776, 0.0754, -0.069, 0.0281, -0.0684, 0.0447, -0.0421, -0.0667, 0.00591, -0.0792, 0.0206, 0.098, -0.0864, -0.0729, 0.064, 0.00276, 0.0268, 0.0979, -0.0445, -0.0397, -0.0716, -0.188, -0.0474, -0.0732, -0.0231, -0.0138, -0.0339, 0.0138, 0.0914, -0.0769, 0.026, 0.00174, -0.0158, 0.0385, -0.0392, 0.134, 0.0327, 0.123, 0.172, 0.0208, 0.107, -0.37, 0.0152, 0.053, -0.0171, 0.112, 0.201, 0.0679, 0.0262, -0.0206, 0.179, 0.199, -0.172, 0.18, -0.0496, -0.0207, -0.115, -0.0173, -0.0309, -0.042, -0.0344, -0.251, -0.0649, 0.188, -0.155, -0.0861, -0.015, 0.0322, -0.168, -0.0491, -0.21, 0.123, 0.21, -0.0431, 0.0335, -0.207, 0.022, 0.168, 0.0299, -0.0141, -0.0129, 0.0477, -0.0449, 0.0713, 0.0899, 0.133, 0.118, 0.0794, 0.0513, -0.0811, -0.251, 0.101, -0.137, 0.0164, 0.103, 0.0201, -0.121, 0.0134, 0.13, 0.13, -0.0167, 0.075, 0.0523, -0.0162, -0.0134, -0.0801, 0.059, 0.0582, -0.0956, -0.0897, -0.00879, 0.0909, -0.11, 0.151, 0.0476, -0.0244, -0.0902, -0.0551, 0.0839, -0.000239, -0.0459, -0.00869, -0.0869, -0.047, 0.283, 0.0867, 0.0142, -0.0296, 0.072, -0.0538, 0.186, -0.0197, -0.0347, 0.164, -0.0709, 0.133, 0.157, 0.0152, 0.0172, 0.00251, 0.0679, -0.00118, -0.162, 0.164, 0.0599, 0.0194, -0.0764, -0.0328, 0.0603, -0.0436, 0.0789, -0.0454, 0.0297, -0.151, 0.0747, -0.122, 0.0884, 0.136, -0.0875, 0.105, 0.00275, -0.1, -0.309, 0.151, -0.0424, 0.138, -0.0491, -0.0061, -0.0444, 0.0707, -0.0432, -0.105, -0.0885, 0.193, 0.216, 0.14, -0.134, 0.061, 0.0234, 0.0731, 0.0473, -0.111, -0.0729, -0.0641, -0.111, -0.054, -0.0416, -0.193, -0.0428, 0.0447, 0.0443, -0.063, 0.166, 0.0716, -0.0167, 0.0099, 0.0772, -0.12, 0.228, 0.153, -0.143, 0.0755, 0.122, -0.0501, 0.297, -0.0271, 0.132, 0.0168, -0.207, -0.153, 0.123, 0.00176, -0.0191, 0.00786, 0.00857, -0.0119, -0.0251, -0.0314, 0.116, -0.0668, -0.176, 0.11, 0.0157, -0.0344, 0.244, 0.162, -0.0317, 0.0545, -0.00111, -0.0841, -0.171, 0.0732, -0.0062, 0.221, -0.0272, -0.0302, 0.0848, 0.174, 0.0217, 0.00997, 0.0371, 0.163, -0.0813, -0.152, 0.0213, 0.0755, 0.116, 0.111, -0.0478, -0.108, -0.185, 0.238, -0.231, 0.0274, 0.013, -0.00743, -0.0596, -0.0459, -0.0851, 0.0924, 0.141, 0.116, -0.0573, 0.0595, -0.174, -0.02, -0.175, 0.00427, 0.0086, -0.126, 0.16, 0.0372, -0.0732, 0.0346, -0.181, -0.105, 0.141, 0.0966, 0.0709, -0.0335, -0.0848, -0.0393, 0.0484, 0.164, 0.0253, 0.0781, 0.0683, 0.032, 0.155, 0.000145, 0.0322, -0.0393, -0.00769, -0.0435, -0.101, 0.199, -0.0624, 0.108, -0.0556, -0.279, -0.292, 0.16, -0.0272, 0.0373, 0.0563, 0.095, -0.0835, 0.108, -0.072, 0.104, -0.0495, -0.0081, 0.268, -0.262, 0.0745, 0.00525, 0.138, -0.0508, 0.0155, -0.0307, 0.0752, 0.0135, -0.0497, -0.129, 0.0946, -0.0478, -0.0322, -0.0159, -0.0227, 0.0498, -0.0283, -0.123, 0.0551, -0.0884, -0.0151, 0.1, -0.0575, 0.162, -0.02, -0.0724, -0.00242, 0.0722, -0.0822, -0.199, 0.0992, 0.0409, -0.0478, 0.165, 0.2, 0.019, 0.0928, -0.0468, 0.264, 0.0868, 0.232, 0.0728, -0.0805, 0.000182, 0.0309, -0.142, -0.00794, 0.0422, -0.038, -0.152, -0.0583, 0.0167, 0.226, 0.204, 0.0437, 0.0176, -0.116, 0.0776, -0.09, -0.0602, -0.0217, -0.0652, -0.0642, -0.0966, -0.124, -0.0555, -0.016, 0.0217, 0.12, -0.0431, -0.0201, 0.00335, -0.0318, 0.0363, -0.0242, 0.168, 0.0221, 0.216, 0.0622, -0.0623, -0.0124, 0.0373, 0.0957, -0.00494, 0.166, 0.183, -0.0743, 0.00601, -0.102, 0.119, 0.116, -0.0203, -0.169, 0.00378, 0.0481, -0.0895, 0.0261, -0.108, 0.22, 0.074, 0.0508, -0.0513, -0.0886, 0.0441, -0.0994, 0.134, -0.0463, -0.0214, -0.0159, -0.0442, 0.073, -0.143, 0.015, -0.059, 0.159, 0.18, -0.108, -0.05, 0.0388, -0.106, -0.0194, 0.038, 0.0368, 0.00475, -0.0231, 0.0297, -0.139, -0.12, 0.023, -0.0265, -0.0395, -0.00933, -0.106, -0.0951, -0.0213, 0.104, 0.034, -0.0469, -0.0399, 0.0306, -0.0299, -0.147, -0.0919, 0.0113, -0.156, -0.0839, -0.118, -0.104, -0.239, 0.0666, -0.109, 0.0041, 0.00575, -0.0625, -0.0163, -0.00982, 0.0649, 0.0094, -0.0463, -0.0326, -0.000304, -0.139, -0.0444, -0.04, -0.0359, -0.0405, 0.129, -0.238, -0.105, 0.122, -0.0662, -0.00669, -0.0748, 0.0189, 0.0415, 0.0894, -0.118, -0.0156, 0.0161, 0.0355, -0.0421, -0.261, -0.0808, 0.0282, -0.0273, -0.009, -0.0464, -0.018, -0.0431, 0.00912, 0.0363, -0.01, 0.0507, 0.0617, -0.0826, 0.0128, -0.138, 0.00632, -0.119, -0.0218, 0.0311, 0.0478, -0.0336, 0.186, 0.00425, 0.0559, -0.0291, -0.0563, 0.0551, -0.0202, 0.212, -0.118, 0.0592, 0.0157, -0.0595, 0.0177, -0.0922, -0.102, 0.0621, 0.022, 0.251, -0.0667, -0.104, 9.43e-05, -0.0743, 0.0453, -0.0377, 0.0236, 0.0629, -0.0209, 0.14, 0.0836, -0.0505, -0.0426, 0.0635, 0.0846, 0.00747, -0.0971, 0.0577, 0.0111, -0.0222, -0.0486, -0.0689, 0.0766, 0.0238, -0.0223, 0.168, -0.00613, 0.013, 0.118, 0.197, -0.162, -0.0126, 0.0993, -0.019, 0.0206, 0.104, 0.044, 0.0267, 0.0614, 0.0143, -0.0147, -0.0222, 0.0578, 0.0503, -0.0794, 0.0199, 0.12, 0.0305, 0.0209, -0.109, 0.0473, -0.0494, 0.097, -0.15, 0.0261, -0.191, -0.358, -0.0385, 0.114, 0.0785, 0.0267, -0.0199, -0.0987, 0.0341, -0.00899, 0.00753, -0.0647, 0.166, -0.0557, -0.199, 0.0255, 0.0127, -0.0435, -0.0082, 0.0396, -0.0877, -0.126, 0.0936, -0.0441, 0.0649, -0.0681, -0.0598, -0.144, 0.122, -0.0528, 0.0477, -0.0423, -0.0498, -0.0474, -0.0566, -0.0102, -0.154, 0.139, -0.0394, -0.0451, -0.000107, 0.145, 0.102, 0.073, 0.0383, 0.0291, -0.0108, 0.0719, 0.0569, 0.0682, -0.188, -0.113, 0.0635, -0.253, -0.145, -0.142, -0.0885, 0.00184, 0.0234, 0.0124, 0.135, -0.0409, 0.0308, -0.0967, -0.0834, 0.336, 0.162, 0.153, 0.0951, 0.0849, -0.00615, -0.00535, -0.12, 0.0228, 0.235, -0.021, 0.0238, 0.00949, 0.0418, -0.144, -0.0298, 0.0819, -0.187, 0.0198, -0.0197, -0.0773, -0.0377, -0.0146, 0.0053, -0.138, -0.15, 0.144, -0.152, 0.047, -0.103, -0.0374, 0.0417, 0.105, 0.0531, -0.0661, 0.045, -0.201, -0.0278, -0.119, 0.0205, -0.137, 0.0472, 0.0409, 0.0593, 0.0363, 0.0952, 0.0622, 0.0987, 0.0794, 0.00715, 0.185, -0.0284, -0.0127, 0.113, -0.263, 0.129, 0.0514, 0.0825, -0.065, -0.0195, -0.0777, -0.0679, 0.0354, 0.052, -0.0929, -0.152, -0.043, -0.0541, 0.0849, 0.0156, -0.0167, 0.0591, 0.0473, 0.0354, 0.053, 0.104, -0.0316, 0.0193, 0.083, 0.0607, -0.0203, 0.0468, 0.189, 0.185, -0.0605, 0.00181, -0.0397, 0.0969, 0.0692, -0.107, 0.102, 0.0493, 0.101, -0.01, -0.147, 0.104, 0.0263, 0.0123, 0.0482, 0.0321, 0.113, -0.0109, -0.0319, 0.0256, 0.0565, -0.295, 0.019, 0.0883, 0.0455, -0.0639, 0.0603, 0.094, -0.00109, -0.0193, 0.0261, 0.132, 0.11, -0.0516, -0.136, -0.142, 0.0647, 0.0143, 0.0579, -0.0818, 0.0814, 0.0486, 0.0147, -0.108, -0.0302, -0.073, -0.0872, 0.0266, 0.147, -0.01, 0.13, 0.0928, 0.0982, -0.00288, -0.0203, 0.0981, -0.364, -0.0388, -0.0778, 0.209, -0.0131, 0.0242, -0.214, -0.0475, 0.346, -0.0516, 0.0496, -0.149, -0.0419, -0.0632, -0.00828, 0.0157, -0.179, -0.243, 0.0426, -0.0654, 0.000203, -0.00697, 0.0621, 0.00491, -0.0192, 0.0561, 0.192, -0.059, -0.187, 0.0674, -0.113, 0.0353, -0.0319, 0.135, -0.0764, 0.113, 0.0678, -0.0136, 0.0788, 0.061, -0.0236, -0.0146, 0.0526, 0.131, -0.182, -0.000586, 0.0108, 0.0208, -0.22, 0.0347, -0.15, 0.0327, 0.0247, 0.0329, -0.0351, 0.0325, -0.0103, 0.0538, 0.0738, 0.0321, -0.0247, -0.016, 0.0068, -0.0542, 0.0581, 0.0196, 0.157, 0.134, 0.0139, 0.104, 0.038, 0.144, -0.0809, -0.0426, 0.0762, 0.209, -0.089, 0.106, -0.00298, 0.0567, 0.084, 0.117, -0.152, 0.0134, 0.0724, -0.0171, 0.0329, -0.122, -0.115, -0.0476, -0.0252, -0.0351, -0.117, 0.00631, 0.0388, -0.103, -0.264, -0.213, 0.0336, -0.104, -0.0999, -0.154, 0.166, -0.0707, -0.0717, -0.0643, 0.132, 0.0456, -0.0167, -0.0641, -0.0903, 0.0481, -0.0128, 0.28, -0.18, 0.0562, 0.148, 0.12, 0.0272, -0.205, 0.00145, -8.73e-05, -0.0133, -0.0626, -0.0682, 0.000225, -0.0169, -0.195, -0.000732, 0.131, -0.129, -0.249, -0.0187, -0.147, -0.156, -0.0657, 0.132, 0.0396, 0.105, -0.0684, -0.00144, 0.0991, 0.142, -0.0612, 0.122, -0.0414, -0.23, -0.252, 0.0804, -0.0444, -0.00922, -0.373, -0.305, 0.0438, 0.0129, -0.315, -0.00961, -0.0353, -0.0951, -0.0617, -0.0456, -0.0798, 0.263, 0.0752, -0.32, 0.0642, -0.034, -0.049, 0.114, 0.165, 0.0548, 0.211, 0.27, 0.128, 0.0324, -0.00689, -0.0117, 0.116, -0.000918, 0.0467, 0.103, -0.06, 0.0242, 0.157, -0.0937, 0.0974, -0.362, -0.0346, 0.00878, 0.00732, -0.313, 0.157, -0.121, 0.129, -0.284, -0.163, 0.069, -0.00949, -0.235, 0.0631, -0.0749, 0.0927, -0.13, -0.102, -0.0781, 0.00168, -0.0204, 0.0118, 0.0239, -0.071, 0.0224, -0.0451, -0.00383, -0.00234, 0.174, 0.09, -0.214, -0.0662, 0.07, -0.029, -0.0772, 0.0589, -0.0316, 0.00324, 0.279, 0.0722, -0.0284, -0.0193, 0.0479, 0.0784, -0.0867, 0.0571, -0.0163, 0.00734, 0.0103, -0.224, -0.045, -0.0277, -0.0763, 0.0318, 0.0602, 0.0139, 0.0409, -0.0448, 0.0851, 0.0336, 0.00616, -0.0222, -0.0903, -0.122, 0.0348, -0.146, -0.0453, -0.0574, 0.136, -0.0518, 0.0533, 0.198, -0.141, 0.023, -0.0379, -0.00442, -0.136, 0.0256, -0.101, 0.0232, 0.0749, -0.0666, -0.0908, -0.0623, 0.0731, -0.0526, -0.105, -0.0891, 0.0586, -0.0443, -0.0266, -0.216, 0.183, 0.031, 0.0214, -0.0113, 0.183, 0.0395, 0.0565, 0.0884, -0.0627, 0.0721, 0.148, 0.0167, -0.0401, 0.0738, -0.119, 0.108, -0.114, 0.0381, 0.0594, 0.231, -0.0286, 0.0862, 0.0306, -0.0316, -0.00935, -0.00935, -0.11, -0.0675, -0.0529, -0.124, -0.0966, 0.0726, -0.253, 0.00108, -0.132, 0.0123, -0.185, 0.0658, -0.144, -0.176, -0.0645, 0.0925, 0.0842, -0.0144, -0.0248, 0.183, 0.14, 0.198, 0.0112, -0.0366, -0.138, -0.074, -0.0818, 0.0489, -0.0945, 0.0236, -0.0648, 0.0362, 0.105, -0.0933, -0.0929, -0.0198, 0.0955, 0.0389, -0.0265, 0.108, -0.0551, 0.0448, -0.0257, 0.131, 0.014, 0.0357, 0.16, 0.0861, -0.00214, 0.0897, 0.128, 0.133, 0.179, 0.104, -0.0357, -0.101, -0.0118, -0.0157, 0.0558, -0.0735, 0.0293, 0.208, -0.0835, -0.0759, 0.0638, -0.0952, -0.0102, 0.179, -0.0275, 0.274, 0.145, 0.174, 0.096, 0.0189, -0.0251, -0.02, -0.0668, 0.239, -0.0239, 0.0977, 0.117, 0.0237, 0.00488, 0.039, 0.0911, -0.0248, -0.00822, 0.0468, 0.0379, -0.182, -0.0242, 0.0806, 0.19, -0.147, 0.08, -0.159, 0.0524, 0.0247, 0.187, 0.065, 0.0171, -0.0975, 0.033, -0.1, 0.0555, 0.0773, 0.0673, -0.0562, 0.0999, -0.0411, 0.00964, 0.0874, -0.00825, -0.0659, -0.174, -0.121, -0.122, 0.091, 0.0795, 0.002, 0.0279, -0.00244, 0.108, 0.041, -0.00733, -0.0423, -0.109, -0.0986, -0.201, 0.0756, -0.315, 0.13, -0.112, 0.0686, 0.0682, -0.032, -0.0865, 0.0122, -0.0953, 0.125, -0.112, -0.107, 0.00077, -0.0652, -0.0188, 0.162, -0.0605, 0.225, -0.0466, 0.0954, -0.0411, -0.157, 0.103, -0.0673, 0.0123, 0.0878, -0.0917, -0.0305, -0.133, -0.106, 0.0734, -0.0313, 0.0183, -0.000961, -0.00964, -0.31, -0.0304, -0.203, 0.0338, -0.113, 0.102, -0.0235, 0.212, -0.042, 0.072, 0.0856, 0.11, 0.00155, -0.0923, 0.0731, 0.0213, -0.00681, -0.137, -0.00207, 0.153, -0.2, 0.157, -0.00427, 0.00907, 0.0726, 0.187, 0.111, 0.123, 0.00524, 0.14, 0.099, 0.0712, 0.179, -0.109, 0.107, -0.0705, 0.0949, -0.055, 0.13, 0.0512, -0.243, 0.0238, 0.0111, 0.026, 0.0223, 0.0118, 0.114, 0.0606, 0.12, 0.0997, -0.0261, -0.0807, -0.0165, 0.115, 0.141, -0.058, -0.0144, 0.0635, -0.216, 0.0363, 0.0573, 0.0678, -0.0855, 0.0398, 0.207, -0.179, -0.155, -0.0161, 0.16, -0.0937, 0.0673, 0.135, 0.0336, -0.0551, -0.0563, 0.0457, 0.0296, 0.0389, -0.0665, -0.0642, -0.0418, 0.0244, 0.0512, 0.0121, 0.0826, -0.171, 0.0756, 0.00722, -0.0265, 0.0368, 0.0573, 0.12, -0.0564, 0.00842, 0.0163, 0.0563, -0.0972, -0.149, 0.101, -0.0344, -0.0308, -0.0444, -0.122, 0.0166, -0.0664, -0.096, -0.026, -0.0489, -0.00997, -0.217, 0.0425, -0.125, 0.24, -0.105, 0.236, -0.182, 0.18, -0.0212, 0.0631, -0.144, 0.00369, -0.193, 0.05, -0.0813, 0.0127, 0.0959, 0.0411, -0.137, 0.166, -0.103, -0.00648, -0.221, 0.0991, -0.0915, 0.0908, -0.0386, -0.0122, -0.00308, 0.0251, -0.0664, 0.0695, 0.114, 0.0702, 0.00852, 0.0534, 0.0416, 0.0136, 0.0142, -0.0029, 0.175, 0.103, -0.00637, 0.0151, -0.0173, 0.178, -0.00864, -0.143, -0.0526, 0.0276, -0.0766, 0.0631, 0.0546, 0.12, -0.017, -0.134, -0.0244, -0.113, 0.0434, 0.0425, 0.0702, -0.0479, 0.14, -0.05, 0.0968, -0.022, -0.19, -0.085, -0.135, 0.0726, -0.215, 0.0424, -0.0126, 0.0975, -0.113, -0.115, 0.0213, 0.0753, 0.127, 0.0283, 0.0399, 0.0182, -0.054, -0.148, -0.138, -0.0793, -0.0239, 0.0685, 0.0789, 0.115, 0.182, -0.102, 0.13, -0.0784, -0.0495, -0.167, 0.208, -0.398, 0.114, 0.0217, -0.0726, -0.0207, 0.0644, 0.0843, -0.0032, 0.012, -0.0788, -0.0318, 0.0282, -0.0118, -0.195, 0.00909, -0.0703, 0.0783, 0.0974, 0.0432, 0.0873, -0.139, 0.0105, -0.041, -0.0578, -0.0838, -0.0918, -0.0305, -0.14, -0.0487, 0.018, 0.14, -0.0329, 0.12, 0.123, 0.0438, -0.109, -0.146, 0.0531, -0.00171, 0.236, 0.0396, 0.00767, -0.0179, -0.0228, -0.00146, -0.123, 0.154, 0.0436, 0.0575, 0.071, 0.0045, -0.126, -0.019, -0.0748, -0.0561, -0.0169, 0.0674, 0.0255, -0.0256, 0.0643, 0.00848, -0.0309, 0.118, 0.103, -0.07, 0.0608, 0.084, -0.0403, -0.224, -0.0502, 0.000214, 0.0222, -0.157, -0.0457, 0.011, 0.127, -0.0255, 0.0339, 0.103, 0.154, 0.0228, -0.146, -0.179, -0.0588, -0.0428, 0.0309, -0.316, 0.136, 0.0486, 0.0462, 0.0162, 0.00525, 0.103, 0.0267, 0.109, -0.0887, -0.257, -0.0458, -0.0211, 0.0882, 0.0503, -0.17, 0.0954, -0.0104, -0.0217, -0.102, -0.247, 0.0373, 0.0404, -0.021, 0.0716, 0.237, -0.14, -0.0684, -0.0155, -0.0422, 0.0518, -0.171, 0.102, -0.174, 0.0343, -0.0277, 0.0505, -0.0967, -0.142, 0.0932, 0.044, -0.0415, 0.107, -0.0192, -0.0427, -0.178, 0.11, 0.0302, -0.0124, 0.0403, -0.0156, -0.0901, -0.0317, -0.00187, -0.00234, 0.0912, 0.00442, -0.065, -0.0653, 0.11, -0.0599, 0.136, 0.0871, -0.204, 0.0424, -0.0377, -0.0397, -0.00472, -0.0408, 0.0666, -0.0303, 0.0579, 0.0424, 0.0969, 0.0166, 0.0212, 0.019, 0.0411, -0.0858, 0.00459, 0.0653, -0.199, -0.117, 0.0926, 0.0213, -0.0298, -0.0738, -0.0348, 0.00709, 0.0538, -0.11, -0.034, -0.0911, -0.0545, -0.101, 0.2, 0.0353, -0.0467, -0.00521, 0.00796, -0.0573, -0.0465, 0.0501, 0.262, -0.0335, 0.00877, -0.00677, -0.0863, -0.0705, -0.0757, 0.000396, -0.0334, -0.101, 0.114, -0.0896, -0.0557, -0.0151, 0.016, -0.0321, -0.0169, -0.0769, 0.0438, -0.243, -0.0387, -0.0457, -0.0276, 0.0405, 0.0375, 0.0412, -0.2, -0.104, 0.0216, -0.114, -0.0647, 0.0239, 0.0625, -0.0864, -0.199, 0.00647, 0.0269, 0.0907, -0.183, -0.0154, -0.0354, 0.162, -0.101, -0.0833, -0.0975, 0.104, -0.118, 0.165, 0.0736, -0.00571, -0.127, -0.0801, 0.0693, -0.0223, -0.0296, -0.0984, 0.172, -0.0754, -0.00821, -0.0651, -0.127, 0.0739, -0.127, 0.0193, 0.058, -0.298, -0.0989, -0.0117, -0.0491, -0.0948, -0.0931, 0.00305, -0.0434, -0.124, 0.0695, -0.0907, -0.0502, 0.0384, 0.0421, -0.0232, -0.0394, -0.183, 0.0622, 0.0494, 0.128, 0.294, -0.0379, 0.0542, 0.00646, -0.106, -0.13, -0.152, -0.0546, 0.0239, 0.00327, -0.0096, 0.0908, 0.029, -0.0778, -0.0307, -0.0596, -0.0426, -0.000722, -0.213, -0.00723, 0.0581, 0.0662, -0.0241, -0.152, -0.157, 0.103, -0.0974, -0.00563, 0.0222, -0.0299, -0.24, -0.136, -0.0676, -0.0589, -0.0181, 0.0555, 0.0439, 0.0228, 0.0497, -0.0693, 0.0421, 0.0186, 0.0446, 0.137, 0.0159, 0.0224, 0.115, -0.0263, -0.0704, 0.154, 0.0137, 0.0146, 0.0185, -0.105, 0.109, 0.125, 0.0655, 0.0302, 0.0818, 0.0558, -0.233, 0.0969, -0.0625, -0.141, 0.024, -0.035, 0.00811, -0.115, -0.0101, -0.0294, -0.0372, 0.0782, 0.0336, -0.00165, 0.0698, -0.0111, -0.0684, 0.00419, -0.00043, -0.024, 0.215, -0.0817, -0.0464, 0.0836, 0.0251, 0.105, -0.0192, 0.104, -0.00399, 0.0443, -0.123, 0.116, -0.00465, -0.176, 0.146, -0.321, 0.0324, -0.0914, 0.0168, 0.0468, -0.193, -0.0933, -0.149, -0.0514, 0.0283, -0.0746, 0.00232, -0.0769, -0.256, -0.00722, 0.0596, -0.091, -0.0249, 0.055, 0.0154, -0.129, 0.0546, 0.227, 0.105, 0.136, -0.00409, -0.0659, -0.205, -0.0695, -0.0212, -0.129, 0.0769, -0.103, -0.0255, -0.0291, 0.00696, 0.0732, -0.0175, -0.0428, 0.138, 0.0115, -0.0285, 0.0646, 0.087, -0.0244, -0.00439, -0.0709, -0.174, -0.032, 0.0375, -0.0539, -0.0368, -0.0126, 0.0806, 0.0224, -0.101, -0.0157, -0.0619, -0.0675, -0.0866, -0.0949, 0.114, -0.0584, 0.0858, -0.0756, -0.035, -0.0417, -0.103, -0.0872, -0.0646, 0.028, 0.106, -0.0717, -0.0183, 0.0547, -0.0577, -0.0871, 0.162, 0.0828, -0.0408, 0.0556, 0.0261, -0.0853, -0.0563, 0.117, -0.0933, 0.068, -0.0626, -0.00375, 0.145, 0.0452, -0.152, 0.0324, 0.0814, -0.0367, 0.27, 0.00227, -0.051, 0.0634, -0.0218, 0.0135, 0.0741, 0.0981, -0.0186, 0.313, 0.012, 0.0619, -0.0932, -0.0576, 0.0988, -0.0301, -0.0856, 0.00694, -0.0293, 0.0145, 0.0506, -0.0995, -0.0384, -0.0442, 0.0963, 0.0871, -0.00788, 0.0292, -0.268, -0.018, 0.0726, 0.0382, -0.00431, 0.109, -0.0945, 0.0118, 0.0405, 0.0534, -0.038, -0.0481, -0.00693, 0.0278, -0.0671, -0.0197, -0.166, 0.028, -0.0144, -0.0323, -0.0299, -0.0886, -0.138, 0.00462, -0.0275, -0.0665, 0.0276, -0.0318, 0.0452, -0.057, -0.0517, -0.0588, -0.0195, -0.0512, -0.0302, -0.00198, -0.0387, -0.0411, 0.0597, -0.00432, 0.064, -0.105, 0.0321, -0.0168, -0.118, 0.00863, -0.0241, -0.00588, 0.0251, 0.0858, 0.0877, -0.0656, 0.198, -0.0349, 0.0806, 0.0476, 0.11, -0.0548, 0.0767, 0.0531, -0.158, 0.00105, 0.0384};
float backbone__model3_dp1_pw_bias[64] = {0.0539, -0.0192, -0.217, 0.298, -0.105, 0.0201, 0.14, 0.0285, 0.0546, 0.00356, 0.02, 0.0401, -0.0146, -0.0131, 0.141, 0.206, 0.102, -0.0759, 0.0982, 0.0877, -0.0524, 0.0432, 0.00549, 0.0884, 0.0991, -0.133, 0.0376, 0.288, -0.0912, 0.034, 0.0632, -0.00751, 0.024, -0.143, 0.14, 0.0607, 0.11, -0.0787, 0.0862, 0.12, -0.0728, -0.0174, -0.0874, -0.0353, -0.127, -0.0615, -0.12, 0.0799, -0.0658, -0.0625, 0.0143, 0.0428, 0.0223, 0.143, -0.015, 0.0365, -0.282, 0.0376, -0.00817, 0.128, -0.00684, 0.0424, 0.152, 0.0364};
float backbone__model3_dp1_dw_weight[64 * 1 * 3 * 3] = {-0.196, -0.0813, 0.0936, -0.437, 0.467, 0.708, -0.0124, -0.192, 0.119, 0.383, -0.677, 0.307, -0.157, 0.186, -0.168, 0.0329, -0.345, 0.45, 0.5, 0.395, 0.155, 0.638, 0.499, -0.111, -0.337, -0.948, 0.137, 0.255, -0.359, 0.0809, -0.574, -0.0557, -1.35, 0.418, -0.219, -0.119, -0.206, 0.011, -0.099, -0.608, -0.213, 0.639, 0.396, 0.624, 0.732, -0.269, -0.41, 0.35, -0.027, -0.277, -0.159, 0.734, 0.13, -0.255, 0.201, 0.0738, 0.186, -0.0846, 0.35, -0.413, -0.658, 0.0557, -1.48, 0.909, -0.254, 0.931, -0.147, -1.04, 0.955, 0.973, -0.413, 0.636, 0.116, 0.174, -0.735, -0.22, 1.1, -0.399, 0.237, 0.117, -1.74, 0.354, 0.121, 0.0503, 1.29, 0.118, -0.391, -0.0735, -0.393, 0.528, 0.198, 0.0453, -0.586, -0.185, 0.0737, 0.49, -0.754, 0.276, -0.221, 0.148, -0.197, -1.05, -0.126, -0.828, -1.24, 0.16, 1.17, -0.583, 0.0649, 0.0331, -1.04, 0.453, -0.0119, -0.0763, -0.276, 0.473, 0.219, -0.646, -0.329, 0.527, 0.292, -0.703, 0.918, -0.812, -0.577, -0.312, -1.06, 0.222, -0.184, 0.44, -0.0154, -0.424, -0.0414, 0.379, 0.0439, 0.695, -0.307, 0.24, -0.129, 0.0354, 0.635, 0.188, 0.0209, 0.0611, -0.0698, -0.559, -0.347, -0.936, 0.331, -0.241, -0.72, -0.484, 0.0177, 0.429, 0.0309, 0.284, -0.418, -0.0317, 0.841, 0.551, 0.209, 0.246, 0.722, -0.195, -0.292, -0.219, -0.00187, -1.07, -0.193, -0.761, 0.524, -0.232, -0.315, 0.0627, -0.0975, 0.365, -0.424, -0.0919, -0.182, 0.617, 0.084, -0.0665, -0.209, -0.0152, 0.492, -0.58, 0.462, -0.269, -0.827, -0.451, -0.409, -0.486, -0.198, 0.298, -0.543, -0.384, -0.219, -0.0582, -0.367, 0.393, 0.358, 0.189, 0.213, 0.168, 0.564, -0.228, -0.0618, 0.419, -0.106, 0.696, 1.05, 0.837, 0.815, 0.673, 0.855, 0.172, -0.292, -1.09, 0.331, 0.165, 0.296, -0.142, -0.906, -0.455, -0.118, -0.199, -0.159, -0.0603, 0.558, -0.0427, -0.343, 0.257, 0.204, 0.449, 0.0472, 0.72, -0.0668, -0.126, 0.138, 0.289, 0.405, -0.948, -0.167, 0.302, -0.116, 0.179, -0.908, 0.308, -0.429, -0.422, -0.138, -0.336, -0.093, 0.0384, -0.45, 0.14, -0.187, 0.0897, -1.28, 1.53, -1.37, 0.0117, -0.262, 0.395, 1.86, 0.873, -0.877, 0.188, 0.0255, -0.423, -0.492, 2.13, 1.29, 0.253, -1.53, 0.812, 0.178, -0.421, 0.315, -0.134, -0.745, -0.11, 0.246, 0.475, -0.0793, -0.611, 0.321, 0.142, 1.49, 0.212, 0.0284, -0.359, -0.597, -1.71, -0.2, 0.669, -0.095, -0.253, 0.577, -0.437, 0.571, -0.822, 0.174, 0.528, 0.191, 0.0599, 0.489, 0.584, -1.88, -0.865, -0.286, 0.286, -2.41, -0.284, 0.949, 0.529, -0.0921, -0.52, 1.66, 0.658, -0.0472, -0.362, 0.515, 0.0361, -0.0804, -0.387, -0.298, 0.261, 0.395, 0.329, 0.000651, 0.169, -0.855, -0.322, -0.251, -0.322, 0.758, -0.652, -0.27, -1.73, -0.478, -0.475, -0.751, -0.451, -0.466, 0.159, 0.142, 0.0752, -0.594, -0.0218, 0.581, 0.293, 0.426, 0.543, 0.513, -0.25, -0.303, 0.195, -0.101, -0.0385, -0.176, -0.882, 0.0117, -0.393, 0.178, 1.73, -0.0577, 0.399, -0.953, -0.0446, -0.132, 0.274, -0.254, 0.805, -0.0976, 0.347, 0.264, 0.817, -0.152, -0.175, 0.292, 0.202, 0.0891, -1.03, 0.125, 0.48, 0.994, -0.675, -0.498, -0.572, -0.168, 0.564, -0.879, 0.118, 0.865, 0.925, 0.375, -0.0686, 1.51, -0.11, -0.368, 0.454, 0.689, -0.273, 0.216, 0.747, 0.665, -0.294, -0.115, -0.149, 0.426, 0.821, 0.365, 0.283, 0.145, -0.397, 0.422, 0.103, -0.0312, -0.164, 0.228, 0.14, 0.396, 0.588, 0.775, 0.597, 0.0456, 0.482, -0.104, -0.0119, 0.115, 0.39, 0.532, 0.0656, 0.27, -0.468, -0.356, -0.021, -0.86, 0.67, 0.324, -0.212, -0.707, 0.465, 0.555, -0.436, 0.327, 0.379, -1.12, -0.172, 1.04, -0.227, -0.133, -0.885, -0.439, 0.201, -1.02, 0.491, 1.07, 0.386, -0.0108, -0.646, 0.0689, -0.516, 0.886, -0.000224, 0.649, 0.91, -0.835, -0.104, 0.3, -0.714, -0.232, 0.424, 0.474, 0.672, 0.652, 2.44, -0.178, -1.2, 0.262, 0.132, 0.194, -1.14, -0.853, 0.339, -1.32, 0.9, 0.752, 0.361, 0.35, 0.267, 0.239, -2.94, -0.00262, 0.489, 1.11, -0.418, 0.819, -1.16, 0.43, -0.139, 0.407, 0.573, 0.694, 1.02, -0.698, 0.861, 0.309, -0.368, 0.0384, 0.461, -0.318, 0.0163, 0.261, 0.0437, -0.172, -0.615, -0.237, 0.0644, -0.203, 0.0183, 0.586, 0.0745, -0.0928, -0.176, 1.02, -0.0819, 1.23, -1.05, -0.00376, -0.269, -0.579, -0.266, -0.451, 0.176, -0.251, 0.017, 0.29, 0.608, -0.534, -0.334, 0.228, 0.0855, 0.382, 0.257, 0.534, 0.283, -0.363, 0.279, -0.498, 0.719, 0.623, -0.492, -0.0799, -0.354, 0.341, 0.273, 0.0369, 0.248, 0.222, -0.00527, 0.0718, -0.286, -0.529, -0.281, 0.464, 0.64, 0.371, 0.987, -0.387, 0.547, 0.778, -0.109, 0.0725, -0.836};
float backbone__model3_dp1_dw_bias[64] = {0.434, 0.132, 0.473, 0.715, 0.234, 0.0308, 0.22, 0.444, -0.0272, -0.924, 0.0161, -0.0277, 0.0863, 0.41, 0.202, -0.141, -0.112, -0.00868, 0.248, -0.184, 0.107, 0.246, 0.0176, 0.571, 0.591, 0.103, 0.0908, -0.579, 0.357, -0.205, 0.184, 0.114, -0.161, 0.248, 0.0293, 0.514, 0.529, -0.0154, 0.471, 0.0694, -0.0697, 0.0865, 0.206, 0.281, 0.326, -0.166, -0.0933, 0.424, 0.117, 0.134, -0.171, -0.0725, 0.256, 0.273, -0.053, -0.338, -0.348, 0.0602, 0.203, 0.237, 0.0886, -0.147, -0.00406, -0.0371};
