// Auto generated data file
// Copyright (c) 2018-2021, Shiqi Yu, all rights reserved.
#include "facedetectcnn.h" 

float f0_weight[32* 32 * 1 * 1] = {0.00134,0.00196,9.09e-05,0.00118,0.00127,0.000841,0.000535,0.000238,0.000223,-0.000399,-0.000592,-0.0023,-0.00093,-0.00167,-0.00179,-0.00128,-0.00254,-0.00276,-0.00091,0.000139,-0.000977,-0.00141,0.000527,0.00181,8.5e-05,0.00178,0.00335,0,0,0,0,0,0.000309,0.000103,0.000843,-0.000144,-0.000415,0.000437,0.000489,0.000194,0.000205,-3.47e-05,-0.000273,0.000256,-0.00018,-0.000399,8.43e-05,-6.68e-05,-0.000257,-0.000443,0.000215,0.000259,-0.000119,0.00068,0.00102,0.000409,0.000733,0.00099,-0.000106,0,0,0,0,0,-0.000256,0.000388,-6.65e-05,0.000789,0.00253,0.00106,-0.000243,-0.00307,-0.00128,0.000245,0.000775,0.000486,0.00139,0.00305,0.00201,-0.000885,-0.00472,-0.00231,-0.00101,0.000828,-0.000409,0.0017,0.00479,0.00316,-0.0016,-0.00461,-0.00243,0,0,0,0,0,0.000196,0.000127,-8.75e-05,0.000106,0.000717,0.000162,-0.000825,0.000406,-4.35e-05,0.00139,0.00104,0.000655,0.000926,0.00129,0.000737,9.01e-05,0.00124,0.000691,-0.000591,-0.00173,-0.0012,-0.00107,-0.00161,-0.00125,-0.000868,-0.000585,-0.000347,0,0,0,0,0,-0.000368,0.000395,0.00115,7.98e-05,0.000861,0.000829,-7.25e-05,0.000769,0.000692,0.0019,0.00203,0.00247,0.00193,0.00213,0.00188,0.00103,0.00144,0.00148,-0.00158,-0.00306,-0.00271,-0.00155,-0.0033,-0.0036,-0.000981,-0.00209,-0.00197,0,0,0,0,0,0.000465,-0.000478,-0.000988,-0.000734,-0.000563,-0.000493,-0.000377,-0.000503,-0.00197,0.000914,0.00054,8.13e-05,-0.000388,0.000118,-4.12e-05,0.000258,-7.77e-05,-0.00181,-0.00126,0.000366,0.000101,-0.00113,0.000921,0.000234,0.00134,0.00136,-0.00105,0,0,0,0,0,0.00195,0.00232,0.000548,-0.00106,-0.00236,-0.000959,-0.000424,-0.000867,0.000806,0.00252,0.0032,0.00111,-0.00169,-0.00281,-0.00127,-0.000933,-0.00134,0.000769,0.00263,0.00374,0.000868,-0.00152,-0.00203,-0.000732,-0.00159,-0.00153,0.000759,0,0,0,0,0,0.00105,0.00053,-0.00199,0.000239,-0.00104,-0.000677,0.000582,0.000195,0.00131,0.00252,0.00065,-0.00285,0.00104,-0.00141,-0.00172,0.00039,-0.00029,0.000944,0.00313,0.000215,-0.0038,0.00218,-0.00107,-0.00229,0.00102,9.33e-05,0.000948,0,0,0,0,0,-8.92e-06,-0.000213,-0.00051,-9.92e-05,-9.79e-05,0.00021,-4.99e-05,0.000126,0.000785,-0.000784,-0.00125,-0.000672,-0.000439,-0.000859,-2.42e-05,-0.000364,-0.000611,-0.000355,-0.00067,-0.00147,0.000626,-0.000656,-0.00143,0.00057,0.000739,0.000357,0.000388,0,0,0,0,0,0.00128,0.000246,-0.000496,0.000439,-0.000101,-0.00068,7.44e-05,-0.0008,-0.00071,-0.000178,-0.000274,-0.000336,0.000129,0.00017,-0.000151,-0.000208,-0.000668,-0.000705,-0.00116,4.89e-05,0.000488,-0.00066,-0.000853,-0.00102,-0.000717,-0.00125,-0.00117,0,0,0,0,0,0.00027,0.00114,0.000654,0.000493,0.00111,0.000807,0.000523,0.000572,0.000536,0.000707,0.00119,0.000988,0.000825,0.00108,0.00106,0.00115,0.000847,0.000901,-0.00154,-0.00179,-0.00158,-0.00171,-0.00206,-0.00162,-0.00098,-0.00179,-0.00139,0,0,0,0,0,-0.000257,0.000685,0.00171,0.00183,-0.00237,-0.00118,-5.79e-06,-0.000897,0.000273,0.000115,0.000432,0.00219,0.00265,-0.00348,-0.00189,0.00103,-0.00114,-0.000131,-4.37e-05,-0.000509,0.00185,0.00388,-0.00374,-0.002,0.00208,-0.00116,-0.000236,0,0,0,0,0,-0.0022,0.00245,0.000349,-0.00312,0.00197,-9.67e-05,0.000324,0.000511,-0.000186,-0.00303,0.00298,0.000651,-0.00397,0.00252,0.000333,-0.000153,0.000765,-0.000105,-0.00253,0.00276,-0.000848,-0.0032,0.00283,-0.000181,0.000596,0.00096,-0.00035,0,0,0,0,0,-0.000498,0.000116,0.000168,-5.63e-05,0.000308,-0.000558,0.000796,8.21e-05,-0.0007,0.00151,0.000827,-0.00029,0.00112,0.000597,-0.00112,0.00081,-0.000245,-0.00137,0.000237,-0.00191,-0.00345,0.00251,0.00103,-0.00131,0.00156,0.00125,0.000428,0,0,0,0,0,0.00266,0.00212,0.000158,0.000889,-0.000993,-0.000454,-0.000452,-0.00128,-0.000438,0.00442,0.00269,0.000106,0.000217,-0.00253,-0.00225,-0.000265,-0.00155,-0.000775,0.00391,0.00108,0.000916,-0.00153,-0.00546,-0.00261,0.000587,-0.00179,0.00127,0,0,0,0,0,6.24e-05,-0.00112,0.000236,-0.000662,-0.0008,-0.000137,-0.000227,-6.32e-05,-0.000417,-0.000256,-0.00181,-0.000803,-0.000568,-0.000694,-0.000659,-0.000487,-0.000206,-0.000952,0.0011,0.000726,0.000416,0.000766,0.00229,0.000757,-0.000253,0.00177,-7.88e-05,0,0,0,0,0,0.000473,0.00391,-0.000637,-0.00184,0.00271,-0.000315,-6.1e-05,0.000436,-0.00194,-0.00103,0.00377,-0.000791,-0.00341,0.00308,-1.79e-05,-0.000783,0.00148,-0.00118,-0.00565,0.00259,-0.000398,-0.00717,0.00323,0.00127,-0.00297,0.00342,0.00176,0,0,0,0,0,0.000367,-0.00119,0.0004,0.000204,-0.00315,0.0018,0.000433,-0.000323,0.000891,-0.000413,-0.0015,0.00145,-0.000827,-0.0039,0.00288,0.000263,-0.000395,0.00162,-0.000485,-0.00182,0.00159,-0.000559,-0.00373,0.00378,0.0006,-0.000514,0.00215,0,0,0,0,0,-0.000572,0.000243,-0.00215,0.00108,0.00228,-0.00274,-0.00097,0.00264,0.00173,0.000411,0.00053,-0.0012,0.000849,0.00143,-0.00327,-0.000459,0.00251,0.00131,0.00299,-0.000238,-0.00334,0.00179,-0.00116,-0.00674,0.00136,0.00164,-0.00032,0,0,0,0,0,-0.00113,-0.00126,0.000831,-0.000568,0.00029,0.00356,-0.00199,-0.000193,0.000645,-0.000791,-0.00187,0.000381,-0.000283,-0.000607,0.00358,-0.00101,-0.000125,0.00194,-0.00253,-0.00532,-0.00196,3.82e-05,-0.00216,0.00326,0.00176,0.00076,0.00396,0,0,0,0,0,-0.000906,0.000999,-0.00113,0.00186,0.00466,0.00207,-0.0016,-0.0042,-0.00152,-0.000864,0.0016,-9.39e-05,0.00179,0.00518,0.00249,-0.00187,-0.00448,-0.00197,0.000906,3e-05,0.000505,0.00258,0.00247,0.00248,-0.000869,-0.00811,-0.00206,0,0,0,0,0,0.000743,0.000611,0.000914,0.000812,-0.000138,0.000345,0.000993,0.000782,0.00205,-0.00172,-0.00171,-0.00143,-0.000635,-0.00169,-0.00156,-0.00127,-0.00207,-0.000924,2.43e-05,0.00149,0.000822,0.00133,0.00182,0.00066,2.77e-05,0.000125,-0.000306,0,0,0,0,0,-0.00127,-0.000774,-0.00064,-0.00063,-0.00112,-0.000911,-0.00101,-0.00162,-0.00029,-0.000119,0.000748,0.000461,0.000816,0.000498,2.78e-05,0.000865,0.000241,0.00119,1.08e-05,0.00109,0.000337,0.000966,0.000823,-0.000178,0.000334,-0.000101,0.00056,0,0,0,0,0,0.000459,0.00398,0.00239,-0.00249,-0.00209,-0.000368,-0.00148,-0.000976,3.73e-05,0.000547,0.00442,0.00362,-0.00223,-0.00318,-0.00137,3.78e-05,-0.00099,-0.00058,-0.000346,0.0026,0.00336,-0.00348,-0.00508,-0.00138,0.000713,0.000208,0.00235,0,0,0,0,0,-6.2e-05,0.000387,0.000578,-0.000333,0.000567,0.00156,3.76e-06,0.000372,0.00112,-0.000259,-0.00087,-0.000685,-0.000602,-0.00152,-5.02e-05,-0.000555,-0.00161,-0.000416,0.00264,0.00122,-0.000352,0.000206,-0.00231,-0.00186,0.000454,-0.00138,-0.000291,0,0,0,0,0,-0.00055,0.000596,-0.00156,0.00139,0.00426,0.000171,-0.00246,0.000737,-0.00218,-0.000889,0.000655,0.000504,0.00086,0.00313,0.0018,-0.0015,-1.78e-05,-0.000899,0.00305,-0.00082,0.00226,-0.00214,-0.00716,-0.00233,0.0054,0.00175,0.00522,0,0,0,0,0,0.000242,0.000618,-0.000703,0.000243,0.00182,-0.00358,-1.96e-05,0.00134,-0.000314,8.85e-05,0.00119,-0.000723,0.000449,0.00246,-0.00445,-0.000212,0.00187,-0.000663,-0.00143,0.00101,-0.00128,0.000516,0.00383,-0.00427,-0.000308,0.00292,-0.000579,0,0,0,0,0,-0.00103,-0.00299,0.000476,0.000816,0.0014,0.000753,2.36e-05,0.000514,9.24e-05,-0.00104,-0.00387,0.000129,0.00118,0.00122,0.00087,0.000399,0.000625,0.000159,-0.00138,-0.00406,0.000193,0.0007,0.00126,0.00113,0.000325,0.0013,0.000656,0,0,0,0,0,-0.000647,0.000809,-0.000286,-0.0015,-0.00232,-0.00122,0.00221,0.00292,3.16e-05,0.000598,0.00212,0.00226,-0.00344,-0.00442,-0.00123,0.00163,0.00166,8.16e-05,0.000802,0.0034,0.00331,-0.00404,-0.00383,-0.000791,0.000651,0.00139,-0.00032,0,0,0,0,0,0.000191,-0.000249,-0.000823,-0.00136,0.00169,0.0006,-0.00174,0.000667,0.000902,0.000152,0.00019,-0.000606,-0.00204,0.00221,0.00118,-0.00273,0.000676,0.00117,9.08e-05,0.000253,-0.000906,-0.00198,0.00242,0.00145,-0.00306,0.000413,0.00138,0,0,0,0,0,5.24e-06,3.37e-05,2.13e-05,-8.23e-06,1.13e-06,-1.36e-05,-5.56e-05,-6.19e-05,-4.29e-05,6.56e-06,3.02e-05,3.16e-05,-3.27e-06,1.25e-05,9.51e-06,-4.75e-05,-3.04e-05,-1.01e-05,-4.29e-05,-6.36e-05,-5.09e-05,-1.53e-05,-2.93e-05,-1.75e-05,3.18e-05,3.83e-05,5.81e-05,0,0,0,0,0,0.000368,-0.00197,-0.00407,0.00143,0.00123,-0.000842,0.00235,0.00179,0.000215,0.00186,9.64e-05,-0.00218,0.00111,0.00183,0.000711,0.00121,0.00158,0.0015,0.00152,0.00291,0.00381,-0.00493,-0.00043,0.00294,-0.00808,-0.00442,-0.000345,0,0,0,0,0};
float f0_bias[32] = {0.0529,0.0655,0.207,0.533,-0.144,0.306,0.175,0.119,0.396,0.31,0.326,0.0923,0.0928,-0.187,-0.167,0.204,-0.392,0.156,-0.261,-0.245,-0.351,0.0774,0.0992,-0.192,0.479,-1.93,0.189,0.0818,0.034,0.163,-0.0035,-0.0987};
float f1_1_weight[32*32*1*1] = {-0.123,-0.137,0.26,-0.0579,-0.0636,0.186,-0.25,-0.228,-0.0189,-0.122,0.117,0.00691,0.249,0.12,0.186,-0.043,-0.153,-0.127,0.00472,0.0396,-0.141,0.0614,0.0996,0.044,-0.166,0.0357,0.17,-0.0267,-0.0266,-0.113,-0.00016,0.0895,-0.0918,-0.287,0.398,0.00938,-0.0332,0.00295,0.149,-0.0932,-0.131,-0.0871,0.0135,-0.185,-0.0917,0.152,-0.00384,0.135,-0.0252,-0.0938,0.133,0.0684,-0.238,0.0431,0.00188,-0.111,0.0288,0.137,-0.25,-0.124,0.124,0.133,0.00173,-0.113,0.112,-0.133,0.218,0.0335,-0.0453,-0.12,-0.0406,0.17,-0.159,-0.122,-0.0295,-0.274,-0.0465,-0.0613,0.0679,0.000425,-0.119,-0.112,-0.117,-0.00539,-0.134,0.0456,-0.0127,0.0863,0.0149,0.185,0.107,-0.00822,-0.0992,0.377,0.006,-0.123,0.104,-0.144,-0.117,0.0479,-0.0267,-0.138,0.0252,-0.312,0.099,-0.154,-0.0544,-0.21,0.128,0.185,0.174,0.0334,-0.118,0.194,0.128,-0.105,0.00274,0.0646,-0.0195,-0.166,-0.22,0.0701,-0.0662,0.114,0.0741,0.238,0.00578,-0.128,0.00247,-0.613,0.00338,0.03,-0.0422,0.0762,0.0213,0.118,0.347,0.342,-0.0993,0.145,0.168,0.0494,-0.14,0.0773,0.0426,0.185,-0.0636,-0.115,-0.00464,-0.0686,-0.21,-0.0151,0.146,-0.0338,0.0105,0.183,0.00816,0.000575,-0.000879,0.0106,-0.0891,-0.115,0.126,-0.0147,-0.043,-0.0657,0.169,0.086,-0.203,0.226,0.0128,0.124,-0.101,-0.0484,-0.181,-0.205,0.0858,-0.161,-0.0603,0.237,-0.0836,0.189,0.24,-0.0434,0.0911,-0.0246,0.124,-0.139,0.018,-0.134,0.0058,0.0313,-0.0622,0.0466,0.11,0.0655,-0.108,-0.345,0.0138,0.0531,0.146,-0.14,0.202,0.109,0.0901,-0.00212,-0.0955,-0.362,-0.0579,-0.00446,-0.0678,-0.105,-0.0311,-0.0378,-0.535,-0.022,-0.0824,-0.159,0.0393,0.226,0.139,0.0653,-0.00536,0.0055,0.0874,0.135,-0.204,-0.0465,0.121,0.0763,-0.272,0.15,0.0275,0.024,0.0266,0.144,-0.278,-0.28,-0.0338,0.0263,0.204,-0.236,-0.0213,0.148,0.125,-0.0427,0.00608,0.2,0.0534,-0.0716,0.136,0.0467,-0.0572,-0.169,-0.0041,0.188,-0.0587,0.635,0.0895,-0.287,0.227,-0.127,-0.0343,0.00914,-0.0503,-0.391,-0.174,-0.193,-0.0913,-0.0495,0.0942,0.0304,0.0727,-0.0972,0.0389,0.0466,-0.18,0.153,0.159,0.0618,-0.132,0.278,-0.0737,-0.00323,-0.0836,0.0177,-0.00355,0.106,0.0467,-0.0287,-0.238,-0.0785,0.102,-0.032,-0.0914,-0.227,0.131,-0.0913,-0.136,-0.218,0.12,0.0479,0.108,0.0621,-0.136,0.0962,0.223,-0.0802,0.105,-0.0584,0.0308,0.0477,-0.114,-0.0948,-0.252,0.0486,-0.0378,0.165,-0.0065,0.00228,-0.222,-0.114,-0.0223,-0.432,0.736,-0.119,0.03,0.00423,-0.00313,-0.185,-0.783,-0.137,-0.0909,-0.0495,0.0275,0.0569,0.0884,-0.0579,-0.0036,0.0617,0.00783,0.139,-0.0402,0.00247,-0.153,-0.0333,-0.0225,-0.141,-0.0242,-0.0433,-0.00197,-0.0817,0.04,0.0699,0.0113,-0.202,0.109,-0.00233,-0.101,0.0477,0.157,0.141,0.05,0.00899,0.0582,0.0673,-0.0111,0.201,-0.0192,0.0474,-0.0723,-0.0606,0.0154,0.387,-0.159,0.0339,0.406,0.502,0.0642,0.0889,0.0974,0.0771,-0.00277,0.121,0.123,0.000418,0.0128,-0.127,0.0759,0.256,0.0534,0.0482,-0.0119,0.223,-0.0611,-0.0413,0.00773,-0.00914,0.0136,0.28,-0.00638,-0.000574,0.0516,0.000344,0.0048,-0.279,0.552,-0.0197,-0.0853,0.295,-0.0718,0.0633,0.056,-0.0515,0.00533,0.125,0.173,0.494,-0.00229,0.0518,0.0245,-0.00603,-0.11,-0.0431,0.00614,-0.136,0.255,-0.0763,-0.0483,0.0294,0.111,0.0411,0.0474,-0.0671,0.0664,0.0569,0.0123,0.297,0.191,0.0565,0.00321,0.125,-0.0284,-0.0479,-0.0299,-0.00203,0.0109,0.107,0.0225,0.0507,0.0434,0.0205,0.167,-0.152,0.153,-0.28,-0.0609,-0.0907,0.00969,-0.0365,0.191,0.201,0.172,-0.196,-0.102,0.162,0.11,-0.0777,-0.073,0.0866,0.148,-0.224,-0.0995,-0.0376,-0.19,-0.134,-0.0322,0.181,0.00397,-0.197,-0.0687,0.0965,0.101,0.09,-0.113,-0.00801,0.346,-0.123,-0.126,0.144,0.175,0.12,-0.0538,0.104,-0.256,0.0894,0.0176,-0.102,0.169,0.174,-0.0944,0.0122,0.0233,-0.158,0.0495,0.0797,-0.0785,-0.182,0.116,0.109,0.0128,-0.188,0.106,0.0862,-0.171,-0.0164,0.0462,-0.0269,-0.0779,0.071,0.123,0.0093,0.119,-0.0264,0.278,0.211,0.0835,0.0376,-0.186,0.303,0.042,-0.291,0.101,-0.0188,-0.109,0.0179,-0.0381,-0.0261,-0.111,0.167,-0.0565,0.183,-0.00243,0.122,0.121,-0.0174,-0.221,0.00912,-0.0787,-0.0427,-0.314,-0.0693,0.0464,-0.114,0.0853,-0.0759,0.147,0.0203,0.203,-0.00217,-0.24,0.161,0.0903,-0.485,0.42,-0.0797,-0.00223,0.309,-0.0877,-0.154,-0.098,0.469,0.335,0.29,-0.00617,0.0138,-0.00312,0.274,-0.0686,-0.44,0.266,-0.0387,-0.0463,-0.0502,0.0809,-0.219,-0.297,-0.0995,-0.0197,-0.0659,0.0776,0.376,0.0324,-0.0791,0.048,0.111,0.0203,0.262,0.168,0.0267,-0.0984,0.33,-0.0328,-0.15,-0.0304,-0.0176,0.00618,0.0684,-0.283,-0.0544,0.107,0.335,-0.359,-0.178,0.0333,0.118,-0.104,-0.176,0.14,-0.046,0.014,-0.0971,-0.0202,-0.547,-0.0281,0.0209,-0.0562,-0.0448,-0.0513,-0.0428,-0.0852,-0.0533,-0.209,-0.407,0.0449,0.122,0.0873,-0.00427,-0.00728,-0.063,0.0451,-0.0838,0.169,-0.182,-0.0182,0.116,0.256,-0.174,0.011,0.00791,0.0246,-0.0613,0.186,0.242,-0.0407,-0.179,-0.109,0.0994,0.203,0.0119,-0.141,0.015,0.00275,-0.213,0.0215,-0.112,-0.299,-0.141,0.0665,0.0365,0.00555,-0.116,-0.0435,-0.0179,-0.0641,-0.0779,0.0321,0.188,-0.0788,-0.0178,-0.128,0.0564,-0.0449,-0.0243,0.167,0.0592,0.0183,0.145,-0.124,-0.35,-0.141,0.151,0.0189,-0.0758,-0.197,0.0744,-0.0431,0.17,0.346,-0.3,-0.146,0.00303,0.00321,0.0203,-0.169,0.0786,0.26,0.0505,0.0215,0.00736,0.324,-0.0202,-0.173,0.11,-0.0487,0.107,-0.101,-0.00908,-0.185,-0.0159,0.0288,-0.101,-0.00383,0.0721,-0.199,0.0499,0.00777,-0.145,0.0894,0.075,0.0733,-0.0216,0.0836,-0.0175,0.00666,-0.13,0.0478,-0.152,0.201,-0.00698,0.0136,-0.106,-0.426,0.117,0.115,-0.19,0.149,-0.0901,-0.00463,-0.251,0.264,0.0324,0.0569,0.0931,-0.0405,-0.15,-0.243,0.0722,0.15,0.216,-0.182,-0.0248,0.0521,0.19,-0.344,0.00554,-0.000333,0.137,-0.0293,0.0847,0.012,-0.0383,0.0227,0.073,-0.0881,0.125,0.211,0.192,-0.0588,0.158,-0.271,0.0521,-0.0964,-0.0461,0.42,0.146,0.0435,-0.0202,-0.0474,0.0305,-0.0315,0.0237,0.105,0.0548,-0.228,0.121,-0.0798,-0.427,0.00693,0.0997,0.0627,0.188,-0.569,0.00637,-0.0569,-0.0229,0.27,0.0894,-0.00587,-0.0604,0.0788,0.1,0.109,-0.0619,-0.176,-0.0744,-0.122,0.151,-0.105,-0.00868,0.326,-0.0669,0.11,-0.173,0.13,-0.29,0.164,-0.0912,0.149,0.135,-0.00594,0.028,0.171,-0.027,0.0568,-0.194,0.00528,0.12,0.00818,0.0886,0.171,0.181,0.225,0.0326,0.0561,-0.106,-0.0743,0.309,0.0494,0.0839,0.0245,-0.0195,-0.0467,0.419,-0.331,0.00422,0.2,0.236,0.00783,-0.0349,-0.0447,-0.0277,0.00908,0.0378,0.0848,-0.101,0.445,0.0333,-0.166,-0.0138,0.324,0.213,-0.0893,0.0537,0.118,0.374,-0.326,0.00486,-0.433,0.00259,0.279,-0.267,-0.0416,0.39,-0.28,-0.0809,0.0019,-0.0778,0.0102,-0.114,0.164,-0.203,0.24,-0.0995,0.00532,0.0118,0.0512,-0.00311,-0.278,-0.0114,-0.0946,-0.0253,-0.451,0.453,-0.0188,0.00463,0.0572,0.103,-0.0679,-0.0785,0.247,-0.0235,0.0815,0.0136,-0.332,-0.105,0.408,-0.0373,0.0442,0.283,0.0247,-0.0862,0.326,0.353,0.0917,-0.102,-0.00648,0.226,0.025,-0.356,0.108,0.365,-0.206,0.0528,0.0409,-0.00835,0.151,0.294,0.25,0.101,0.0725,-0.00997,-0.021,-0.25,-0.0074,0.0912,-0.0698,-0.0439,0.0125,-0.162,-0.169,-0.0528,0.176,-0.26,0.09,0.172,0.113,-0.0998,-0.00322,-0.101,-0.0862,0.11,-0.449,0.028,0.05,0.00335,-0.515,0.295,0.056,0.0235,-0.123,-0.1,-0.122,-0.126,0.0504,0.00834,0.144,-0.0848,-0.343,-0.115,0.384,0.0339,-0.000932,0.582,0.04,0.0717,0.224,0.117,-0.318,-0.275,-0.00391,0.146,-0.0844,0.8,-4.61e-05,-0.0775,0.0548,-0.138,-0.0661,-0.035,-0.255,-0.283,0.0393,-0.0444,0.0164,0.0411,0.134,-0.0817,0.0488,0.00201,0.0341,-0.0148,-0.0316,0.0864,0.015,0.0398,-0.101,0.0485,0.0304,-0.133,-0.144,-0.0202,0.00194,0.0842};
float f1_1_bias[32] = {-0.00773,0.133,-0.0143,0.119,0.369,-0.00396,-0.188,-0.00413,-0.242,0.122,-0.188,-0.0161,-0.214,0.0178,-0.22,-0.117,-0.125,0.104,-0.0178,0.232,0.048,-0.172,0.406,0.0916,-0.0519,0.218,0.0223,-0.159,0.102,-0.0684,0.133,-0.152};
float f1_2_weight[32*1*3*3] = {-0.114,0.589,0.0648,0.289,-0.913,-0.0719,-1.04,0.352,-1.17,0.503,-0.132,0.191,1.06,-0.0088,-0.98,-1.21,-0.452,0.254,-0.791,0.582,0.279,-0.109,0.277,0.166,-0.19,0.356,1.28,0.255,-0.795,0.829,0.473,0.816,0.601,2.06,-0.528,0.476,-0.111,-0.48,0.103,1.37,-1.54,1.26,0.0052,-0.462,1.41,-0.457,0.803,-1.83,-0.94,-0.348,-1.12,1.69,-0.388,0.718,0.639,-0.127,0.554,0.608,1.61,-0.249,-0.511,-0.911,0.512,1.44,0.0142,0.898,-0.132,-1.26,1.11,-0.0589,-0.0332,0.614,-1.45,0.678,-0.212,0.0333,1.47,-0.173,0.199,-1.15,-0.673,-0.712,0.348,1.11,0.1,-0.0135,0.0574,0.264,-0.231,0.375,1.12,-0.337,0.149,-0.996,-0.418,0.915,0.773,-0.378,-0.987,0.39,-1.32,-1.35,-0.346,-1.27,0.467,1.44,0.345,-0.00139,-0.186,0.0111,-2.41,0.199,-2.07,-0.415,-1.34,-0.852,-2.31,-1.25,-1.05,-0.435,-0.612,-0.974,-0.0368,-0.474,-0.256,1.29,0.455,0.277,-3.61,-1.46,3.19,1.61,-0.445,3.62,2.23,0.153,1.47,-0.16,1.01,-0.955,-0.335,-1.25,1.6,0.601,-0.454,-1.03,-0.44,0.138,2.96,2.32,-1.96,-2.28,2.95,-2.84,-0.351,-1.25,-1.16,0.33,1.42,0.134,1.13,-1.03,-0.255,-1.73,1.6,-1.7,0.272,1.4,0.516,-1.1,0.561,-0.134,0.474,-0.181,-0.0888,0.546,0.775,-0.357,1.1,1.12,-0.323,-0.453,-1.12,-0.946,-0.992,-0.634,-0.0995,-0.45,-0.7,-1.65,0.174,-0.266,-0.0983,-0.166,0.475,0.683,-0.723,1.25,-0.0412,-0.444,0.477,-0.61,-0.0783,-0.324,-1.19,0.0651,-0.609,0.715,1.15,-0.599,-0.293,-1.06,1.28,-0.402,0.972,0.677,-0.0197,0.505,-0.841,-0.262,0.415,0.58,0.0556,-0.739,1.05,0.0196,-1.83,0.458,0.00125,-2.48,0.202,-1.88,0.775,-1.34,0.684,-0.59,-1.8,0.0261,0.872,0.957,1.6,-0.868,1.14,-2.03,-2.26,0.62,1.83,0.766,0.336,-0.0409,-1.4,-0.538,-0.187,1.04,0.535,-1.81,-0.345,-0.181,-0.029,-0.293,0.851,0.735,-0.243,-0.362,0.394,-0.137,-0.0635,-0.146,-1.18,0.151,0.688,0.904,0.552,0.383,1.38,-0.578,0.298,-0.114,0.724,0.557,-0.402,0.0225,-1.28,-0.144,-0.26,-0.473,0.301,-0.841};
float f1_2_bias[32] = {-0.0491,-0.0545,-0.0239,-0.068,0.0565,-0.0123,0.526,-0.024,0.0365,0.0238,2.01,0.836,-0.0804,1.55,-0.0297,0.00894,-0.0451,0.575,-0.0395,-0.126,-0.0212,0.305,-0.214,0.0287,0.128,0.852,-0.0764,0.147,0.483,-0.0202,0.206,0.0346};

float f2_1_weight[32*32*1*1] = {0.0697,0.0428,0.0336,0.136,0.042,0.0987,0.00258,0.19,0.0885,0.148,-0.17,-0.197,0.0795,-0.549,-0.03,0.0433,-0.0224,0.00493,0.103,-0.046,0.000191,0.135,0.075,0.07,0.0579,0.0912,-0.0346,0.109,-0.0149,0.107,-0.101,0.143,-0.0503,0.0606,-0.122,0.31,0.23,-0.0925,0.00702,0.0541,-0.269,0.0224,0.0218,-0.0731,-0.251,-0.0681,0.203,-0.322,-0.136,0.00354,0.0849,-0.288,-0.0889,0.155,-0.136,0.0282,0.0707,-0.0949,-0.326,0.0351,-0.118,0.17,-0.11,-0.347,-0.0426,-0.169,0.0818,-0.0217,-0.011,-0.0124,-0.255,0.0838,-0.355,0.00527,0.179,-0.0537,-0.15,0.093,0.0827,-0.199,-0.0123,-0.0243,-0.152,-0.0642,0.0947,0.026,-0.103,-0.108,0.0544,-0.0725,-0.12,0.117,-0.0992,0.281,-0.0183,-0.226,0.153,-0.0427,-0.178,0.176,0.0185,0.135,0.12,-0.243,0.09,0.202,0.162,0.23,0.101,-0.134,-0.0743,0.0311,0.113,0.2,0.302,-0.0761,-0.158,0.0451,0.0519,-0.08,-0.0743,0.0055,0.135,0.227,-0.0662,-0.217,-0.282,-0.0311,0.0903,0.0669,0.11,0.148,0.074,0.0803,0.126,0.0869,-0.0707,-0.0475,-0.454,0.171,0.00681,0.134,0.146,0.000814,0.0798,-0.0357,-0.125,0.0368,0.121,0.217,-0.138,0.0632,0.222,-0.0255,-0.0249,0.023,0.075,0.136,0.112,0.00808,0.0761,0.142,0.147,0.0805,0.116,0.0976,0.0223,0.168,0.0357,0.176,-0.102,-0.279,0.0806,0.132,0.197,0.0535,0.0709,-0.14,0.0944,0.12,0.15,0.133,0.203,0.206,0.159,0.206,0.108,0.115,0.00843,0.13,0.244,0.228,-0.264,0.152,0.322,-0.138,-0.0544,-0.214,-0.0484,0.314,0.0448,-0.466,-0.00863,-0.0656,0.0442,-0.052,-0.0692,-0.0371,-0.448,-0.337,-0.332,0.147,0.265,-0.0536,-0.172,0.0363,0.021,-0.18,-0.00677,-0.181,0.257,0.216,0.216,-0.0593,0.0756,-0.0268,-0.137,0.0404,-0.0924,0.0428,-0.112,-0.148,-0.0418,0.0684,0.36,-0.274,-0.169,-0.296,-0.143,0.00722,0.0588,0.00226,0.11,-0.115,-0.146,-0.0664,0.0348,0.0481,-0.153,0.0689,-0.0836,0.0521,-0.167,-0.187,-0.121,-0.0325,0.168,0.246,0.0505,0.0633,-0.00835,0.186,-0.14,-0.309,-0.0809,-0.228,0.157,-0.0406,-0.225,0.121,0.116,0.0685,-0.0849,-0.0977,-0.0101,-0.217,0.0787,0.141,0.311,0.276,0.149,0.272,-0.0948,0.0274,-0.26,-0.196,-0.158,-0.295,0.303,-0.0732,-0.0646,0.0888,0.0677,0.213,0.24,-0.0443,0.0268,0.131,-0.306,-0.049,-0.0504,0.0105,0.102,0.00889,0.18,0.0104,0.109,-0.0152,-0.105,0.0542,0.199,0.0298,0.0556,0.23,0.0274,0.353,-0.302,0.05,-0.0866,-0.041,0.132,-0.133,-0.0708,0.0732,0.00746,0.1,0.0438,-0.169,-0.552,-0.101,0.158,-0.142,-0.0814,-0.0279,0.165,-0.308,0.141,0.0924,0.081,-0.176,0.00851,0.0818,0.0465,-0.133,0.115,-0.0704,-0.135,-0.0903,0.0412,-0.117,-0.207,0.00851,-0.155,0.136,0.117,-0.0201,0.42,-0.154,0.0941,0.249,0.131,-0.117,-0.0143,0.0311,-0.00487,-0.0736,0.00837,0.00335,-0.208,0.069,-0.0995,0.0267,0.154,0.0527,-0.257,-0.0365,0.0912,-0.212,0.0218,-0.233,-0.108,0.0316,0.465,-0.125,-0.00287,-0.168,-0.0536,0.169,0.13,-0.0186,-0.0244,-0.00744,-0.196,-0.0435,0.144,-0.0227,-0.229,-0.323,0.156,-0.195,-0.144,-0.104,-0.113,-0.103,-0.0706,0.139,-0.0375,-0.121,0.154,-0.069,-0.157,0.0769,-0.0763,0.259,-0.127,-0.264,0.000211,-0.197,-0.0213,0.544,0.225,0.0258,0.0376,0.0936,-0.301,0.141,-0.0667,0.0776,-0.103,0.0569,0.479,-0.245,-0.096,0.0742,0.12,-0.0251,0.0264,0.584,-0.261,-0.138,0.476,-0.178,-0.0779,0.0656,0.0188,0.197,-0.148,-0.164,-0.127,0.0359,0.218,-0.0673,-0.0121,-0.119,-0.133,0.117,0.0951,-0.098,0.0754,0.176,0.0215,-0.416,0.0185,0.063,-0.259,-0.135,-0.144,0.0316,0.181,-0.0461,0.0334,0.0369,-0.00368,-0.0347,-0.0787,-0.301,0.152,0.253,0.0274,-0.152,-0.0044,0.0791,-0.021,-0.108,0.0873,0.0432,0.0231,-0.042,0.0917,-0.084,0.0919,0.0107,-0.00475,-0.00412,-0.225,0.0462,0.123,0.203,-0.0562,-0.011,-0.0198,-0.0753,0.0931,0.0263,-0.101,0.0487,-0.0277,-0.395,-0.263,0.0914,0.407,-0.104,0.344,-0.192,-0.269,-0.0344,0.0021,0.289,0.078,-0.367,-0.122,0.376,-0.0832,-0.0556,-0.056,0.00237,-0.12,0.0139,0.214,0.237,0.336,-0.218,-0.237,-0.174,0.0279,-0.108,-0.25,0.1,0.0766,0.226,-0.288,-0.344,-0.342,0.0989,0.177,0.224,0.0689,-0.0271,-0.0939,0.14,0.218,-0.154,0.0311,-0.0237,-0.243,0.00987,0.0207,0.0322,-0.272,0.00947,0.146,0.161,0.103,0.0899,0.0572,-0.0301,0.148,0.353,-0.136,0.264,0.0644,-0.0477,-0.0291,-0.102,-0.144,0.335,-0.0642,-0.0909,-0.00832,-0.169,0.327,-0.135,0.337,0.00959,-0.166,-0.0574,-0.183,-0.0334,0.244,0.0782,-0.0281,-0.279,-0.0784,-0.275,0.373,0.441,-0.0805,-0.152,-0.0523,-0.058,-0.102,-0.0768,0.341,-0.0572,-0.229,0.19,-0.12,-0.0919,-0.11,0.213,0.283,-0.0712,0.0404,-0.074,0.163,0.173,0.0159,-0.0281,-0.0953,-0.145,-0.0495,0.0509,0.118,-0.0608,-0.191,-0.269,-0.0991,0.115,0.229,-0.00644,-0.0543,0.18,0.0703,0.000661,0.0128,-0.283,0.254,0.254,0.196,-0.161,0.00788,-0.209,0.142,-0.0406,0.0763,0.0214,0.148,0.0468,-0.0921,-0.0206,0.0115,0.0195,0.1,-0.434,0.019,0.0165,-0.0826,-0.0703,-0.231,0.0921,0.0791,0.0558,0.0471,-0.0945,0.0678,0.00495,0.0926,-0.381,-0.0699,0.158,-0.159,-0.000806,-0.332,0.143,-0.349,0.333,-0.0371,-0.438,0.0899,-0.362,0.0408,-0.339,0.0663,0.0997,0.114,-0.118,0.141,0.29,0.0128,-0.135,0.00721,0.0617,-0.509,0.283,0.159,0.153,0.21,0.191,0.0781,-0.0594,-0.0835,-0.0596,-0.0325,0.169,0.0723,0.0332,-0.139,-0.00934,-0.223,0.0583,0.11,-0.207,0.742,0.0961,-0.0594,0.0819,0.0972,0.0339,-0.125,0.0472,0.195,0.0799,0.21,0.105,-0.115,0.0339,-0.113,-0.102,-0.0363,-0.117,0.106,0.132,-0.00676,0.0951,-0.112,-0.135,0.159,-0.125,0.0714,0.0737,-0.0422,0.163,-0.19,-0.226,-0.0154,-0.0487,-0.0482,0.000988,-0.00875,-0.0138,-0.0231,-0.113,-0.113,-0.0497,0.0646,-0.0266,0.136,0.102,0.0871,-0.0493,0.117,-0.0154,-0.0574,0.172,-0.311,-0.143,0.038,-0.849,0.0181,0.0923,0.0504,0.00826,0.0523,0.0328,-0.227,0.0253,0.0119,-0.041,0.789,-0.481,-0.11,0.0726,0.00279,0.0601,0.0963,0.00492,-0.0478,-0.0968,0.0552,0.00948,0.0292,0.126,0.00923,0.0692,-0.0303,0.0757,0.0848,0.012,0.0485,0.0162,-0.14,0.0166,-0.0983,0.0862,0.281,-0.128,-0.303,0.105,-0.0439,0.0801,0.429,0.105,-0.203,0.363,0.0986,-0.0221,0.0254,0.0053,-0.175,-0.219,-0.0754,0.019,0.00838,0.0731,-0.0114,0.024,-0.198,0.113,0.0716,0.194,-0.00474,-0.075,0.015,-0.11,0.0362,0.124,-0.035,0.024,-0.277,-0.0566,-0.00112,-0.0362,0.192,-0.151,-0.127,0.48,0.201,-0.117,-0.138,-0.0541,0.0789,-0.123,0.0231,0.145,0.0713,-0.132,0.19,-0.055,-0.171,0.149,-0.195,0.008,0.108,-0.0589,0.0275,0.0212,0.0261,0.0101,-0.00723,0.0409,-0.0479,-0.0192,0.0631,0.0109,0.897,-0.601,-0.0283,-0.468,-0.0249,0.0512,0.0259,0.0152,0.178,0.00674,0.0246,-0.012,0.00183,0.0442,-0.0158,0.0208,-0.0163,-0.0493,0.044,-0.015,-0.0798,0.0262,-0.192,0.283,-0.0499,-0.211,-0.113,-0.204,-0.0466,0.129,0.189,0.00749,0.0153,-0.0283,0.0431,-0.165,-0.277,0.216,-0.047,-0.32,-0.115,0.0192,-0.0948,-0.284,0.373,0.428,-0.361,0.38,-0.032,-0.122,-0.181,-0.056,-0.0301,-0.00831,0.124,0.249,0.00237,0.00325,-0.00276,0.0935,0.207,0.0677,0.145,0.0505,-0.12,0.0235,0.0362,-0.0272,-0.00726,0.222,0.0813,0.0674,0.0909,-0.0445,0.017,-0.03,0.263,0.314,-0.0151,0.316,0.124,0.0642,-0.04,-0.0793,0.0513,0.137,-0.0621,0.219,0.161,-0.236,-0.853,-0.0446,-0.0911,0.0422,0.134,-0.0721,0.00459,-0.0651,0.0201,0.0304,-0.0904,0.173,-0.125,-0.293,-0.113,-0.0818,0.152,-0.206,-0.0447,0.14,-0.104,-0.00587,0.0177,0.2,0.146,0.0168,-0.0383,-0.156,-0.0353,-0.251,-0.117,-0.0923,0.0894,-0.0343,-0.0779,-0.0925,-0.0716,-0.067,0.292,0.0184,-0.156,0.213,0.0321,0.00862,-0.0234,0.206,0.0334,-0.0014,-0.0925,-0.139,-0.106,-0.267,-0.0559,-0.173,-0.105,-0.093,-0.1,-0.0658,-0.0284,-0.104};
float f2_1_bias[32] = {0.139,-0.0723,0.179,-0.00815,0.0447,-0.504,0.0422,0.43,0.000912,0.0203,-0.0307,0.0759,0.235,0.00703,-0.0877,-0.0508,-0.104,0.0681,-0.0493,0.103,0.0475,0.118,0.141,0.18,-0.365,-0.0455,0.054,-0.0234,0.124,-0.476,-0.0508,0.12};
float f2_2_weight[32*1*3*3] = {-0.193,0.0228,-0.0551,-0.331,-0.0785,-0.019,-0.00247,-0.369,0.074,-0.00377,0.0142,-0.177,0.0968,-0.000445,0.168,-0.0246,0.0856,-0.0745,-0.0322,0.116,0.0191,0.149,0.00562,0.105,0.359,0.11,-0.165,-0.0594,-0.00208,-0.317,0.051,-0.161,-0.676,0.00174,-0.82,0.0354,-1.34,0.0763,0.232,0.399,0.215,0.382,-0.227,-0.0159,0.239,-0.0453,0.313,-0.207,0.135,0.118,0.0704,0.331,0.102,0.515,-0.0251,0.0455,-0.0855,0.794,-0.066,0.699,-0.141,0.244,0.204,0.0323,-0.136,0.0577,-0.146,0.359,-0.0649,0.0872,0.0847,0.695,0.04,0.0753,-0.0287,-0.0965,0.202,-0.0271,-0.145,0.0505,0.0137,0.0267,-0.00282,-0.0293,0.0599,0.16,-0.215,0.0948,-0.4,0.133,-0.0652,-0.258,-0.0467,0.274,0.13,0.0599,0.233,-0.0351,0.458,0.319,-0.0118,-0.127,-0.17,-0.122,0.0119,0.0293,0.254,-0.00331,0.0853,-0.0375,0.145,0.126,-0.0671,-0.0419,-0.0462,0.239,0.225,0.0838,-0.0959,0.0977,0.705,-0.0541,-0.0178,-0.044,0.141,-0.938,-0.166,-0.375,0.348,0.881,1.18,0.68,0.477,0.929,0.515,-1.03,0.684,0.178,-0.366,-0.683,0.678,-0.869,0.659,1.53,0.666,-0.925,-0.891,0.105,-1.63,0.517,-0.946,0.934,0.348,0.212,-0.731,1.1,-0.849,0.0157,1.04,-0.237,-0.54,-0.0505,-0.314,-0.373,0.34,-0.0976,0.55,0.965,-0.0628,0.0632,0.185,0.27,0.117,-0.0939,-0.391,-0.271,0.317,-0.0635,0.0741,-0.0334,0.114,0.168,0.115,0.0179,-0.549,-0.122,-0.0456,0.0934,0.0252,0.357,-0.126,1.24,0.224,-0.0129,-0.0649,0.155,-0.0442,-0.123,0.057,0.109,-0.00073,0.129,-0.0552,0.0518,-0.255,0.013,0.0995,0.0987,0.0748,-0.047,-0.000759,-0.0172,0.158,-0.0579,-0.115,-0.0282,0.273,-0.217,0.269,-0.346,-0.0765,-0.156,0.142,-0.141,0.637,0.0941,0.0918,-0.0955,0.249,-0.22,-0.0616,-0.299,0.0396,-1.35,1.01,-0.256,-1.08,-0.00466,-0.236,0.0903,-0.0234,0.115,0.0339,-1.22,0.368,0.15,0.00994,0.0222,-0.517,-0.532,0.884,-0.845,-0.0214,0.0538,0.0452,-0.123,0.143,0.0605,0.0421,-0.0947,0.25,-0.123,0.104,-0.323,0.00155,0.012,0.163,-0.278,-0.00384,-0.0428,0.264,0.0813,0.028,0.0726,0.00501,-0.237,0.124,0.0214,-0.0869,0.00176,-0.106,-0.182,0.208,-0.303,0.0104,0.255,-0.00895,0.115};
float f2_2_bias[32] = {0.102,0.694,0.13,0.43,0.0962,0.433,0.57,0.102,0.391,0.198,0.423,0.295,0.274,0.609,0.814,0.00846,0.659,0.53,0.00567,0.26,-0.146,0.237,0.569,0.276,0.21,0.224,0.0654,0.19,-0.0284,0.184,0.473,0.0388};

float f3_1_weight[64*32*1*1] = {0.0591,0.196,0.0484,-0.141,-0.164,0.0915,-0.0355,-0.172,-0.0165,-0.0906,0.15,-0.0531,-0.165,0.00675,-0.0756,-0.0501,0.0297,0.172,0.468,-0.0938,0.00455,-0.123,0.022,0.153,0.0917,0.257,-0.105,-0.0413,-0.198,-0.0493,0.114,0.0357,0.082,0.0347,0.0747,-0.133,0.13,-0.491,0.204,0.0816,-0.0786,0.22,0.0787,0.112,0.0406,-0.0191,-0.00846,0.0318,-0.0505,-0.0178,0.000274,-0.0701,-0.168,-0.039,0.0911,-0.138,0.0222,0.185,-0.12,-0.0271,0.217,0.07,-0.0679,-0.113,0.0338,0.0713,0.0987,0.2,0.174,-0.0789,0.0951,0.0779,0.194,-0.149,-0.0547,-0.0117,-0.00792,0.354,-0.135,0.0639,-0.157,-0.0274,-0.198,-0.0675,0.0168,0.129,0.0319,-0.17,0.0545,0.0816,-0.00533,-0.0748,-0.368,0.198,-0.0945,-0.0171,0.105,-0.0118,-0.0461,-0.0689,-0.0738,0.157,0.528,0.098,0.0452,0.0841,-0.047,0.0212,0.258,-0.0359,0.0548,0.118,-0.231,0.112,-0.0553,-0.118,-0.0556,0.00825,-0.143,-0.153,-0.0153,0.0448,0.00668,0.0644,0.0477,0.107,-0.137,-0.0508,-0.112,0.169,-0.171,-0.152,0.013,0.026,-0.0707,-0.0857,0.0449,0.0724,0.121,-0.183,-0.211,-0.2,-0.0203,0.0314,-0.0144,0.0923,0.193,-0.0431,0.227,-0.0978,-0.261,-0.173,0.00319,-0.058,0.00964,-0.548,0.000404,-0.029,0.0388,0.121,-0.123,-0.109,0.0441,-0.181,-0.0112,-0.00541,-0.0111,0.0351,0.00989,-0.181,0.0363,0.0886,0.0166,0.14,0.00199,-0.125,0.195,-0.0372,0.171,0.257,-0.00386,-0.0231,-0.221,0.0484,0.079,-0.00839,-0.0084,-0.067,-0.188,-0.452,-0.0976,0.178,-0.0144,0.145,0.235,0.314,-0.272,0.087,-0.0311,0.199,-0.0653,0.0335,-0.0877,-0.024,-0.151,-0.109,0.153,0.181,0.0819,0.221,-0.341,0.00537,-0.012,-0.0578,0.056,0.267,0.119,-0.0358,-0.207,0.0255,0.249,0.0671,0.163,0.0193,-0.199,-0.0621,0.0873,-0.0987,-0.0298,-0.156,-0.0623,-0.0222,-0.0109,-0.109,0.0223,0.332,0.105,-0.107,0.046,-0.383,0.0532,-0.0363,-0.0416,-0.18,0.0892,-0.088,-0.0646,-0.221,0.0297,0.0657,0.167,-0.0864,0.157,0.0374,0.382,-0.126,0.104,-0.246,-0.00115,0.024,0.156,-0.0702,0.34,-0.099,0.114,-0.0174,-0.0162,-0.0798,-0.154,0.32,-0.139,0.112,-0.0149,-0.0528,0.0771,0.211,0.12,-0.211,-0.166,0.0619,-0.218,-0.0126,0.0685,0.00875,-0.00681,-0.0388,-0.0767,-0.284,0.249,-0.155,-0.0947,0.139,0.139,0.171,-0.0117,0.102,-0.1,-0.0336,-0.0919,0.158,-0.134,0.0395,-0.0516,0.0789,-0.0134,-0.208,-0.162,-0.203,-0.0906,1.5e-05,0.253,0.00209,-0.0707,-0.00791,0.158,0.00325,0.0382,0.233,-0.00437,-0.149,0.12,0.0581,0.0199,-0.0781,-0.031,-0.127,0.232,0.281,0.0274,0.0231,-0.129,-0.0692,-0.172,0.119,0.125,0.0215,-0.442,-0.00887,0.123,-0.0368,-0.0109,0.14,-0.00316,-0.0576,-0.0137,0.13,0.0483,0.033,-0.183,0.0696,-0.115,-0.204,-0.12,0.148,-0.139,0.0251,-0.0185,0.0981,-0.131,0.0468,-0.113,0.035,-0.157,-0.0709,-0.0397,-0.218,0.258,0.13,0.00959,0.189,-0.0382,0.0189,-0.0258,-0.145,-0.0353,0.108,0.0625,-0.0225,-0.0221,-0.159,0.276,0.038,-0.0862,-0.0117,0.194,0.0118,0.061,-0.118,-0.043,-0.0962,-0.0664,-0.0237,0.166,-0.0048,-0.0534,0.000777,0.217,0.0636,0.197,0.0257,-0.253,-0.0359,0.0937,-0.303,-0.0899,0.226,0.12,0.14,-0.21,-0.111,0.148,0.0579,-0.189,-0.09,-0.0091,-0.00321,-0.0508,-0.267,-0.134,-0.0257,0.059,0.254,-0.212,0.0773,0.0164,0.126,0.0811,-0.086,0.0411,-0.153,0.00525,0.00411,0.104,-0.291,0.0231,0.029,0.0634,-0.157,0.128,-0.211,0.103,-0.142,-0.0629,-0.0332,0.214,0.19,-0.0509,0.0458,0.13,-0.103,0.0754,-0.00663,0.00303,0.027,0.271,0.00473,-0.115,0.0655,0.162,-0.0131,-0.0371,-0.0062,0.0284,-0.0805,-0.371,0.112,0.0144,0.117,-0.00641,-0.173,-0.0422,-0.043,-0.0374,-0.07,0.027,-0.0307,-0.185,0.218,-0.109,-0.127,-0.0265,-0.0413,-0.0382,-0.127,0.183,0.155,-0.243,-0.0213,0.0161,-0.148,-0.148,-0.0474,-0.103,-0.0899,0.00867,-0.0865,-0.157,-0.189,0.277,-0.109,0.0636,-0.0909,0.0764,-0.17,0.109,0.0496,0.147,0.0366,-0.171,0.00671,-0.00558,0.0375,-0.0922,-0.0833,0.0795,0.0229,0.209,-0.147,0.0187,-0.176,-0.0611,0.00914,-0.0106,0.0451,0.0421,0.264,0.0363,-0.0744,0.139,0.162,0.264,0.0487,0.0173,0.0986,0.101,0.03,-0.127,-0.0886,6.82e-05,0.0508,-0.16,-0.0985,-0.00757,-0.0846,-0.107,0.0781,-0.23,-0.163,0.00537,0.0855,0.0354,-0.0173,0.122,0.142,0.282,-0.00793,-0.00305,-0.0608,0.0357,-0.0808,-0.104,0.163,-0.0884,-0.00349,0.151,-0.00181,-0.2,0.073,-0.108,-0.00396,-0.236,0.166,-0.131,0.0763,-0.00291,0.0541,-0.0296,-0.234,-0.0652,-0.0925,-0.0473,0.0286,0.0145,0.271,0.245,0.0684,-0.248,0.0108,-0.0729,0.279,0.0176,-0.0311,0.0913,0.0656,-0.119,-0.00488,0.227,0.0392,-0.0491,0.0861,0.0201,-0.0803,0.115,0.0999,-0.174,0.0317,0.0793,-0.12,0.135,0.224,0.0336,0.237,0.207,-0.0958,0.046,-0.141,-0.0428,-0.0182,-0.113,0.107,0.0619,-0.259,0.0925,-0.0417,-0.151,0.0235,0.0516,-0.0746,0.125,0.115,-0.0625,-0.0979,-0.0416,0.0324,0.122,0.0212,0.198,-0.134,-0.0194,-0.0678,-0.0766,0.294,-0.0681,0.00551,-0.0107,0.185,-0.154,-0.0286,-0.125,-0.15,-0.144,0.00402,0.191,-0.233,0.193,0.0646,0.0883,-0.0711,0.085,-0.00611,-0.141,0.0293,0.152,-0.145,0.07,-0.0489,0.0948,-0.0652,0.23,0.109,0.0117,0.0224,0.139,-0.294,0.0376,0.239,-0.0678,-0.0816,-0.0393,0.134,-0.354,-0.102,0.102,0.0388,0.0782,0.289,0.0274,0.0643,0.00479,0.117,-0.0427,-0.153,-0.131,0.0713,0.123,-0.198,0.0217,-0.0664,-0.015,0.0958,-0.0249,-0.118,0.00623,0.0563,0.229,-0.227,-0.0558,0.101,0.0634,0.194,-0.0307,0.206,-0.357,0.09,0.15,-0.00998,0.0798,0.196,-0.12,-0.0191,-0.043,0.0228,-0.115,-0.119,0.0665,0.134,0.191,0.153,-0.00917,-0.0899,0.136,-0.0865,-0.0793,-0.066,-0.0825,-0.0355,-0.101,-0.0738,0.191,-0.0376,-0.0784,-0.319,0.0425,-0.0366,0.204,0.219,0.451,0.19,-0.0551,-0.0662,0.118,-0.112,-0.122,-0.227,-0.0995,-0.033,-0.176,-0.0456,0.0136,-0.0737,-0.0711,-0.154,-0.119,0.0872,0.154,-0.118,-0.263,-0.0968,-0.0347,-0.0425,-0.0602,0.000958,-0.105,0.073,0.116,-0.167,0.247,-0.115,-0.178,-0.0203,0.0657,-0.0667,-0.182,-0.0454,-0.0313,-0.0769,-0.182,0.00292,-0.0796,0.0326,-0.0316,-0.0157,0.0187,-0.4,0.298,-0.238,0.051,-0.0236,-0.0547,-0.0396,0.0641,-0.0191,-0.132,0.333,0.246,-0.157,-0.239,0.0935,-0.077,-0.134,0.0262,0.00629,-0.227,-0.0232,-0.0334,-0.00682,0.218,-0.0888,-0.049,-0.149,-0.0286,0.0935,0.0638,-0.154,0.0684,0.143,0.148,-0.168,0.079,-0.124,-0.16,-0.115,0.207,-0.0182,0.0499,-0.0165,0.0149,0.172,0.0826,0.099,-0.00277,-0.0136,-0.0992,-0.398,0.0384,0.0278,-0.0158,0.187,-0.196,0.0324,0.0849,0.0178,0.0359,0.00557,-0.0276,0.2,0.0402,-0.0167,0.156,-0.0876,0.0996,-0.0595,-0.209,0.0738,-0.0197,0.0234,-0.243,0.00406,0.034,0.206,-0.128,0.0392,0.0817,-0.187,-0.125,0.132,0.0697,-0.225,-0.201,-0.0507,0.0404,0.119,0.119,0.00776,0.0705,-0.242,0.00974,0.0733,0.0179,-0.0495,-0.0408,-0.0838,0.0965,0.214,-0.0519,-0.0948,0.0165,0.136,0.065,0.186,-0.125,0.0123,0.158,0.0537,0.0285,-0.0531,0.036,0.0109,0.0251,-0.296,-0.143,0.117,-0.402,-0.0491,-0.0811,-0.147,-0.152,-0.0734,0.0273,-0.0658,0.175,-0.0525,0.0192,0.0454,0.00353,0.0571,-0.108,0.0273,0.096,-0.267,0.164,-0.0227,0.204,-0.216,-0.247,-0.0503,-0.0389,-0.0363,-0.0171,0.125,0.444,0.183,0.0548,0.0884,-0.103,-0.0171,-0.0351,0.0377,-0.132,-0.129,0.249,-0.208,0.0177,-0.0462,0.0876,0.265,-0.0316,0.0281,-0.264,-0.064,-0.0566,0.0303,0.133,0.207,0.122,-0.192,-0.0736,-0.0939,-0.000375,-0.0909,-0.157,-0.256,-0.136,0.12,-0.297,-0.0116,0.136,-0.0532,0.107,-0.0979,-0.00211,-0.0065,0.0307,0.0329,-0.153,0.0721,0.0617,0.09,-0.0568,0.152,-0.171,-0.224,-0.145,-0.153,0.0221,-0.241,0.201,-0.331,-0.167,0.0697,0.046,0.191,0.0613,-0.19,-0.128,0.267,0.0365,-0.113,0.18,-0.033,-0.0345,0.0783,0.161,-0.361,-0.0704,-0.124,-0.131,0.126,-0.0987,0.0448,-0.235,0.0135,-0.00419,0.0477,0.00662,-0.0905,0.0944,-0.0736,-0.193,-0.18,0.0258,-0.0695,0.063,0.0613,0.0433,0.0731,0.143,-0.00636,0.074,-0.0431,0.0525,-0.0552,-0.0262,0.0308,0.0401,-0.0358,0.0757,-0.18,-0.22,-0.0416,0.397,-0.584,0.117,-0.118,-0.00529,-0.2,0.00251,0.0512,0.142,0.186,0.105,-0.115,0.0579,0.058,-0.227,0.119,0.103,-0.0114,-0.0053,-0.14,0.177,-0.0997,-0.0248,0.0943,0.175,0.168,-0.0539,0.0792,0.0133,-0.0811,0.209,0.16,0.12,-0.136,0.158,-0.0863,0.171,0.0994,0.135,0.0261,0.00733,-0.0901,-0.0387,-0.282,0.144,0.103,0.118,-0.129,0.1,0.0976,0.0139,0.0526,-0.0991,-0.00957,-0.16,0.0853,-0.0774,-0.068,-0.0561,0.0305,-0.122,0.0703,0.233,-0.162,0.0402,-0.329,-0.245,-0.0636,-0.0616,0.0989,-0.12,0.0701,-0.0232,0.0675,-0.041,0.13,-0.00864,0.25,-0.122,0.194,-0.0189,0.317,0.0509,-0.137,0.105,-0.399,-0.158,0.095,-0.061,-0.145,0.0417,0.0186,-0.142,-0.14,0.0255,-0.0164,-0.15,-0.0113,0.0723,0.00116,0.444,-0.116,-0.0178,0.148,-0.00809,-0.242,-0.0452,0.18,-0.261,-0.0831,0.132,-0.0704,0.204,-0.0463,0.035,-0.0512,-0.0774,-0.198,-0.196,0.172,0.0179,-0.344,0.0798,0.369,-0.18,0.0274,-0.214,-0.037,-0.0859,0.0134,-0.214,-0.0377,-0.0334,0.011,-0.0819,-0.00423,0.0956,0.0242,-0.108,-0.00539,0.0257,0.263,0.0625,-0.0497,-0.0238,-0.027,0.0459,0.00702,0.0174,0.0988,-0.0397,-0.0507,-0.0572,0.053,-0.0332,-0.00419,-0.0468,-0.0211,-0.695,0.175,0.0739,-0.00739,-0.0504,-0.212,-0.128,0.186,0.0283,-0.0622,-0.0777,0.187,-0.0457,0.347,-0.155,0.0347,0.164,-0.0354,-0.16,-0.039,0.0743,0.0298,0.139,-0.102,0.00601,-0.108,-0.243,-0.112,-0.191,0.0989,0.107,0.181,0.0577,-0.00508,0.0394,-0.0172,0.106,0.487,0.00517,-0.122,-0.174,-0.0363,0.0139,0.0984,0.0783,-0.0376,-0.181,-0.221,0.0234,-0.0297,-0.129,-0.0985,0.159,0.157,-0.012,-0.0563,0.441,-0.034,0.0271,0.0488,0.194,0.17,0.147,0.00868,-0.0386,-0.138,-0.0887,-0.0956,0.0852,-0.179,0.0795,-0.0119,0.136,-0.0546,-0.0177,-0.101,-0.0679,0.317,0.012,0.00133,0.102,-0.189,-0.135,0.0101,-0.2,0.0333,-0.105,0.0852,-0.0158,-0.168,-0.124,-0.0838,0.0738,0.046,-0.159,0.027,0.0313,-0.177,0.155,-0.0836,-0.143,0.0458,-0.115,-0.059,0.0786,-0.0648,0.153,-0.143,0.108,-0.202,0.0688,0.00809,-0.327,-0.0545,0.0628,-0.14,0.1,0.0555,-0.118,0.125,0.279,0.233,-0.122,0.0494,0.0975,-0.00179,-0.00826,0.197,0.0808,0.186,-0.0452,0.054,0.4,0.123,0.0838,0.0656,0.0452,-0.0711,0.039,-0.0681,-0.0494,0.0546,0.0705,-0.0376,-0.13,-0.0623,0.0404,-0.101,0.293,0.102,0.201,0.0257,0.0116,-0.259,0.0917,0.131,-0.199,0.0826,0.219,0.0093,0.0319,0.0666,-0.0736,0.0358,0.00734,-0.0438,-0.206,0.0821,-0.00324,-0.00675,0.118,0.0405,0.183,0.169,-0.0615,-0.0773,-0.0123,-0.0382,-0.0685,-0.167,0.198,0.179,-0.0959,-0.222,-0.0208,-0.224,-0.0523,0.0952,0.0775,0.0519,-0.0508,0.054,-0.273,0.272,-0.00821,0.372,-0.159,-0.0916,0.191,0.131,0.179,-0.00572,-0.0858,0.0128,0.0333,0.16,0.0991,-0.102,0.124,-0.265,0.166,0.13,0.0354,0.00623,0.146,0.128,-0.2,-0.121,-0.249,0.0645,-0.0608,0.0516,-0.0421,0.0406,0.337,0.0488,0.113,0.0647,-0.0642,-0.253,0.121,0.272,0.107,-0.135,-0.0496,-0.0505,-0.134,0.204,0.117,0.22,-0.391,0.193,0.0807,-0.0962,-0.0126,0.153,-0.129,0.0288,0.0479,0.194,0.167,-0.0572,-0.0189,-0.0248,-0.221,0.0311,-0.0196,0.104,0.193,0.0769,0.0224,0.0142,-0.221,-0.0421,-0.124,0.251,-0.103,-0.0963,0.0335,-0.194,-0.0866,-0.00237,0.258,-0.19,0.129,0.0338,0.31,-0.238,0.114,-0.0149,0.104,0.0135,-0.175,0.0295,0.0387,0.168,-0.0559,0.0166,0.169,0.0325,-0.078,0.114,0.111,-0.125,0.0468,0.132,0.0289,-0.137,-0.184,0.0424,0.0296,0.13,-0.322,0.0557,-0.0376,0.0382,-0.00264,0.00354,0.169,-0.288,0.164,-0.0496,-0.191,-0.0257,-0.0684,0.0545,-0.0217,0.176,0.065,0.0541,0.0688,0.254,-0.0687,0.105,-0.0747,-0.0343,0.0536,-0.0477,0.0948,0.029,0.126,-0.0106,-0.000625,-0.16,0.0508,-0.099,0.00185,-0.039,0.0895,-0.138,0.0163,-0.0756,-0.0798,0.169,-0.111,0.226,-0.00339,0.119,-0.0689,0.128,-0.02,-0.0493,0.00448,0.0857,-0.0997,-0.109,0.0887,-0.00976,-0.362,-0.118,0.0197,-0.0254,0.0315,-0.093,0.0508,0.105,0.319,-0.00162,-0.123,0.116,0.0127,-0.25,-0.0799,-0.0366,-0.0178,0.139,-0.171,-0.00044,-0.187,-0.265,0.0667,-0.209,0.0609,0.134,-0.0742,0.0592,-0.0778,-0.023,0.126,-0.029,-0.00157,-0.0507,0.122,-0.0472,0.244,-0.302,0.0778,-0.287,0.113,-0.0844,-0.0439,-0.0748,-0.16,-0.105,0.144,0.0498,-0.00851,0.011,-0.286,-0.0449,0.0199,-0.13,-0.0304,-0.0518,0.0803,-0.0791,-0.0371,0.0881,0.0601,0.0241,0.0375,-0.232,-0.0176,0.244,0.0588,0.0293,0.171,-0.0714,-0.12,-0.13,0.256,0.216,-0.0643,0.0821,-0.127,0.109,0.0501,0.00716,0.231,0.112,-0.249,0.122,0.0651,-0.162,0.034,0.0442,0.0503,-0.11,0.0749,-0.103,0.0315,0.066,0.0446,0.0361,0.127,0.21,0.0688,-0.00027,-0.0303,0.083,0.0715,0.177,0.0872,-0.0688,0.024,-0.221,-0.116,-0.277,-0.066,-0.0732,-0.166,0.0697,-0.0687,-0.0178,-0.0336,0.149,0.178,-0.0657,-0.161,0.151,0.0348,0.132,0.0629,-0.0944,0.0125,-0.072,0.0401,0.0281,0.046,-0.0438,-0.033,-0.0996,-0.00793,-0.367,0.0442,-0.178,-0.205,-0.193,0.275,0.23,0.1,0.198,-0.17,0.00667,0.148,0.253,0.00799,-0.0166,0.104,0.0249,-7.22e-05,-0.224,-0.159,-0.0775,0.0105,0.164,0.0924,0.138,-0.0136,0.049,-0.128,0.29,0.136,0.0514,-0.0252,-0.324,0.0391,-0.0342,-0.1,0.246,0.069,-0.0583,-0.208,-0.0371,0.0365,0.0851,0.0444,0.0966,0.0454,0.0417,-0.06,-0.145,-0.0404,-0.229,0.0233,0.038,-0.0635,0.0304,0.0708,0.138,0.0983,-0.0203,-0.054,0.0011,-0.206,0.0377,0.00513,0.284,-0.0767,-0.0569,0.0639,-0.139,-0.0379,-0.174,-0.0204,-0.244,-0.144,0.0365,-0.122,-0.199,-0.165,-0.157,0.0718,-0.0975,0.0377,-0.00812,0.126,-0.0631,0.0177,-0.106,0.0954,0.133,-0.0966,-0.0647,-0.077,0.273,-0.0718,-0.0522,-0.062,0.175,-0.121,-0.0791,0.00508,-0.124,0.0646,-0.025,-0.00896,-0.349,0.0225,0.202,-0.0853,0.13,-0.0155,0.0406,0.162,0.0278,-0.117,0.0447,0.131,0.143,0.0163,-0.0505,0.323,0.078,0.0346,0.0446,-0.00633,-0.122,0.057,0.155,-0.06,0.157,-0.0907,0.197,-0.097,0.232,0.0751,-0.0974,-0.101,0.0389,-0.135,0.0935,0.142,-0.152,0.00715,0.114,-0.0734,-0.141,-0.0866,-0.0585,-0.0127,0.169,0.0193,0.245,-0.124,-0.116,0.156,-0.05,-0.0732,0.104,0.159,0.0499,-0.178,-0.197,0.0809,0.194,-0.0649,0.084,-0.0535,0.0415,-0.00726,-0.223,-0.299,-0.062,0.103,0.169,-0.202,0.0572,0.161,-0.0697,-0.215,-0.02,-0.0522,0.0987,-0.0741,-0.0353,0.112,0.0354,0.125,-0.102,0.0327,-0.02,0.0648,0.0203,-0.00355,-0.0748,0.147,-0.0873,-0.0934,-0.0422,0.00855,0.0489,0.0488,0.342,-0.0822,-0.0608,-0.00994,0.236,0.0459,-0.0486,-0.093,0.179,-0.0686,0.144,-0.118,-0.028,-0.0561,-0.113,-0.151,-0.153,0.0522,-0.0828,-0.347,0.204,-0.0298,0.158,-0.0889,0.0804,0.104,0.0221,-0.0107,0.158,-0.000655,0.168,-0.0625,0.107,0.12,0.142,0.1,-0.328,-0.158,0.0177,-0.19,0.135,0.309,-0.234,0.163,-0.0217,0.13,-0.00216,0.0527,0.0641,0.0533,0.127,0.0534,-0.0725,0.0349,0.252,-0.0529,0.312,0.0145,0.0788,-0.186,0.139,0.118,0.0971,0.0396,-0.255,-0.156,0.0704,0.0749,-0.177,-0.0477,0.00858,-0.0516,-0.147,0.111,-0.064,0.0087,-0.045,0.08,0.0171,0.0176,-0.0104,-0.00489,0.221,-0.014,-0.0584,-0.192,-0.121,-0.131,0.21,-0.0131,0.0655,0.0572,0.0525,-0.00583,0.0406,0.149,-0.0384,-0.0566,-0.0492,-0.0406,0.104,-0.145,0.139,0.121,-0.0102,-0.188,0.179,0.00631,0.0738,0.0849,-0.136,-0.0288,-0.00573,0.344,0.126,0.175,-0.0569,-0.0913,0.119,0.084,0.0827,-0.00686,0.0732,-0.455,0.0842,-0.00829,0.00022,0.124,0.167,-0.0475,0.175,0.0558,-0.077,-0.423,0.164,0.286,0.0388,0.0458,0.164,0.0735,0.0805,0.194,-0.0865,0.188,0.0527,0.0311,-0.122};
float f3_1_bias[64] = {0.0875,0.0204,0.0557,-0.0811,0.0231,0.0853,0.0171,-0.103,0.054,-0.0977,0.0543,-0.0646,0.277,0.0212,0.128,0.0479,0.31,0.019,-0.168,0.0299,-0.232,0.0653,-0.185,0.139,-0.168,0.103,0.151,0.126,-0.0479,0.0135,0.203,0.159,-0.0456,-0.066,0.0119,0.0663,0.11,-0.0409,-0.232,0.0404,0.142,-0.07,0.024,0.131,0.0454,0.0578,-0.0153,-0.115,0.0523,0.0726,0.301,-0.146,-0.0729,0.0117,-0.00431,-0.013,-0.0988,0.0414,-0.0415,0.203,-0.0411,-0.132,0.185,-0.0827};
float f3_2_weight[64*1*3*3] = {-0.0772,0.523,0.174,-0.351,0.184,0.352,-0.00788,0.478,0.214,0.461,0.696,-0.45,0.387,0.167,-0.146,-0.594,-0.397,-0.157,-0.377,-0.935,-0.0542,-0.343,0.128,0.153,0.34,-0.0346,0.101,0.43,0.472,-0.192,-0.19,-0.0901,0.136,-0.34,0.211,0.0728,0.162,0.648,-0.0753,0.282,0.957,0.112,1.22,-0.0282,0.146,0.17,-0.379,0.81,0.0234,-0.294,0.0361,0.0483,-0.225,0.455,-0.439,-0.462,-0.476,0.488,0.935,0.0694,0.139,-1.74,-0.753,0.153,0.0854,0.126,-0.0889,-1.12,1.3,0.244,-0.142,0.584,-0.144,-0.0351,0.37,-1.05,-0.0604,0.65,-1.29,-1.12,-0.689,0.431,-0.275,2.63,-1.83,1.09,-1.04,0.235,1.2,-0.138,0.577,0.337,0.455,-0.408,2.2,-0.126,-0.00324,0.0668,0.872,-0.48,0.423,0.207,-0.203,-0.979,-0.491,-0.831,-1.81,-0.311,-0.0344,0.31,0.979,1.41,0.587,-0.0881,1.41,0.385,-0.579,1.45,0.178,-0.18,-1.27,0.393,-0.155,-0.878,-0.22,-0.695,-0.361,-0.442,-0.277,-0.611,-0.129,-0.539,0.427,0.0472,-0.149,-0.0369,-0.0512,-0.37,-0.0466,1.4,-0.0413,0.546,-1.2,-0.645,0.827,-0.0739,0.0097,-0.468,-0.398,0.264,-1.04,0.108,0.291,-0.214,0.341,-0.103,-0.653,-0.15,0.52,0.173,0.356,-0.47,0.26,-0.385,-0.231,0.242,-0.689,-0.353,-0.761,0.166,-0.453,0.00627,-0.184,0.0159,0.119,0.243,-0.674,-0.34,0.502,0.0171,0.0873,0.0992,-0.126,0.655,-0.502,0.118,-0.0987,0.709,-0.189,0.0319,0.287,-0.0507,-0.0427,0.428,-0.0743,-0.523,0.0272,0.544,0.492,0.605,0.154,0.495,0.663,-0.0815,0.0644,-0.0913,-0.105,0.0405,0.793,-0.315,0.619,-0.149,0.22,-0.341,0.439,-0.369,0.538,-0.35,-0.342,-0.0931,0.611,-0.528,-0.503,0.209,0.419,0.0443,-0.223,-0.0404,0.225,0.554,0.135,0.468,0.982,0.0176,0.346,0.0394,-0.242,0.629,0.598,0.447,-1.28,-0.167,0.181,-0.227,1.45,0.0453,-0.595,-0.896,0.0477,0.387,1.53,-1.49,-0.263,-0.755,-1.48,0.339,-0.48,1.81,-0.848,0.308,-0.421,0.12,-0.629,0.632,0.756,0.531,-0.0335,-0.754,0.0553,0.0549,1.5,1.23,-1.73,-0.857,0.619,-0.232,0.512,-1.81,1.1,1.29,-0.937,-1.24,-0.532,0.666,0.183,-0.49,-0.116,0.713,1.52,-1.28,0.0939,-0.292,0.866,0.342,-0.43,0.569,-0.536,1.19,-0.857,-0.523,-1.99,-0.485,1.46,-1.07,2.03,0.0979,-0.637,0.0442,-1.78,-0.523,1.03,0.588,1.32,0.425,-0.807,0.534,-1.15,1.7,1.09,-1.97,-0.25,-0.56,-0.837,0.184,0.226,-0.609,0.105,-0.112,0.651,-0.899,-0.444,0.815,0.615,0.326,-0.0798,0.0758,0.268,-0.876,0.0913,-0.376,0.0928,-0.539,-0.163,-0.0217,0.538,0.383,0.131,-0.88,-0.859,-0.121,0.16,-0.429,0.292,1.42,0.271,-0.684,0.6,-0.402,-0.699,-1.04,-0.632,0.373,0.272,-0.711,0.863,-0.323,-1.02,-0.226,0.218,-0.247,0.392,-0.0853,-0.211,-0.148,-0.519,0.555,0.0668,-0.0112,-0.198,0.998,0.0647,0.0088,0.59,0.144,-0.0161,0.415,-0.00324,-0.0111,0.0534,1.25,-0.0744,0.272,0.013,0.126,0.135,0.224,-0.0411,-0.439,-0.08,0.309,0.732,0.261,0.828,0.00771,-0.121,0.335,-0.0848,0.533,0.000855,-0.479,0.0529,0.11,0.195,-0.237,-0.1,0.246,0.396,0.139,-0.411,-0.077,0.0482,0.159,0.216,0.14,-0.105,-0.347,0.254,-0.238,-0.234,0.283,0.14,-0.341,-0.386,0.767,0.186,-1.04,0.198,-0.13,-0.726,-0.603,0.231,0.298,-0.0685,-0.478,-0.367,-0.108,0.366,0.198,-0.677,-0.192,0.58,0.362,-0.176,0.239,-0.964,-0.0962,-0.153,-1.43,-0.282,0.00866,-0.289,-1.66,0.53,0.0407,-0.223,1.63,-0.0458,-0.62,0.561,0.664,0.166,0.764,-0.726,0.375,-1.48,-0.495,0.343,0.0874,-0.542,0.707,0.582,-1.02,0.0809,-0.142,0.094,0.529,0.329,0.504,0.188,0.719,-0.0538,0.131,-0.562,-0.807,-0.104,-0.399,0.27,0.761,-0.151,-0.409,0.988,-0.171,2.21,0.162,0.0507,0.0395,-0.0591,0.295,0.101,0.0255,0.102,0.405,-0.612,0.0268,0.102,0.154,0.0211,0.144,-0.262,0.385,0.659,-0.324,0.0576,-0.0965,1.04,-0.25,0.0124,0.381,-0.472,0.168,-0.0337,-0.00342,0.108,0.384,0.271,0.395,0.144,-0.0813,-0.314,-0.681,-0.422,-0.125,-0.127,-0.0165,0.189,0.661,0.194,-0.0978,-0.28,0.143,-0.444,-0.299,-0.231,0.244,0.0372,-0.802,0.158,-0.796,0.0462,0.00476,-0.169,0.46,0.0893,0.0553,0.415,-0.0647,0.273,0.176,0.227,-0.191,0.055,0.372,-0.0999,0.338,0.307,0.192};
float f3_2_bias[64] = {0.538,0.133,0.454,0.253,0.55,0.154,0.813,0.563,0.0466,-0.0871,0.314,0.0188,-0.191,0.0159,-0.00796,-0.0794,0.454,-0.00777,0.158,0.0276,0.0013,0.0806,0.19,0.157,0.44,0.0606,0.312,0.295,0.264,-0.0607,-0.0485,0.686,0.716,0.321,0.572,0.355,0.4,0.343,0.414,0.258,-0.0783,-0.206,0.0846,0.656,0.43,0.367,-0.223,0.172,-0.01,0.192,0.201,0.261,-0.014,0.253,-0.0727,0.129,0.0481,-0.198,0.151,-0.0325,0.662,-0.0408,0.00221,0.207};

float f4_1_weight[64*64*1*1] = {-0.0797,-0.0788,0.0874,-0.0772,-0.206,0.025,0.107,0.0176,-0.0717,-0.137,-0.0175,0.0838,-0.26,0.00083,-0.0527,-0.0283,0.146,0.169,-0.201,-0.201,0.0254,-0.0862,0.169,-0.0465,0.165,0.101,0.0222,-0.243,-0.0948,-0.162,-0.0405,0.147,0.00734,-0.109,0.0876,0.00186,0.0324,-0.0673,0.0909,0.0969,0.051,-0.116,0.0433,-0.00328,-0.221,0.000354,0.122,-0.0834,0.0514,0.0458,-0.0587,0.00848,0.178,-0.0222,-0.0727,-0.1,-0.0817,-0.0899,0.0932,-0.0956,-0.15,-0.0868,-0.194,0.158,-0.03,-0.0867,0.012,-0.0613,0.0792,0.186,-0.0252,0.013,0.0818,-0.0427,0.0485,0.2,-0.0117,0.129,-0.28,-0.152,-0.0837,0.0343,-0.0378,-0.207,0.144,0.0246,-0.0499,-0.0683,0.148,0.178,0.108,-0.0665,-0.276,-0.181,0.0515,0.0507,-0.143,-0.121,-0.0846,0.0291,0.0241,0.0167,-0.0996,-0.0792,-0.067,0.0149,-0.188,0.00374,-0.223,-0.137,-0.197,0.0306,0.128,-0.0244,0.215,-0.039,-0.132,-0.0177,-0.0503,-0.154,0.0259,0.0168,-0.316,-0.0933,0.0801,0.053,-0.0737,0.042,0.0744,0.0359,-0.013,0.0443,-0.263,-0.0509,0.0312,-0.0654,-0.0656,0.0778,0.169,-0.0182,0.003,0.172,0.0318,0.23,0.0377,0.057,0.142,0.0443,-0.0446,0.084,0.0264,-0.149,-0.232,-0.0128,-0.0714,-0.0962,0.00833,0.0592,-0.0468,0.045,0.0312,0.0903,0.0607,-0.171,0.0939,-0.0459,0.194,0.136,-0.0477,-0.0838,-0.125,-0.0157,-0.0773,0.123,-0.0479,0.0926,-0.0991,0.128,0.146,0.183,-0.168,-0.0372,-0.108,0.0552,0.0811,0.118,0.11,-0.0139,0.0866,-0.0458,-0.183,-0.107,-0.168,0.128,-0.143,-0.0672,0.0644,-0.0274,-0.118,0.0637,-0.149,-0.0526,0.00248,-0.0291,0.0212,0.0881,0.0053,-0.0774,0.0742,-0.097,0.0326,0.123,-0.103,-0.132,0.00155,-0.119,0.153,-0.14,-0.0362,0.00789,0.1,0.0939,-0.0994,0.0729,-0.255,-0.00184,-0.2,0.225,-0.0179,0.27,0.0581,0.0297,0.0457,0.0163,0.271,-0.138,-0.183,0.0289,0.0172,-0.0628,-0.0832,-0.0437,-0.0947,0.0305,0.00989,-0.0875,-0.0395,0.103,-0.124,0.0499,-0.0928,0.0872,-0.134,0.172,-0.316,-0.159,0.0359,-0.143,0.0274,0.0421,0.164,-0.101,-0.0351,-0.117,7.37e-05,0.125,-0.11,0.226,0.00408,0.0471,-0.098,-0.0133,0.0907,-0.169,0.115,0.111,-0.175,-0.0338,0.0821,0.0198,-0.121,0.0492,-0.0598,0.0557,0.207,-0.1,0.11,-0.233,0.179,-0.0211,0.0853,-0.0249,0.0158,0.039,-0.235,0.161,-0.118,0.146,0.027,0.137,0.00456,0.0336,0.0458,0.000212,0.0652,0.0208,-0.0941,-0.0527,-0.121,-0.101,-0.0365,0.043,0.033,0.19,0.0224,-0.044,0.0786,0.193,-0.0462,-0.136,-0.102,-0.0254,-0.0443,0.0737,0.0992,-0.208,0.0877,0.0571,-0.0111,-0.0174,-0.15,0.0756,-0.11,0.155,-0.0556,-0.036,-0.205,0.00268,0.0732,-0.0822,0.0548,-0.0304,0.154,0.0836,-0.0278,0.0523,0.274,0.0415,0.0761,0.0546,0.147,0.0907,0.0365,-0.159,-0.0508,0.241,-0.0892,0.084,-0.0981,-0.0755,0.0551,0.0142,-0.075,0.0502,-0.135,-0.111,-0.138,-0.0648,-0.0465,0.0143,-0.0304,-0.0211,0.139,-0.406,-0.168,0.217,0.00916,-0.0172,0.0657,0.184,0.112,-0.00589,0.0178,0.034,0.0959,0.122,0.13,0.303,0.0471,0.034,-0.0304,-0.151,0.215,0.179,-0.194,-0.0372,-0.0216,-0.0933,-0.307,0.0516,-0.0693,-0.0283,0.108,-0.0928,-0.0772,0.00318,0.122,-0.0476,-0.01,0.0733,-0.193,0.23,0.192,0.061,0.179,-0.0947,-0.0334,-0.0238,-0.172,0.0811,0.196,-0.00785,-0.0618,-0.273,-0.0648,0.0836,0.084,-0.033,-0.0687,0.0426,0.197,-0.00996,0.066,-0.0217,0.129,0.0841,0.0287,0.0693,-0.0237,-0.0389,-0.0498,0.133,0.0267,0.0332,-0.101,0.102,-0.0394,-0.0227,-0.253,-0.104,-0.135,0.0179,0.293,-0.00345,0.248,0.112,-0.19,0.0388,0.0172,0.111,0.0471,-0.0653,0.0982,0.0208,-0.123,0.185,-0.23,0.122,0.0815,-0.0162,-0.15,-0.21,0.108,-0.138,-0.0919,-0.126,0.0595,0.0505,-0.0787,0.254,-0.352,0.0349,-0.0703,-0.0468,-0.0583,0.0549,-0.0461,0.167,-0.0144,-0.0705,0.0942,0.0838,-0.0249,0.0799,-0.109,-0.144,0.118,-0.0161,-0.15,0.0866,-0.164,0.0276,0.124,-0.077,-0.175,-0.051,0.106,0.00177,-0.0409,0.0576,0.0183,-0.0269,0.0398,0.0915,0.0469,0.0116,-0.0683,-0.145,0.375,-0.0767,0.0315,-0.189,0.193,0.0486,-0.307,-0.0454,0.0215,0.0649,-0.101,0.13,-0.0298,-0.03,0.0495,0.104,0.111,0.0261,-0.0409,0.0526,0.144,0.0374,-0.036,0.0363,0.00378,0.0656,0.037,0.0154,0.016,0.0395,0.145,-0.0333,0.182,-0.0547,0.0844,0.0873,0.0398,0.0169,0.0784,-0.0592,0.0906,0.0378,0.0818,-0.0836,0.0336,-0.173,0.163,0.0746,-0.12,-0.0416,0.105,0.0723,-0.0849,-0.0106,-0.141,0.0788,0.0926,-0.265,0.035,0.0069,0.148,-0.153,0.122,-0.0289,0.03,-0.0651,-0.227,0.0575,-0.244,-0.0784,-0.168,-0.171,-0.142,-0.0137,-0.196,0.038,-0.322,0.128,-0.0779,-0.00126,-0.0611,-0.0523,-0.149,0.00861,0.0242,-0.00491,0.0844,-0.0439,0.0189,0.176,-0.0585,0.13,0.105,0.0245,0.0846,-0.0516,0.0504,-0.194,0.00619,-0.131,-0.076,-0.0979,0.064,0.0989,-0.0206,-0.0555,-0.0683,-0.0511,-0.221,-0.225,0.0951,-0.278,0.04,0.0342,-0.165,-0.187,-0.125,-0.0783,-0.134,-0.0348,0.104,0.0564,0.122,0.14,-0.0771,-0.0773,0.00565,0.0951,0.102,-0.0241,0.0826,0.0217,-0.109,0.0599,0.19,0.108,0.0108,0.147,0.179,0.171,0.119,-0.268,0.129,0.18,0.0953,0.0435,0.0793,0.137,0.0321,-0.0731,-0.0812,0.0692,0.0439,-0.111,0.123,-0.164,-0.157,0.0209,-0.266,0.0448,-0.0289,0.0088,0.15,-0.0473,0.153,0.0631,-0.0342,-0.153,0.153,-0.0159,0.162,0.011,-0.00806,0.153,0.138,0.052,0.131,-0.0827,-0.0834,0.0409,0.108,0.039,-0.0853,0.0112,0.163,-0.17,0.0259,-0.0881,-0.268,-0.148,0.224,-0.178,0.225,0.0455,-0.276,0.00288,-0.0564,0.138,-0.0544,-0.000612,-0.128,0.0949,0.0451,0.0635,-0.118,-0.0626,0.23,0.204,-0.168,0.0314,-0.0736,-0.208,-0.0493,0.000228,-0.0591,0.146,-0.0789,0.0503,-0.15,-0.152,-0.145,0.069,-0.141,0.0984,0.188,-0.205,-0.163,-0.114,0.151,0.0457,-0.15,-0.0927,-0.109,-0.0565,0.00653,-0.00015,-0.0351,0.0434,-0.00273,0.145,-0.101,0.0286,-0.127,-0.2,-0.00677,-0.0209,-0.125,-0.169,-0.0105,0.112,-0.0398,0.089,0.0964,0.0945,-0.267,-0.107,0.15,0.216,-0.144,-0.0335,0.0747,0.198,-0.0823,-0.0443,-0.083,0.117,0.0461,0.161,-0.0926,-0.106,-0.185,0.135,0.0867,-0.112,-0.0937,-0.0367,0.000704,-0.0468,0.182,-0.111,0.191,-0.0106,-0.153,0.0786,0.00399,0.108,-0.0245,0.0593,0.06,-0.182,0.104,-0.228,-0.0334,-0.143,0.257,-0.152,0.143,0.0199,0.000967,-0.0695,0.0378,-0.0707,0.165,0.0211,-0.0581,0.0618,-0.0324,-0.123,0.0196,0.116,-0.164,-0.032,0.0777,-0.133,0.123,0.0597,0.0744,-0.121,-0.112,0.00902,0.134,-0.0596,-0.15,0.101,0.00995,0.0805,-0.0224,-0.102,-0.0559,0.00113,0.121,0.084,0.0647,-0.0721,-0.119,0.113,-0.0966,-0.0735,-0.102,0.0367,-0.0653,-0.169,0.11,-0.232,-0.0638,0.0673,0.0549,0.141,0.152,0.0476,0.0278,0.0161,0.189,0.138,0.0793,-0.166,-0.0182,0.112,0.159,-0.0227,-0.0315,-0.184,0.0399,-0.094,0.0221,-0.241,0.058,-0.111,-0.198,-0.00669,-0.14,0.0714,-0.0257,-0.138,-0.162,-0.175,-0.155,0.0433,-0.109,-0.0628,0.0153,-0.17,0.0177,-0.0955,0.0783,0.179,-0.148,0.0136,-0.146,-0.0866,-0.00548,-0.0592,-0.0575,-0.233,-0.252,0.0865,-0.0283,-0.0376,0.199,-0.032,0.066,-0.0336,0.159,-0.0837,-0.185,0.0148,-0.05,-0.00591,-0.0623,0.0307,-0.0147,-0.106,-0.113,-0.00377,-0.0153,0.0538,-0.203,0.0829,-0.144,-0.213,-0.0157,-0.173,0.144,0.0874,-0.125,-0.00339,-0.176,0.0562,-0.0577,-0.224,0.171,0.166,0.0636,0.241,-0.107,0.101,0.0707,-0.0345,-0.0463,-0.148,0.0367,-0.0698,0.0244,0.21,0.166,0.0125,-0.0338,-0.0534,-0.0864,0.00632,0.132,-0.158,0.0567,-0.121,0.114,0.025,-0.0325,-0.0329,0.0104,-0.0918,0.00535,-0.0565,0.0156,-0.0138,0.0589,0.0657,0.0454,0.0851,0.0947,0.0196,0.192,-0.0403,0.156,0.0922,-0.0162,-0.283,-0.00814,-0.19,0.124,0.0181,-0.143,-0.0652,0.0193,0.103,-0.124,0.016,-0.116,-0.15,-0.0385,0.0309,-0.0597,-0.112,0.133,-0.0586,0.225,-0.0554,0.00598,-0.0592,-0.364,-0.0316,-0.084,0.0229,0.0872,-0.111,-0.393,0.0901,0.0478,0.168,0.0165,-0.02,-0.0118,-0.156,0.0438,-0.183,0.102,-0.0549,0.165,0.0423,-0.235,0.121,0.0687,-0.00743,0.0293,-0.0605,0.0919,0.0445,-0.0147,-0.172,-0.0338,-0.059,-0.00908,0.129,0.184,-0.112,-0.174,0.12,0.0873,0.188,-0.081,0.0825,0.0656,0.176,0.172,-0.133,0.00391,0.249,0.0016,0.103,-0.11,0.151,0.0373,-0.108,0.0655,-0.0598,0.0779,-0.0384,0.0433,0.068,0.0643,0.0208,-0.151,0.19,-0.0276,-0.0437,-0.203,0.108,-0.145,0.0531,0.0345,-0.0129,0.0156,0.0992,-0.114,0.0843,0.115,-0.0789,-0.0483,-0.0233,0.0495,-0.0512,0.0794,-0.092,-0.157,0.00431,0.048,-0.0121,0.0505,-0.112,-0.0167,-0.035,-0.101,-0.15,-0.037,-0.00686,-0.0995,0.00449,-0.0478,0.104,0.023,-0.216,0.152,0.0645,0.0621,0.0187,-0.0883,0.0669,-0.0855,0.0713,-0.158,-0.132,0.13,0.123,0.0798,-0.0115,0.0714,0.0712,0.217,0.0205,-0.0675,-0.0902,0.0474,0.0633,-0.00206,-0.0695,-0.0539,0.246,-0.152,0.013,0.137,0.112,0.0661,0.0506,-0.0473,-0.108,0.155,0.116,0.00449,0.00208,0.107,-0.174,0.162,0.0372,0.107,0.0141,-0.0673,-0.125,0.0728,0.0998,-0.023,0.194,0.0163,-0.036,-0.0289,0.143,-0.136,-0.0646,-0.00205,0.072,-0.166,-0.0765,0.141,-0.248,0.0685,-0.027,0.219,-0.298,-0.126,0.0171,0.091,0.0444,-0.017,0.126,-0.11,0.0339,-0.0326,-0.0909,-0.152,-0.0758,0.109,-0.0392,-0.0621,0.134,0.0847,0.0199,-0.177,0.00301,-0.0303,-0.0356,-0.0413,0.162,0.207,0.0134,0.0169,0.103,0.0642,-0.0415,-0.132,-0.00243,0.0258,0.0231,-0.164,0.255,-0.103,-0.0164,0.0462,-0.14,-0.0771,-0.045,0.234,-0.191,-0.0792,0.158,0.0106,0.123,-0.198,-0.078,0.132,-0.024,-0.0748,-0.0395,0.098,-0.02,0.254,0.126,-0.0567,-0.111,0.162,-0.0464,-0.0545,0.104,0.197,0.186,0.0145,-0.0261,0.186,-0.123,0.0273,-0.18,-0.0987,-0.0233,0.106,-0.189,-0.0952,0.0251,0.0934,0.121,0.0125,-0.144,0.0707,-0.0628,-0.0943,0.0391,0.0585,0.049,0.255,0.139,-0.0928,-0.181,0.151,-0.0612,-0.288,-0.124,-0.0266,0.0909,-0.073,0.0615,-0.0238,0.0354,-0.2,-0.124,-0.262,-0.305,0.023,0.0236,-0.117,-0.122,-0.0749,-0.176,-0.0443,-0.148,-0.0985,-0.0309,-0.109,-0.251,-0.0215,-0.0338,0.0828,0.147,-0.00975,-0.101,-0.0382,-0.217,0.0138,0.00755,-0.0143,0.00126,0.0838,0.00226,-0.0942,0.176,0.0427,-0.0336,0.142,0.078,0.104,-0.234,0.07,-0.0512,0.143,0.0774,0.137,0.0838,-0.218,0.0706,0.0909,-0.128,0.0395,0.0645,-0.186,-0.0619,0.141,-0.125,0.0729,-0.0275,0.239,0.328,0.0318,-0.112,-0.11,0.0837,0.203,-0.0476,0.0799,-0.101,-0.249,-0.06,0.204,-0.0391,0.127,-0.0725,0.0126,0.042,-0.1,0.0883,0.202,0.0651,0.0253,0.0572,0.121,0.0848,-0.0697,-0.0459,0.0233,0.0307,-0.135,-0.0458,0.0935,0.0268,0.112,-0.0296,-0.142,-0.000576,-0.122,-0.108,-0.061,-0.299,-0.066,0.0621,-0.127,-0.128,-0.0698,-0.0815,-0.0654,0.176,-0.0986,-0.0734,0.0411,0.0128,0.108,-0.00967,-0.0213,0.035,0.0194,0.1,0.0148,-0.294,0.224,0.195,0.0541,-0.0323,0.0143,0.0207,0.0543,-0.163,-0.0267,0.181,-0.151,0.0118,0.0258,0.113,0.0537,0.0861,0.0514,-0.244,-0.0487,-0.00265,-0.00546,0.0557,0.0998,0.0368,-0.00109,0.114,0.0116,-0.0498,0.0286,-0.0518,-0.306,-0.0204,-0.0792,0.119,-0.173,0.178,0.101,0.175,-0.0877,-0.206,-0.0926,-0.00328,0.221,0.029,0.115,0.0646,0.0471,0.0592,0.108,0.0995,0.022,0.0616,-0.117,-0.266,0.0223,0.121,-0.0172,0.021,-0.0134,-0.0348,0.109,-0.0254,0.11,-0.0346,-0.0443,0.00485,0.0602,0.0149,0.0769,-0.0406,0.128,-0.18,-0.00374,0.1,0.125,0.0106,-0.0611,-0.0252,0.0931,0.0404,0.0231,0.0196,0.0117,0.0902,-0.169,0.0583,0.0704,0.0369,0.0565,0.1,-0.0322,-0.0378,0.21,-0.0807,-0.0517,-0.144,-0.286,0.0355,0.0182,-0.0463,0.0611,0.1,0.0832,-0.00261,-0.0114,-0.363,0.0288,0.0185,-0.234,-0.00331,-0.156,0.0845,-0.101,0.128,-0.0424,0.208,-0.000527,-0.207,0.137,-0.112,-4.94e-05,-0.062,-0.0964,-0.155,0.0867,0.00187,-0.352,-0.35,0.175,-0.183,-0.128,0.0799,-0.0263,0.133,0.0141,0.0176,-0.186,0.0703,0.0115,0.11,0.0499,0.0106,-0.0458,0.0881,0.113,-0.0186,-0.0415,0.0677,-0.177,0.021,0.101,-0.149,0.094,-0.0426,0.0541,0.0609,0.0145,-0.121,0.0195,0.0199,0.0736,0.0271,0.0344,-0.179,0.0877,0.0421,0.00162,-0.127,0.0091,0.00746,0.159,-0.039,0.0269,0.0796,0.141,-0.19,-0.0476,0.088,0.0707,0.0159,0.0581,0.177,-0.184,-0.00428,-0.0341,0.149,-0.0772,-0.145,-0.0203,0.141,0.0678,0.0627,-0.108,0.0776,-0.127,0.0857,0.322,0.168,-0.147,0.0545,0.0314,0.0798,0.0326,-0.13,0.0368,0.143,-0.0135,0.0346,0.0726,0.24,0.0889,0.163,0.236,0.0252,-0.0268,0.181,0.0464,0.028,-0.0548,-0.0316,-0.0488,-0.0154,-0.0295,0.049,0.174,0.00418,0.0106,0.158,-0.0505,0.0436,0.116,-0.0562,0.189,-0.00493,0.0118,0.0175,0.178,0.148,-0.014,-0.11,0.165,0.14,0.23,0.048,0.0959,0.00765,0.0344,0.141,-0.124,0.155,0.209,0.182,0.0736,-0.17,-0.08,0.0966,-0.127,0.184,-0.164,-0.16,0.0208,0.13,-0.0512,-0.274,-0.0723,-0.0228,-0.108,0.0119,-0.331,0.178,0.119,0.0403,0.0412,-0.196,-0.0436,-0.202,-0.00966,-0.0389,0.21,-0.0227,-0.052,-0.064,0.0265,0.0441,-0.00396,-0.151,-0.134,-0.0656,-0.118,0.088,-0.269,-0.0236,-0.0142,0.019,-0.0075,0.0274,-0.179,-0.0361,0.016,0.087,0.00959,0.139,0.0827,-0.028,0.04,0.212,-0.0591,-0.0687,0.237,-0.0432,0.075,0.025,0.171,-0.0131,-0.0498,0.187,0.0128,-0.143,-0.0865,-0.149,-0.0531,-0.126,-0.0607,0.0223,0.0336,0.196,0.0215,-0.0315,0.0974,-0.0958,-0.161,0.0742,0.111,-0.162,0.103,0.136,0.127,-0.184,-0.0238,-0.0551,0.15,0.0212,-0.0605,-0.088,-0.129,-0.00104,-0.000382,0.214,-0.0709,-0.266,0.023,0.0386,-0.0707,0.176,-0.0574,-0.103,0.122,-0.0782,-0.0579,0.175,0.0602,-0.0288,-0.179,0.123,0.0879,0.0591,0.0925,0.11,0.222,-0.0705,0.124,0.155,-0.0501,-0.117,-0.044,0.132,0.0127,0.238,0.0106,0.0711,0.109,0.0791,-0.236,8.66e-05,-0.00994,0.162,0.00662,-0.0914,-0.0311,-0.051,-0.000541,-0.0741,0.095,-0.176,0.0824,0.0701,0.172,0.0148,0.0291,-0.0372,-0.0302,0.0576,0.115,-0.109,0.096,0.00584,-0.0334,-0.115,0.0769,-0.0183,0.0485,-0.0585,0.159,-0.019,0.25,0.0971,0.0488,-0.0377,0.227,0.0146,-0.18,-0.0799,0.114,0.236,0.083,-0.0126,-0.164,-0.0807,-0.055,0.0767,0.0297,-0.0556,-0.0581,-0.0588,0.148,-0.0766,-0.0905,0.08,0.0152,-0.203,0.0621,0.00356,0.144,0.0971,-0.148,-0.0761,0.187,-0.0541,-0.173,-0.00788,-0.02,-0.014,-0.059,0.273,-0.117,0.126,0.144,-0.292,-0.0512,-0.081,0.0986,-0.0151,0.0466,-0.121,-0.22,-0.125,-0.155,0.162,-0.0185,-0.0657,-0.0227,-0.0174,-0.078,0.043,-0.0969,-0.164,0.161,-0.0593,-0.019,0.0216,-0.345,-0.00301,-0.117,0.0991,-0.0333,0.000493,-0.00959,0.00167,-0.175,-0.0395,-0.269,-0.0471,0.111,-0.185,0.0375,-0.185,0.0999,0.0751,-0.105,-0.0891,-0.0175,0.11,0.0767,-0.222,0.0863,0.0119,-0.353,0.011,-0.0272,-0.0298,0.0314,-0.122,0.0562,-0.0956,0.0177,0.132,-0.0965,-0.0938,-0.0946,-0.05,-0.0229,0.00193,0.0102,0.103,-0.144,0.136,0.0404,0.0689,-0.0224,-0.1,-0.172,-0.0363,-0.027,0.11,-0.0998,0.0268,-0.29,0.182,-0.0312,-0.148,-0.0331,0.00642,-0.136,0.0391,-0.0178,-0.0839,-0.169,0.174,0.0642,0.0045,0.0622,0.00243,-0.0758,0.0203,0.18,0.0652,0.0107,-0.0285,0.0367,0.17,0.0542,0.141,-0.0918,0.0558,-0.00606,-0.0259,0.0228,-0.0842,0.0227,0.0489,-0.101,0.00785,-0.103,-0.202,0.0517,-0.108,-0.145,-0.0071,0.132,-0.0567,-0.0314,-0.142,-0.0345,0.0963,0.0359,0.0924,-0.358,0.0818,-0.11,0.0844,-0.089,0.0493,0.0874,0.109,0.143,-0.13,-0.0302,-0.129,0.00773,0.0628,0.00652,-0.0997,0.0149,0.0211,0.0349,-0.115,0.211,0.0767,-0.0102,-0.0276,-1.86e-06,-0.0265,0.0489,0.0188,0.0391,0.0613,0.0817,-0.0142,-0.00343,0.107,0.0394,0.0481,-0.0184,0.0988,-0.176,-0.0406,-0.124,0.0353,0.119,-0.0575,-0.0499,-0.0866,-0.168,0.0864,-0.0058,0.149,0.079,-0.109,-0.0938,0.0326,0.127,-0.0655,0.07,-0.0288,-0.187,-0.0594,-0.0372,-0.0794,0.0604,0.0112,-0.0371,-0.0333,0.0644,0.0448,-0.0269,-0.0324,-0.144,-0.00361,-0.00962,0.0661,0.0315,0.0975,0.035,0.0786,-0.0911,0.0739,-0.273,-0.143,-0.152,-0.338,0.0706,0.128,-0.0293,0.0213,0.0161,-0.112,-0.187,0.223,0.044,-0.187,0.07,0.0874,0.198,-0.165,0.12,-0.0282,-0.0647,0.126,0.0986,0.146,-0.186,-0.00599,-0.0886,0.148,0.0401,0.111,-0.179,0.142,-0.0684,0.11,0.00568,-0.0907,0.00577,0.0339,-0.202,0.0156,0.0838,0.0682,-0.099,-0.178,-0.158,0.0431,0.00421,0.0305,-0.0563,0.138,0.00247,-0.0234,0.029,0.127,-0.0955,-0.0363,-0.0877,-0.0592,-0.0587,-0.202,-0.116,-0.124,-0.108,0.152,0.00482,-0.01,0.000196,-0.079,0.0268,-0.00216,0.0624,-0.0312,-0.135,0.0624,-0.0939,-0.0217,0.179,0.196,0.217,0.147,-0.0099,-0.00314,-0.115,-0.079,0.152,0.0426,-0.0476,0.228,-0.088,-0.178,-0.00845,-0.0248,-0.129,-0.0547,-0.0238,0.217,-0.0186,-0.119,-0.0714,-0.0501,0.0731,-0.0392,-0.0756,-0.0629,-0.0167,0.202,0.0521,-0.0145,-0.0894,-0.045,-0.105,-0.0933,-0.101,-0.0508,-0.197,-0.0188,0.199,0.338,-0.0426,0.0111,0.156,0.0019,0.114,-0.095,0.0381,-0.126,-0.122,-0.0508,0.037,-0.0389,-0.0706,0.1,-0.0108,0.0871,0.0882,0.114,-0.026,-0.0415,-0.0212,-0.000979,0.0985,0.102,-0.0842,0.173,-0.0891,0.118,0.138,0.0532,0.0667,0.213,0.00247,-0.0744,0.0547,-0.122,0.0417,0.0154,0.00364,0.0402,0.0398,-0.0632,0.101,0.41,-0.0155,0.0266,-0.0334,0.222,-0.0127,-0.0498,-0.0751,-0.112,0.0594,0.147,0.139,-0.178,0.0104,0.0103,-0.242,0.102,0.0181,0.0559,0.328,0.0993,0.0543,0.0305,0.0478,0.0745,0.113,-0.128,0.131,0.0168,0.142,0.00243,0.0691,0.00942,0.00683,0.0138,0.00944,-0.065,0.00195,-0.0494,0.0439,-0.0258,-0.0237,0.00728,0.0617,-0.0102,0.211,-0.106,-0.0409,0.0916,-0.0555,0.0593,-0.162,-0.0202,0.0147,-0.041,0.0866,-0.0277,0.111,0.0882,0.167,0.316,-0.00421,-0.134,-0.144,0.189,0.164,0.144,-0.157,-0.114,-0.0044,-0.074,-0.0798,0.068,0.124,0.0056,-0.166,-0.0478,0.0446,0.121,-0.00169,0.15,0.0186,0.238,-0.0144,0.148,-0.0589,-0.139,0.0185,-0.137,-0.0237,-0.0726,0.0326,-0.0275,-0.0911,-0.0174,-0.00224,0.107,0.105,0.128,-0.00662,0.214,0.0728,0.141,-0.0254,0.0797,0.00899,-0.0882,-0.15,0.0451,0.161,0.0776,-0.0044,0.11,0.0662,0.2,-0.0683,0.0279,-0.278,0.0468,-0.0348,-0.0541,-0.0356,0.148,0.116,0.0346,0.0143,-0.0971,0.00811,0.0342,-0.0672,0.123,-0.112,0.0454,-0.21,0.0576,0.0886,-0.246,-0.0593,0.117,-0.117,0.0635,-0.151,-0.218,-0.0535,0.0581,-0.105,-0.208,0.0337,-0.0124,0.208,0.182,0.139,0.00363,0.0728,-0.0455,-0.0052,0.0623,-0.0389,-0.11,0.218,0.063,-0.103,0.0233,0.0405,-0.139,-0.0363,0.0308,0.0737,0.0684,0.193,-0.241,0.0972,0.0215,0.00861,0.0597,-0.13,0.0315,-0.113,-0.0571,0.0263,-0.00245,0.238,0.0185,0.121,0.135,-0.0747,0.18,-0.227,0.272,0.0685,0.0395,0.131,0.0631,0.0959,-0.0381,-0.0242,-0.0937,0.176,-0.0435,-0.0446,-0.0209,-0.00105,-0.0239,0.0485,-0.0514,0.145,-0.0683,0.0104,-0.174,-0.089,0.111,-0.151,0.0183,-0.0187,0.204,-0.0425,0.394,-0.0391,0.0868,-0.149,0.115,0.267,0.105,-0.117,0.0945,0.335,0.0416,0.0405,0.159,0.0863,-0.00471,0.183,0.15,-0.164,-0.129,0.00174,-0.104,0.0741,0.0379,-0.0683,0.079,-0.0484,0.0839,-0.0475,-0.122,-0.0504,0.0401,-0.0703,0.389,0.0201,-0.0892,0.166,0.0498,0.108,0.228,0.146,-0.0286,0.205,-0.106,0.0642,-0.0203,-0.022,0.0655,0.102,-0.252,0.102,-0.00185,0.113,0.0231,-0.0495,0.00644,-0.195,-0.0426,-0.0441,0.0455,0.016,0.0313,-0.0391,-0.192,-0.0622,0.0241,-0.0397,-0.0868,-0.031,0.0356,-0.177,-0.176,-0.0157,0.0921,-0.08,0.116,-0.0353,-0.0385,-0.0369,-0.035,-0.134,-0.0658,0.11,0.0565,0.035,0.0187,-0.1,-0.124,0.135,-0.0248,0.0459,-0.0727,0.299,-0.0239,-0.0364,0.058,0.101,-0.0351,0.179,-0.077,0.0391,0.0951,-0.102,-0.172,-0.0733,-0.0746,-0.104,-0.00485,-0.281,0.0468,0.175,0.146,-0.042,0.126,0.0953,-0.0382,-0.0193,-0.106,-0.0598,0.0688,0.138,-0.19,0.0705,0.126,-0.0904,-0.0495,-0.0234,0.0241,0.162,0.0578,0.101,0.184,-0.121,0.0693,-0.0735,0.081,-0.0471,-0.0777,-0.0804,-0.108,-0.188,-0.154,-0.0556,-0.316,0.0892,-0.127,-0.0952,0.221,0.107,0.026,-0.0619,-0.204,-0.0164,-0.0994,-0.0305,-0.154,0.038,-0.138,0.142,0.0284,0.0368,0.0984,0.035,-0.0436,0.00701,0.0819,0.0779,0.11,0.0176,-0.0324,-0.00497,-0.139,0.13,-0.0194,-0.146,0.0549,0.0323,0.242,0.116,0.0976,0.071,0.0621,0.0449,-0.0596,-0.0208,-0.136,0.0778,0.0576,-0.179,0.00546,0.114,-0.133,-0.0292,0.116,0.0555,0.0132,-0.0592,-0.109,0.0577,0.0611,-0.00516,0.275,-0.193,0.000687,-0.118,0.125,-0.0816,0.0392,-0.0181,-0.143,0.00448,0.0274,-0.103,-0.167,0.052,0.0525,0.0267,0.0372,-0.0207,-0.0935,-0.0634,0.113,0.0648,-0.0144,-0.0256,0.194,-0.00943,0.185,-0.0045,0.0294,-0.0632,0.0249,0.141,0.111,0.0799,-0.147,-0.0827,0.113,-0.135,-0.00508,0.114,-0.0546,-0.0477,-0.0657,-0.073,-0.213,0.217,0.135,-0.224,-0.106,-0.0804,-0.087,0.276,0.3,-0.124,0.047,0.178,0.0398,0.177,0.211,0.0679,0.00758,-0.0836,0.136,0.186,-0.23,0.0923,-0.0536,0.0786,0.152,0.00812,-0.0284,-0.0562,0.0678,0.0713,0.16,0.159,-0.0724,0.104,-0.132,-0.0151,-0.0977,-0.0356,-0.0142,0.105,-0.145,0.0337,-0.106,0.0505,-0.172,0.165,-0.106,-0.13,-0.0765,0.105,0.0493,0.102,0.108,-0.0384,0.126,-0.0158,0.0377,-0.0397,-0.121,-0.0926,0.0488,0.0644,-0.0275,-0.261,0.126,-0.00709,-0.0853,0.0259,0.0946,0.0958,0.0931,-0.0243,0.13,0.061,0.0541,0.0772,0.225,0.0309,0.113,-0.0167,0.14,0.0866,0.0794,0.152,-0.115,-0.0681,0.185,-0.125,0.165,0.0108,-0.0562,0.122,-0.154,0.0876,0.0752,-0.113,-0.149,0.0105,-0.0075,0.181,0.0898,0.065,0.159,-0.255,0.268,-0.142,0.0794,0.168,0.138,-0.198,-0.084,-0.281,0.0684,0.161,0.0484,0.0125,-0.171,-0.0829,0.00694,0.0403,0.109,0.00744,0.117,-0.0169,0.0167,0.0611,-0.0536,-0.085,0.00967,-0.0448,0.0774,0.139,0.198,-0.0364,0.0348,-0.0256,0.319,0.0733,0.11,0.0329,0.168,0.00349,-0.0297,-0.0424,-0.103,0.281,-0.0898,0.0489,0.185,0.0243,-0.0281,-0.0559,-0.0216,0.049,0.37,0.0233,0.457,-0.18,-0.0842,-0.0202,0.17,-0.188,0.0931,0.132,0.0597,0.0708,0.0165,0.0146,0.181,-0.0116,0.125,-0.0709,0.000975,-0.172,0.123,0.111,0.0889,-0.0319,0.0387,0.0505,0.0761,0.137,-0.149,-0.014,0.194,-0.124,0.103,0.0599,-0.154,-0.00849,0.000416,-0.233,-0.112,0.0629,-0.122,-0.091,-0.0352,-0.0506,-0.294,-0.0806,-0.0219,-0.102,-0.0627,0.0835,0.0143,-0.147,-0.00147,-0.155,-0.048,-0.0668,-0.0801,-0.108,-0.152,-0.0583,0.0154,-0.00354,-0.101,0.154,-0.266,-0.0467,0.00715,0.0328,0.142,0.0837,0.0166,-0.0947,0.113,0.212,-0.172,0.206,-0.0612,-0.0676,-0.069,-0.2,-0.0592,0.0429,-0.0347,0.0207,-0.16,-0.12,0.0236,-0.0128,0.0207,-0.252,-0.073,-0.0233,0.0613,-0.0294,-0.141,0.237,-0.158,-0.119,0.183,-0.0577,-0.144,-0.231,0.0251,0.0236,0.0387,-0.122,0.0825,-0.197,0.178,-0.0651,-0.031,-0.138,0.0103,-0.0144,0.124,-0.064,0.0666,-0.0461,-0.0983,-0.0877,0.242,0.094,-0.252,-0.017,-0.0268,-0.152,-0.158,-0.0691,0.164,-0.219,0.07,0.0969,0.0718,-0.0261,0.187,-0.0382,0.081,-0.137,-0.00399,0.0707,0.0206,0.154,-0.0326,-0.0965,0.0185,0.0971,-0.0137,0.125,0.139,0.0152,0.115,-0.0371,0.0726,0.0218,0.171,0.0929,0.0868,0.145,-0.0716,0.0175,0.00167,0.045,-0.219,0.0663,-0.0737,-0.0711,-0.0961,-0.0995,0.164,0.117,0.0857,-0.079,0.0363,-0.0158,-0.062,0.0873,-0.0643,-0.146,0.112,0.264,-0.0384,-0.206,-0.0733,-0.118,0.0043,0.00636,-0.00244,0.014,-0.118,-0.127,-0.121,0.0318,0.00407,-0.0439,-0.199,0.231,0.155,0.231,-0.0553,0.0147,0.0302,0.188,0.0112,0.306,0.0479,0.0786,0.0406,-0.166,0.0696,0.128,0.205,0.0298,0.0793,0.138,0.0248,-0.164,-0.00137,0.142,-0.134,0.0197,-0.00346,-0.017,-0.0177,0.0796,0.145,-0.026,-0.0187,0.0633,0.0716,0.124,-0.104,0.0385,-0.103,-0.0121,-0.32,-0.165,0.102,-0.0159,-0.0241,-0.165,-0.0382,-0.111,-0.124,-0.12,-0.114,-0.0742,0.0602,0.241,-0.0753,0.0734,0.148,-0.0634,0.076,-0.0709,-0.117,-0.104,-0.0824,-0.0325,-0.155,0.115,0.154,-0.00282,-0.236,-0.0683,-0.166,0.266,0.0524,-0.169,0.04,-0.00426,-0.0474,0.194,0.0314,0.115,-0.0132,0.0192,0.146,0.0891,0.0825,-0.0486,0.0229,0.0153,-0.027,0.255,-0.0672,0.184,0.019,0.0516,0.157,-0.0011,0.123,0.00126,-0.141,-0.0221,0.135,0.0753,-0.168,-0.118,-0.0452,0.0775,0.212,-0.0374,-0.000535,0.216,-0.00327,0.109,0.0815,0.201,0.0812,0.101,0.0699,0.0243,-0.0749,-0.125,0.0748,0.0238,-0.155,0.0127,-0.107,0.0569,0.0924,-0.182,-0.219,-0.0395,-0.111,0.09,0.00678,-0.0611,0.0021,-0.0883,0.109,-0.181,-0.0505,-0.00703,0.0678,-0.078,0.0421,-0.0832,0.0197,0.0145,0.101,0.173,0.149,-0.0573,0.151,0.132,0.061,0.0688,0.0309,0.098,0.0849,0.266,0.157,-0.175,0.00851,0.0195,-0.126,-0.053,-0.16,-0.0356,0.143,0.0499,0.000718,0.065,-0.0475,-0.0867,0.0544,0.000115,0.143,0.0504,-0.000141,-0.13,0.0979,0.209,-0.115,-0.0187,-0.00113,0.0267,-0.0656,0.14,-0.0506,0.114,-0.116,-0.164,0.0562,0.0914,-0.112,0.159,0.00646,0.0744,0.0439,-0.0578,-0.0659,0.0611,0.0313,0.0645,-0.202,-0.0569,-0.000477,-0.107,-0.246,-0.114,0.0916,-0.0945,0.235,-0.11,0.0919,0.0132,-0.0346,-0.0628,-0.296,0.136,0.199,-0.0748,-0.0131,0.224,-0.163,-0.0521,0.119,-0.0299,0.16,-0.00684,-0.0853,-0.0965,0.0698,-0.143,0.127,-0.0354,0.0991,0.139,-0.178,0.0626,0.0188,0.27,-0.0582,-0.00969,-0.0692,0.0615,0.0588,0.0319,-0.0279,0.0427,0.122,-0.0675,0.227,0.0211,0.0849,-0.131,0.0975,-0.149,0.184,-0.0968,-0.0958,-0.0287,0.0383,-0.251,-0.0261,0.016,0.249,0.201,0.116,-0.12,-0.184,-0.0714,0.00269,-0.0925,-0.0571,-0.108,0.304,0.0147,0.311,0.0784,0.00316,0.037,-0.0499,0.124,-0.115,-0.117,-0.0779,-0.0102,-0.0142,-0.0331,0.0378,0.0756,0.0713,-0.0116,0.145,-0.0635,-0.109,0.0638,-0.285,0.0263,-0.229,0.109,0.0782,0.0403,-0.00561,0.0859,0.0642,0.123,-0.0118,-0.00145,0.0024,-0.0931,0.0571,-0.107,0.0858,-0.0379,-0.166,0.176,-0.0484,-0.0731,-0.000763,0.00388,0.104,-0.075,-0.169,-0.275,-0.15,-0.00483,-0.0591,-0.0119,0.00124,0.00936,0.151,-0.0559,0.0775,-0.0798,0.196,0.165,0.0769,0.216,-0.129,0.0741,0.17,-0.0285,0.0727,0.0252,0.135,0.0116,-0.107,-0.0927,0.0578,-0.183,0.19,-0.0398,0.113,-0.086,-0.0405,0.0548,-0.209,0.0792,-0.139,-0.236,0.0215,0.107,-0.106,0.14,0.16,0.0613,0.0766,-0.133,-0.0827,0.117,-0.149,0.0268,-0.00619,0.0732,-0.0617,0.11,-0.0472,-0.0363,0.0976,-0.0708,0.0927,-0.113,-0.0784,0.0835,0.106,0.0494,0.00848,0.0814,-0.129,0.0355,0.125,0.0531,-0.04,-0.0864,-0.02,-0.142,-0.0816,0.0172,-0.192,-0.158,0.117,0.00626,0.183,0.0402,0.0435,0.188,0.0271,-0.0738,-0.129,-0.0593,0.155,-0.14,-0.0187,0.0578,-0.0468,0.0324,0.0444,0.0987,0.0224,0.225,0.02,-0.0365,0.109,0.0266,-0.0161,-0.204,0.0439,0.154,-0.134,-0.248,0.0773,0.0945,0.103,-0.226,0.072,0.279,0.0423,-0.0268,0.106,0.0738,0.0482,-0.106,0.185,-0.00406,-0.0612,-0.00257,-0.0386,-0.218,0.311,0.144,-0.0684,-0.19,0.129,0.027,-0.0766,0.0589,-0.0633,0.107,-0.0303,0.0218,-0.12,-0.0448,0.142,-0.0366,0.0721,-0.0988,-0.0112,-0.0944,0.00545,-0.0611,-0.109,-0.142,-0.1,-0.084,-0.198,0.0122,-0.0631,0.0408,-0.0624,0.00124,-0.00369,0.0669,0.141,0.243,0.0464,0.171,0.0675,-0.0213,-0.0197,-0.00299,-0.0491,0.348,-0.192,0.0797,0.0674,0.212,0.0279,0.113,0.0269,0.0929,0.16,-0.0954,-0.000932,0.222,-0.0298,-0.233,-0.00948,0.0211,0.117,0.266,-0.0556,-0.0807,-0.073,-0.0439,-0.161,-0.159,-0.0308,0.0685,-0.022,-0.048,0.117,0.0704,0.0325,0.089,0.203,-0.038,-0.038,0.126,-0.221,0.0876,-0.0566,0.0928,0.0783,0.0104,-0.00264,0.0876,0.162,-0.103,0.0537,-0.0781,-0.117,0.0242,-0.124,0.0655,-0.0735,-0.0756,-0.0951,-0.203,-0.0154,-0.0961,0.035,0.0644,-0.0101,-0.114,0.0778,0.0487,0.0598,0.0409,0.0267,0.0311,0.176,-0.0599,0.18,-0.131,-0.00516,-0.0768,0.307,-0.0271,-0.0732,-0.0333,-0.0452,-0.186,-0.295,0.0577,0.0123,-0.0324,0.07,-0.0327,0.0733,0.17,-0.13,0.000508,0.213,-0.041,-0.0467,-0.131,-0.133,-0.0307,-0.107,-0.0474,-0.162,-0.0182,0.0321,-0.0237,-0.0809,0.0207,0.0184,-0.0742,-0.00763,0.0102,-0.143,0.0503,-0.11,0.0578,-0.121,-0.0938,-0.0411,-0.0301,0.0225,-0.289,0.0406,0.126,-0.0671,0.0384,0.0244,-0.0851,-0.0846,-0.0211,-0.0267,0.192,-0.123,-0.162,0.0505,-0.0238,-0.132,-0.00203,0.0232,0.0373,0.0699,0.145,-0.104,0.147,0.00481,-0.077,0.0427,-0.0555,0.14,0.214,-0.0723,-0.0401,0.0379,-0.174,-0.0533,-0.171,-0.138,0.0334,-0.0759,-0.142,0.157,0.0463,0.0541,-0.0225,-0.144,-0.118,0.00432,-0.0355,-0.0307,0.0982,0.0875,0.049,0.00871,0.0407,-0.212,-0.168,0.0496,-0.314,0.302,0.00688,-0.00337,-0.174,-0.108,0.0916,0.102,-0.0022,0.104,0.0278,0.141,-0.0272,-0.102,0.0827,-0.0346,-0.0252,0.0109,-0.0432,-0.0747,-0.019,-0.0915,-0.0494,-0.104,-0.231,-0.142,-0.0718,0.00775,-0.134,-0.135,-0.0115,-0.0553,0.0188,0.112,-0.00779,0.099,-0.0792,0.0802,0.0692,0.0149,0.131,0.0819,-0.22,0.0632,0.0135,-0.21,-0.0403,-0.264,-0.0859,-0.00877,0.0587,0.0287,-0.0311,0.0157,0.364,0.0423,-0.235,-0.11,-0.138,0.163,-0.153,-0.0152,-0.00283,0.0956,0.0834,0.2,0.136,0.141,0.208,0.0646,-0.0206,-0.0783,-0.174,-0.0984,0.0655,-0.0345,0.141,-0.0112,0.108,0.116,-0.0618,0.0986,-0.151,-0.0643,-0.102,-0.187,-0.049,-0.0119,-0.0274,0.00247,-0.0474,0.0245,0.21,0.0785,-0.223,-0.143,0.165,-0.0432,-0.0558,0.014,0.00195,-0.0166,0.022,-0.042,-0.051,0.0296,-0.0716,0.00415,-0.0494,0.251,0.171,-0.26,0.0223,0.0472,0.0176,0.0686,-0.0154,0.0012,-0.0523,0.0274,0.042,-0.0358,0.0927,0.0381,0.14,0.0303,0.000903,-0.107,0.164,0.0407,0.00154,0.00887,-0.000253,0.00804,0.0264,0.0909,0.19,-0.0316,-0.13,-0.0795,0.000466,0.151,0.147,0.0546,0.0292,-0.131,0.125,0.0145,-0.0459,0.00242,0.168,-0.0713,0.00719,0.0421,0.0404,-0.0681,0.0574,0.0095,-0.175,-0.0184,-0.00677,0.113,-0.0969,0.0115,-0.0165,0.0718,-0.0216,-0.0171,0.213,-0.0532,0.207,0.0728,-0.0516,-0.123,-0.0301,0.134,0.111,0.0786,-0.045,0.221,-0.0673,-0.0634,0.21,0.0655,0.0637,0.0834,0.232,-0.06,0.0611,0.159,-0.0611,0.0262,-0.0315,0.101,-0.113,0.003,0.128,-0.232,0.0474,-0.11,0.146,-0.0534,-0.0802,0.0934,-0.168,0.00825,-0.12,0.0289,-0.125,-0.0403,0.0371,-0.129,0.0422,0.191,0.219,0.0692,0.193,-0.0458,0.0209,0.0514,-0.0413,-0.0325,0.0311,0.0796,-0.188,-0.148,0.00179,0.13,0.142,-0.199,-0.0795,-0.0786,-0.0742,-0.00556,0.142,-0.171,-0.202,0.132,0.0142,-0.0399,0.0756,0.0488,-0.0998,0.00651,-0.207,-0.0318,-0.0449,-0.00835,-0.0348,0.108,0.0173,-0.0198,0.0615,-0.222,-0.178,0.0177,-0.00139,-0.135,0.133,0.212,-0.0945,0.0631,-0.1,0.00853,-0.171,-0.0474,0.138,-0.0705,0.0882,-0.218,-0.0223,-0.147,-0.0221,-0.0374,-0.0222,0.0344,-0.155,-0.216,0.0251,0.114,-0.0979,-0.0929,-0.112,0.199,-0.0532,-0.14,-0.0243,-0.161,0.078,-0.092,0.0132,-0.0793,-0.0244,-0.178,-0.0257,-0.0547,-0.139,0.253,0.284,-0.18,-0.0283,0.201,0.0563,-0.0566,-0.0933,-0.184,0.159,-0.0712,0.212,0.148,-0.0719,-0.12,0.159,-0.0359,-0.0599,-0.0813,-0.0537,0.00907,0.00336,-0.0589,-0.0522,-0.23,0.105,-0.0715,-0.05,0.0466,-0.184,0.0457,-0.00925,-0.0788,-0.109,0.0107,-0.0729,-0.183,-0.0408,-0.0535,0.0617,-0.0611,-0.0975,-0.0555,-0.0268,0.138,0.0149,0.0324,-0.194,-0.0108,-0.197,-0.04,-0.197,0.0506,-0.0458,-0.0354,0.139,0.236,-0.107,0.158,0.193,0.00341,0.12,0.0645,-0.0923,-0.00504,0.0472,0.202,0.018,0.0669,-0.0331,-0.0899,-0.0372,-0.0561,0.138,-0.11,0.0325,0.105,-0.161,-0.0729,-0.00808,0.0509,0.0202,-0.0714,0.109,-0.0723,0.131,-0.102,-0.084,-0.126,0.0634,-0.166,-0.0315,-0.0994,0.13,0.066};
float f4_1_bias[64] = {-0.197,0.132,-0.0244,0.111,-0.13,0.0484,0.0112,0.00719,-0.111,-0.168,-0.0164,0.00815,-0.137,0.0356,0.0559,-0.0257,-0.117,0.0839,0.113,-0.195,0.0523,0.0501,-0.104,-0.0191,-0.0987,-0.047,-0.034,0.105,0.0151,0.045,0.0205,-0.0543,-0.0022,-0.0105,-0.0678,-0.136,-0.06,0.00675,0.0146,0.0869,0.12,-0.06,-0.0888,-0.126,-0.0426,-0.152,-0.00256,-0.0753,0.0656,-0.0661,-0.14,-0.154,0.0232,-0.145,0.118,0.0325,0.0994,0.142,0.0399,0.0805,-0.0789,-0.0709,-0.0784,-0.113};
float f4_2_weight[64*1*3*3] = {-0.0804,-0.112,-0.147,-0.397,-0.371,0.535,-0.102,-0.423,0.00655,0.226,0.0281,0.422,-0.186,-0.0301,0.242,0.456,0.15,0.312,0.109,0.307,0.134,-0.388,0.867,0.722,-0.278,0.0939,-0.159,0.388,0.126,0.235,0.0719,-0.627,0.196,-0.275,-0.00635,-1.14,0.0892,-0.197,-0.378,-0.41,-0.368,0.0121,-0.549,0.039,0.0523,0.316,-0.318,-0.222,-0.0812,-0.659,-0.0852,0.151,-1.14,0.101,0.248,-0.642,-0.535,0.731,0.184,-0.722,-1.1,-0.505,0.122,0.597,0.167,0.238,-0.188,0.12,-1.28,0.0758,-0.493,1.83,0.42,-0.067,0.21,1.85,-0.303,-0.356,0.997,-0.0269,-0.95,0.592,0.0455,0.631,0.932,-0.565,-0.14,0.224,0.0865,0.412,0.168,0.203,0.283,-0.461,-1.11,0.0987,0.595,-0.785,-0.45,0.0337,0.35,-0.0351,-0.326,-0.336,-0.694,0.0315,-0.323,0.136,0.124,0.0789,-0.34,-0.126,0.306,-1.49,0.737,0.0243,-0.258,0.0292,-0.551,-1.01,-0.949,0.569,-0.0597,0.62,0.194,-0.618,-0.0207,-0.0494,-0.0103,0.54,0.0822,-0.0303,-0.261,0.0187,-1.45,0.275,-0.115,0.159,-0.33,-0.171,0.00304,0.0166,0.078,-0.00383,-0.195,0.468,0.00507,0.606,0.403,-0.249,-0.708,0.119,0.613,0.267,1.03,-0.0158,-0.118,0.488,1.24,0.633,0.198,-0.067,-1.13,0.268,0.00802,-0.157,-0.536,-0.645,-0.747,-0.0609,-0.287,-0.727,-0.073,-0.661,-0.067,-0.0747,0.545,-0.461,0.321,-0.377,-0.0957,0.0353,0.248,-0.157,-0.359,0.161,0.337,0.94,0.831,0.501,-0.0166,0.2,-0.322,0.148,-0.307,-0.521,0.142,0.925,0.0861,-0.0268,-0.499,0.109,0.334,0.0964,0.0205,0.109,-0.202,0.262,0.162,0.0764,0.266,0.163,0.0629,0.0245,0.532,0.22,0.274,0.203,0.0791,-0.563,1.06,-0.285,0.931,-0.558,0.57,1.04,0.0168,-0.801,0.176,-0.539,-0.143,0.185,0.06,0.842,-0.491,-0.282,0.258,0.0225,-0.0467,-0.151,-0.477,0.564,0.0834,0.0719,-0.0562,-0.214,0.22,-0.00398,0.297,0.116,0.438,-0.557,-0.907,-0.0826,-0.0911,-0.101,-0.0754,-0.0399,-0.969,-0.213,0.137,0.661,0.596,-0.0446,-0.532,0.052,-2.36,0.195,0.249,-0.0819,0.606,0.879,-0.0997,0.843,1.08,0.207,0.0709,-0.204,0.678,0.0997,-0.538,0.272,-0.0292,-0.138,-0.702,0.734,-1.27,0.54,1.23,2.19,0.0422,0.598,0.877,-0.153,-0.351,0.189,-0.393,-0.756,0.0688,-0.24,0.759,0.858,-0.246,-0.195,0.669,-0.479,-0.104,-0.376,0.486,0.0686,0.321,0.227,1.65,0.00885,0.58,0.755,-0.722,-0.304,-0.598,0.423,0.222,0.689,0.339,0.38,0.187,-0.0647,-0.519,0.21,-0.566,0.0535,-0.459,0.12,-0.17,0.5,-0.0807,0.175,0.14,-0.553,-1.89,0.325,0.214,-0.125,-0.792,-0.147,-0.641,0.369,0.59,-0.109,-0.429,0.104,0.898,1.25,-0.229,-0.67,-0.394,0.012,-0.787,-0.153,-0.223,-0.962,-0.242,-0.304,-0.254,-2.19,0.12,-0.593,-0.0647,-0.0483,0.782,-0.0182,0.167,0.00375,0.118,-0.0657,0.293,0.0842,-0.269,0.183,0.262,-0.39,-0.107,0.393,-0.00445,-0.368,0.886,-0.044,0.342,-0.552,0.239,0.0365,0.0417,0.0212,-0.466,0.0995,0.529,0.0892,0.603,-0.0163,-0.166,-0.0136,-0.166,0.0493,0.369,-0.0153,0.0843,-0.0025,0.194,0.415,-0.446,0.0854,-0.152,-1.14,0.793,1.07,0.263,0.387,-0.265,-0.144,0.5,-0.166,0.393,-0.861,-0.176,0.082,0.154,0.553,-0.351,0.0751,0.281,-0.358,0.536,-0.82,-0.0577,-0.00906,-0.0501,-0.532,0.157,-1.14,0.594,0.188,0.315,0.228,0.0813,-0.593,-0.136,-0.133,-0.0669,0.31,1.55,-0.161,-0.452,-0.214,0.302,-0.0846,-0.109,-0.0804,0.629,1.15,-0.309,-0.151,0.733,0.255,0.883,0.129,-0.715,-0.169,-0.253,0.0371,0.261,-0.179,-0.235,0.0242,-0.141,-0.0053,0.07,-0.0542,-0.122,0.845,0.662,0.171,-0.271,-0.171,0.192,-0.0442,0.245,-0.636,-0.102,0.0646,0.0922,-0.26,-0.0101,0.25,0.528,0.961,0.761,-0.283,0.353,0.114,0.337,-0.276,0.123,-0.321,0.618,-0.114,-0.00194,-0.046,0.147,0.371,0.142,0.125,1.67,1.37,-0.283,0.414,-0.27,0.157,0.718,0.2,-0.164,-0.0128,0.0255,0.112,0.0817,0.038,0.228,1,0.247,0.463,-0.29,-0.771,-0.467,0.287,0.274,-0.191,-0.0681,0.109,-0.609,0.226,0.0183,0.0795,-0.246,-0.236,-0.531,-0.228,0.116,-0.248,0.204,0.0438,-1.03,-0.0274,0.00276,-0.292,0.143,-1.16,-0.466,0.261,0.264,1.67,0.496,-0.246,0.221,-0.0503,0.124,-0.481,0.223,0.166,0.701,0.123,0.109,0.025,0.445,-0.223,0.296,0.716,1.04,0.231};
float f4_2_bias[64] = {0.623,0.313,0.456,0.0966,0.0343,-0.148,0.177,-0.104,0.589,1.09,-0.00516,0.416,0.311,0.302,0.513,0.262,0.25,0.0946,-0.123,0.136,0.417,0.0453,0.0203,0.518,0.0189,-0.994,0.318,0.391,-0.0121,0.769,0.0493,-0.0464,0.0742,-0.297,0.244,0.268,0.167,0.298,0.956,-0.0675,0.0896,-0.0642,0.391,-0.129,-1.16,0.846,0.222,0.0607,-0.267,0.0253,0.569,0.348,0.302,0.00819,-0.67,0.55,0.144,-0.0758,0.0016,-0.0587,-0.0458,0.0129,0.4,0.352};

