// Auto generated data file
// Copyright (c) 2018-2021, Shiqi Yu, all rights reserved.
#include "facedetectcnn.h" 

float f0_weight[16* 32 * 1 * 1] = {-7.33e-05,0.000334,-0.000415,-1.82e-05,0.0011,8e-05,-0.000585,5.78e-06,0.000139,0.000425,0.000485,-0.000359,0.000312,0.00118,0.000109,-4.86e-05,0.000472,0.000515,-0.000209,0.000177,-0.000147,0.000252,0.00125,0.000562,-0.00043,-1.03e-05,-2.15e-05,0,0,0,0,0,-0.000297,9.17e-05,-7.01e-05,-0.00206,-0.00118,0.000967,0.00125,0.000226,0.000837,-0.000702,0.000524,0.00086,-0.00372,-0.00113,0.00226,-0.000201,-0.000143,0.000931,-0.000777,-0.000222,0.00106,-0.00347,-0.00082,0.00391,-0.000584,-0.000504,0.00247,0,0,0,0,0,-7.84e-11,-8.76e-11,-1.94e-10,4.89e-11,-1.23e-10,-1.45e-11,7.71e-11,4.93e-11,-2.66e-11,-7.13e-11,3.26e-12,-1.52e-10,-2.88e-11,-7.58e-11,4.58e-11,3.71e-11,-7.02e-11,7.78e-11,7.05e-11,3.9e-11,8.75e-11,-3.66e-11,7.34e-11,7.66e-11,-2.68e-10,-2.51e-10,-6.18e-11,0,0,0,0,0,0.000478,0.00261,0.001,2.97e-05,-0.00106,0.000192,-0.00138,-0.00175,-0.00055,0.00179,0.00468,0.00195,-0.000112,-0.00145,-0.000639,-0.00173,-0.00188,-0.00118,0.00263,0.00389,0.00307,-0.000288,-0.00437,-0.000288,-0.00153,-0.00437,0.000623,0,0,0,0,0,0.0004,-0.0012,0.000126,0.00132,-0.00256,0.0013,0.000722,-0.00115,0.000555,0.000938,-0.00262,-0.000427,0.00176,-0.00402,0.000854,0.00156,-0.00152,0.00156,0.000988,-0.00219,-0.000832,0.00228,-0.00336,0.00121,0.00215,-0.000723,0.00313,0,0,0,0,0,-0.0019,0.00204,-0.00153,2.07e-05,0.0039,0.00189,-0.00115,8.44e-05,-0.00137,-0.00102,0.000617,-0.00025,3.65e-05,0.00287,0.00231,-0.00195,-0.000558,-0.000559,0.00275,-0.00102,0.00475,0.000671,-0.0077,-0.0036,0.00411,0.00144,0.00391,0,0,0,0,0,0.000104,0.00102,0.000403,0.000431,0.0011,0.000884,0.000473,-0.00281,-0.00223,-0.000583,0.00103,0.000375,0.00115,0.00211,0.00209,0.000391,-0.00391,-0.00243,-0.00212,0.000268,-0.000289,0.00192,0.00385,0.00395,6.36e-05,-0.0041,-0.00292,0,0,0,0,0,1.83e-11,-4.51e-12,7.9e-11,-5.37e-13,-8.47e-11,-3.22e-11,-9.51e-11,-2.99e-11,-4.06e-11,8.5e-11,3.19e-11,-2.02e-11,1.38e-11,-3.36e-11,-3.45e-11,-5.74e-11,-2.74e-11,-2.32e-11,-8.08e-11,-9.77e-11,-3.35e-11,-5.03e-11,2.11e-11,-1.59e-11,-1.06e-11,8.68e-12,4.72e-11,0,0,0,0,0,-9.94e-06,-0.00017,-3.06e-05,0.000727,0.00146,0.00105,0.000854,0.00158,0.00153,0.00191,0.00144,0.000987,0.00159,0.00204,0.00101,0.000268,0.000683,0.000139,-0.00051,-0.00177,-0.00129,-0.00228,-0.00303,-0.0027,-0.00198,-0.00236,-0.00133,0,0,0,0,0,-7.71e-06,5.35e-05,-0.00106,-0.000443,-0.000658,-0.000559,0.000405,0.000784,0.000428,-0.000234,-0.000426,0.000477,-0.000556,-0.00186,0.000182,-0.00117,-0.00191,-0.00131,9.52e-05,-0.000476,0.000811,-0.00015,-0.00304,7.14e-05,0.00176,-0.00104,-0.000145,0,0,0,0,0,0.00105,-7.92e-05,0.000884,-0.000183,-0.00129,-5.28e-05,0.00179,0.00106,0.00215,0.000621,-0.0012,-0.00162,-0.000727,-0.00157,-0.00197,-0.00156,-0.00233,-0.00231,-0.000506,0.00145,-0.00149,4.17e-05,0.00421,0.00195,-0.00176,0.00186,0.000467,0,0,0,0,0,-0.00114,-0.0004,-0.000478,0.000862,0.00193,0.000398,0.000742,0.00227,0.00108,0.000785,0.000955,0.00207,0.000731,0.000885,0.000514,0.000298,0.000771,0.000596,-0.000195,-0.00179,0.000166,-0.000452,-0.00218,-0.00176,-0.00145,-0.00262,-0.00221,0,0,0,0,0,0.000355,0.00272,0.0011,-0.000478,-0.00253,-0.00143,0.000968,0.000581,-7.8e-05,0.00102,0.00333,0.00207,-0.00138,-0.00396,-0.00268,0.00106,-0.000428,-0.000422,0.000698,0.00426,0.00319,-0.00182,-0.00281,-0.00188,0.000679,-0.000519,-0.000903,0,0,0,0,0,0.000316,0.000879,-0.000865,-0.00029,0.00123,0.00042,-0.00105,-0.000176,-0.000625,0.000442,0.00158,-0.000215,-0.000306,0.00191,0.00153,-0.00109,0.00095,0.000889,0.000995,-0.00154,-0.00239,-0.00128,-0.00255,-0.00151,0.000842,-0.00025,0.000888,0,0,0,0,0,0.00102,0.00128,0.000474,0.000248,-0.000764,-0.000215,-0.00238,-0.00143,0.00145,0.00207,0.00198,0.00012,0.000647,-0.000774,5.87e-05,-0.00343,-0.00279,0.00181,0.00453,0.00331,8.71e-05,0.0011,-0.0011,-0.000222,-0.00432,-0.00416,0.00103,0,0,0,0,0,-0.000132,0.000253,-0.000349,0.000715,0.000244,-0.00223,0.000535,0.000508,6.82e-05,0.000706,0.00085,-0.00107,0.00188,0.000879,-0.0036,0.00058,0.000297,-0.00139,0.00133,0.000822,-0.00216,0.00321,0.00111,-0.00426,0.00162,0.000533,-0.00169,0,0,0,0,0};
float f0_bias[16] = {-0.324,0.222,-1.6e-06,-0.292,0.282,-1.73,0.312,-1.12e-06,-0.183,0.613,0.2,0.339,0.23,0.712,0.196,0.268};
float f1_1_weight[16*16*1*1] = {0.0266,-0.0643,7.36e-07,0.565,0.0572,0.0841,-0.398,-1.58e-07,0.146,0.0474,0.0507,-0.15,-0.235,-0.069,-0.636,-0.0699,-0.305,0.0298,-3.3e-07,0.192,0.0374,-2.43e-05,-0.0487,-1.52e-07,-0.42,0.457,0.0617,0.449,-0.0396,0.4,-0.0392,0.076,-0.0166,-0.0601,-4.32e-07,0.104,0.165,-0.197,-0.279,-3.15e-07,0.104,0.198,-0.22,0.0646,0.254,-0.262,-0.312,0.21,-0.0819,0.00428,-2.26e-07,-0.17,-0.00784,-0.225,-0.226,6.07e-07,-0.0892,0.166,-0.00676,-0.0282,0.535,0.0903,0.159,-0.00171,-0.0148,0.329,-6.62e-07,0.342,-0.023,-0.0908,-0.106,9.11e-09,0.098,-0.145,-0.00599,-0.00948,-0.397,-0.0407,-0.355,-0.215,-0.265,-0.353,-1.21e-06,-0.0441,-0.16,0.343,0.507,8.17e-07,-0.00605,0.00828,0.000989,0.0484,-0.121,-0.167,0.0689,-0.0022,0.072,-0.167,6.39e-07,0.314,0.191,-0.139,-0.19,-3.91e-07,0.0876,-0.133,0.0104,-0.0133,-0.34,0.0125,-0.282,0.318,-0.137,0.0683,-1.98e-07,-0.031,0.016,0.414,0.0111,3.45e-08,-0.0967,0.283,0.508,0.504,0.00455,-0.25,0.0311,0.0559,-0.0329,0.457,-3.98e-07,0.00387,0.122,-0.0426,0.0342,-2.04e-07,-0.0304,0.0408,-0.107,0.118,-0.0598,-0.0639,0.264,-0.348,-0.138,-0.0136,3.3e-07,-0.00708,-0.0174,0.537,-0.0459,-2.88e-07,0.673,0.37,0.516,-0.402,-0.0392,-0.525,0.00324,0.00732,0.048,0.332,-8.28e-07,-0.334,-0.127,-0.0294,0.222,-1.25e-07,0.0077,-0.0676,0.0119,-0.019,0.218,0.0819,0.327,-0.226,-0.296,0.151,2.37e-07,-0.102,0.222,0.199,0.208,1.88e-08,0.076,0.447,-0.213,0.0354,0.199,-0.247,0.0331,-0.195,0.000762,0.143,1.94e-07,0.0295,0.436,-0.00634,-0.248,1.45e-07,0.0118,0.21,0.0358,-0.0167,-0.076,0.078,0.191,-0.297,-0.691,-0.106,-5.47e-07,-0.205,-0.129,-0.251,0.056,-5.05e-07,0.101,0.406,-0.306,-0.337,-0.00255,-0.0324,0.153,0.0421,0.0137,-0.116,-2.13e-08,0.0557,0.517,-0.195,0.106,2.52e-07,0.0238,0.224,-0.114,0.0405,0.0878,-0.00834,-0.0135,0.0967,0.0627,-0.173,8.74e-08,-0.207,0.198,-0.176,0.204,8.29e-07,-0.0426,-0.0799,-0.0275,0.0369,0.29,0.162,0.288,0.477};
float f1_1_bias[16] = {-0.0945,-0.458,0.0519,-0.0856,0.27,0.156,0.0946,-0.0902,0.0916,-0.0435,-0.205,-0.0654,0.0438,-0.0989,-0.233,-0.46};
float f1_2_weight[16*1*3*3] = {-0.0758,0.0735,-0.115,-0.0471,0.166,0.000526,0.242,0.179,0.335,-0.0878,-0.584,0.083,0.0542,0.126,-0.0793,0.133,-0.191,-0.0161,0.361,-0.00386,0.401,-0.234,0.507,1.61,-0.558,-0.372,0.13,0.0364,0.0944,0.248,-0.745,0.143,-0.441,0.0173,-0.0685,-0.146,0.305,0.00768,0.275,0.603,-0.203,-0.154,0.388,-0.0973,-0.0115,0.224,0.33,-0.216,0.562,-0.164,0.022,0.25,0.415,0.296,-0.219,0.131,0.633,-0.219,-0.363,-0.897,-0.497,0.183,0.251,0.112,1.08,-0.527,-2.2,1.76,0.612,1.9,0.309,-0.05,-1.13,-0.482,-1.38,2.76,2.09,0.494,-1.9,0.671,0.964,-0.292,-0.194,0.566,-0.407,0.33,0.512,0.505,-0.135,-0.267,1.03,-0.954,-0.912,0.217,1.53,-1.85,0.0742,-0.127,0.11,-0.429,-0.409,-0.138,-0.523,-0.0693,0.208,0.00745,-0.0783,0.113,0.239,0.0104,-0.0322,0.202,0.13,-0.369,1.23,-0.991,-1.81,-0.802,-1.59,-0.49,-0.371,0.0942,-0.524,-0.229,-0.0721,0.00233,-0.327,-0.507,0.121,-0.267,0.119,-0.588,-0.278,-0.201,-0.56,-0.329,-0.147,0.0408,0.214,0.153,-0.015,-0.0032,0.334,-0.464};
float f1_2_bias[16] = {1.14,0.693,-0.0637,-0.0441,-0.00538,-0.0966,-0.0373,-0.0703,0.227,0.543,-0.00583,0.0511,-0.136,1.73,-0.000399,-0.0643};

float f2_1_weight[16*16*1*1] = {0.185,0.435,-0.0169,0.0393,0.0629,0.0221,0.105,0.0478,-0.0726,0.227,0.0164,-0.0426,-0.0194,0.822,-0.0794,-0.0203,0.196,0.388,-0.00175,0.0833,-0.0359,0.0152,0.0155,-0.488,0.027,-1.14,-0.0138,-0.0115,-0.000464,0.192,0.0178,0.0024,-0.159,-0.183,0.0346,-0.0442,0.00211,0.0252,-0.000776,-0.138,-0.00212,-0.667,0.0571,0.0239,0.00299,0.589,-0.0239,0.0902,-0.33,0.122,-0.189,-0.424,-0.189,-0.317,-0.0521,-0.0621,-0.084,0.0799,-0.28,-0.225,-0.0793,0.0561,-0.141,0.0736,0.0198,-0.659,0.00309,0.0475,-0.049,0.0107,-0.0535,0.102,0.00269,0.0494,-0.0114,0.0027,0.008,0.653,0.00953,0.0132,-0.0516,-0.0254,0.0321,0.253,0.11,0.307,0.0429,0.0758,-0.342,0.0227,-0.265,-0.176,-0.183,-0.069,-0.293,-0.344,0.0509,-0.848,0.0122,0.0749,-0.0222,0.0881,0.0438,0.0886,0.0312,0.174,0.0117,-0.00256,0.0127,0.478,0.0413,0.0789,0.231,0.229,-0.0074,0.112,0.111,0.105,0.0678,0.114,-0.569,0.0122,-0.339,-0.267,-0.348,0.171,-0.59,-0.302,0.0836,0.0926,0.509,0.0726,-0.46,-0.36,0.544,0.0271,0.0399,0.0874,0.356,0.433,-0.327,0.086,0.0293,-0.303,0.114,0.276,0.0309,0.0911,0.14,0.0721,0.149,0.37,-0.0182,0.0147,-0.014,0.0247,0.00706,-0.361,-0.00853,0.0033,0.253,-0.258,0.33,0.58,0.271,0.436,0.326,-0.117,-0.0792,0.0967,-0.147,-0.0744,-0.0243,-0.0975,-0.0922,-0.0266,-0.13,-0.128,-0.149,-0.184,-0.263,-0.217,-0.36,-0.0516,-0.0154,0.187,0.0215,-0.0571,0.0388,0.106,0.0144,-0.111,-0.0475,0.0423,0.463,-0.148,-0.526,-0.462,0.347,0.0479,-0.0787,-0.0511,0.274,0.4,-0.401,-0.0876,-0.0967,-0.435,-0.251,0.142,-0.129,-0.223,0.186,0.012,0.0672,-0.0164,0.488,0.128,0.19,0.0234,-0.216,-0.0923,0.206,-0.436,-0.00942,-0.657,0.0208,0.019,0.0277,0.0291,-0.0745,0.0623,0.00201,0.062,0.131,0.0494,-0.0135,0.606,0.0118,-0.0296,-0.577,0.339,-0.0563,-0.236,0.163,0.042,-0.229,0.112,0.0348,0.122,-0.152,0.159,0.329,0.137,0.308,0.0244};
float f2_1_bias[16] = {-0.227,0.0614,0.0607,0.162,-0.426,0.0127,-0.142,0.0331,0.0192,-0.174,-0.052,-0.0788,0.0113,-0.0937,-0.271,-0.085};
float f2_2_weight[16*1*3*3] = {-0.0259,0.00928,0.0484,-0.0938,0.16,-0.0672,0.101,-0.00582,-0.0375,-0.344,-0.0225,0.19,0.141,-0.0177,0.0455,0.00226,0.081,-0.076,-0.519,-0.0323,0.0987,-0.0786,1.05,0.0305,-0.0618,-0.945,-0.0232,-0.0515,0.0652,0.0836,0.4,-0.00384,0.00381,0.0631,0.0449,0.032,0.0427,-0.0194,-0.0632,0.00924,-0.128,-0.278,-0.0512,-0.197,0.0213,-0.0107,0.0915,-0.1,0.112,-0.149,-0.198,-0.0624,0.145,0.033,0.589,0.0626,0.053,0.134,-0.023,0.555,0.0396,0.00378,-1.22,0.00419,-1.67,1.04,1.51,-0.802,1.41,-0.869,-1.35,1.11,-1.01,0.448,-0.843,-0.803,1,-0.822,0.963,-0.858,-0.0703,-0.205,-0.0586,0.231,-0.164,0.072,0.176,0.0617,-0.0421,-0.0948,-0.0382,-0.25,-0.0272,0.111,0.17,-0.0214,0.00833,-0.0426,-0.163,0.0215,-0.122,0.0119,-0.122,-0.000967,-0.00518,0.165,-0.0198,0.147,0.085,-0.0986,-0.202,0.00517,1.2,0.23,0.028,0.0256,-1.55,-0.048,-0.271,-0.0277,-0.106,0.851,-0.103,0.125,0.0955,-0.129,-0.43,-0.185,0.166,-0.0584,-0.0481,0.078,-0.0296,0.00486,-0.0197,-0.0151,-0.0544,0.0474,0.0064,-0.0414,0.0695,-0.0958,0.214,-0.0247};
float f2_2_bias[16] = {0.888,0.822,0.534,0.274,0.216,0.108,0.534,-0.00321,0.906,0.0413,0.378,0.141,0.662,0.625,0.386,0.983};

float f3_1_weight[64*16*1*1] = {-0.223,-0.0977,0.0239,0.103,-0.0512,0.0909,0.012,-0.15,0.182,0.0239,-0.237,-0.0314,-0.274,0.0232,0.06,-0.193,0.108,-0.132,0.23,-0.102,-0.0969,0.0678,-0.324,0.0215,0.0473,-0.107,-0.038,-0.0448,-0.112,0.0751,-0.0622,-0.135,0.0845,-0.0331,-0.112,-0.0678,-0.000284,0.369,-0.13,-0.42,-0.169,0.0183,0.287,0.107,0.119,-0.0697,0.0682,-0.113,-0.0284,-0.651,-0.277,-0.0237,0.0474,-0.00986,-0.0401,-0.0177,0.0353,0.0341,-0.0615,-0.0385,0.0115,-0.0756,0.0178,0.0516,-0.0601,0.58,0.279,-0.0158,-0.0594,0.0199,0.0283,0.0126,-0.0289,0.000848,0.029,-0.0458,0.0106,0.0158,0.00183,-0.0966,0.137,-0.1,-0.0692,0.26,-0.00923,0.0213,0.225,-0.254,-0.112,0.0188,-0.0531,0.086,0.0909,0.12,0.00731,0.156,0.0916,0.153,-0.169,-0.0304,-0.00564,0.0919,-0.131,-0.0335,0.0457,0.0144,-0.0294,0.00669,0.00578,-0.328,0.0019,-0.0932,0.175,-0.0952,0.221,-0.188,-0.254,0.103,-0.268,-0.13,-0.158,0.104,0.111,-0.0359,-0.0284,-0.126,-0.269,-0.0464,0.0157,0.0787,-0.112,0.223,0.00217,0.0951,-0.0773,-0.194,-0.316,-0.0683,-0.0232,0.053,0.366,-0.0748,0.117,0.0344,0.295,-0.123,0.0788,-0.0388,0.0695,0.261,0.0273,-0.449,-0.00323,0.0494,0.368,-0.0242,0.0995,-0.0303,-0.0832,-0.193,-0.0272,-0.122,-0.0669,0.0776,-0.0803,0.15,-0.168,0.108,-0.0291,0.256,0.416,-0.038,0.163,-0.142,-0.051,-0.255,-0.0744,0.0551,-0.0444,-0.036,-0.213,0.261,0.0282,-0.35,0.0165,0.0576,0.302,-0.227,-0.112,-0.218,-0.208,-0.0848,-0.0183,-0.0406,-0.198,-0.0678,0.138,0.0772,0.127,0.126,-0.019,-0.0498,0.418,-0.218,0.0865,-0.0535,-0.0266,0.0981,-0.096,-0.0408,-0.0253,-0.0906,0.336,0.104,0.0813,-0.0408,0.048,0.188,-0.0399,-0.00812,0.0272,0.0807,0.0769,-0.0161,-0.11,0.0375,-0.0479,-0.246,-0.067,-0.189,0.0689,-0.0398,0.412,-0.0569,0.0801,0.124,-0.439,0.143,0.292,-0.16,-0.0242,-0.0575,-0.0533,-0.000741,-0.0357,0.124,-0.0716,0.0482,0.387,0.0663,-0.0857,0.268,-0.476,0.164,-0.0314,-0.192,-0.0146,0.279,-0.0885,-0.244,-0.0248,-0.0714,0.0216,0.235,-0.1,-0.0944,0.0961,0.0439,0.191,-0.179,0.0391,0.244,0.112,-0.116,0.376,-0.0603,-0.00426,0.175,-0.102,-0.106,-0.0363,0.0802,0.299,0.0155,-0.0122,0.0367,0.0681,0.0155,0.0263,0.14,0.00301,-0.196,-0.136,-0.147,0.164,0.105,0.132,0.04,0.0911,0.132,-0.0682,0.0907,-0.114,0.0572,-0.455,-0.0526,-0.131,-0.104,0.399,0.202,0.182,-0.0114,0.288,0.0662,0.114,-0.0132,0.028,0.105,0.0221,0.156,-0.116,-0.0793,0.166,0.00103,0.0696,0.0894,-0.163,-0.0632,0.059,-0.0475,-0.00541,0.00849,-0.0329,-0.0583,0.352,0.104,-0.102,-0.475,0.173,-0.312,0.173,-0.117,-0.0826,0.0752,-0.0332,0.0545,0.0767,0.159,0.112,-0.0322,0.0705,0.0615,0.0131,-0.0328,0.0202,0.0704,-0.0237,0.128,0.0204,-0.285,0.121,0.107,0.486,-0.0798,-0.127,0.0581,-0.128,-0.176,-0.0598,0.156,-0.125,-0.149,-0.211,-0.0298,0.207,0.153,0.0452,-0.0578,0.183,0.0712,-0.0534,0.0761,0.0123,-0.191,-0.0162,0.631,0.244,0.0109,-0.0139,0.0244,0.0255,-0.0211,-0.0153,0.0188,0.0214,0.0449,0.0371,-0.0315,-0.0419,-0.0195,-0.0907,0.168,-0.139,0.113,0.257,0.244,-0.2,-0.213,0.0246,-0.125,-0.0805,-0.0719,-0.0318,0.106,0.036,0.0664,0.0507,0.091,0.153,-0.109,-0.0161,-0.439,0.00509,0.135,-0.154,-0.11,-0.102,-0.0269,0.128,-0.294,0.0381,0.243,0.288,-0.209,0.289,0.0173,0.021,-0.0649,-0.0586,0.138,0.00488,-0.0321,0.068,-0.295,0.0738,-0.0239,-0.11,0.0726,-0.0987,-0.0868,-0.0426,0.513,0.0226,-0.199,-0.0377,0.212,-0.0893,0.186,-0.121,-0.314,-0.0518,0.0688,0.0606,-0.00153,-0.0072,-0.0323,0.0621,-0.133,-0.0855,0.252,0.045,-0.189,-0.225,-0.0266,0.0908,-0.13,0.328,0.082,-0.0657,0.0195,0.162,0.0444,0.02,-0.455,-0.124,-0.103,0.0154,0.00593,0.179,-0.0511,-0.187,-0.00515,-0.00342,0.25,-0.276,-0.166,-0.161,0.0337,0.0394,-0.335,-0.198,0.0266,0.105,-0.0745,0.103,-0.0176,0.201,-0.477,0.0438,-0.167,0.0758,0.16,-0.0427,0.0269,-0.118,0.157,0.00939,-0.0632,0.208,0.0343,0.255,-0.0681,0.0712,-0.0949,-0.338,0.00333,-0.0475,-0.219,0.137,0.0634,-0.199,0.0644,0.266,-0.0564,-0.183,0.0262,0.0846,0.0541,-0.363,0.146,-0.133,0.00116,0.134,0.108,-0.0087,-0.264,-0.174,0.198,0.0786,0.0747,-0.0549,-0.414,0.0219,-0.00963,-0.0692,0.15,-0.0517,0.0948,0.00462,-0.198,-0.26,0.178,0.0457,-0.294,-0.469,-0.0131,0.164,-0.133,-0.0731,-0.112,0.0582,-0.0964,-0.208,-0.0882,-0.015,0.0907,0.133,0.0548,0.175,-0.16,-0.0731,0.128,-0.15,-0.26,-0.171,0.0369,0.214,0.184,0.0739,-0.362,0.00615,0.00356,0.178,-0.0321,-0.0184,0.0641,0.0948,0.09,0.036,0.0948,0.101,-0.241,-0.081,0.195,-0.0277,0.234,-0.449,-0.0582,0.075,-0.489,-0.36,0.0724,0.054,0.0298,-0.0969,0.0238,-0.0105,-0.0621,0.00681,-0.0344,0.00704,-0.00427,0.0933,-0.0308,0.0146,-0.0832,0.141,0.244,-0.0199,-0.0145,-0.119,-0.0393,0.168,0.17,0.136,0.00558,-0.121,-0.357,0.553,0.0118,-0.173,-0.116,0.0506,-0.0249,-0.00478,0.148,-0.327,-0.194,0.173,-0.104,0.151,0.0668,0.0695,-0.136,0.302,-0.0462,-0.102,0.0128,-0.0238,-0.101,-0.00542,-0.151,-0.0132,0.182,-0.126,0.128,-0.296,0.0296,0.303,0.151,-0.155,-0.0452,-0.0566,0.0216,-0.15,0.0858,-0.022,0.0398,0.0696,-0.0151,0.014,-0.0409,0.101,-0.0318,-0.0321,-0.0258,0.312,0.18,0.0698,0.29,-0.18,-0.00601,-0.0753,-0.007,0.00246,-0.18,0.217,-0.154,-0.0326,-0.138,-0.19,0.0931,0.255,0.000374,0.129,0.0665,-0.0801,0.0526,0.0506,0.06,-0.0761,-0.0159,-0.306,-0.0801,0.0629,0.0582,0.359,-0.107,0.0178,0.121,-0.113,0.125,0.0492,-0.468,-0.0337,0.151,0.0888,0.0266,0.208,0.0659,0.166,-0.0935,-0.0834,-0.188,0.0831,0.177,-0.00379,0.0161,-0.0579,-0.0297,-0.463,-0.0781,-0.0393,0.025,0.155,0.0253,-0.0387,0.145,0.0897,-0.114,-0.0787,-0.0054,0.0663,-0.177,0.276,-0.0246,0.0633,-0.261,-0.264,0.0187,-0.00775,0.0437,-0.191,-0.038,-0.0149,-0.0979,-0.0654,-0.159,-0.00866,-0.169,-0.0968,0.14,-0.0937,0.159,0.082,-0.174,-0.301,0.00221,-0.171,0.134,0.147,-0.0343,0.0306,-0.0864,-0.116,-0.0867,-0.00534,0.0164,0.0452,0.114,0.0851,-0.0409,-0.286,0.0945,0.0471,0.0754,0.32,-0.191,0.332,0.134,0.0267,-0.674,-0.289,-0.0519,0.0153,-0.0436,-0.0688,0.0458,0.101,-0.0405,0.0848,0.0604,0.0431,0.0518,0.0302,0.152,-0.467,0.104,-0.154,-0.258,0.299,0.124,-0.00355,-0.102,-0.0663,0.245,0.0747,-0.0802,0.0979,0.0684,0.162,0.138,0.149,0.217,-0.0184,-0.153,-0.117,-0.0799,0.096,0.23,0.183,-0.0362,0.259,-0.0862,0.0588,-0.0184,-0.0164,0.14,0.0635,-0.0236,-0.0924,0.0401,-0.0352,0.109,-0.36,0.0525,0.23,-0.0859,0.0343,0.0638,-0.218,-0.0253,0.209,-0.0951,0.0631,-0.0227,0.199,-0.0315,-0.0491,0.0189,-0.605,0.113,-0.0357,0.213,-0.097,-0.00842,0.0204,-0.0184,-0.144,-0.0734,-0.0303,0.0192,0.208,-0.222,-0.293,-0.0108,0.185,-0.0415,-0.0502,-0.16,-0.0108,-0.214,0.108,-0.201,-0.042,-0.0817,0.0372,-0.191,-0.245,0.182,-0.07,0.151,-0.0297,-0.161,-0.0268,0.0304,-0.313,0.156,-0.119,-0.165,-0.0554,-0.125,-0.026,-0.0596,-0.0495,-0.155,0.0884,0.369,0.0491,-0.0898,-0.0191,-0.044,0.2,-0.0673,0.151,-0.0225,-0.04,0.0719,0.274,-0.072,0.00989,0.089,-0.175,0.152,-0.262,0.03,0.0786,-0.0146,0.0537,0.00539,0.0915,-0.0171,-0.182,-0.0996,0.124,-0.00225,0.145,0.241,-0.102,-0.0763,-0.234,0.0237,0.00589,-0.0529,-0.066,-0.0626,0.0746,-0.339,0.433,0.0845,0.0706,0.337,-0.239,-0.0618,-0.145,-0.103,-0.00265,0.389,0.108,-0.0829,0.184,-0.0169,0.0981,-0.101,-0.0261,-0.000717,0.0747,-0.1,-0.0605,0.109,-0.149,0.278,0.111,-0.194,-0.0983,-0.133,0.0369,-0.0317,-0.00259,0.173,-0.0687,-0.197,0.132,0.464,0.037,-0.0607,-0.0285,-0.0591,-0.0875,0.138,0.0789,-0.13,0.24,-0.0805,-0.0342,-0.0167,0.0103,-0.0301,-0.0483,-0.0362,-0.0775,0.164,0.142,-0.0778,0.283,0.128,-0.216,0.241,-0.0979,0.257,-5.25e-06,-0.0941,-0.0324,0.125};
float f3_1_bias[64] = {0.0561,0.0506,-0.0167,0.356,-0.237,-0.396,-0.0403,-0.1,0.095,-0.154,0.194,0.0347,-0.126,-0.191,-0.0154,0.0615,0.0777,-0.0923,0.168,0.0163,-0.191,0.0897,0.0609,-0.215,-0.236,0.169,0.0443,-0.0312,-0.0513,-0.0114,-0.0375,0.0945,0.0815,0.00079,0.0133,0.156,0.0189,-0.0934,0.106,0.0907,0.234,0.101,-0.204,-0.0479,-0.127,-0.0745,0.279,0.0474,0.0269,0.054,-0.196,0.0983,-0.188,0.0997,0.167,0.072,0.265,-0.137,-0.0936,0.0752,-0.0159,-0.257,-0.226,0.048};
float f3_2_weight[64*1*3*3] = {-1.17,-0.279,-0.0585,-0.332,1.04,0.395,-0.681,0.315,-1.28,0.0843,-0.399,-0.151,1.04,-1.93,0.435,0.125,-0.078,-0.556,-0.0321,-0.159,-0.379,-0.0374,-0.291,-1.35,-0.414,-0.0588,-0.904,-0.622,-1.56,0.385,-0.188,-0.356,0.387,-0.0312,0.169,-0.142,0.474,-0.231,0.662,0.148,0.00127,1.9,0.171,0.164,0.294,-0.223,-0.0892,0.242,-0.264,-0.453,0.179,0.0379,0.248,-0.146,0.0488,-0.228,0.345,-0.447,-0.03,0.371,-0.557,-1.8,-0.313,-0.0896,0.351,0.389,-0.439,-1.34,0.393,0.931,0.676,-0.228,-1.17,0.787,-0.304,0.243,1.36,-0.521,0.239,-0.0898,-0.717,-1.66,-0.0496,-0.421,1.8,0.136,-0.115,-0.863,0.773,-0.272,0.917,-0.088,-0.318,-0.261,-0.339,0.0345,0.366,0.682,-1.01,2.01,0.221,-1.4,0.944,-0.411,0.181,0.44,-2.05,1.79,0.34,0.126,-1.83,-1.25,1.52,-0.498,0.833,-0.277,1.6,-0.697,0.3,-0.449,0.87,-1.85,-2,-1.9,-0.169,0.198,0.409,-0.185,0.355,0.759,0.494,-0.652,-1.09,0.393,0.211,-0.331,-0.173,0.191,-0.148,-0.0264,0.738,2.19,-0.0381,-0.202,-0.673,2.2,-0.447,-0.116,-0.517,0.0666,-0.193,0.0427,1.27,0.125,0.421,-0.799,0.0842,-1.19,-0.117,1.5,-0.339,0.304,-1.32,-0.198,-0.0911,0.68,-0.116,-0.938,-0.711,0.326,0.351,0.526,0.236,-0.263,0.416,0.0925,-0.0171,0.618,0.475,0.102,-0.503,0.664,0.05,0.00387,0.0561,-0.103,0.109,-0.265,0.918,-0.659,1.2,-0.401,-0.621,0.706,0.28,-0.179,1,0.324,-2.05,-0.234,0.0274,0.0605,0.0578,0.0639,-0.384,-0.338,0.275,-0.141,1.15,-0.287,-1.28,-0.152,-0.331,-0.00879,0.337,0.769,-0.907,0.678,-0.268,-0.0368,-0.442,-0.132,0.188,-0.163,0.812,-2.43,0.367,-0.083,-1.51,0.13,0.866,0.125,-0.0673,-0.256,0.833,-0.471,1.22,0.208,0.727,0.415,-1.18,0.0661,0.114,-0.0986,0.741,0.33,0.0958,0.074,0.689,0.863,-0.121,-0.47,-0.503,-1.09,0.475,0.135,2.23,1.97,-1.47,-0.343,0.084,0.647,2.42,1.49,0.411,0.654,-0.639,0.00464,-1.66,0.767,0.762,-0.924,0.198,-0.281,3.05,-0.954,1.73,-1.89,0.654,0.907,-0.532,1.96,1.91,1.47,0.324,-0.0414,1.22,-1.03,0.258,0.25,0.591,0.647,-0.995,-0.738,-0.0536,-0.755,0.209,0.262,2.05,-1.01,0.455,2.13,2.09,2.25,-0.711,-0.413,0.0479,1.56,0.499,-1.58,1.67,0.174,0.69,0.792,0.413,-0.543,-1.23,2.34,-2.79,-0.683,-0.669,-1.77,0.312,0.288,-1.17,-2.4,-0.853,1.32,0.674,0.18,0.316,-1.21,0.634,-0.392,0.173,-0.9,-0.373,1.23,0.364,0.0951,-1.37,-0.444,-0.742,-0.348,1.13,0.358,-0.282,-0.0751,-0.0858,-0.576,-0.0704,1.06,-0.324,0.618,-0.35,-0.101,0.0503,-0.737,-1.15,-0.271,-1.11,-0.246,-2.86,0.806,-0.0707,0.494,0.209,0.556,0.998,0.118,0.601,0.0886,-1.21,-0.00391,0.341,0.0398,0.164,0.836,-0.0631,0.358,1.45,0.297,-0.498,-1.21,0.32,0.729,0.00832,0.343,-0.0572,0.0759,-0.256,-0.303,0.0915,-0.16,0.455,0.0774,-0.179,0.276,0.15,0.0958,0.85,0.206,-0.118,-0.23,0.168,0.0772,0.7,1.93,-0.483,-0.387,0.241,-0.0443,-0.00816,-0.322,-0.115,-0.16,-1.77,-0.584,0.279,-0.0684,-0.492,-0.0185,0.415,-0.0927,0.0557,-0.488,-0.266,0.0263,-0.531,-0.187,0.529,-0.47,-0.0479,-0.151,-0.315,0.254,0.36,-0.509,0.174,-0.134,-0.367,0.255,-0.0797,0.037,-0.385,-0.17,0.526,0.665,0.342,-0.833,-0.423,1.54,-0.435,-0.44,0.484,-0.122,0.494,0.0634,-1.2,0.0995,-0.286,-0.0255,-0.0459,0.214,0.355,0.327,-1.52,0.0252,0.0249,0.711,1.28,-0.24,-1.11,-1.47,-0.419,-0.841,0.0814,0.896,1.59,-0.00967,-0.717,-0.338,0.788,-0.0189,0.478,0.0302,-0.669,-0.028,-1.04,-0.333,0.127,-0.367,-2,-0.953,-0.628,-1.65,-0.679,0.197,-1.47,0.0399,-0.21,-0.388,0.143,3.28,-2.19,-0.459,0.538,0.0791,-0.0866,-0.224,-0.145,-0.411,-0.567,-0.283,-0.302,0.607,-0.0436,-0.974,-0.0254,0.35,0.159,0.0506,0.236,-0.554,-0.177,-0.2,0.229,-0.119,-0.111,-0.453,-0.0425,-0.0928,-0.574,0.578,0.189,-0.0535,0.127,-0.349,-0.17,0.0498,0.167,0.533,0.626,0.454,0.197,0.567,0.394,-0.0968,0.217,-0.115,-0.759,-0.279,0.191,-0.324,0.752,-0.356,-0.159,-0.0515,0.317,-0.457,0.405,-1.11,-0.554,0.252,-0.989,0.695,0.231,-0.281,-0.438,0.2,-0.0337,-0.0184,0.789,-0.274,0.0787,-0.0583};
float f3_2_bias[64] = {0.237,0.143,0.0154,0.0613,0.0679,-0.201,-0.0348,0.954,0.181,0.0917,0.241,-0.157,-0.0265,-0.0507,0.0956,0.0535,0.012,-0.23,0.175,0.521,0.0752,0.349,-0.235,0.16,0.0266,-0.0272,0.32,0.408,-0.0549,0.356,0.379,0.11,0.0545,-0.0886,0.0243,0.549,-0.0699,0.104,0.0807,0.542,0.211,0.0713,-0.0466,0.0534,0.0764,0.211,-0.189,-0.0812,0.0638,0.44,0.0475,0.0859,-0.0616,0.0852,0.323,0.238,-0.0414,0.164,-0.0804,0.179,-0.0142,-0.198,0.0774,0.391};

float f4_1_weight[64*64*1*1] = {0.12,0.0947,-0.0259,0.0123,-0.0225,-0.0976,0.0017,0.0112,0.115,0.0896,-0.0404,0.211,0.17,0.0502,0.0909,-0.0247,0.00268,0.0373,-0.0152,0.0324,-0.0247,-0.286,0.0696,0.125,-0.0955,0.066,0.132,0.168,-0.0107,0.0843,0.177,-0.18,-0.0181,0.0634,0.213,0.149,0.0505,-0.00278,0.0777,0.00832,-0.017,-0.0109,-0.0445,0.11,0.0551,-0.0487,-0.111,0.0553,-0.0649,-0.0413,-0.087,-0.0125,0.125,-0.0103,0.164,0.0203,0.131,-0.0885,-0.0451,0.0615,-0.179,0.0818,-0.00139,-0.0302,-0.124,0.259,-0.000993,0.106,-0.194,0.159,0.0025,0.032,-0.0976,-0.0628,-0.0567,0.0292,0.0814,0.023,-0.0931,-0.0535,0.23,-0.126,0.162,0.0781,0.0187,-0.0946,-0.29,-0.0794,-0.139,0.0979,0.0925,-0.0774,0.112,-0.0797,0.0536,-0.0133,0.157,0.0582,-0.125,-0.048,0.142,-0.0171,0.138,-0.00632,0.0413,0.0352,-0.0723,0.0426,0.18,0.0932,0.042,0.144,-0.0179,0.097,-0.225,-0.202,0.0224,-0.0178,-0.196,-0.171,0.186,-0.174,-0.0801,0.0778,-0.0275,-0.0937,-0.00393,0.205,-0.0116,0.00697,-0.124,-0.0137,-0.167,0.0175,-0.0568,0.0982,0.114,-0.298,0.0926,0.0155,0.0555,-0.052,0.0396,0.103,-0.131,-0.0919,-0.105,0.0921,-0.137,0.191,-0.0296,-0.0121,-0.0597,-0.0824,-0.0752,0.0461,-0.0548,-0.176,-0.0642,0.0734,0.0462,0.107,0.0522,0.0133,0.0852,-0.137,-0.0709,-0.0583,0.0448,-0.0593,-0.0578,-0.152,-0.0982,0.102,0.0206,-0.036,-0.124,-0.0857,0.144,0.0495,-0.0661,0.000271,-0.0526,-0.0832,-0.0972,0.117,0.19,-0.118,-0.162,-0.0263,-0.185,-0.0251,-0.0912,0.0192,0.0792,-0.224,-0.109,0.0195,0.125,-0.0491,-0.0975,-0.135,0.153,-0.207,-0.0288,-0.0859,0.0241,-0.138,-0.186,-0.0634,0.0551,-0.164,0.101,0.0655,0.00749,-0.0582,-0.0694,0.134,-0.0136,-0.171,-0.0122,-0.276,-0.148,-0.145,-0.0549,-0.0108,0.0456,-0.148,-0.119,-0.123,0.0458,0.167,-0.193,-0.212,0.0286,0.0634,-0.19,0.0523,-0.0381,0.125,0.0481,-0.156,0.0554,0.217,-0.0291,0.00668,0.0262,0.101,-0.235,0.0767,0.0658,-0.0515,-0.0552,-0.0961,-0.212,-0.0401,-0.0564,0.0221,0.0555,0.0783,-0.0112,-0.0435,0.0424,-0.0677,0.271,-0.0828,-0.019,0.0189,0.103,-0.0113,0.136,-0.202,0.101,-0.034,0.0556,-0.121,0.0106,0.0223,-0.0323,0.167,-0.00443,-0.00713,-0.0124,0.0415,0.18,-0.0968,0.0825,-0.0753,0.108,0.00135,-0.0118,-0.0921,-0.0868,0.0276,0.126,-0.0508,-0.00814,0.0942,-0.027,0.0553,-0.0101,-0.107,0.158,0.00899,0.0601,0.0171,0.161,0.044,-0.0615,-0.0015,0.171,-0.0905,0.222,0.0788,0.0748,0.00509,-0.0969,-0.165,0.0255,-0.217,0.0208,0.00861,-0.0711,0.153,-0.279,0.124,-0.141,0.0371,0.0633,-0.00669,-0.0457,0.0954,0.0579,-0.0396,0.0338,0.00508,0.0281,-0.151,0.0478,-0.035,-0.0822,0.0328,-0.0453,0.0816,0.0686,0.187,0.0367,0.133,0.0604,0.043,-0.0744,-0.287,0.225,0.151,0.13,-0.138,-0.00132,-0.22,0.0853,-0.267,-0.0187,-0.108,-0.0116,-0.095,0.00204,-0.0902,-0.0139,0.104,-0.0821,0.0968,0.0778,0.00962,-0.109,-0.147,-0.00672,0.0431,0.0374,0.0758,0.0394,-0.0696,-0.209,-0.0279,0.00573,-0.203,0.0865,-0.0278,0.0127,-0.265,0.0849,0.0852,-0.0302,0.0944,0.0209,-0.0237,-0.212,-0.115,-0.116,-0.033,0.0533,-0.0379,-0.0399,0.155,0.0498,0.0961,-0.0216,0.0835,-0.0861,0.165,0.205,0.0474,0.0468,0.096,0.26,-0.147,0.0563,0.143,0.126,0.0175,0.151,0.203,-0.191,0.222,-0.0933,-0.00116,0.0367,-0.029,0.0325,0.0353,-0.166,-0.256,-0.0421,-0.0238,0.0265,0.0216,-0.0453,0.0131,-0.154,-0.0666,-0.07,-0.174,-0.169,-0.232,0.0686,0.107,0.0793,0.0336,0.0194,0.0101,-0.096,-0.122,0.00378,-0.14,-0.0772,-0.0583,-0.036,-0.156,-0.0768,-0.0664,0.107,-0.0074,-0.0626,0.0301,-0.167,-0.0891,-0.114,0.0552,-0.0907,-0.0792,-0.0646,0.233,-0.165,-0.0732,0.0674,0.0631,-0.0224,-0.316,0.0917,0.0178,-0.0386,0.0161,-0.0605,-0.0109,0.0326,0.304,-0.0673,0.108,0.0156,0.0448,-0.0649,-0.0376,-0.143,-0.07,0.0368,-0.084,-0.154,-0.000976,-0.0159,0.0759,0.15,-0.0278,-0.0472,-0.011,0.0581,0.241,-0.0444,0.0764,0.103,0.12,-0.15,-0.102,-0.0936,-0.0594,-0.094,-0.185,-0.182,0.0314,-0.201,0.136,-0.197,0.0586,-0.12,-0.0552,-0.042,0.237,0.0521,-0.111,-0.0962,0.0852,-0.00918,-0.337,0.0709,-0.0148,-0.171,0.0962,-0.0295,-0.0847,0.0295,-0.0604,0.0872,0.0224,-0.0595,-0.0473,0.0512,-0.0722,0.132,0.0713,-0.0252,-0.0875,-0.0826,-0.00802,-0.155,0.087,0.0182,0.0221,0.0274,0.0748,0.119,0.0375,-0.0854,0.0247,-0.101,0.0809,0.166,0.023,-0.141,0.0658,-0.00251,-0.0371,0.0591,-0.2,0.154,-0.137,-0.133,-0.248,0.0365,0.013,0.0222,0.0578,0.127,-0.0741,0.00695,-0.134,-0.212,-0.016,0.0434,0.235,0.128,-0.0795,-0.0164,0.135,0.131,-0.0454,0.209,0.131,0.103,0.0876,-0.137,-0.0962,0.056,0.135,0.183,-0.0295,-0.0156,0.0123,0.0807,-0.0509,0.0308,0.111,-0.0207,0.144,0.0008,-0.212,0.00638,0.266,0.149,0.0574,-0.122,-0.0974,0.0333,-0.0593,0.0521,-0.106,-0.0262,-0.0383,0.193,0.119,-0.0948,-0.0813,0.00216,0.057,-0.0437,0.148,0.0124,0.0123,-0.133,0.205,0.0536,0.211,0.125,-0.0934,-0.12,0.0277,-0.188,-0.0928,-0.0947,-0.252,0.0833,-0.00761,-0.153,-0.0666,0.115,-0.0505,-0.192,0.0229,0.102,-0.0247,0.145,-0.0731,0.0753,0.0234,0.0874,-0.00831,-0.0313,0.159,0.103,-0.24,0.052,0.126,-0.0746,-0.0826,0.0698,-0.113,0.0629,0.0855,-0.0974,0.116,-0.113,0.00975,-0.0273,-0.0302,-0.151,0.137,-0.048,0.117,-0.124,0.0997,-0.0394,-0.116,0.103,-0.0828,0.0199,-0.177,-0.0773,0.0481,0.05,0.0127,-0.107,-0.147,0.115,-0.0371,-0.108,0.06,-0.0251,-0.000823,0.0805,0.0748,-0.0995,0.0225,0.0275,0.0685,0.0234,-0.0309,0.0437,-0.411,-0.134,0.104,-0.165,-0.0309,-0.146,0.0359,-0.282,-0.164,-0.0527,-0.0481,0.0622,-0.053,-0.0793,-0.122,-0.157,-0.0387,-0.174,0.0733,0.0741,0.107,0.144,-0.0902,-0.0838,-0.103,-0.041,0.0528,-0.198,-0.122,0.00195,0.203,0.0332,-0.0944,0.0474,-0.0748,-0.244,-0.0817,0.0119,0.0518,-0.149,0.148,0.0939,0.131,-0.0975,0.101,-0.0287,-0.0329,-0.0648,0.0634,-0.0839,0.0528,0.13,-0.128,-0.211,0.00554,0.0614,0.0482,-0.0183,0.0237,0.00973,0.185,-0.0636,0.0996,-0.0924,-0.064,-0.131,-0.0635,-0.144,-0.0149,0.0909,-0.114,0.0253,0.163,0.1,-0.149,-0.0443,0.015,-0.0932,0.0463,-0.0154,-0.028,-0.132,0.0146,0.0256,0.0745,-0.00298,0.0214,-0.164,0.0573,0.0121,-0.0273,0.0855,-0.132,-0.00486,0.0977,0.0323,-0.207,0.0274,-0.0262,0.107,0.00728,0.0695,0.0815,0.0104,-0.148,-0.0683,0.0659,-0.0477,0.159,0.0192,0.172,-0.0119,-0.0378,0.316,-0.135,-0.0721,-0.00177,0.0422,-0.0511,-0.0438,0.108,0.159,0.21,-0.136,-0.0207,-0.0418,0.249,0.104,-0.0217,-0.08,0.0178,0.156,0.0079,-0.0487,0.263,0.0808,-0.0623,0.18,0.182,-0.0449,-0.0806,0.0597,0.0567,0.0911,-0.0258,0.00831,0.0644,0.00291,0.32,0.143,-0.0853,0.0591,0.0327,0.0726,0.0779,0.181,0.143,-0.097,-0.0263,-0.0364,0.134,-0.0528,0.00792,0.0865,-0.222,-0.0378,0.0318,0.0876,0.141,0.0447,0.0164,0.0299,0.0869,0.146,-0.0707,-0.00277,-0.122,-0.0295,-0.128,-0.0519,-0.0231,0.091,0.0301,0.146,0.0924,-0.0706,0.0964,0.028,-0.014,-0.147,0.235,-0.02,0.131,-0.028,0.184,0.0619,0.054,-0.0554,0.084,-0.00441,-0.052,0.142,0.141,-0.157,-0.0696,-0.0496,0.0276,-0.122,-0.0495,-0.123,0.0496,-0.115,0.0921,0.25,-0.0482,0.013,-0.121,0.146,-0.112,0.296,-0.000364,-0.0374,0.0484,0.0306,0.0242,0.232,0.163,0.126,0.215,0.215,-0.00468,-0.027,0.00733,0.0182,0.0791,0.0673,0.0286,0.0117,0.0238,0.199,-0.133,-0.0895,-0.168,0.0901,0.0279,0.0934,0.115,0.326,0.0863,-0.00697,0.0952,0.0439,-0.0706,-0.0169,-0.0732,-0.0195,-0.128,-0.315,0.039,-0.00181,0.0435,-0.0664,0.0383,0.131,-0.0219,0.0509,-0.24,0.0147,-0.022,0.0647,0.114,-0.0616,-0.045,-0.0518,0.0882,-0.0908,-0.037,0.0929,-0.105,0.0365,-0.0759,0.0677,0.0633,0.0918,-0.177,-0.0964,-0.00493,-0.00487,-0.0975,0.028,0.0564,0.132,0.00907,-0.0493,-0.081,0.21,-0.11,-0.187,-0.0123,0.0964,0.00947,0.0721,-0.0991,0.106,-0.148,-0.00172,-0.23,-0.041,-0.0829,0.0769,0.0833,0.239,0.334,0.0132,0.281,0.0526,-0.0495,0.0207,-0.0768,0.133,0.00541,-0.15,0.289,0.00324,0.076,0.138,-0.0364,-0.0976,0.0365,-0.107,-0.0875,-0.0289,-0.215,0.0668,0.157,-0.179,0.129,0.155,0.0186,-0.0487,0.0473,0.00992,-0.105,0.0374,-0.119,-0.0645,0.131,0.0423,-0.167,0.136,-0.0194,-0.0655,-0.0344,-0.113,0.0474,0.0933,0.0518,0.121,0.0801,-0.0632,-0.103,0.00576,0.0579,0.082,-0.0588,0.122,-0.0395,0.144,-0.0332,-0.022,0.21,0.013,0.117,-0.0299,-0.0129,0.0174,-0.0655,0.0715,-0.108,0.279,0.146,0.0375,-0.000437,-0.0407,0.236,-0.136,0.023,0.0318,-0.0183,-0.0993,0.0517,0.0606,0.0582,-0.0385,-0.195,0.0163,0.136,0.0916,-0.268,0.21,0.0569,0.192,-0.175,-0.0168,0.0963,-0.143,0.115,-0.0684,-0.0797,0.0507,-0.0825,-0.013,0.215,0.0684,0.151,-0.0403,-0.00604,0.011,-0.0235,0.0659,-0.0359,-0.018,0.0321,0.0536,0.0661,-0.0132,-0.0435,0.0279,0.0845,0.0899,-0.0207,0.187,0.142,-0.11,0.141,0.145,-0.0874,0.0458,0.161,0.059,-0.0971,-0.114,-0.047,-0.0477,-0.164,-0.0108,-0.113,-0.05,0.156,-0.126,-0.136,0.00221,0.0731,-0.0519,0.0895,0.0217,0.0552,-0.187,-0.0185,-0.0121,-0.00785,-0.0239,-0.0663,0.148,-0.157,0.0389,0.0993,-0.198,0.111,-0.187,0.0573,-0.0215,0.047,-0.0562,0.00608,0.179,-0.014,-0.0751,0.121,-0.0312,0.325,0.0669,0.0898,0.21,-0.0779,0.0826,-0.175,-0.00113,-0.0562,-0.0739,0.075,0.0928,0.112,0.0179,0.109,0.0843,-0.133,0.0674,-0.0739,0.0351,0.133,0.105,0.0734,0.0968,0.222,0.00985,0.0303,-0.113,-0.243,0.0699,0.171,-0.0825,0.0401,-0.0345,0.204,0.187,0.0721,0.00111,0.25,-0.123,-0.00956,0.108,0.121,-0.0431,-0.231,-0.0716,0.0628,0.0654,0.0116,0.132,-0.0415,0.0347,0.213,0.143,0.0384,-0.0256,0.0211,0.0153,0.0829,0.0155,0.1,-0.00314,-0.104,-0.219,0.0235,-0.0384,0.0077,0.0242,-0.105,-0.0636,0.0565,-0.125,0.176,0.0724,0.0499,0.146,-0.0902,-0.106,-0.0426,-0.0171,-0.25,-0.00346,0.107,-0.165,0.159,-0.0528,0.133,-0.0186,0.0273,-0.143,0.272,-0.124,0.0745,0.0023,0.19,0.0967,0.0885,0.0418,0.203,0.0213,-0.00128,0.153,-0.0474,0.0436,-0.0996,-0.159,0.104,-0.0475,-0.135,0.116,0.0383,0.0333,-0.229,-0.0753,0.16,-0.137,0.07,0.0242,-0.0136,0.00995,0.0772,-0.0541,-0.331,0.144,-0.0963,-0.0102,-0.173,0.196,0.118,0.111,0.00441,0.0515,0.149,-0.0205,-0.27,-0.0161,0.00764,0.279,0.331,-0.124,0.132,0.0291,-0.0785,0.386,0.0494,-0.0823,-0.106,-0.0526,0.172,0.098,-0.0262,-0.0414,0.0864,-0.178,0.043,0.0699,0.118,0.118,-0.0638,-0.0713,-0.069,-0.178,-0.0545,-0.0493,0.0826,-0.00728,0.0781,-0.293,0.0476,0.118,-0.0282,0.0241,-0.00319,-0.0325,-0.196,-0.0586,-0.217,0.0252,0.184,-0.0117,-0.0814,-0.0817,-0.236,0.0625,0.00885,-0.186,0.103,-0.164,0.0222,0.157,0.05,-0.0621,-0.0993,-0.00308,0.118,0.141,0.0961,-0.306,-0.231,0.0831,0.176,-0.114,0.0698,-0.0107,0.0652,-0.0282,0.0221,-0.0923,-0.194,-0.107,0.195,0.029,0.0291,0.0391,0.028,0.0516,-0.0214,-0.0341,0.0757,-0.137,-0.0869,0.0149,-0.107,-0.0203,-0.142,0.0228,0.0522,0.078,-0.196,-0.146,-0.151,0.0783,-0.0955,-0.189,0.108,-0.199,-0.0365,0.0328,0.0792,-0.0285,0.104,-0.195,0.183,-0.0209,-0.132,-0.108,-0.0605,0.0724,-0.171,0.0837,0.0941,-0.0148,-0.0522,0.00692,-0.031,0.0316,-0.0532,-0.221,-0.186,-0.209,0.0302,0.0455,0.0332,-0.054,-0.0487,0.0373,-0.225,0.051,0.0942,-0.0183,-0.273,0.114,0.0825,0.016,-0.0333,-0.118,0.1,-0.0561,0.0486,0.0651,0.0558,0.0956,-0.0235,0.0513,-0.0609,0.0616,0.0382,-0.00383,-0.0124,0.00783,-0.237,-0.0201,0.0251,-0.0364,-0.212,0.0145,0.0546,0.0255,0.0238,0.00955,-0.247,-0.0277,0.139,-0.0282,0.11,-0.0711,-0.0461,0.00754,-0.0299,-0.0664,0.113,-0.163,-0.105,-0.0371,0.0147,0.0898,0.012,0.0189,-0.0415,-0.0553,0.0758,0.0461,0.0845,0.151,-0.182,0.156,0.0551,0.0911,0.12,-0.00422,0.0456,0.119,-0.102,0.0401,0.0631,0.154,-0.0131,0.0665,-0.0688,0.0624,0.0652,-0.0539,-0.139,-0.0874,-0.137,-0.0486,0.0922,-0.204,0.221,-0.00906,-0.0866,0.0416,-0.192,-0.00345,-0.109,-0.0292,-0.142,-0.0674,0.0181,-0.198,-0.0424,0.0161,-0.0503,-0.0205,-0.00518,-0.0304,-0.0298,-0.18,0.036,0.0707,0.146,-0.259,-0.165,0.0554,-0.116,-0.0776,-0.136,0.0743,0.0583,0.0749,-0.274,-0.0752,-0.0405,-0.0112,-0.0476,0.141,0.078,0.0305,0.061,-0.0278,0.0258,-0.0533,0.0711,-0.00281,0.161,-0.179,-0.105,-0.0134,0.0656,-0.061,-0.113,0.175,-0.224,-0.0451,-0.17,-0.0721,-0.0693,-0.044,0.0392,-0.0441,0.306,-0.0735,0.135,-0.0421,0.0699,0.0462,0.0146,-0.0128,0.077,0.167,-0.0881,0.102,0.0788,0.0301,-0.0708,0.0398,-0.0705,-0.0883,-0.0844,-0.204,0.0293,-0.343,0.0742,-0.039,-0.0398,0.0479,-0.0507,-0.00727,-0.0938,0.0772,-0.169,-0.0252,-0.071,0.163,-0.147,-0.0948,-0.217,0.259,0.0444,-0.0263,-0.0459,0.109,0.0302,0.0553,0.14,-0.0889,0.0143,0.0598,0.00705,-0.0839,0.0657,0.098,-0.0103,0.13,-0.0142,0.0818,-0.0794,-0.103,0.0441,-0.0429,0.000722,-0.186,-0.146,0.11,0.205,-0.129,0.0564,0.00821,0.0111,-0.136,-0.0676,-0.151,-0.0578,0.171,-0.0377,-0.183,-0.138,0.00796,-0.0185,0.187,-0.0119,-0.00477,-0.0895,-0.0089,-0.124,-0.132,0.0579,0.0503,0.106,-0.165,0.19,0.019,-0.0559,-0.121,0.0384,0.0512,0.0462,-0.0394,-0.146,-0.0186,-0.0816,0.0997,0.206,0.0151,0.0593,0.206,0.182,0.162,0.011,-0.15,-0.0244,0.0491,0.047,-0.0541,-0.0134,0.0879,0.0241,0.0683,0.163,0.233,-0.0322,-0.265,-0.0151,0.0897,-0.0924,0.00967,0.0758,0.00883,0.00548,0.0319,0.0135,0.0307,0.0547,0.0604,0.168,-0.153,0.193,-0.216,0.195,0.0749,-0.0145,0.11,0.0269,-0.0106,-0.118,0.00171,-0.0202,0.0246,0.0392,0.0443,-0.0958,-0.0689,0.0589,-0.0997,0.127,0.0532,-0.126,-0.0368,0.0918,-0.116,-0.0333,0.0843,-0.0351,0.0455,0.15,-0.0794,0.104,-0.0315,0.186,0.0542,0.131,0.0783,-0.0188,-0.188,-0.141,-0.00148,0.174,-0.0481,-0.0346,0.139,0.162,0.122,0.138,0.165,-0.0534,0.0354,0.0274,0.18,-0.035,0.147,0.0699,0.0032,-0.287,0.149,-0.101,0.0805,-0.107,-0.218,0.205,0.0786,-0.0918,-0.0373,0.0697,0.00585,0.017,-0.00191,0.153,-0.169,0.169,0.141,-0.145,0.25,-0.0186,0.0732,0.0316,-0.273,0.0179,0.06,-0.00176,0.0691,-0.000866,0.0664,-0.0408,-0.0565,0.15,-0.0497,0.0895,0.00191,-0.141,0.0589,0.0225,0.0191,-0.108,0.00442,-0.0351,-0.0126,-0.0431,-0.0146,-0.0825,-0.0734,-0.0861,0.00784,-0.0629,-0.122,-0.0194,-0.111,0.0123,-0.242,0.00755,0.253,0.194,-0.027,-0.0502,-0.124,-0.0299,0.146,-0.0381,-0.163,-0.0357,-0.105,-0.0306,0.104,-0.238,0.00229,-0.0471,-0.0246,0.0817,0.111,0.158,-0.00165,-0.102,-0.0193,0.16,-0.158,0.0673,0.0904,-0.0193,0.0102,-0.0148,0.0879,0.00679,-0.115,-0.0314,0.0993,0.0138,-0.14,0.0181,0.115,-0.0924,-0.00449,0.00977,-0.0882,-0.051,-0.0624,0.0917,0.0518,-0.00245,-0.074,0.121,-0.0693,-0.0185,0.135,-0.0668,0.0942,-0.00549,-0.179,0.019,-0.0138,-0.0199,-0.021,0.0219,0.29,-0.129,-0.13,-0.185,-0.0383,-0.105,0.0824,-0.0106,0.15,-0.148,0.215,-0.0643,-0.0459,0.0189,-0.0895,0.0807,-0.0651,-0.0216,-0.158,0.205,-0.0214,0.261,0.15,0.159,0.067,-0.11,0.098,-0.0159,-0.026,-0.0464,0.332,0.001,0.0804,-0.102,0.0361,0.0312,0.0316,0.126,0.0893,0.0816,-0.0789,-0.14,-0.145,0.296,-0.156,-0.0502,0.043,-0.04,0.214,0.09,0.0306,-0.0658,0.0057,-0.0237,0.195,0.0712,0.0658,-0.0758,-0.0743,-0.0824,-0.0243,0.137,-0.0235,-0.13,-0.104,0.109,0.27,0.0313,-0.0178,-0.155,-0.0505,-0.00719,0.0891,-0.0908,-0.0312,0.00603,0.0335,0.0862,0.00171,-0.0484,-0.0974,0.0618,0.0709,-0.0374,-0.248,-0.22,0.0331,0.105,0.129,0.0826,0.194,-0.0704,-0.0504,-0.0463,0.0373,0.0912,-0.0588,0.00117,0.0704,0.0318,-0.113,-0.131,-0.158,0.0712,-0.0389,0.191,0.0528,0.0496,-0.0906,-0.0389,-0.108,0.0739,-0.134,0.0527,0.0231,0.092,-0.0835,0.108,-0.16,-0.142,-0.0227,0.0104,0.214,-0.112,-0.0582,-0.149,-0.102,0.122,-0.0404,-0.252,-0.149,0.0262,-0.0169,-0.0578,-0.194,-0.0365,0.029,-0.0774,-0.028,0.096,-0.097,-0.0591,-0.196,-0.0829,0.151,-0.129,0.04,-0.132,-0.222,-0.21,0.0659,-0.0395,0.0707,0.0356,-0.0332,-0.01,-0.171,-0.0873,-0.0678,0.0387,0.00114,0.16,-0.0114,-0.0534,0.0323,0.169,0.142,0.0929,-0.161,0.189,-0.247,0.0286,0.0906,0.168,0.0607,-0.125,-0.135,-0.106,0.0309,-0.0738,0.0544,-0.0715,0.0533,-0.0463,-0.107,-0.453,0.0897,-0.0466,-0.193,-0.0701,-0.012,-0.0241,-0.222,-0.141,-0.0872,0.0385,-0.22,0.133,-0.153,-0.00772,-0.139,-0.159,-0.107,-0.141,-0.088,-0.0106,-0.135,-0.0237,-0.112,0.0906,0.103,-0.0637,-0.158,0.157,0.0649,-0.122,0.0237,0.0954,-0.0714,0.0953,-0.101,-0.0149,0.182,0.0149,0.0802,-0.134,-0.0271,-0.149,-0.108,-0.0366,0.136,0.16,0.104,-0.0153,-0.0745,-0.0175,-0.224,0.0563,0.00441,0.104,0.0887,0.15,0.102,-0.0464,-0.0396,0.0296,0.195,-0.186,0.172,0.0813,-0.112,-0.0127,-0.0664,-0.137,0.0264,-0.0423,0.0463,-0.118,-0.018,-0.0468,0.0642,-0.137,-0.201,-0.0192,0.181,0.0539,0.0761,0.0929,-0.0232,0.00909,-0.0718,0.0325,0.116,-0.0874,-0.0316,0.0172,-0.0297,0.0878,-0.0811,0.0855,0.0894,0.0732,-0.0154,0.134,0.0429,0.062,-0.0292,0.205,-0.104,-0.0599,-0.149,-0.0831,-0.000406,0.0938,-0.09,-0.114,0.109,0.00215,-0.0849,0.11,-0.108,-0.0185,-0.135,-0.0907,0.00517,-0.0244,0.0406,-0.0846,0.048,0.186,-0.117,0.175,0.0625,-0.0036,-0.175,0.204,0.0574,0.0296,-0.0553,0.00283,-0.0605,-0.162,-0.00639,-0.0514,-0.00643,0.132,0.126,-0.0707,-0.184,0.0266,-0.00675,-0.0266,-0.0225,-0.12,0.126,-0.282,0.0907,-0.0792,-0.0832,0.00245,-0.11,-0.154,-0.0873,-0.11,0.0745,0.0302,-0.0755,0.0891,0.0284,-0.108,-0.0372,0.198,0.218,-0.101,0.0667,-0.0587,-0.131,-0.125,-0.0559,0.0808,0.02,0.0129,-0.104,-0.155,0.109,-0.113,-0.0237,-0.0785,-0.0288,0.0194,-0.0999,-0.0336,-0.0225,0.237,-0.0959,-0.0675,-0.0162,-0.125,0.0229,0.117,-0.0269,0.0306,0.00488,0.118,0.0745,0.0698,-0.174,-0.0245,-0.123,-0.143,0.177,-0.0385,-0.304,-0.0784,0.235,-0.0274,0.0951,0.028,-0.0342,-0.146,0.00334,-0.0173,0.0308,0.0863,-0.14,-0.105,0.0101,0.158,-0.041,-0.0492,0.105,-0.191,-0.0112,0.0547,0.0281,0.0973,-0.128,-0.0353,-0.214,0.0339,0.0409,0.217,-0.0702,0.00651,-0.182,0.148,-0.131,-0.0119,-0.0276,-0.00712,0.0861,0.0279,0.133,0.0823,-0.0695,0.0757,0.0709,0.0894,-0.0878,-0.0493,0.103,-0.0414,0.0199,-0.0524,0.0206,0.0353,-0.129,-0.118,-0.19,0.0666,0.192,0.129,-0.0208,0.0612,0.177,0.16,-0.205,0.303,0.0812,0.18,-0.0819,0.064,0.0447,-0.0948,-0.172,0.0302,-0.155,0.088,0.201,-0.0415,-0.022,0.0292,0.000775,0.0249,-0.0231,0.00412,0.0971,0.172,-0.221,-0.169,0.0307,-0.0137,-0.156,0.00982,0.0613,-0.0157,-0.0646,0.0182,-0.123,-0.129,0.0611,-0.161,0.166,-0.128,0.00818,-0.0555,0.0907,0.0528,0.186,-0.0645,0.00483,-0.101,-0.0283,-0.0513,-0.0551,0.237,-0.0953,-0.0778,0.02,0.0533,0.116,-0.0703,0.183,0.0825,0.123,-0.069,0.0689,0.135,0.0485,0.153,0.172,0.0904,-0.0628,-0.0669,0.131,0.161,-0.0402,0.022,-0.13,0.14,0.0904,0.124,0.0925,0.0874,-0.136,0.0244,0.0339,-0.148,0.0343,-0.367,0.0362,0.0598,-0.0102,0.267,0.0295,0.0509,-0.0152,0.00188,0.0738,-0.0775,0.0176,-0.111,0.163,0.0598,0.0894,0.0285,-0.0668,-0.0182,0.0221,0.0852,0.174,0.196,0.0535,0.132,0.155,0.223,0.0882,-0.147,0.0969,0.174,0.0568,0.0129,0.19,0.0826,0.161,-0.0402,-0.187,0.127,-0.00515,0.142,0.108,0.0481,-0.0893,0.00481,0.06,-0.0255,-0.143,-0.162,-0.0589,-0.0419,-0.049,0.0528,0.158,-0.0608,-0.027,-0.0356,0.0658,0.0618,0.103,-0.0905,-0.0321,0.0196,-0.038,-0.119,0.117,-0.0608,0.0787,0.0234,0.148,-0.0727,-0.0211,-0.244,0.0933,-0.0463,0.168,0.0143,-0.00311,-0.0369,-0.0686,-0.106,-0.0418,0.127,-0.129,0.172,0.0823,0.0595,0.0217,0.0855,-0.0261,0.0705,0.0777,0.0169,0.0923,0.0692,0.0219,-0.0564,0.0353,0.0223,0.134,-0.0126,0.203,-0.00663,-0.178,-0.013,-0.101,-0.0982,-0.0223,0.105,-0.0188,0.0255,0.062,0.138,0.0129,-0.0905,0.0331,-0.189,0.0197,-0.0562,-0.119,0.0782,0.0567,-0.162,0.0654,0.0797,-0.0679,0.0286,0.0268,-0.00108,0.0226,-0.101,-0.0953,0.0338,0.11,-0.0883,0.197,-0.04,-0.00803,0.0649,-0.0895,0.132,-0.138,0.108,-0.0514,-0.113,0.0916,0.0574,0.0247,0.0827,0.0187,-0.173,0.0377,-0.0881,-0.0602,-0.0236,-0.119,-0.36,-0.365,-0.095,0.026,-0.0168,-0.00205,-0.00255,-0.0225,-0.0196,0.0106,0.0406,0.172,-0.096,-0.0865,0.169,-0.0698,-0.0371,0.124,-0.0638,-0.0115,-0.0734,-0.0424,0.18,-0.117,-0.0773,0.0928,0.0322,-0.00475,-0.0288,-0.126,0.25,0.118,-0.0394,0.0911,0.0896,-0.017,-0.0285,0.0321,0.0301,0.158,0.0241,0.0399,-0.068,-0.177,-0.045,0.0878,0.00653,0.0798,0.199,0.348,0.00487,-0.0642,0.0201,-0.204,0.0336,-0.184,-0.0335,0.0309,0.148,-0.0715,-0.127,0.065,0.132,0.105,-0.13,0.133,0.0624,-0.113,0.0492,0.0284,0.0514,0.0561,-0.0579,-0.0254,-0.111,-0.0272,-0.0298,0.00651,0.0357,-0.163,0.069,0.101,-0.0241,-0.0733,0.158,-0.00878,0.0304,-0.0348,0.036,0.0021,-0.0917,-0.00805,-0.00849,0.0194,0.0848,-0.213,0.214,0.0122,0.154,-0.119,0.0225,0.0123,-0.0277,-0.154,0.2,0.044,-0.0717,-0.224,-0.115,0.16,-0.141,-0.178,-0.276,-0.0715,0.0448,-0.00413,0.103,-0.0189,-0.202,0.0986,0.141,-0.143,-0.0526,0.0342,0.0418,0.0085,0.207,0.0275,0.0984,0.193,-0.00497,0.0558,-0.109,-0.0602,-0.0694,0.0657,0.0362,0.122,-0.025,-0.202,-0.147,-0.0142,0.108,0.0592,0.0163,-0.0459,0.0623,0.0302,-0.0122,0.293,0.0838,0.102,-0.0749,-0.103,-0.0649,0.109,-0.162,-0.163,0.0264,-0.0615,0.001,0.0785,-0.131,0.0494,0.121,0.0827,-0.0153,-0.03,-0.0603,-0.227,-0.108,0.157,0.0684,0.075,0.0468,-0.0242,0.11,-0.101,-0.16,-0.0913,0.00583,0.0718,0.318,0.353,0.0469,-0.0843,-0.116,-0.19,-0.131,0.114,0.0204,0.028,0.265,-0.0502,-0.029,0.0391,0.257,-0.133,0.0163,-0.0119,0.00332,-0.00162,0.268,0.0363,0.00216,0.117,0.0529,-0.0397,-0.127,-0.0373,0.0109,-4.38e-05,-0.0166,0.0655,0.0391,0.0469,0.22,0.0528,0.148,-0.0566,-0.0141,0.0533,-0.00374,0.0955,0.0397,-0.0349,-0.0983,0.175,0.102,0.0593,-0.00256,0.00308,0.0762,0.182,-0.0622,0.0553,-0.00418,-0.118,-0.0116,-0.0754,-0.0265,-0.184,-0.112,-0.0094,-0.226,0.12,-0.156,0.0263,0.0882,-0.0415,0.219,0.139,0.17,0.0299,0.0292,-0.28,-0.221,-0.0816,0.184,0.0559,-0.173,0.0519,0.0608,0.0358,-0.0184,-0.00958,0.164,-0.0846,-0.0495,-0.107,-0.0635,-0.00606,0.0462,0.115,0.00296,-0.0234,-0.0134,0.0108,0.0147,0.0514,0.0827,-0.0609,0.056,-0.0372,0.163,0.0873,0.0797,-0.105,-0.0487,0.00706,-0.276,0.114,-0.31,0.147,0.0431,-0.0769,0.434,0.198,0.0206,0.0529,0.0211,0.000373,-0.0743,0.116,-0.158,-0.0766,-0.0122,-0.003,-0.123,-0.0136,0.0119,-0.0561,0.168,0.351,0.0978,0.057,0.127,0.16,0.388,-0.0562,-0.119,0.036,0.0305,-0.125,0.0591,0.201,0.109,-0.0309,0.064,-0.0703,-0.112,-0.0854,-0.0142,-0.124,0.00245,-0.00675,-0.0756,-0.114,-0.147,-0.0267,-0.00399,0.36,0.285,0.183,0.0885,0.0505,0.0702,0.0225,-0.0468,-0.168,-0.24,-0.0243,-0.0775,-0.105,0.0587,0.513,0.119,0.144,-0.173,0.0989,-0.0719,0.127,0.00714,0.127,-0.0119,-0.0891,-0.0561,-0.0605,0.0952,-0.129,0.12,-0.142,-0.00768,0.0236,-0.338,0.0642,-0.0413,0.074,-0.0675,0.112,-0.0661,0.0609,-0.0896,-0.169,-0.048,0.104,0.0341,-0.0634,-0.114,-0.105,0.00164,0.05,-0.0263,-0.15,0.111,-0.0569,0.104,0.0979,-0.0381,-0.00784,0.0463,0.335,0.108,0.0132,0.0508,-0.0521,0.168,0.189,0.093,-0.218,0.0267,0.116,-0.00493,0.0239,0.0359,0.178,0.00555,0.14,-0.0755,0.0246,-0.248,0.388,0.0163,-0.0174,-0.131,0.189,0.00785,-0.0174,0.0505,0.141,-0.0216,-0.0426,0.168,-0.022,-0.183,0.205,0.0384,0.0514,0.00897,-0.0151,0.118,-0.0253,0.0789,0.0334,0.125,0.0493,-0.078,0.0932,-0.126,-0.122,0.0219,0.0295,0.0913,0.0806,0.211,0.249,0.0989,0.00981,-0.146,0.116,-0.0215,0.226,0.0894,-0.155,-0.0655,0.0186,-0.0143,-0.0352,-0.072,0.0149,-0.0163,0.000535,-0.113,-0.02,-0.204,0.0238,-0.092,-0.0581,0.114,-0.0719,-0.0244,-0.0709,-0.0732,-0.0462,0.129,0.104,0.0425,0.0148,-0.0399,-0.0296,0.0246,-0.132,-0.284,-0.0703,0.198,-0.0507,-0.119,0.046,0.0387,0.119,-0.0153,-0.00734,-0.0141,-0.0459,0.115,0.106,-0.142,-0.0779,-0.171,-0.246,-0.0193,-0.00211,0.11,0.0602,-0.0916,-0.13,0.256,0.00584,0.0641,-0.0681,0.0273,0.12,-0.111,-0.0294,0.0191,-0.0408,0.196,-0.048,-0.0867,0.021,0.0273,-0.212,-0.135,-0.229,0.0814,0.0281,0.0953,-0.0256,-0.0815,-0.055,-0.00172,0.0836,0.0671,0.00865,-0.18,-0.0283,0.0277,-0.389,0.085,0.105,-0.0633,-0.0149,-0.114,-0.151,0.16,-0.0611,-0.175,0.0979,-0.251,0.0236,-0.205,-0.0388,0.0436,-0.0732,-0.0568,-0.224,0.014,0.111,0.0583,-0.115,0.0611,0.0204,-0.258,0.064,-0.00228,-0.164,0.0179,0.185,0.266,-0.259,-0.121,0.0239,0.0615,-0.0909,0.0132,0.0412,-0.149,-0.255,-0.206,-0.0863,0.0884,0.0953,0.131,-0.0385,-0.0731,0.0184,-0.166,0.0389,0.162,-0.00285,-0.0413,-0.226,0.103,0.0803,0.131,-0.00926,0.0136,-0.255,0.0388,-0.00176,0.0374,0.00224,-0.129,0.115,0.116,0.0154,-0.0203,0.0328,0.0583,-0.0403,0.0387,0.243,-0.102,0.0462,0.0247,0.0352,0.139,0.0523,0.0941,-0.0145,-0.216,-0.0901,0.0743,0.156,0.114,-0.116,-0.00762,-0.0783,-0.00891,-0.0694,-0.0339,0.068,-0.00825,0.041,0.0977,0.117,0.000717,0.0413,-0.171,-0.0912,-0.0215,0.0246,0.042,0.122,-0.123,0.0321,-0.0204,0.0442,-0.000763,-0.0248,0.091,0.0168,-0.0716,0.00713,-0.0509,-0.0207,-0.13,0.177,0.0544,0.0582,0.0569,0.0255,0.0017,-0.0571,-0.12,-0.0447,-0.0236,0.111,-0.119,0.0204,-0.057,-0.0996,0.0176,-0.0464,-0.139,-0.296,0.152,0.041,-0.0419,0.0933,-0.0839,0.0466,0.126,-0.0582,-0.0636,0.154,0.0202,0.0786,-0.0781,0.095,-0.0429,0.137,0.0455,0.0943,-0.0438,0.205,0.0808,-0.016,0.159,0.0838,-0.12,0.0718,0.0437,0.0923,-0.0664,0.063,0.0192,0.0278,0.07,0.138,0.0689,-0.0374,0.0208,0.0688,-0.0171,0.00476,0.0303,0.151,-0.0163,0.00416,-0.0364,-0.171,0.0172,0.182,-0.0696,-0.0542,0.0533,0.0582,-0.0206,-0.0488,-0.0933,0.00419,0.105,-0.106,0.0347,-0.0926,-0.0615,-0.0463,-0.0169,0.0883,-0.0435,-0.0491,-0.122,-0.211,-0.03,0.0739,-0.126,0.0669,-0.148,0.00537,0.0271,0.0147,-0.14,0.0574,-0.0557,0.0332,0.063,0.0764,-0.0456,-0.169,-0.00534,0.225,-0.141,-0.0887,0.000231,0.0626,0.0772,0.295,-0.0319,0.0658,-0.0611,-0.0598,0.0918,0.0828,0.0785,-0.129,-0.0833,0.0207,-0.0683,0.127,-0.0833,0.0366,-0.222,0.0132,-0.0534,-0.111,0.089,0.0392,-0.144,-0.0917,0.0727,-0.248,-0.333,0.0328,0.0212,0.0631,-0.0898,-0.0728,0.122,0.105,-0.128,0.0922,0.151,-0.289,0.114,-0.0421,0.0112,0.135,-0.0031,-0.0906,0.0915,0.0987,0.0774,-0.0684,0.0651,0.0523,-0.145,0.0492,-0.0531,-0.0819,0.1,-0.0915,-0.0787,-0.021,-0.05,0.252,0.116,0.26,-0.0527,-0.0703,-0.0544,-0.127,0.102,0.0445,0.0518,-0.084,-0.0465,-0.0108,0.136,0.0503,-0.0943,-0.0971,0.0941,-0.0857,-0.0648,-0.0212,0.131,0.0401,-0.165,-0.0937,0.0255,-0.0498,0.0334,0.253,-0.0129,0.000441,-0.0486,-0.00904,0.0696,-0.00977,-0.0574,0.00528,0.108,-0.106,-0.17,0.174,-0.112,0.152,0.0816,-0.0531,0.0155,-0.0628,0.011,-0.0473,-0.238,-0.135,-0.0436,-0.107,0.00672,0.0433,0.0927,0.0134,-0.0128,0.204,0.178,-0.0373,-0.0506,-0.0833,-0.114,-0.173,-0.177,-0.172,0.117,-0.0358,-0.0643,-0.0483,-0.224,0.063,-0.0345,-0.115,-0.115,-0.0345,0.0114,-0.0296,-0.0815,0.0241,-0.114,-0.0209,-0.124,0.0943,0.0257,0.121,0.291,-0.0692,0.0379,0.14,-0.0609,0.0783,-0.105,-0.135,-0.152,0.0525,0.0878,0.0152,0.0208,0.0908,0.0357,0.126,-0.00225,0.202,0.0121,0.0385,-0.195,0.0145,0.253,-0.0287,0.0926,-0.113,-0.0555,-0.00277,-0.00327,-0.0914,-0.17,-0.115,-0.181,-0.283,-0.112,-0.0989,-0.0326,-0.0273,-0.114,-0.00897,0.0359,0.0906,-0.197,-0.0361,-0.0176,-0.0543,0.155,-0.0506,0.0942,0.0581,0.0437,-0.04,-0.0636,0.0388,-0.119,0.0866,0.0316,-0.12,-0.199,-0.127,0.0398,0.14,-0.114,0.101,0.115,0.0398,-0.00735,0.087,0.0697,0.00134,-0.0461,-0.0376,-0.0278,-0.0661,-0.12,-0.108,-0.0174,-0.0295,-0.0251,-0.133,0.0504,0.0268,-0.0786,-0.167,0.0832,-0.107,-0.202,0.137,-0.00954,-0.0521,0.117,-0.132,0.0971,0.159,0.0564,-0.0372,0.0325,0.0625,-0.0959,0.119,-0.0223,-0.00635,-0.0321,0.125,0.0119,-0.0677,-0.00649,0.0858,-0.186,-0.0558,-0.04,0.0185,-0.0837,0.0509,0.189,-0.139,-0.126,-0.243,0.0501,0.221,-0.103,0.0743,-0.116,0.0943,-0.0124,-0.0379,0.0152,0.184,-0.0715,0.0552,-0.192,-0.113,-0.132,0.199,0.0545,0.0429,-0.101,0.0932,0.0187,-0.131,-0.033,0.138,0.0814,-0.0514,-0.0425,0.0524,-0.107,0.0271,0.236,-0.349,0.193,0.0172,0.0295,-0.0812,0.121,-0.175,0.155,-0.035,-0.0185,0.0469,-0.0513,0.197,0.137,0.243,0.219,0.0428,0.172,0.0586,-0.105,-0.323,0.023,-0.0664,-0.185,-0.0798,0.124,0.0152,-0.26,0.0411,0.146,0.0553,-0.0521,-0.221,-0.152,0.094,-0.171,-0.0142,-0.0994,0.107,0.155,-0.34,0.0471,0.0646,0.00717,0.171,-0.227,-0.142,-0.0286,0.0586,-0.0999,-0.113,0.0843,0.0992,-0.0304,0.0812,0.00379,0.235,0.0846,-0.0726,0.0521,-0.0748,-0.0188,-0.0463,0.0316,-0.217,0.0865,0.134,-0.00223,-0.141,0.107,-0.217,0.0869,0.000958,0.0972,-0.0387,-0.0934,-0.182,-0.0128,-0.126,-0.0232,0.0895,0.00938,0.204,0.0337,-0.0519,0.0148,0.0165,-0.114,-0.0661,0.0106,0.0485,-0.146,0.0256,0.115,0.166,-0.097,0.0857,0.206,0.0135,0.0293,0.0244,0.0178,0.0142,-0.121,0.132,0.0874,-0.146,0.117,-0.0152,-0.0297,-0.0023,-0.114,-0.075,-0.0159,-0.053,-0.236,-0.0434,0.113,0.128,-0.0852,-0.0445,0.0298,-0.197,-0.0537,-0.0915,0.0264,0.138,-0.0303,0.002,0.0262,0.00913,-0.107,0.201,-0.168,-0.0692,0.00887,0.147,-0.0201,-0.0657,-0.0737,0.0511,0.076,0.242,0.11,0.0962,-0.0694,-0.107,0.325,0.0868,0.122,0.112,0.0805,0.0785,0.0308,-0.0296,-0.0791,0.141,-0.044,0.124,-0.1,0.0215,0.0386,-0.0266,0.0855,-0.151,-0.0708,0.0367,0.0129,0.187,0.00378,-0.11,-0.054,0.193,0.101,-0.0966,-0.0304,-0.126,-0.14,-0.0761,0.0621,-0.0733,-0.171,-0.0345,0.151,-0.14,0.154,-0.0559,-0.284,-0.055,0.0109,0.0583,-0.075,-0.0339,0.0375,0.155,-0.0195,0.0157,-0.0224,0.3,-0.129,-0.0741,0.0714,-0.124,-0.12,0.0196,0.112,-0.046,0.0232,-0.058,0.00128,0.473,0.0941,0.249,0.0491,0.316,0.0184,0.167,-0.0208,0.129,0.217,-0.0546,0.121,0.076,-0.0165,-0.0293,0.093,0.0703,-0.0625,0.0331,-0.106,-0.0217,0.218,0.107,0.0786,0.053,-0.13,0.0587,-0.0188,0.0283,0.0134,0.00464,-0.0685,0.016,0.154,0.00678,-0.0975,0.0811,0.149,0.0676,0.187,0.133,0.0145,0.132,0.0407,0.0387,0.0633,-0.0938,-0.0262,0.0913,-0.0578,0.102,-0.0198,-0.0584,0.0521,0.104,0.0965,0.0525,0.00555,-0.175,-0.224,0.0763,0.216,0.00201,-0.199,0.0807,-0.0914,-0.067,-0.114,0.00264,-0.0277,0.158,-0.273,0.0101,-0.038,0.162,0.0844,0.0295,-0.09,-0.0941,-0.00691,0.18,-0.103,0.0131,0.0156,-0.137,-0.0321,0.0515,-0.216,0.144,-0.189,-0.13,-0.0623,0.0885,0.062,-0.00534,-0.181,-0.153,0.072,-0.0502,-0.00605,-0.0391,-0.0928,-0.0122,0.0545,0.131,-0.0539,0.0971,-0.195,-0.184,0.0469,0.00534,0.0206,0.177,0.0504,-0.0965,-0.0743,0.167,0.0352,0.000886,-0.063,-0.0898,-0.295,-0.137,-0.197,-0.142,0.0192,-0.0676,-0.00836,-0.157,-0.0447,-0.00744,-0.00698,0.0461,-0.0282,-0.0213,0.104,0.00419,0.114,-0.0444,0.0196,-0.127,0.142,0.12,-0.00927,-0.185,-0.18,0.217,0.115,0.0825,-0.204,0.18,0.0773,0.0584,-0.0381,-0.261,-0.0622,0.073,-0.174,-0.107,-0.0278,-0.0249,0.149,0.0938,0.0946,-0.0156,-0.112,-0.242,0.00665,0.0642,0.0667,0.0569,-0.0402,0.0526,0.0277,-0.155,0.0513,-0.161,-0.0177,-0.0503,-0.2,0.234,0.0205,0.169,0.00538,-0.148,-0.093,0.0753,-0.0369,-0.011,-0.0215,-0.311,-0.0647,-0.249,-0.0735,0.159,-0.154,-0.124,-0.026,-0.138,0.047,-0.0019,0.137,-0.00381,0.0417,-0.0775,0.144};
float f4_1_bias[64] = {-0.0653,-0.0473,-0.0353,0.0682,-0.071,-0.0511,0.0178,0.109,0.134,-0.097,0.0521,0.0595,0.139,-0.306,-0.146,0.0348,-0.118,-0.139,0.101,-0.0288,0.00415,0.0845,0.134,0.071,0.225,-0.0454,-0.135,-0.139,-0.0202,-0.19,-0.115,0.0825,-0.0433,0.016,0.192,-0.00342,0.057,-0.0634,-0.0902,0.0973,-0.162,-0.0276,0.14,-0.061,-0.145,-0.271,-0.124,-0.264,0.0399,0.339,-0.0034,-0.00594,0.0208,0.0656,0.0225,-0.158,0.135,0.211,0.00356,0.199,0.0318,-0.118,0.0544,0.102};
float f4_2_weight[64*1*3*3] = {-0.516,0.161,1.38,0.206,0.47,-0.0227,-0.197,-0.501,0.179,-0.582,-0.174,1.04,0.213,-0.451,0.104,0.0491,-0.0302,-0.0288,-0.282,-0.104,-0.279,0.195,-0.27,-0.614,-0.193,0.304,-0.331,-0.257,-0.767,-0.289,0.0205,0.762,0.149,0.134,-0.946,-0.371,0.392,0.333,0.00601,0.583,0.0913,0.618,0.281,0.0253,-0.0029,-0.427,-0.546,0.169,-0.062,0.721,-0.0226,1.07,-0.367,0.141,-0.128,0.812,-0.00645,-0.543,0.52,0.293,-0.544,0.0766,2.11,-0.0659,-0.366,0.0915,-0.519,1.61,-0.0389,-0.246,-0.772,-0.248,0.132,-1.07,0.209,-0.161,-0.0978,0.475,-0.815,-0.0554,0.0757,0.0528,-0.357,-0.0271,-1.48,1.11,1.13,-0.763,0.0859,-0.405,-1.06,0.473,-0.561,-1.06,-0.262,1.17,-0.167,-0.36,-0.815,-0.291,0.676,-0.0425,-0.21,0.271,-0.425,0.265,-0.0614,-0.792,-1.16,-1.1,-0.605,0.462,0.302,0.537,0.199,-1.77,-0.554,-0.14,-0.342,0.582,0.0814,-0.28,0.668,0.613,-0.942,-0.209,0.2,-0.249,0.057,0.291,-0.354,-0.053,0.171,0.644,-0.47,-0.407,0.145,0.763,-0.0579,-0.0902,-1.11,0.447,-1.17,-0.00395,-0.224,-0.128,0.113,-0.142,-0.0868,0.18,0.137,0.0065,0.524,-0.305,-0.261,-0.0696,0.167,-0.712,-1.07,0.342,0.153,-1.1,-0.433,-0.438,-0.257,-0.266,0.149,-0.868,0.101,-0.231,-0.0865,-0.5,-0.807,-0.246,-0.177,0.181,1.02,0.438,-1.03,-0.431,-0.52,0.0403,0.00921,0.289,0.382,-0.321,0.169,-0.31,0.0499,-0.0456,0.117,-0.0617,-1.13,-0.0932,0.38,0.208,0.637,-0.0637,-0.588,0.43,-0.15,0.397,-0.116,0.345,-0.025,-1.31,-0.226,-0.0239,-0.0415,-0.739,-0.891,-0.0964,-0.226,-0.00172,-1.06,-0.355,-0.18,0.61,0.0565,0.189,-0.318,-0.196,0.106,-0.259,-0.0392,0.387,-0.261,-0.467,0.592,0.16,-0.0293,-0.18,0.202,0.451,0.492,-0.0277,0.185,-0.222,-0.663,0.0386,-0.218,0.867,0.887,0.638,0.389,0.29,-0.236,0.327,-0.525,-0.35,0.211,-0.184,-0.392,0.309,-0.166,0.441,-0.511,0.432,0.441,-0.0772,-0.993,0.0785,-0.44,2.14,0.321,-1.48,-0.343,-0.384,-0.761,-0.367,0.207,0.117,-0.148,-0.477,0.392,-0.17,0.0723,0.301,1.81,1.46,0.772,-0.0216,-0.339,0.3,-0.133,0.424,-0.21,-0.00724,0.147,0.217,1.6,1.4,-0.227,0.344,-2.02,0.393,-1.2,-0.266,-0.0857,-0.438,0.403,-0.555,-0.611,0.384,1.38,0.388,-0.311,-0.301,0.14,-0.617,0.383,0.609,0.652,0.0743,0.122,-1.32,-0.14,-0.079,-0.148,-0.206,0.164,0.48,-0.396,0.145,0.135,0.595,-0.232,0.0827,0.439,-0.0546,1.03,0.127,1.22,-0.0945,-0.0186,0.0271,-0.405,0.413,0.329,-0.0229,-0.0986,0.369,-0.191,0.155,-0.169,0.0308,0.00778,0.251,-0.236,0.214,-0.292,0.0208,0.0354,-0.12,-0.134,0.318,0.0363,-0.297,-0.0157,-0.406,-0.385,-0.547,0.0667,-0.428,-0.36,-0.0303,-0.0297,0.399,0.0462,0.0671,-1.66,-0.349,0.291,0.115,-0.424,0.18,0.626,0.0322,-0.149,-0.529,0.122,-0.535,-0.421,0.244,-0.62,0.0795,-0.21,-0.195,0.0384,-0.114,0.101,0.166,0.0957,-0.199,-0.202,0.325,-0.514,-0.0415,0.0262,-0.561,-0.403,-1.47,-0.958,-0.744,-0.0156,0.0454,-0.00972,-1.37,-0.326,0.788,-0.0994,0.555,-0.103,-0.119,0.164,-0.166,0.0874,-0.017,-0.387,0.231,0.81,-0.323,0.464,0.385,0.869,0.567,0.902,-0.0516,0.0165,-0.104,0.107,-0.0145,-0.274,0.18,-0.406,0.0581,0.862,0.544,0.662,-0.122,-0.115,-0.339,0.349,-0.0997,0.0777,0.487,-0.494,0.733,1.21,0.891,0.123,0.0231,-0.582,0.0723,0.0657,-0.245,0.202,0.11,0.179,0.228,-0.236,-0.0941,-0.0884,-0.522,-1.49,0.437,-0.127,-0.332,-0.00812,-0.215,0.636,0.0992,0.823,0.259,0.00958,-0.951,0.107,1.13,0.00661,0.252,1.61,0.247,0.348,0.382,0.39,-0.313,-0.0498,0.0765,1.3,-0.325,0.259,-0.404,0.0829,-0.447,0.0248,0.27,-0.512,0.261,0.594,0.309,-0.483,1.09,2.1,-0.757,0.293,-0.213,-0.0307,-0.3,-0.137,-1.77,0.177,0.794,-0.0491,0.798,0.161,-0.072,-1.13,0.49,-0.133,0.0152,0.988,-0.165,1.43,-0.0977,1.15,-0.268,0.0402,-0.68,0.358,0.044,0.0818,-0.428,0.00211,0.149,0.271,0.523,0.237,0.0102,-0.199,-1.82,0.0254,0.24,-0.0984,0.209,-0.0668,-0.273,0.442,0.186,0.101,-1.53,0.202,-0.673,0.782,-0.038,-0.0256,-0.0213,0.00562,0.00848,-0.0141,0.211,0.0522,0.268,0.331,-0.0696,-0.268,0.321,-0.078,-0.0387,0.408,-0.307,0.177,-0.057,0.0508,-0.456,-0.112,0.158};
float f4_2_bias[64] = {0.169,-0.0132,0.42,0.701,0.0731,0.368,-0.189,-0.118,-0.021,0.139,0.158,0.507,-0.00268,0.221,0.515,0.166,0.148,0.252,0.248,0.382,0.523,0.224,0.18,-0.0978,0.314,0.3,-0.174,0.0236,-0.206,-0.0759,0.241,0.0442,0.613,0.121,0.0321,0.267,0.168,0.0177,0.35,0.115,0.431,0.236,0.0211,0.0937,0.0199,-0.437,-0.245,-0.27,0.117,-0.0252,-0.104,0.0182,0.295,0.229,0.152,0.255,-0.0213,0.832,0.34,0.657,0.323,-0.214,0.192,0.197};

float f5_1_weight[64*64*1*1] = {0.0112,0.0711,0.178,-0.0233,-0.103,-0.0564,0.0039,0.0499,-0.208,-0.0332,-0.000207,0.00227,-0.0441,-0.0419,0.0148,-0.0173,-0.0058,-0.00946,-0.0637,-0.0865,0.0523,0.0296,-0.0259,0.0242,0.0852,0.063,-0.131,0.0696,-0.112,-0.083,-0.316,-0.144,0.047,-0.345,-0.0254,0.011,-0.122,0.0587,0.0259,0.0138,-0.0263,-0.171,-0.026,0.0711,0.145,-0.0241,0.12,0.0665,0.0242,0.128,-0.0691,-0.11,-0.0584,-0.00575,0.0155,-0.0299,-0.0536,-0.0258,0.0787,-0.0948,-0.041,-0.00828,0.0314,0.134,-0.177,0.061,0.0976,-0.0536,-0.03,0.00468,-0.142,0.0438,-0.101,-0.0572,-0.164,-0.0165,0.016,-0.0992,0.0717,0.0409,0.00783,0.0512,0.207,-0.0318,-0.0901,-0.0832,-0.0728,-0.0214,-0.108,-0.224,-0.0747,0.00786,-0.126,-0.0996,0.154,-0.134,-0.0207,-0.111,0.00261,-0.0169,-0.0219,0.0782,0.035,-0.0835,0.00323,-0.0594,-0.103,-0.00239,0.164,-0.0763,0.124,-0.0363,0.0236,0.151,-0.0243,0.15,-0.021,-0.0296,0.122,-0.0589,0.118,0.125,-0.229,-0.0565,-0.0378,0.103,0.197,0.00956,0.00119,-0.0405,-0.0436,-0.00969,0.102,-0.149,-0.154,-0.108,-0.255,-0.0271,-0.159,0.0652,0.0366,0.0245,-0.0254,-0.117,-0.132,0.0775,-0.0769,-0.00016,0.0763,0.0612,-0.0652,0.0281,-0.0156,-0.0645,0.0301,0.0392,0.127,-0.0235,-0.018,0.0262,-0.00974,-0.128,0.105,0.0837,-0.16,-0.0592,-0.0936,-0.0805,-0.0172,0.141,-0.0861,-3.13e-05,-0.0652,-0.0657,-0.13,-0.224,-0.0931,-0.184,-0.0778,0.119,-0.0196,-0.038,-0.0273,-0.109,0.023,0.0736,-0.0338,-0.0294,0.0433,0.0494,-0.0339,-0.251,-0.0663,0.0087,-0.0102,-0.098,0.0331,-0.168,-0.00198,-0.0876,0.0263,-0.0369,-0.0857,0.0663,-0.0847,-0.0533,0.0951,0.0193,-0.237,-0.0921,-0.221,0.0846,0.00129,-0.0319,-0.0609,0.272,0.00444,-0.0836,0.0312,-0.00452,-0.0463,-0.135,0.0616,0.0732,0.0191,-0.0144,-0.029,0.0701,-0.0826,-0.114,0.00765,-0.0277,0.0197,-0.111,-0.0797,0.0794,0.0351,-0.000624,-0.0574,-0.108,-0.128,-0.0768,0.223,0.12,0.157,0.107,-0.0964,-0.041,-0.251,0.0519,0.0209,0.0288,0.0925,0.17,-0.00361,-0.195,0.111,0.0424,0.11,-0.049,-0.0894,0.0393,-0.0781,-0.106,-0.0746,0.0826,0.184,-0.263,0.0219,-0.0385,0.0112,0.111,-0.157,0.0104,0.116,0.0805,0.0183,-0.0311,-0.00446,-0.0143,-0.0271,-0.128,-0.0559,0.0133,-0.0838,0.0336,0.0741,-0.104,-0.0818,0.107,0.0417,-0.0466,-0.0189,0.0288,-0.0703,-0.0773,-0.142,0.0588,0.152,-0.131,-0.087,-0.0954,-0.149,-0.0461,0.0292,0.0146,0.00454,0.00545,0.0982,0.0182,0.045,0.0109,0.0555,0.106,0.0224,-0.092,-0.072,0.0669,0.0106,-0.259,0.0611,0.0723,0.102,-0.123,-0.0039,0.0641,-0.111,-0.105,0.18,0.0448,-0.00646,-0.131,0.0797,0.0113,-0.0572,0.0794,0.0135,-0.0475,0.0482,0.0747,-0.109,0.0477,-0.127,0.15,0.0274,-0.11,-0.0665,-0.0116,-0.175,0.128,0.229,-0.0831,-0.194,0.0969,0.0858,-0.107,-0.044,0.132,-0.177,-0.202,0.0278,0.0546,0.0988,0.0218,0.00128,0.0745,0.0698,0.11,0.0135,0.027,0.00445,-0.0277,0.0594,-0.0138,0.00628,-0.0105,0.0419,-0.0449,-0.0923,-0.037,0.0926,0.0402,0.034,-0.0212,0.0689,0.0298,-0.16,-0.0326,0.0806,0.13,0.119,-0.0229,-0.0248,0.0436,0.0595,-0.037,-0.0234,0.103,0.104,0.0873,0.0513,0.0284,0.0805,-0.0709,0.00607,-0.101,0.103,-0.00284,-0.00706,0.122,0.0613,0.0379,-0.0585,0.0454,-0.129,0.0345,-0.0463,-0.176,-0.00972,-0.163,0.198,-0.000561,0.0109,0.0509,-0.0591,-0.193,0.109,0.0279,-0.0401,0.125,0.0313,0.0506,-0.12,0.0448,-0.113,0.0355,-0.115,-0.147,0.128,-0.0127,0.042,0.0823,0.0379,0.00748,0.059,0.0695,-0.0759,0.115,0.0478,-0.0201,-0.028,-0.0719,0.0823,-0.0319,-0.00952,-0.00343,-0.132,0.285,-0.0799,-0.168,0.0912,-0.13,0.015,0.197,-0.0699,0.0385,0.0314,0.0467,-0.0598,-0.0203,0.0852,-0.083,-0.00267,0.0516,-0.0843,0.122,-0.155,0.0564,-0.118,0.0485,0.0465,-0.0271,0.128,-0.116,0.0801,-0.0863,0.00224,-0.0201,-0.0274,-0.0297,0.157,-0.0379,-0.016,0.232,0.123,0.0531,0.154,0.0812,-0.103,-0.0033,0.0748,0.0674,0.0101,-0.138,-0.0942,0.00296,0.143,-0.0734,0.107,0.0894,0.156,0.071,-0.027,0.0348,-0.0201,0.226,-0.0305,0.0885,0.0809,0.108,0.0719,-0.0237,-0.0287,0.0833,0.0125,-0.0475,0.0895,0.0778,0.104,-0.103,0.00204,0.0624,0.0522,0.0638,0.105,0.044,0.0233,0.211,0.124,-0.0388,0.101,-0.183,-0.0936,-0.0935,-0.0081,0.0606,0.024,-0.0464,-0.0271,0.059,0.0358,0.0209,-0.0137,-0.0085,0.00702,0.157,0.059,0.0122,0.121,-0.0505,0.0416,0.302,0.0553,0.0268,-0.0546,-0.0276,0.0806,0.0594,-0.0692,-0.0634,0.129,0.022,0.0822,0.033,0.071,0.00286,-0.0332,0.0191,0.138,-0.08,0.0523,-0.2,-0.0706,-0.128,-0.181,0.026,0.0208,-0.126,-0.0647,0.18,-0.0651,-0.0689,0.0365,-0.0526,-0.024,-0.0358,-0.0243,-0.0926,-0.00371,0.00619,0.0692,0.127,-0.121,0.00564,-0.0221,-0.0456,-0.043,-0.149,0.0305,-0.184,-0.0359,-0.241,-0.121,-0.0186,0.109,0.00403,-0.153,0.132,-0.00654,-0.0465,0.179,-0.122,-0.0731,0.0389,0.0485,0.151,0.0242,0.0791,0.0159,0.0925,0.0429,0.00944,-0.0618,0.0572,0.028,0.273,-0.0256,-0.0197,-0.0103,-0.155,0.1,-0.158,-0.0592,0.267,-0.0984,7.31e-05,0.0353,0.0163,0.151,-0.0423,0.0243,0.122,0.0541,-0.0317,-0.158,-0.132,-0.053,-0.0595,0.0467,0.0668,-0.197,0.0453,-0.132,-0.04,0.0116,-0.17,-0.0911,0.0915,0.0149,-0.0638,0.0552,-0.0298,0.0715,-0.0258,-0.00286,0.055,-0.031,0.134,0.00353,0.141,-0.0418,-0.0543,-0.0281,0.0079,-0.0425,-0.0901,0.142,-0.0889,0.00454,-0.133,0.054,-0.0893,-0.0197,0.0415,-0.0179,0.0515,-0.128,-0.131,-0.132,0.266,-0.148,0.0531,0.0317,0.041,-0.0489,-0.164,-0.0752,0.303,-0.0765,-0.0736,0.0151,-0.0174,0.0233,-0.0284,-0.0213,0.104,-0.00875,-0.0578,-0.116,-0.128,0.0551,-0.109,0.0939,-0.0519,-0.0871,0.00691,0.0441,-0.0578,0.115,-0.0722,0.0851,0.0143,0.0977,-0.163,-0.136,-0.144,0.075,0.0729,-0.06,-0.116,0.0542,0.221,-0.0815,0.0843,-0.0557,-0.019,-0.13,0.176,-0.139,0.0768,0.0519,-0.0657,0.0255,-0.0772,-0.0576,-0.19,-0.142,0.0724,0.0163,0.0379,-0.204,-0.104,0.0565,0.158,-0.207,0.0301,-0.0653,0.208,-0.0588,-0.144,-0.122,0.0265,-0.0253,-0.147,0.0264,-0.0463,-0.0257,0.291,-0.0961,-0.0605,0.303,0.147,0.214,0.106,0.0597,0.0534,0.0119,-0.229,0.0491,-0.244,0.0598,-0.087,0.0195,0.0551,0.0325,0.15,0.0585,-0.0934,-0.0221,0.0863,0.192,-0.0262,-0.0967,-0.0498,-0.0953,-0.0936,-0.01,-0.0644,0.152,-0.00408,-0.132,-0.128,0.0642,-0.101,-0.111,0.00149,-0.168,-0.078,0.0595,0.0594,-0.0477,-0.114,-0.0866,-0.0899,-0.0649,-0.104,0.0154,-0.0785,-0.0856,-0.0636,0.14,-0.0826,-0.07,0.00594,0.0345,-0.137,0.08,-0.0135,-0.0571,-0.0838,-0.00927,0.049,0.0725,-0.0808,-0.0135,0.0798,0.00164,0.0969,-0.105,0.0914,-0.125,0.0379,0.159,0.213,-0.0298,0.133,0.00242,-0.0919,0.305,-0.0157,-0.184,-0.113,0.0763,0.0371,-0.148,0.34,-0.0172,0.0297,0.26,-0.024,-0.00269,0.0973,0.0241,0.209,0.0341,-0.108,-0.109,-0.0538,-0.0452,0.111,0.0202,0.00458,0.0499,-0.038,-0.0736,0.0107,-0.0945,0.0221,0.015,0.00219,0.122,0.0132,0.0813,-0.0622,-0.0836,-0.0796,-0.0331,0.0906,-0.00251,0.129,-0.0936,-0.0421,0.362,0.00165,0.192,0.0301,-0.186,-0.03,0.0641,0.000262,0.107,-0.0447,-0.00272,0.0826,-0.153,0.038,0.0862,0.0395,0.159,-0.0307,0.0157,0.0882,0.171,-0.0964,-0.0198,-0.0708,0.0243,0.0927,0.00177,0.0521,0.113,0.0618,-0.0696,0.00243,0.0701,0.012,-0.0877,-0.0621,-0.0468,0.19,-0.176,0.11,0.0349,0.0844,-0.081,0.0699,-0.0308,0.084,-0.087,-0.0892,-0.118,-0.103,0.0401,0.00239,0.143,-0.169,0.0279,0.0531,0.0156,0.0255,0.0729,0.0194,0.0121,-0.115,0.11,0.148,-0.0542,-0.105,0.134,0.00193,0.0809,-0.169,-0.0162,0.0913,0.029,0.241,-0.0534,0.0629,0.0697,0.00489,-0.0163,0.104,-0.0356,0.0053,-0.101,0.123,0.00634,0.0408,0.00079,0.081,-0.00824,0.0855,-0.0238,0.126,-0.0522,-0.164,-0.0271,0.0103,-0.201,0.0333,-0.00581,-0.07,0.113,-0.0176,-0.0358,0.0809,0.25,0.152,-0.0573,0.0825,-0.00843,0.0385,-0.0425,0.0342,0.11,0.002,-0.00185,-0.0189,0.0926,0.0213,0.141,0.0663,0.0419,0.1,-0.000931,0.114,0.0837,-0.0533,0.0109,0.0796,-0.121,-0.225,0.115,0.0216,0.0244,-0.151,-0.00954,3.6e-05,-0.114,0.159,-0.116,-0.032,0.0462,0.101,-0.129,0.0939,-0.0593,0.106,-0.149,0.0467,-0.0368,0.00968,-0.109,0.104,0.157,0.0601,-0.123,0.052,0.00683,-0.0298,0.0454,0.0748,-0.202,-0.0778,0.032,-0.027,0.192,-0.0877,0.0264,0.105,0.146,0.135,0.067,0.0829,0.0589,0.0456,0.00717,0.0686,0.0812,0.0953,0.0508,0.039,0.0152,0.0937,0.146,0.0596,-0.0122,-0.0134,0.0427,0.176,0.0487,-0.136,0.0696,0.0302,-0.0463,-0.245,0.0674,0.016,-0.00477,-0.205,0.0507,0.0146,0.00866,0.16,-0.214,0.0575,0.0615,0.121,0.0908,0.0456,-0.0335,0.112,-0.12,-0.000773,0.0582,0.101,-0.0771,0.0752,0.118,0.00547,-0.132,0.125,-0.0339,-0.0354,0.12,0.0934,-0.0882,-0.0898,0.0726,-0.0149,0.18,-0.142,-0.0294,0.0095,0.101,0.121,-0.0174,0.0787,0.0729,0.00831,0.0632,0.0958,0.112,0.0491,0.0255,0.105,0.144,-0.022,0.0915,0.0378,-0.0367,-0.0929,-0.0408,0.0317,-0.163,-0.0281,-0.217,0.0136,-0.0776,0.0417,-0.037,-0.0163,0.0515,0.00301,0.0936,0.156,0.00385,0.0859,0.119,0.1,-0.0898,0.0859,-0.0579,0.0615,0.0953,-0.0255,-0.143,0.0888,0.0116,-0.318,0.0587,0.0295,0.158,-0.0324,-0.078,-0.193,0.111,-0.0139,0.0679,0.161,0.0143,0.0979,0.214,0.124,0.0363,0.193,-0.0776,0.0983,0.175,0.176,-0.0175,0.0717,-0.137,0.053,0.0805,0.0783,-0.113,0.0988,-0.166,0.0865,-0.094,-0.0844,0.0597,-0.108,0.122,0.16,-0.0691,-0.0562,-0.0428,0.0786,-0.103,-0.188,0.0216,0.0324,-0.000186,-0.0895,-0.0344,0.0314,0.0137,-0.124,-0.0767,-0.128,-0.0888,-0.00619,-0.0292,0.0531,0.00802,0.0366,-0.0235,0.0112,-0.031,-0.141,0.0455,0.0922,-0.0562,-0.105,-0.0599,-0.0963,-0.0935,0.0291,-0.0732,-0.116,-0.0296,-0.125,-0.0696,-0.0812,-0.0245,-0.041,-0.00806,0.00706,0.0466,0.0697,0.0248,-0.0472,-0.24,0.023,-0.043,0.0728,-0.151,-0.000494,-0.0841,0.0278,0.0542,-0.285,-0.12,-0.213,0.00648,0.292,0.00797,-0.134,-0.0379,0.0997,0.0451,-0.0959,0.052,-0.00316,-0.0259,-0.0119,0.0196,0.153,-0.0664,0.0184,0.172,-0.177,-0.0379,-0.0416,0.111,-0.142,0.0549,0.129,0.0133,0.0478,-0.0672,0.0268,-0.0133,-0.0645,0.036,-0.0572,-0.017,0.0669,-0.187,0.154,-0.00901,0.0496,-0.0723,0.131,0.0378,-0.129,-0.0878,0.0181,-0.114,-0.0903,0.119,0.149,0.0373,0.0986,0.0375,0.00202,0.111,0.0728,0.0396,0.0277,-0.0838,0.106,0.102,0.0957,0.104,0.108,0.0266,-0.0392,-0.0592,-0.0366,-0.345,-0.0214,0.213,0.103,-0.117,0.0416,0.0409,0.133,0.0798,0.00789,-0.126,0.074,0.136,-0.0173,-0.0441,-0.144,-0.109,0.0282,-0.0392,-0.107,0.133,-0.0682,-0.035,0.0827,0.0382,-0.0481,-0.0657,0.0551,-0.162,0.0492,-0.0516,0.0665,0.0823,-0.0188,0.0836,-0.0386,0.0651,0.0249,0.0911,0.108,0.0616,0.144,0.0215,-0.00971,0.0733,-0.0908,0.0789,0.00522,0.0702,0.127,-0.0524,0.101,-0.168,-0.0178,0.178,0.0595,-0.0442,-0.151,0.0392,-0.0172,-0.119,0.244,-0.117,-0.138,-0.0199,0.202,-0.0639,-0.0484,-0.0742,-0.11,-0.0546,0.00361,-0.0176,-0.0796,0.0266,-0.113,-0.0755,0.0817,0.0742,-0.0735,-0.049,-0.0956,-0.0166,0.102,0.0211,0.0557,0.151,0.102,-0.0306,-0.146,0.0448,-0.0271,-0.156,0.0184,0.0514,0.0529,0.00781,-0.0468,0.145,-0.0386,-0.0387,-0.0919,-0.106,-0.0252,-0.0405,-0.136,-0.0191,0.192,-0.103,0.149,0.0905,0.189,-0.139,-0.074,-0.124,0.0962,-0.0879,-0.0202,-0.166,-0.113,-0.00503,0.161,-0.0162,0.137,0.00344,0.163,-0.0474,-0.0167,0.0469,0.0034,0.043,0.0276,0.146,-0.068,-0.0284,-0.0848,-0.0601,-0.0177,0.0179,-0.0665,0.0112,0.117,-0.0697,-0.167,-0.095,-0.0546,0.144,-0.0574,-0.0284,-0.0664,0.035,0.0846,-0.0226,-0.0339,0.00466,-0.147,0.0277,-0.102,-0.164,-0.136,0.135,0.0143,0.0309,-0.0439,0.048,-0.017,-0.0363,-0.0432,0.159,0.0542,-0.18,0.141,-0.0302,0.0926,0.0266,0.166,-0.0316,0.075,0.178,-0.0881,0.0277,0.109,-0.0488,-0.0447,0.0656,0.209,-0.00505,0.135,-0.0356,-0.0443,0.107,-0.0789,-0.0639,0.143,-0.0947,-0.0786,0.0129,0.00415,-0.0326,-0.0985,0.158,0.0596,-0.104,0.0378,0.00873,0.0925,0.0967,0.0484,0.136,-0.0748,0.155,0.0261,0.0161,-0.0719,0.203,-0.0696,0.158,-0.0894,0.123,-0.0303,0.112,0.027,0.151,-0.0593,-0.083,-0.096,0.122,0.05,-0.0929,-0.0868,-0.0706,-0.0495,0.153,-0.0858,0.0499,-0.0174,-0.141,0.0439,-0.0924,-0.106,-0.121,-0.0914,-0.0557,-0.0462,-0.102,-0.155,0.0317,-0.0604,-0.0797,-0.0675,-0.0451,-0.0182,0.137,-0.104,-0.147,-0.0364,0.0903,0.0476,0.136,-0.276,0.0816,0.167,-0.0145,-0.00892,0.17,0.0846,-0.177,-0.0209,0.0702,0.0793,-0.0362,-0.0489,0.0422,-0.161,0.126,-0.0516,0.0272,0.00539,0.00259,-0.0989,-0.0522,-0.0774,-0.0348,0.0681,-0.0854,-0.0563,-0.0422,-0.1,-0.126,-0.101,0.172,-0.133,0.209,0.0413,-0.132,-0.129,-0.132,0.0739,-0.0634,0.15,0.0111,0.047,0.0217,-0.0616,-0.0147,-0.162,-0.0445,-0.0875,-0.099,-0.0481,0.0627,-0.00552,-0.0475,0.054,-0.0325,-0.158,-0.0636,-0.0412,-0.0805,0.0312,-0.0646,0.0899,-0.166,-0.0049,-0.159,-0.00723,0.0326,-0.229,-0.0155,-0.0631,-0.0452,-0.0597,-0.161,0.0441,-0.0386,-0.017,0.0448,-0.121,-0.124,0.242,0.0438,0.00787,0.105,-0.0566,-0.053,0.0653,-0.0814,0.136,-0.0335,0.0336,-0.0956,-0.158,0.0732,-0.0438,9.79e-05,-0.198,0.00309,0.15,0.0466,-0.173,0.0624,0.0838,0.022,0.186,-0.143,-0.0535,-0.0842,-0.0544,-0.0181,-0.0892,-0.0308,-0.0712,0.0479,0.0873,-0.17,0.0819,-0.114,0.104,-0.0316,0.127,0.0835,0.0892,0.0518,-0.134,-0.0987,-0.0662,-0.111,-0.0435,0.0357,-0.0938,0.0733,0.0589,0.00623,0.0612,0.068,-0.00242,0.0278,-0.0437,-0.135,0.000727,-0.0531,-0.121,0.164,0.147,0.0957,0.0918,0.0136,-0.206,-0.0184,-0.00709,0.13,-0.12,-0.0485,-0.056,0.158,0.143,0.243,0.0551,-0.0252,-0.0929,-0.019,-0.0618,-0.0704,0.0694,0.0267,-0.184,0.00896,-0.115,0.0203,0.0882,0.0492,-0.0111,0.0907,0.00352,-0.0889,0.11,-0.0694,-0.119,-0.219,0.011,-0.0691,0.073,-0.0281,0.0924,0.0711,0.0407,-0.0518,-0.0113,0.0585,0.0629,0.0418,-0.0575,-0.0669,0.0848,-0.105,0.031,0.0385,0.0187,-0.087,0.112,-0.0662,-0.00494,-0.0102,0.0253,-0.0745,0.204,-0.0474,-0.0432,0.0133,-0.134,0.0485,-0.101,0.0358,-0.076,0.00629,0.137,-0.0944,0.0157,-0.159,0.0479,0.0064,0.156,0.053,0.107,-0.0775,-0.114,-0.0925,-0.208,0.0618,0.0768,-0.111,0.0424,-0.0997,-0.203,-0.0348,0.0505,0.00315,0.125,-0.0342,0.186,-0.125,-0.0103,-0.0164,0.12,-0.138,0.0319,-0.0648,-0.187,-0.00649,-0.0559,-0.054,-0.0604,0.0411,-0.0507,0.0551,-0.0696,-0.0559,0.0902,-0.128,-0.0673,-0.0196,0.00951,-0.0421,0.00894,0.158,-0.0647,0.125,0.0818,0.128,0.0258,-0.0543,-0.0118,-0.0188,-0.0599,-0.123,-0.2,-0.0185,0.0202,0.0798,-0.123,0.00314,0.0483,0.0849,-0.115,-0.0299,-0.0662,0.0993,-0.0551,-0.0478,-0.0748,0.0453,-0.112,-0.0612,0.00267,0.0796,-0.124,-0.0159,0.111,0.06,-0.169,-0.0671,-0.0368,-0.00628,0.0733,0.245,0.0233,-0.0122,-0.143,-0.0199,0.0282,-0.0558,0.0426,0.0766,-0.0632,-0.0177,-0.0317,-0.0313,-0.0195,-0.0407,0.0895,-0.0672,0.00153,-0.0165,0.181,-0.13,0.0457,-0.0355,0.18,0.0883,0.0197,-0.0337,0.0774,0.13,0.0221,0.0178,0.0135,-0.16,-0.0116,-0.243,0.0852,0.0604,0.0157,-0.011,0.0222,0.0187,0.19,-0.0231,0.139,0.0484,0.154,0.131,-0.0531,-0.129,-0.0321,0.146,-0.134,0.0717,0.0556,-0.0288,-0.0172,0.161,-0.0203,0.0496,0.0466,-0.0663,0.154,-0.0894,0.0432,0.2,0.0861,0.00301,-0.204,0.0195,-0.0308,0.015,0.0204,-0.0496,-0.021,0.313,-0.00635,-0.0481,-0.0376,0.00949,0.132,0.0499,-0.0692,-0.0218,0.0547,-0.132,-0.162,0.196,-0.00014,-0.0423,-0.209,0.0209,-0.0125,-0.0445,0.15,-0.0838,0.00704,0.0462,0.0569,-0.136,0.103,-0.102,0.128,-0.0286,-0.0912,-0.122,0.0906,0.00144,0.0498,0.13,-0.0467,-0.181,0.00763,0.12,-0.0381,0.0266,0.0658,-0.197,-0.178,0.0232,0.0014,0.0906,-0.0522,-0.0174,0.0551,0.0778,0.123,0.00442,0.086,0.0749,0.0353,0.0995,0.00825,0.0375,0.0173,-0.0276,-0.0816,-0.00435,-0.019,0.152,0.0358,-0.0294,-0.0199,0.0337,-0.00707,0.095,0.03,-0.0497,0.149,0.000735,-0.016,-0.0687,-0.117,0.0343,-0.0157,0.0266,-0.0246,-0.0743,-0.0958,0.0918,0.0922,-0.0175,0.0559,0.0893,0.152,-0.0238,0.0864,-0.133,0.116,0.182,0.111,0.114,-0.031,-0.0853,0.0864,-0.0748,-0.00135,-0.152,0.141,-0.204,-0.0924,0.0054,0.145,0.0472,0.147,0.0294,-0.123,-0.231,0.0283,0.0723,0.0793,0.105,0.00159,0.0113,-0.0854,0.165,0.0263,0.00237,-0.0156,-0.0792,-0.159,0.399,-0.0432,0.0259,0.0776,0.00342,-0.00118,0.12,-0.203,-0.0634,0.0175,-0.0291,0.0944,-0.0551,-0.0609,-0.058,0.0392,0.109,0.0728,0.000894,-0.164,0.0381,0.0828,0.088,0.0623,-0.0299,-0.0643,0.00859,0.196,-0.0865,-0.0905,-0.147,-0.147,0.0279,-0.0168,-0.0359,-0.154,-0.00386,-0.0529,0.125,-0.0114,-0.0501,-0.166,-0.0488,-0.0527,0.00137,-0.0483,-0.269,-0.0931,0.0202,-0.00706,-0.103,-0.0416,0.0712,0.149,0.0879,-0.146,0.159,0.0434,0.116,-0.0667,0.0569,0.0754,0.0778,0.00335,-0.0342,-0.0987,0.0161,0.0503,-0.0438,0.232,0.0588,0.198,0.146,-0.144,0.0857,0.0512,-0.0841,-0.0732,-0.0784,-0.0624,0.0322,0.0333,0.0832,-0.0274,0.126,0.102,-0.158,-0.0398,0.101,0.066,0.18,0.0641,-0.00895,-0.0378,-0.013,0.0771,-0.0317,0.0455,0.074,0.0911,0.0077,-0.125,0.00502,0.0044,-0.205,-0.0527,-0.0819,-0.00222,0.11,-0.0744,0.0556,0.0411,0.0454,-0.095,-0.0444,-0.0216,0.0558,0.265,-0.0484,-0.123,0.128,0.0502,0.0768,-0.0491,-0.0326,-0.0993,0.067,0.0152,0.174,-0.131,0.0605,-0.0401,0.00847,-0.0715,0.0825,-0.0366,0.0945,0.00524,-0.0298,-0.0866,0.0276,-0.0126,-0.0569,0.0225,0.185,0.107,-0.107,0.0467,0.121,0.0306,0.0502,-0.0907,-0.195,-0.024,-0.0124,0.0528,-0.0293,-0.131,0.114,0.0388,0.174,0.271,0.033,0.00464,-0.171,0.117,0.0157,0.0342,-0.0057,-0.0384,-0.132,-0.14,-0.00891,0.129,0.119,-0.0826,-0.208,-0.104,0.251,-0.157,-0.129,-0.111,-0.082,-0.111,0.12,-0.0184,-0.108,-0.198,0.0212,0.0376,0.00616,-0.131,-0.132,-0.12,-0.0803,-0.0548,0.0816,-0.094,0.103,0.0132,-0.175,-0.0676,0.0948,0.0904,0.0724,0.0499,0.162,0.0348,0.0597,-0.139,0.000493,0.000162,0.0439,-0.0956,0.0191,0.0525,0.0641,-0.00913,0.0444,0.0555,0.0313,0.0738,0.0956,-0.034,0.265,0.0231,0.0121,0.135,0.203,0.0349,-0.0481,0.293,0.028,0.031,0.131,-0.0569,0.0857,-0.341,0.0428,-0.00373,-0.0239,0.0404,-0.158,0.000966,0.00096,0.116,-0.0197,-0.0443,0.0701,-0.0137,0.0745,-0.0754,0.0611,0.00524,0.105,-0.0382,-0.0323,-0.0931,0.0546,0.0314,-0.0684,-0.0372,-0.131,-0.13,-0.067,0.0472,0.121,0.113,-0.00106,0.0447,0.104,0.038,0.00756,-0.111,0.0167,0.115,0.0784,0.0373,-0.0517,-0.00933,-0.01,0.0897,-0.0466,-0.000523,0.0303,0.228,-0.107,-0.00325,-0.0425,0.0692,0.0152,0.0512,-0.181,0.0501,-0.258,0.0727,-0.025,-0.00679,0.0688,0.122,-0.105,-0.109,0.0183,-0.146,-0.00336,-0.0924,-0.00489,-0.0162,0.0494,0.0631,-0.222,0.0446,-0.0843,-0.0856,0.0696,-0.0576,-0.0265,-0.204,0.0811,-0.0707,0.0121,-0.0382,-0.095,0.358,0.0261,-0.0114,0.143,-0.127,0.032,-0.0987,0.0843,-0.0411,0.0461,0.0824,0.032,-0.028,0.155,-0.115,0.0586,0.0466,0.0727,-0.0384,0.0821,0.0684,-0.194,-0.00478,0.145,-0.00973,0.107,0.0405,-0.000477,0.0473,0.122,0.0569,-0.0552,-0.0118,0.0669,-0.0513,0.128,0.102,-0.0312,0.00855,-0.0462,-0.0733,0.216,-0.0314,0.035,0.0218,0.0114,-0.0704,-0.0645,-0.0572,-0.0586,0.0354,-0.0871,-0.147,0.0614,0.0929,0.0815,-0.172,-0.00546,0.00982,0.0819,0.133,0.171,-0.229,0.0577,-0.00121,-0.0366,0.000356,-0.0227,0.147,0.0365,0.0358,-0.00111,0.00981,0.236,-0.0324,-0.018,0.0451,-0.0516,0.107,0.00573,0.00609,0.0231,-0.0659,0.0431,-0.0556,0.0614,0.0935,-0.117,-0.138,0.0933,-0.0214,0.0777,0.0608,0.134,-0.0233,0.319,0.071,-0.0686,-0.0269,0.126,-0.0643,0.0683,0.0731,-0.036,-0.0347,-0.0631,-0.0269,-0.102,0.0723,-0.0607,0.111,0.0713,-0.0247,-0.0134,0.137,-0.0248,0.115,0.0256,-0.0153,-0.0044,0.101,0.00163,-0.227,-0.0238,0.08,0.177,-0.00708,-0.00368,-0.0132,0.107,0.183,-0.00874,0.0272,0.0671,-0.0548,-0.00583,0.0942,-0.0954,-0.0709,0.0163,0.0379,0.0575,-0.12,-0.035,-0.00538,-0.0785,0.105,0.0668,0.0205,0.188,-0.128,-0.087,0.0409,0.0742,0.0497,-0.0357,0.168,0.00681,0.0196,0.221,0.205,-0.0285,0.0412,0.123,0.0882,0.0026,-0.116,-0.108,0.0194,-0.193,0.0377,-0.0406,0.0738,0.0142,0.0733,-0.0316,-0.00734,0.00868,0.182,-0.0284,0.0559,-0.0368,-0.0107,-0.143,-0.0113,0.0328,-0.0643,0.0249,0.188,0.158,-0.0333,0.0618,0.0524,0.0401,0.164,-0.0145,-0.0433,-0.0677,0.0879,-0.071,0.0134,0.0481,-0.0495,0.0593,-0.0822,-0.138,0.062,-0.0724,-0.0541,0.183,0.019,0.0592,-0.139,0.191,-0.0541,-0.0238,0.0641,-0.00963,0.0567,0.177,-0.19,0.0084,-0.0265,-0.13,0.0557,0.171,-0.105,-0.0452,-0.00293,0.0527,0.0636,0.0545,0.0557,-0.0346,-0.0051,-0.0564,-0.128,0.0166,0.0484,-0.0906,0.122,0.0787,0.0438,-0.0219,-0.0591,-0.0541,-0.0405,-0.0528,-0.00798,-0.0777,0.019,0.144,0.00438,-0.0807,0.0284,-0.0825,0.0117,0.0874,-0.0343,-0.0574,0.162,0.0641,0.0767,0.141,0.226,-0.00406,-0.0116,-0.0536,-0.137,-0.0141,0.0179,-0.221,-0.256,0.0383,0.00276,-0.0563,0.0196,0.0113,0.205,-0.238,0.192,-0.0451,0.0386,-0.134,0.0446,-0.116,0.0876,-0.125,0.132,0.16,0.065,-0.0194,-0.106,-0.000578,-0.113,0.0361,0.0713,0.152,-0.056,0.126,0.00865,0.1,0.0421,0.0784,0.0737,0.137,0.125,-0.0776,0.0748,-0.0971,0.0377,-0.0829,0.142,0.0869,0.0372,-0.0309,0.0269,0.0563,0.142,0.161,0.0439,-0.0764,0.0199,0.0684,0.0142,0.061,-0.0935,0.00769,-0.115,-0.0274,-0.0322,0.197,-0.0128,-0.105,0.0886,-0.0214,0.00433,0.0487,-0.0111,-0.176,-0.143,-0.215,-0.00313,0.0242,-0.128,-0.107,0.269,0.00441,0.0444,0.097,-0.0404,-0.176,-0.0328,0.0569,0.0568,0.0638,0.0233,-0.00884,-0.0223,-0.108,-0.0579,0.0687,0.00201,0.0355,-0.103,-0.201,-0.0304,0.0663,-0.0039,-0.129,-0.0713,-0.0233,-0.0436,0.13,0.266,0.147,0.196,-0.0443,-0.0963,-0.29,0.0895,-0.00642,0.102,0.0316,-0.0359,-0.044,-0.188,0.0761,0.0874,0.0112,-0.0131,-0.00391,0.124,-0.121,-0.135,0.14,-0.1,-0.0788,0.0586,-0.0499,-0.113,-0.088,0.0803,-0.128,-0.119,0.0845,0.223,-0.189,0.18,-0.193,-0.00408,-0.228,-0.0187,-0.0158,-0.0891,-0.131,0.104,0.0472,0.138,-0.153,-0.069,-0.0119,-0.0931,0.0296,0.138,-0.0831,0.00298,0.00982,-0.0268,0.152,0.0543,0.00615,0.112,0.177,0.158,0.0891,0.0254,-0.0157,0.0674,-0.0583,0.176,0.0677,0.087,-0.00651,-0.0307,-0.0262,0.172,0.045,0.0293,-0.00277,0.0231,-0.00493,-0.0679,0.12,0.0129,-0.012,-0.132,-0.16,-0.149,0.0185,-0.0164,-0.12,-0.0145,-0.0543,-0.0345,-0.201,-0.203,-0.188,-0.0148,-0.0241,0.0688,0.0998,-0.0102,-0.0727,-0.0171,-0.0771,-0.117,-0.0643,-0.0357,-0.0864,0.104,-0.055,0.0382,-0.187,-0.142,0.0143,-0.0303,0.0262,-0.0156,0.0322,-0.0151,0.134,-0.115,0.0251,-0.103,-0.0519,0.00586,-0.12,0.0411,0.019,-0.0688,-0.0339,-0.0545,0.161,-0.0442,-0.128,0.138,-0.161,0.0373,-0.129,-0.0785,0.0343,-0.0333,-0.00494,-0.0697,-0.0247,0.0275,0.0528,-0.0825,-0.136,-0.102,-0.0849,0.00192,-0.043,0.0887,-0.107,0.119,-0.0691,0.115,0.0201,0.014,0.101,0.0136,0.262,-0.0131,-0.0899,0.0159,0.00855,-0.032,-0.0903,0.245,0.0382,0.0249,0.295,0.00119,-0.0268,0.0759,0.0128,-0.147,0.0228,0.0161,0.113,-0.0417,-0.0503,0.0232,0.0123,0.119,0.202,-0.0723,0.0363,0.0482,0.122,0.0898,-0.131,0.108,-0.0193,-0.158,-0.226,-0.0296,0.0904,0.0313,-0.0173,0.0474,0.0683,0.0242,0.052,-0.0521,0.00429,0.251,-0.0346,-0.111,-0.0297,0.11,-0.0549,0.164,-0.245,-0.0816,-0.129,0.123,-0.00559,-0.158,0.0193,-0.105,0.0193,-0.109,0.0331,0.0811,0.0687,-0.152,0.0757,-0.012,-0.0701,0.0467,0.159,-0.0221,-0.0371,-0.0077,0.176,0.0148,-0.0537,0.0762,0.136,0.0875,0.00176,0.0118,0.28,0.131,-0.00869,0.118,-0.0364,-0.0721,0.0476,-0.0785,-0.000926,-0.0576,-0.0153,0.077,0.0691,-0.125,0.0464,0.00378,0.239,0.0531,0.0885,0.068,0.113,0.0461,-0.0362,0.0858,0.19,-0.118,0.0671,-0.0383,0.117,0.0726,0.0684,0.151,0.0985,0.0265,0.0456,0.00334,0.0693,0.0187,-0.0641,0.0328,0.0296,0.159,0.0966,0.0197,-0.0476,-0.00556,-0.0913,-0.0448,-0.189,0.196,0.07,-0.0377,0.0221,0.0577,-0.0771,-0.0513,-0.221,-0.11,-0.121,0.12,0.12,-0.0791,-0.0376,-0.081,-0.0402,0.053,0.127,-0.0497,0.00256,0.0266,-0.0487,-0.142,-0.108,-0.00527,0.126,0.106,-0.0466,0.101,-0.115,-0.00765,0.00255,0.0206,-0.17,-0.0162,0.0281,-0.0352,-0.0213,0.183,0.164,-0.104,0.0817,0.0324,0.0987,-0.0961,0.127,0.0968,0.156,-0.0321,0.0818,0.0363,0.11,-0.0696,0.031,0.343,0.0038,0.0381,0.0302,-0.176,0.0624,-0.216,-0.16,-0.0702,0.0587,0.0843,-0.122,0.0784,-0.0704,0.0243,0.00926,-0.107,-0.101,0.016,0.151,-0.0787,-0.00821,0.03,-0.12,0.3,-0.0172,0.00291,-0.119,0.0384,-0.0983,-0.172,-0.0495,0.0123,0.173,-0.121,-0.111,0.00953,-0.0537,-0.137,0.0569,0.12,-0.112,-0.182,0.107,0.134,0.0172,-0.143,-0.0556,-0.0321,-0.18,-0.0418,-0.175,-0.00893,0.0271,0.152,0.12,0.108,0.0758,0.235,0.0717,0.00264,-0.0195,0.161,0.052,0.0766,0.0908,-0.137,0.109,-0.00558,0.00917,0.0866,0.0147,-0.14,-0.127,-0.0051,-0.0399,0.046,-0.258,-0.235,-0.141,0.0198,0.00403,0.115,-0.14,0.0676,0.0374,0.0734,0.147,0.0867,0.129,0.0369,-0.0256,0.0207,0.0015,-0.24,0.053,0.0389,0.107,0.0912,-0.000391,0.114,-0.127,0.121,-0.0381,0.0186,-0.00901,0.0429,0.0288,0.0135,0.0331,0.122,0.0164,-0.0196,0.0802,0.000414,-0.178,-0.0717,0.00163,-0.0399,-0.127,0.0168,0.0842,0.00711,-0.0125,0.0713,0.0454,0.0445,0.0711,-0.0132,-0.013,0.196,-0.0137,0.155,0.0426,-0.0255,0.0944,0.0195,-0.0776,-0.072,0.0342,0.0579,-0.162,0.225,-0.0648,-0.0651,0.157,0.0957,-0.016,0.0383,-0.000215,-0.121,-0.112,0.0122,0.0863,0.00643,-0.147,0.0985,0.0712,0.118,0.12,-0.0197,0.0118,-0.0796,0.0666,0.175,-0.0718,0.0901,0.0339,0.00757,-0.0707,-0.149,0.15,0.0098,0.123,0.137,-0.0112,-0.0654,-0.0203,0.0909,-0.0301,0.145,0.171,0.125,0.0557,-0.036,-0.119,-0.138,0.0542,-0.013,-0.0361,-0.0569,-0.103,0.0629,-0.156,-0.0791,0.0431,0.0804,-0.121,-0.0691,0.0991,-0.13,0.0182,-0.037,-0.0491,-0.126,0.0718,-0.164,0.14,-0.0936,-0.00609,-0.188,0.0808,0.0495,0.292,-0.0386,0.0385,0.0326,-0.0435,-0.11,0.0292,-0.00807,0.00249,0.0962,0.0511,0.0609,-0.0521,-0.0469,0.0243,-0.0418,0.245,-0.158,0.198,0.0353,-0.106,0.034,0.0396,0.198,-0.272,-0.026,-0.00666,-0.0375,0.149,-0.257,0.0168,-0.136,-0.187,0.111,-0.178,-0.0402,0.0168,0.192,-0.0811,-0.0582,-0.0687,0.00387,-0.104,0.13,0.0273,0.0739,-0.16,0.1,0.0825,0.0934,0.0446,0.0525,0.0537,0.0883,0.167,0.0518,-0.105,-0.0189,0.127,0.016,0.109,-0.00121,0.0172,0.213,-0.136,-0.00851,0.00811,0.121,0.0806,0.12,-0.194,0.0327,-0.0473,0.0484,0.207,0.0871,-0.0179,0.188,0.0696,0.117,0.0792,0.218,0.123,-0.0601,-0.0665,0.0352,-0.197,-0.109,-0.0346,-0.127,0.0768,0.0398,-0.0899,0.033,0.169,0.0429,-0.143,0.209,-0.0394,-0.0929,-0.0126,0.0637,-0.0997,-0.0251,0.146,0.076,-0.0697,0.0395,0.119,0.086,-0.0365,0.0822,-0.0515,0.00274,0.0252,-0.025,-0.0656,-0.0112,0.0329,0.0507,0.153,-0.0642,0.0348,0.0495,0.113,0.0811,0.0999,-0.0348,-0.0893,0.163,-0.0973,-0.0183,-0.00592,0.131,0.0383,-0.0784,-0.0148,-0.133,-0.0247,-0.103,0.163,0.0353,0.0185,0.113,-0.0741,0.119,-0.0545,-0.0248,-0.0151,0.0684,-9.09e-05,-0.0763,0.0613,0.0759,0.0877,-0.048,0.0298,-0.0902,0.0358,-0.14,-0.198,0.0993,0.0754,0.168,0.119,0.0394,-0.0879,-0.0822,0.0779,0.135,-0.214,-0.108,-0.0164,-0.116,-0.0844,-0.00221,0.0719,0.152,0.081,0.0503,-0.0967,0.109,0.262,0.00551,-0.104,-0.0368,-0.0455,0.144,0.0299,0.0863,0.0815,-0.0272,-0.0345,0.0465,-0.275,-0.028,0.143,0.0816,-0.0686,0.197,-0.0676,-0.191,-0.0423,-0.107,0.0453,0.192,-0.0941,0.0781,0.0631,0.103,0.00407,0.0979,-0.0796,0.164,0.0689,0.245,-0.0111,0.0452,0.019,0.101,0.138,0.0434,-0.0775,-0.0513,0.118,0.13,-0.202,0.0104,0.0432,0.03,-0.0671,0.000922,-0.133,-0.14,0.109,0.062,-0.108,-0.0477,0.00336,0.207,-0.0901,0.0797,-0.0136,0.0806,0.00925,0.233,0.0573,0.00412,0.13,0.12,0.00968,0.0166,-0.00711,0.078,-0.127,-0.0606,0.106,-0.0685,0.148,-0.0115,0.0243,-0.076,-0.0203,-0.0158,0.0253,0.0942,-0.051,-0.125,-0.195,0.134,0.195,0.0524,-0.0274,0.00373,0.043,-0.0983,0.074,0.0427,0.0584,-0.137,-0.118,-0.0472,0.0693,0.0568,0.0588,-0.121,0.0879,0.0416,0.0612,0.0187,0.00155,-0.0264,-0.096,-0.0837,0.0791,-0.0872,0.00264,-0.0683,-0.0386,-0.172,0.0583,0.121,0.00828,0.0396,-0.0971,0.201,0.162,-0.0603,0.124,0.0651,-0.109,0.0121,-0.0455,-0.0849,-0.0801,0.0237,-0.0843,-0.124,-0.0327,-0.0222,0.051,-0.0237,0.248,0.185,-0.0631,0.141,-0.0761,0.00814,0.229,0.0369,-0.129,-0.162,-0.0421,-0.0215,-0.134,-0.119,0.0413,-0.152,0.118,-0.096,-0.0979,0.000201,-0.0875,-0.144,-0.0963,-0.105,-0.105,0.037,-0.127,0.0672,-0.0965,-0.0751,0.0293,0.108,-0.00209,-0.0106,-0.078,-0.127,0.162,0.059,0.133,-0.0965,-0.202,0.0205,0.0123,0.13,0.243,-0.178,0.0218,0.15,0.0312,-0.213,-0.0486,-0.028,-0.0808,-0.118,-0.0786,-0.116,-0.102,-0.106,0.0609,0.0767,-0.0935,0.00395,-0.00349,-0.0567,-0.0387,-0.0593,-0.107,-0.221,0.0318,0.00455,0.0648,-0.0759,-0.0855,-0.247,-0.102,-0.0441,-0.138,-0.0498,0.276,-0.128,0.114,0.105,-0.0662,-0.0106,0.231,-0.131,-0.108,-0.001,-0.105,0.0106,0.00861,0.0234,-0.00307,-0.0624,0.0849,-0.00916,0.167,-0.0226,0.318,0.0259,-0.0255,-0.0135,-0.00695,0.0523,-0.102,0.0318,0.118,-0.0574,-0.0742,0.0842,-0.0337,-0.17,-0.0152,-0.0511,0.0211,0.0783,-0.0057,-0.0521,0.203,0.091,-0.0476,-0.00812,-0.0811,-0.0163,-0.0116,-0.234,0.124,0.02,0.108,-0.107,0.0222,-0.0683,0.0602,0.0653,0.202,-0.0267,-0.0517,-0.0998,-0.0811,-0.134,-0.144,-0.144,-0.184,-0.138,-0.0595,-0.0522,-0.108,-0.112,0.117,-0.0175,0.113,-0.0484,-0.0703,-0.00785,-0.0438,0.0328,-0.00911,-0.016,0.0233,0.0111,0.0681,-0.0626,-0.0118,0.0161,-0.0775,-0.0284,0.00407,-0.138,0.0392,0.0928,-0.112,-0.152,-0.137,0.0108,-0.0201,-0.143,0.0101,0.185,-0.00681,0.124,-0.0988,0.0329,0.0359,-0.0158,-0.0485,-0.212,-0.0417,0.0208,-0.046,-0.1,-0.164,0.0671,-0.0196,0.127,0.0632,-0.0339,-0.0668,-0.0378,-0.209,-0.0347,0.249,0.0976,0.0251,0.11,0.127,0.0518,0.188,0.0402,0.0493,-0.0136,-0.0137,0.135,0.113,0.175,0.178,0.214,0.0871,0.00308,0.0125,0.0261,-0.242,-0.0118,-0.166,-0.0809,-0.0247,0.058,-0.0219,-0.101,0.136,0.00859,-0.0209,0.138,-0.0236,0.0758,0.123,0.0804,0.171,-0.0694,0.13,0.0266,-0.00201,-0.181,0.188,-0.0817,0.196,-0.0252,0.137,-0.0121,0.126,0.0801,0.0963,-0.0337,-0.0436,-0.0035,0.112,0.115,-0.127,-0.0285,0.0163,-0.0461,0.106,-0.0648,0.0556,-0.0423,-0.146,-0.0336,-0.0309,-0.121,-0.137,-0.106,-0.124,-0.0723,-0.119,-0.0345,0.0181,-0.0905,-0.0426,-0.101,-0.0714,-0.0659,0.0496,-0.0997,-0.151,-0.0134,0.125,0.0296,0.156,-0.0759,-0.114,-0.079,-0.00202,-0.0458,0.115,0.205,0.0573,-0.0244,0.102,0.0739,0.0697,0.0862,0.131,0.0443,0.147,-0.0324,-0.0173,-0.0831,0.19,-0.159,-0.0217,0.0666,0.164,-0.142,0.134,0.0375,-0.00316,-0.124,-0.0694,-0.0571,0.0579,-0.0321,0.0906,-0.0132,0.0468,-0.061,0.132,-0.0502,0.0129,-0.0374,-0.021,0.00853,-0.0756,-0.0553,-0.073,0.00932,-0.0591,-0.121,-0.00432,0.0153,0.047,-0.0787,0.0462,-0.0396,0.0282,-0.0932,0.0953,-0.137,-0.134,0.00773,-0.00156,-0.0242,0.0869,0.135,0.115,-0.103,0.163,0.128,-0.159,-0.0149,0.00702,0.0372,0.0862,0.1,0.00801,-0.137,-0.00759,0.106,0.167,-0.182,-0.0273,0.159,0.0309,0.138,0.0095,0.0202,0.207,-0.0115,-0.0368,0.00791,0.0327,0.0181,0.00607,-0.0571,-0.0607,0.138,0.105,0.0237,0.0266,0.106,-0.113,0.000455,-0.132,-0.0184,0.0762,-0.027,0.0189,0.0242,0.121,0.12,-0.0866,0.103,-0.0708,0.0699,0.0159,0.049,-0.137,0.0814,-0.034,0.0284,0.0819,0.0604,0.0951,-0.0827,0.0565,0.0615};
float f5_1_bias[64] = {0.121,0.0922,0.0692,0.054,0.133,-0.0103,0.0536,-0.0544,-0.189,-0.00782,-0.0668,0.0142,0.00955,-0.118,-0.0424,-0.131,0.0171,-0.0252,0.0198,0.115,-0.0325,0.0218,-0.0261,-0.00573,-0.0493,0.178,0.0724,0.0642,0.124,0.0387,0.00374,-0.124,-0.0803,0.0494,-0.145,-0.0316,-0.0371,-0.024,0.00308,-0.109,-0.108,0.0601,-0.105,-0.127,-0.0489,0.227,0.0253,-0.134,0.0319,-0.0894,0.104,-0.0515,-0.16,-0.0967,-0.154,0.0459,-0.0393,0.028,0.174,0.027,-0.0228,0.226,0.0629,-0.184};
float f5_2_weight[64*1*3*3] = {0.408,0.557,-0.0502,0.675,0.15,-0.495,-0.135,-0.03,-0.23,0.155,0.195,0.308,0.0784,-0.202,-0.0765,-0.384,-0.253,0.156,-0.656,0.0924,-0.618,-0.391,0.461,0.188,-0.487,0.315,-0.0378,0.405,-0.0954,0.798,-0.392,-0.0278,-0.989,-0.158,-0.371,-0.0792,-0.446,-0.193,-0.377,-0.866,0.172,0.372,-1.25,0.146,0.0477,-0.359,-0.574,-0.164,-0.222,0.912,-0.303,-0.0621,0.205,-1.27,0.156,-0.411,0.0434,0.163,0.0849,0.434,0.525,-0.117,0.135,-0.0935,0.513,0.42,-0.403,-0.0394,0.228,-0.435,0.269,-0.189,-0.595,0.248,0.142,0.715,0.316,-0.345,-0.064,-0.111,-1.43,0.0057,-0.255,-0.162,-0.394,-0.236,0.086,0.084,0.455,0.536,0.173,0.3,-0.242,0.798,-0.725,-0.194,-0.732,-0.183,-1.03,0.24,-1.01,-0.293,-0.474,0.18,-0.358,0.318,-0.959,-0.263,0.139,-0.0304,-0.506,-0.186,-0.539,1.11,-0.191,0.405,-0.0136,-0.844,-0.294,-0.862,-0.355,0.176,0.586,-0.0861,-0.543,-0.163,-0.101,0.0783,0.719,0.281,0.158,-0.292,-0.0773,0.269,-0.23,-0.426,-0.391,0.388,-0.0381,0.573,-0.0612,-0.624,-0.0273,-0.0775,-0.611,-0.121,-0.255,-0.0399,0.657,-0.353,0.147,0.101,0.0583,-0.0439,0.342,0.296,-0.16,0.506,-0.792,-0.517,-0.339,-0.0555,-0.341,0.449,-0.822,-0.266,-0.346,0.3,0.0728,0.43,-0.178,0.0296,0.0817,0.709,-0.0382,-0.268,-0.376,0.252,-0.331,-0.0102,0.0767,-0.0291,-0.835,-0.217,-0.602,0.158,1.24,-0.111,-1.59,-0.0915,-0.0542,-0.14,0.11,0.501,-0.0377,0.829,0.13,-0.719,-0.502,-0.0357,-0.329,-0.00608,0.91,0.0912,0.425,-0.101,-0.102,-1.13,0.137,-0.329,-0.323,-0.256,-1,-0.279,0.485,0.211,0.236,0.41,0.0998,0.256,-0.281,-0.211,0.0616,-0.0184,-0.459,-0.262,-0.142,0.663,-0.0571,-0.568,-0.605,-0.568,0.147,0.571,-0.263,0.489,-0.16,-0.347,-0.177,-0.206,-0.678,0.92,-0.314,-0.704,0.349,-0.619,0.333,-0.095,0.0486,0.264,-0.0298,0.823,0.176,0.618,0.789,0.04,0.00447,0.0115,0.723,1.46,0.288,-1.13,-0.169,-0.583,-0.115,0.234,0.598,0.198,1.31,-0.0462,-0.25,-0.425,0.0396,-2.49,-1.07,0.0649,-0.955,-0.461,0.212,0.145,2.21,0.619,0.168,0.234,-0.209,0.322,-0.32,-0.63,0.0731,-0.242,-0.139,0.794,0.0442,-0.969,-1.02,0.132,-1.07,0.321,-0.22,0.0224,-0.697,0.168,-0.444,-0.298,-0.189,0.509,-0.211,-0.131,0.256,-0.648,-0.0175,-1.08,-0.278,0.373,0.677,0.46,-0.57,0.222,0.371,-0.312,0.529,-0.00745,0.468,0.934,0.134,0.377,-0.178,-0.67,0.204,0.549,0.153,0.353,0.622,-0.268,-0.318,0.153,0.142,-0.715,-0.491,0.667,0.473,-0.304,0.309,0.216,0.695,-0.0312,0.722,0.316,-0.134,0.176,-0.482,-1.39,-0.134,-0.247,-0.0587,0.528,-0.369,-0.485,-0.458,0.274,-0.179,0.0726,-0.285,-0.282,-0.933,0.465,0.00644,-0.359,0.185,-0.439,-0.645,0.141,0.439,-0.253,-0.513,-0.771,-0.579,0.355,0.315,-0.118,-1.01,-0.594,0.0433,-1.19,0.112,0.371,0.33,0.291,0.28,-0.433,-0.303,-0.0096,-0.199,0.0233,0.418,0.0702,0.287,-0.137,-0.382,-0.305,0.0851,0.25,-0.194,0.39,-0.599,-0.172,0.516,0.539,-0.367,0.355,0.643,0.274,-0.338,-0.301,0.121,-0.0113,-0.12,-0.219,-0.0442,0.467,0.0621,-0.0719,0.347,-0.587,0.0667,0.693,0.103,0.533,-0.0402,0.0317,-0.0127,-0.105,-0.178,0.278,-0.318,-0.987,0.553,-0.274,0.221,0.189,0.284,0.648,0.404,0.26,0.125,1.94,0.324,0.454,-0.00845,0.00962,0.73,-0.0343,0.283,-0.285,-0.469,-0.274,-0.0152,-0.022,0.0539,0.0508,0.54,-0.00609,-0.473,-0.0581,0.117,-0.276,-0.681,0.947,-0.436,-0.187,0.219,0.693,0.111,0.53,1.42,0.23,-0.197,-0.304,0.267,0.0463,0.000364,-0.14,-0.129,0.3,-0.0203,0.108,0.665,-0.167,-0.581,-0.0135,-0.0125,1.19,-0.291,0.546,-0.787,-0.282,-0.0133,0.0817,-0.637,-0.882,0.891,-0.343,-0.265,-0.0176,-0.167,0.553,0.724,0.881,-0.338,1.44,0.135,-0.188,0.327,-0.0897,0.373,0.0928,0.366,0.166,-0.729,-0.294,0.151,0.42,-0.122,0.126,0.381,-0.129,-0.688,-0.0372,0.0482,0.14,-0.916,0.601,0.0658,-0.224,0.408,0.443,-0.134,-0.118,0.628,0.136,-0.183,0.0159,-0.167,0.0289,0.01,-0.235,-0.0258,0.105,-0.321,0.203,0.518,0.193,-0.217,-0.0814,0.0347,0.687,-0.258,0.837,-0.66,-0.455,-0.0095,-0.207,-0.57,-0.063,1.04,-0.0809,-0.465,-0.485,-0.481,0.172,0.628,0.424,-0.23,-0.468,0.0887,-1.04};
float f5_2_bias[64] = {0.0529,0.0979,0.389,-0.204,0.0795,-0.16,0.0637,-0.0462,0.227,0.148,0.245,0.259,0.128,0.135,0.0547,0.144,0.184,-0.0718,0.463,0.616,-0.566,0.44,0.0852,-0.24,-0.247,-0.245,-0.126,-0.2,0.166,0.073,0.17,-0.476,0.0492,0.0963,0.0288,0.389,0.0215,-0.343,-0.0307,0.105,0.107,-0.276,-0.00899,0.0983,0.0232,0.00693,0.305,0.18,0.167,0.0287,0.386,-0.0128,0.456,-0.139,-0.192,0.115,0.108,0.347,-0.033,-0.247,-0.303,-1.11,-0.0427,0.0203};

