// Auto generated data file
// Copyright (c) 2018-2021, Shiqi Yu, all rights reserved.
#include "facedetectcnn.h" 

float f0_weight[16* 32 * 1 * 1] = {-1.94e-05,0.000763,0.000511,0.00214,-0.000598,-0.00169,0.00146,-0.000299,-0.00168,0.000756,-0.00155,-0.00291,0.00491,-0.00173,-0.00399,0.00719,0.000833,-0.00211,0.00144,-0.000112,0.00029,0.00201,-0.00296,-0.00262,0.00258,-0.00118,-0.000751,0,0,0,0,0,1.38e-05,6.56e-05,0.000549,0.000167,-0.00138,-0.000294,-0.000205,0.000168,-0.000169,-0.000407,-0.00145,-0.000234,-0.000557,-0.00331,-0.00144,-0.000896,-0.00107,-0.00112,-0.000312,-0.000361,-0.000202,0.000274,-0.000791,-3.18e-05,3.43e-05,0.00171,0.00105,0,0,0,0,0,0.000355,-3.62e-05,0.000679,-0.000227,-0.000624,0.000127,-2.53e-05,-0.00044,0.000645,-0.0013,-0.00144,-0.000895,-0.00121,-0.00157,-0.0012,-0.000819,-0.00151,-0.000981,0.000533,0.00169,0.000192,0.00178,0.00281,0.00142,0.000677,0.00101,0.000259,0,0,0,0,0,0.00038,0.00192,0.000517,-0.000146,-0.00304,-0.000432,-6.27e-05,0.000313,0.00108,0.00121,0.00425,0.00258,-0.00216,-0.00581,-0.00246,0.000302,-0.00105,0.000824,0.00229,0.00542,0.00294,-0.00077,-0.00405,-0.00205,-0.000511,-0.000645,-0.000523,0,0,0,0,0,-0.000127,0.00041,-8.39e-05,-0.000485,-0.000197,2.02e-05,0.000622,-0.000146,6.46e-05,-0.00196,-0.00152,-0.000515,-0.00239,-0.00195,-0.000129,-0.000549,-0.000836,0.000536,0.00039,0.000452,0.000342,-0.00014,-0.000199,0.000297,-0.000491,-0.00123,-0.000482,0,0,0,0,0,-0.000137,2.06e-05,-3.63e-05,5.31e-05,0.000181,0.000186,0.000743,-0.000127,0.000472,0.000527,0.00113,0.000638,0.000485,0.001,0.000489,0.000685,8.33e-05,0.000256,-0.000327,0.000624,-9.71e-05,0.000558,0.00133,0.000453,-0.000543,-0.00106,-0.00113,0,0,0,0,0,-0.00115,0.000801,-0.001,-0.000238,0.00134,-0.000834,-0.000526,-0.000246,-0.000973,0.000192,0.00231,0.00101,-0.000105,0.00177,0.000435,-0.00032,-7.52e-05,0.000253,0.000765,0.000528,0.00112,-0.000327,-0.000729,-6.2e-05,0.00153,0.000111,0.00229,0,0,0,0,0,-0.000822,0.000119,-0.000841,0.000447,0.00116,0.000391,0.000649,0.000479,0.000474,0.000866,0.00174,0.00101,0.00118,0.0018,0.00133,0.00108,0.00086,0.00119,-0.000774,-0.000938,-0.000973,-0.00146,-0.00168,-0.00142,-0.0015,-0.00232,-0.00131,0,0,0,0,0,-0.000607,-0.00112,0.000194,-0.00138,-0.00151,0.00179,0.00171,0.000396,0.000584,-4.17e-05,-0.00129,0.00208,-0.00291,-0.00288,0.00341,0.000399,-0.00104,0.000831,5.94e-05,-0.00162,0.00163,-0.00212,-0.00247,0.00358,0.000945,-0.000575,0.00197,0,0,0,0,0,-0.000168,-0.000737,-0.000701,0.00169,-0.00134,0.000897,0.000249,-0.000321,0.000551,0.00089,-0.00369,-0.00158,0.00348,-0.00417,-0.000662,0.00292,-0.000791,0.00154,0.00144,-0.00131,-5.35e-05,0.00278,-0.00223,0.000244,0.0012,-0.000439,0.0006,0,0,0,0,0,-0.000815,0.00433,0.000649,0.000373,-0.000482,0.000879,-6.52e-05,-0.00307,-0.00175,0.00157,0.00738,0.0024,0.000137,-0.000227,0.000347,-0.00182,-0.00391,-0.00297,0.000542,0.00409,0.00115,7.62e-05,-0.00235,0.000969,-0.000714,-0.00535,-0.000853,0,0,0,0,0,0.000183,0.0018,8.84e-05,0.000271,0.0016,0.000797,0.000156,-0.00363,-0.00144,0.000619,0.00332,0.000805,0.00139,0.00244,0.00151,-0.000993,-0.00661,-0.00372,-0.000917,0.00287,0.000444,0.000741,0.00316,0.00204,-0.000714,-0.00431,-0.00261,0,0,0,0,0,-0.000356,-6.31e-05,0.000399,0.00166,-0.000228,-0.00279,0.00174,4.57e-05,-8.96e-05,0.000784,0.000698,-0.000589,0.00348,0.000304,-0.00516,0.00215,-0.000325,-0.00265,0.00123,8.36e-05,-0.0013,0.00385,0.000295,-0.00474,0.00289,0.000126,-0.00201,0,0,0,0,0,0.000486,0.000854,0.000564,-0.00118,0.000149,-0.0001,-0.000418,0.000252,-0.000344,-0.000343,0.000924,-0.00142,-0.00302,-0.00083,-0.00349,0.000335,0.00236,-0.000631,-0.00101,0.00185,-0.00105,-0.0022,0.00211,-0.000601,-0.000138,0.00434,0.00218,0,0,0,0,0,0.00133,0.00117,0.00147,0.00141,0.00233,0.00155,0.00172,0.00176,0.00167,-0.00207,-0.0029,-0.00195,-0.00236,-0.00222,-0.0025,-0.00139,-0.00234,-0.00222,0.000729,0.00102,0.000742,0.00079,0.00272,0.00132,-0.000691,-9.78e-05,-0.000837,0,0,0,0,0,-0.00216,-0.00407,-0.0026,-0.00164,-0.00253,-0.00235,0.000636,0.000808,-0.000143,0.0019,0.00199,0.00308,0.00201,0.00287,0.00245,0.000662,0.00202,0.000374,0.000351,-0.000362,0.00112,-0.000246,-0.000222,0.000327,-0.00157,-0.00116,-0.00163,0,0,0,0,0};
float f0_bias[16] = {-0.379,0.731,0.0836,0.252,0.348,-0.475,-1.55,0.305,0.191,0.262,-0.387,0.274,0.243,0.0776,0.249,-0.0153};
float f1_1_weight[16*16*1*1] = {0.238,-0.253,0.00955,-0.0856,-0.0724,0.19,0.015,-0.00775,-0.00084,-0.467,0.0251,-0.119,-0.198,0.254,0.0614,-0.0111,0.0393,-0.0176,0.132,-0.238,-0.317,-0.314,0.0344,-0.0924,-0.0897,-0.0879,-0.0261,0.365,-0.0761,-0.387,0.138,0.0677,0.0123,-0.387,0.0328,-0.0363,-0.505,0.222,-0.0366,-0.0315,-0.248,-0.323,-0.0286,-0.0676,0.138,0.162,0.0533,-0.0244,0.0027,0.423,0.278,0.11,0.195,-0.0597,0.279,0.743,0.0835,0.138,-0.0376,0.0548,0.0208,0.163,0.532,0.52,0.116,0.0233,0.118,0.244,0.204,0.0192,0.218,0.0614,0.295,-0.211,-0.212,0.275,-0.179,-0.146,-0.0217,-0.0761,0.455,-0.346,0.0123,0.304,-0.217,0.357,0.0205,0.0559,0.0697,-0.0442,-0.426,0.418,-0.652,0.139,0.0861,0.0546,-0.0557,-0.101,-0.168,0.167,-0.0776,0.00917,-0.0955,0.114,-0.326,0.265,-0.133,0.333,0.404,0.222,0.016,0.0413,0.45,-0.00796,0.0501,0.326,0.0717,0.0252,0.137,-0.0808,0.0364,-0.286,-0.329,0.352,-0.452,-0.111,-0.0679,-0.0733,0.138,-0.0687,-0.0323,0.379,-0.0108,-0.0442,0.0126,0.0767,-0.00246,-0.106,-0.516,0.405,-0.0232,-0.0553,0.00984,0.012,-0.237,-0.119,-0.0591,0.287,-0.227,0.0488,-0.0056,0.00896,-0.149,0.131,-0.432,0.371,0.237,-0.0331,-0.0205,-0.00448,-0.303,-0.514,0.221,-0.000196,-0.259,0.631,0.146,-0.12,-0.111,0.195,-0.00476,-0.0813,0.233,0.141,0.00748,0.0486,-0.0629,-0.527,0.345,0.0225,-0.507,0.597,0.184,-0.2,-0.0294,0.0165,0.0156,-0.0791,-0.0537,-0.0608,0.0247,0.00522,-0.00696,-0.224,-0.267,-0.0807,-0.0245,0.0398,-0.591,-0.133,-0.0263,-0.104,0.0978,0.0067,0.0423,-0.0524,-0.669,0.22,-0.0478,-0.308,-0.912,0.0196,-0.0378,0.088,-0.155,0.229,-0.00296,0.0323,-0.0164,0.0134,-0.0395,-0.061,0.206,-0.183,-0.255,0.102,0.0735,0.425,-0.0272,-0.0921,0.185,0.0131,-0.532,-0.0308,-0.324,0.407,0.356,-0.2,-0.0457,-0.0409,0.042,0.0629,-0.121,0.544,-0.027,0.0432,-0.0697,0.0728,0.006,-0.0839,-0.106,0.0306,0.0723,0.174,-0.0594,0.0635};
float f1_1_bias[16] = {0.19,0.141,0.0545,0.176,-0.161,-0.171,-0.325,0.0817,0.0385,-0.174,0.105,-0.129,0.481,0.663,-0.0573,0.364};
float f1_2_weight[16*1*3*3] = {-0.258,0.227,0.109,0.0305,0.374,-0.0675,-0.0631,0.313,-0.599,0.329,-0.0424,-0.691,0.0262,-0.121,-0.0529,0.186,-0.595,1.38,0.712,0.61,-0.551,-0.243,-0.499,-0.000292,-0.985,0.775,0.155,-1.38,0.257,0.604,-0.393,0.878,0.712,0.85,-0.973,0.138,-0.211,-0.0198,-0.0553,-0.166,-1.2,0.196,0.226,-1.04,0.0755,0.175,0.327,0.631,0.0142,-0.461,-0.311,0.0951,-0.213,-0.0912,0.232,0.0308,-0.0485,0.732,0.068,-0.246,0.18,0.114,0.0645,-0.442,-1.32,-1.43,2.09,0.419,2.14,-0.321,-1.72,1.29,0.0298,0.00354,0.344,0.653,0.376,0.211,1.41,-1.42,1.83,-0.821,-1.93,0.419,-1.71,-0.465,0.597,0.962,-0.0915,-1.25,0.283,0.185,0.389,0.33,0.182,-1.03,-0.208,0.048,0.24,0.0852,0.00757,-0.0802,-0.183,-0.262,0.373,-0.179,0.0214,0.567,0.199,0.0164,0.108,0.0399,-0.426,0.0317,0.207,-0.0848,0.371,-0.131,-0.078,-0.904,0.463,-1.36,0.156,0.969,0.151,-0.143,-0.312,0.115,0.175,0.0362,-0.245,0.0227,0.0168,-0.31,0.25,0.181,0.428,-0.404,0.131,0.953,0.148,-0.0608,0.0105,0.153};
float f1_2_bias[16] = {-0.024,-0.0182,-0.0318,-1.23,-0.0316,0.684,-0.173,-0.0556,0.312,-0.0304,0.511,0.0818,0.227,0.247,-0.0219,0.474};

float f2_1_weight[16*16*1*1] = {-0.0354,0.0511,-0.0281,-0.0647,0.103,-0.301,-0.0128,0.303,0.289,0.06,-0.283,-0.0173,0.187,0.204,0.378,-0.125,-0.0155,0.0332,0.00736,0.126,0.00363,-0.123,-0.0412,-0.0908,0.24,-0.189,-0.0542,0.0919,-0.0129,0.836,0.0423,0.145,-0.0251,0.0475,-0.0352,0.0506,0.00596,0.219,0.0326,0.0226,0.116,-0.0326,0.258,1.05,0.0789,0.107,-0.0731,0.0293,0.0675,0.0622,0.00527,-0.0103,-0.0137,0.2,0.0105,0.0824,-0.0169,0.116,-0.74,0.0824,-0.0516,0.163,0.0459,0.0227,-0.0639,0.265,-0.0115,-0.0329,0.0631,-0.0369,0.00391,0.205,0.307,0.143,0.246,0.0587,-0.255,-0.141,0.185,0.213,-0.201,-0.0244,-0.136,-0.0124,-0.0318,-0.335,-0.0512,-0.0716,-0.122,-0.206,0.497,-0.0478,-0.103,-0.0731,-0.053,-0.0784,-0.0254,0.0671,-0.0189,0.254,0.0342,-0.147,0.0752,0.0517,0.218,0.0532,0.288,0.261,-0.108,0.324,0.0728,0.0835,0.369,0.411,0.322,-0.116,-0.0835,-0.289,0.426,-0.177,-0.128,0.303,-0.157,-0.0128,-0.0471,-0.185,0.464,0.308,0.00499,-0.0461,-0.0067,0.966,0.0279,-0.0109,0.0019,0.023,-0.215,0.103,0.00859,-0.0202,0.593,0.794,-0.00757,-0.109,-0.0587,-0.0215,-0.388,-0.0666,-0.168,-0.582,0.192,0.176,0.0697,0.0663,-0.522,0.175,-0.067,-0.18,-0.32,0.00212,-0.175,-0.257,-0.124,0.0138,-0.72,-0.207,0.347,-0.742,-0.0609,0.53,-0.0397,0.0269,0.0587,0.0983,0.577,-0.226,0.0211,0.00829,0.00947,0.00663,0.0265,-0.0401,0.114,0.0319,0.0283,-0.0439,0.679,-0.00597,0.0903,0.19,0.0346,-0.0144,0.548,-0.345,0.558,0.0347,0.368,0.21,0.578,-0.146,-0.243,0.0443,0.202,-0.286,0.0229,0.119,-0.0699,-0.306,0.0299,0.0606,0.0675,0.035,0.115,0.831,-0.0501,0.0911,-0.0168,0.068,0.388,0.192,-0.0307,0.219,-0.0236,-0.0294,0.0111,0.0225,0.0121,0.362,0.0127,-0.0468,0.0159,0.0311,-0.0193,-0.007,0.274,0.0112,-0.77,-0.368,0.0547,-0.00497,0.378,-0.561,0.326,-0.11,0.11,0.0495,0.252,-0.22,-0.322,-0.184,0.116,-0.252,-0.00337,-0.0166,-0.157,-0.534};
float f2_1_bias[16] = {0.193,-0.256,0.0457,0.125,-0.2,0.144,-0.608,-0.264,-0.6,0.131,0.0819,-0.884,-0.123,-0.267,0.325,0.135};
float f2_2_weight[16*1*3*3] = {-0.125,-0.153,-0.0351,0.242,-0.427,0.197,0.0399,0.0135,-0.0489,0.0447,-0.0701,-0.178,-0.0198,0.0828,0.00161,0.0268,0.0223,0.43,0.0576,-0.0716,0.0612,0.657,-0.455,0.0759,0.138,0.132,-0.114,-1.05,-0.147,-0.19,-0.866,0.0329,-0.0349,-0.0635,-0.0879,-0.4,0.222,0.0653,-0.0381,0.0502,-0.0493,-0.0397,-0.0603,-0.0181,-0.0261,0.0874,0.185,0.00878,-0.077,0.121,0.0114,0.488,-0.598,-0.0357,0.14,-0.074,0.216,-0.113,-0.0607,-0.802,-0.0587,-0.285,-0.343,-0.0219,-0.956,-1.15,-1.46,1.09,0.0482,0.463,-1.42,0.804,-1.24,1.64,-0.668,0.672,-0.888,1.44,-0.504,0.831,0.0757,0.125,0.0391,-0.846,0.504,-0.0982,0.297,-0.106,0.236,0.00723,0.00308,-0.0258,-0.0416,-0.195,-0.181,-0.0552,-0.014,0.0478,-0.102,0.0594,-0.268,-0.214,0.138,0.0208,0.00137,-0.0356,-0.011,0.171,-0.0159,0.0745,0.232,0.0683,0.294,-0.235,0.0272,-0.0565,0.0801,-0.783,1.16,-0.000446,-0.0596,0.0767,-0.0798,1.23,-0.0162,-0.0629,1.29,0.116,-0.0944,0.0375,-0.0603,-0.316,0.397,-0.0983,-0.177,0.025,0.0214,0.00646,-0.035,0.0251,-0.0405,0.0805,0.105,0.0655};
float f2_2_bias[16] = {0.692,0.687,1.4,0.3,0.251,0.306,0.655,0.819,0.782,1.95,0.481,0.495,0.923,-0.842,0.367,0.54};

float f3_1_weight[64*16*1*1] = {0.0298,-0.0602,-0.0595,-0.189,-0.0355,0.0262,0.11,0.165,0.105,-0.0164,-0.33,-0.0829,0.344,-0.12,0.00132,-0.0632,0.105,-0.0786,-0.111,-0.0663,-0.0106,-0.15,0.0909,-0.117,0.0697,-0.048,-0.0588,-0.0106,-0.0929,0.436,0.0501,0.0627,0.0515,0.00658,-0.267,0.147,0.0294,-0.215,0.073,0.0921,-0.101,0.372,-0.0485,0.0473,-0.137,-0.0719,-0.00581,0.141,-0.0203,0.0958,-0.00711,-0.0734,0.118,0.0377,-0.207,0.0802,0.00278,0.101,-0.359,0.201,-0.192,0.026,0.0344,0.137,0.0746,-0.0161,-0.338,0.247,-0.041,-0.19,-0.0371,-0.152,0.18,0.167,0.131,0.208,0.131,-0.38,-0.00884,-0.297,0.0173,0.447,-0.0283,-0.0166,0.0312,0.0361,0.0813,0.00721,0.548,-0.0203,0.0283,0.0142,0.00808,-0.16,-0.065,-0.0833,-0.0103,-0.0887,0.0278,0.0487,-0.0962,-0.204,-0.139,0.0142,-0.218,0.171,-0.31,-0.0277,-0.208,0.13,0.113,0.21,-0.0921,0.0502,0.158,0.0495,0.0462,0.0627,-0.0429,0.154,0.0505,-0.0479,-0.664,0.161,0.0482,-0.0113,-0.0012,0.0353,0.019,0.112,0.265,-0.0659,-0.176,0.0377,0.208,0.218,-0.052,-0.014,-0.0109,-0.0466,-0.363,-0.228,-0.111,0.00219,-0.00757,0.247,-0.0916,-0.00929,-0.0318,0.202,0.122,-0.22,0.115,0.0598,-0.139,0.195,-0.209,0.0313,0.0356,0.229,0.0441,-0.0126,-0.244,0.323,0.00613,-0.134,-0.182,0.139,-0.00344,0.338,-0.0011,0.558,-0.0769,-0.212,0.0886,0.0455,0.0387,-0.0293,-0.107,-0.123,-0.0138,0.0536,0.31,-0.0528,0.0913,-0.027,-0.0661,0.693,-0.0158,0.104,0.0598,-0.0954,-0.000437,0.0862,-0.138,-0.0649,-0.0973,-0.0752,0.378,0.0426,-0.0163,-0.0771,-0.0858,-0.203,-0.0953,0.0429,-0.0965,0.0915,-0.144,-0.385,0.0245,0.022,0.00404,0.18,0.00287,0.274,-0.204,-0.0472,0.105,0.0438,-0.106,0.127,0.0327,-0.301,-0.0113,0.169,0.0244,0.0887,0.119,-0.0491,-0.159,-0.446,0.0881,0.351,-0.196,0.0309,0.109,0.0906,0.0667,0.268,-0.0649,0.0879,-0.0645,-0.002,0.0656,-0.0916,-0.304,0.00178,0.0666,0.0748,-0.449,0.209,0.0743,-0.0902,0.106,0.00344,0.124,-0.0659,-0.000106,-0.123,-0.194,-0.195,-0.188,-0.125,-0.0502,-0.158,0.185,0.119,-0.0233,0.414,0.145,0.28,-0.06,0.0471,0.058,-0.00549,0.143,-0.25,0.0435,-0.324,-0.0233,0.112,0.365,-0.132,-0.0186,0.0962,-0.055,-0.0695,0.0246,-0.161,-0.0342,-0.0743,0.289,0.189,0.215,0.196,-0.104,0.0887,-0.0514,-0.173,0.285,-0.0818,-0.159,-0.342,-0.142,-0.00462,0.23,0.48,-0.241,0.443,-0.0768,-0.0555,-0.0129,0.143,0.23,0.136,-0.039,-0.0149,0.131,0.012,0.027,-0.0471,0.0484,0.148,0.0865,-0.155,0.0492,0.0721,-0.0188,-0.0313,0.0418,-0.35,0.0961,-0.0658,-0.00954,-0.116,0.139,-0.0688,0.0554,-0.0745,0.0733,0.0483,0.00712,-0.182,0.203,0.0356,-0.264,-0.0649,0.355,0.0577,0.000402,-0.227,-0.234,0.11,0.0602,0.0628,0.00335,0.276,0.131,0.111,-0.086,-0.0278,-0.27,-0.138,0.338,0.161,-0.0573,-0.101,0.407,0.121,-0.363,-0.086,-0.218,-0.172,-0.0764,-0.102,0.0643,-0.0472,-0.0481,0.0666,-0.105,0.0224,0.146,0.169,-0.13,0.131,-0.0192,-0.132,0.0995,-0.0339,-0.173,-0.0831,0.265,-0.089,0.0831,0.153,0.00509,-0.333,-0.0372,-0.0327,0.255,-0.205,-0.102,-0.137,0.101,-0.0611,-0.167,0.00425,-0.041,-0.00446,-0.253,-0.122,0.0903,0.0417,0.0695,0.127,-0.29,0.0779,-0.026,-0.0491,-0.0498,0.18,-0.0274,0.00149,-0.12,-0.0663,0.566,0.0498,0.082,-0.2,0.0218,-0.0823,-0.108,-0.203,-0.0373,0.136,-0.034,-0.0689,-0.0493,0.267,-0.0982,-0.0376,0.125,-0.0364,-0.356,0.134,-0.0593,0.102,-0.169,-0.099,0.0949,0.319,0.00936,-0.0374,0.058,0.00879,-0.0738,0.333,0.106,-0.0898,-0.0165,0.0297,0.0127,0.057,-0.164,0.00802,0.167,0.353,0.276,-0.0828,-0.284,-0.00998,0.0182,0.312,0.0136,0.0669,-0.1,-0.31,0.000614,-0.0369,-0.238,0.0348,0.133,-0.171,0.0516,0.103,-0.00785,0.138,-0.0696,-0.0967,-0.264,0.0377,0.0621,0.177,0.00939,-0.147,-0.0186,-0.385,0.0389,-0.0614,-0.00573,0.0414,0.00217,0.0163,-0.541,-0.0486,0.000742,0.0437,0.00945,-0.0962,-0.0331,0.00479,-0.252,0.11,0.27,0.195,0.0239,-0.0629,-0.0356,0.0661,-0.222,-0.0702,0.255,-0.137,-0.0258,0.137,-0.0579,-0.159,0.0616,-0.285,-0.0101,-0.0377,-0.000622,-0.00897,0.0136,0.0831,-0.69,-0.0764,0.0444,-0.0833,0.0219,-0.159,-0.0419,0.0186,0.00655,0.0904,0.0819,0.0415,0.0359,0.173,0.0239,-0.0661,-0.291,0.231,-0.106,0.198,0.133,0.438,0.119,0.0427,-0.0654,-0.0114,0.00259,-0.0171,0.231,-0.151,-0.131,0.633,-0.00137,0.03,-0.454,0.107,-0.133,-0.0949,-0.0488,-0.0941,0.0735,0.421,-0.06,-0.128,0.0587,-0.00956,0.096,0.0212,0.544,0.0214,0.052,0.0125,0.0523,-0.141,-0.0795,-0.0731,0.0951,0.148,-0.0155,-0.0359,-0.104,-0.0585,-0.062,-0.196,-0.038,-0.0855,-0.043,0.162,0.285,0.0182,0.0677,-0.233,0.216,0.0183,-0.158,0.167,0.0401,0.0041,0.0993,-0.368,0.0978,0.117,0.171,0.0175,-0.131,0.0435,0.0685,0.337,-0.117,0.218,0.156,-0.116,0.154,-0.0335,0.171,-0.346,0.0795,0.000955,0.0176,-0.0302,0.114,-0.275,-0.0285,0.183,-0.000868,0.263,0.0754,0.17,-0.0283,0.0334,0.0775,0.335,-0.204,-0.0376,0.0901,-0.0366,0.0238,-0.0794,-0.00288,-0.0142,-0.1,-0.019,0.0944,0.0428,-0.0192,-0.0119,0.0564,0.102,0.778,0.011,0.0391,0.00601,-0.022,0.112,-0.0612,-0.0226,-0.0573,-0.00297,0.0479,0.0413,-0.0353,0.109,-0.00149,-0.0469,-0.274,0.00541,-0.0307,-0.043,0.0135,0.0806,0.869,-0.0624,0.0374,0.205,0.0896,0.0287,-0.12,0.0589,0.0742,-0.178,0.039,0.141,-0.241,0.0147,0.311,-0.262,-0.0549,0.134,-0.208,0.0789,0.236,0.0931,-0.0467,0.0453,-0.4,-0.112,0.0829,-0.106,-0.0859,-0.392,0.0667,-0.0318,0.0903,0.141,0.0814,0.417,0.0225,-0.169,0.148,-0.0873,0.167,-0.0328,0.102,-0.0667,0.0208,-0.0213,-0.141,-0.138,-0.0304,0.262,0.082,-0.254,-0.186,0.0286,-0.0477,0.0658,-0.187,-0.0743,0.112,0.0609,0.114,0.135,0.155,0.119,0.15,-0.12,-0.136,0.0962,0.0845,0.00215,-0.184,0.148,-0.131,0.0195,-0.0328,0.296,0.186,0.031,-0.255,-0.0759,-0.00741,0.13,0.234,-0.154,-0.176,0.0621,0.0554,-0.296,-0.087,0.224,-0.0885,0.0489,0.166,-0.0614,-0.000549,0.127,0.043,-0.191,-0.117,0.213,0.136,-0.103,-0.084,0.148,0.0706,-0.271,0.308,-0.0357,0.00205,0.0232,0.246,-0.136,-0.0266,-0.0737,-0.0283,-0.138,-0.00306,0.0613,0.253,0.142,-0.245,0.268,-0.0183,0.0909,0.125,0.148,-0.221,0.132,0.0978,-0.155,0.264,-0.118,-0.0874,0.0236,-0.00238,-0.193,0.269,-0.0679,-0.208,-0.0123,-0.113,0.0158,0.184,-0.167,-0.0388,0.323,0.048,-0.0142,0.00134,0.146,0.0019,-0.0965,0.0116,-0.65,-0.0452,-0.0229,0.486,-0.135,0.114,0.0699,-0.0582,0.0178,0.117,0.0792,-0.058,0.123,0.123,-0.0627,0.153,0.0404,-0.0418,0.125,-0.082,-0.121,-0.437,0.0812,-0.00492,0.437,0.118,-0.0362,0.0793,0.527,-0.149,0.00642,-0.267,0.136,-0.145,0.271,0.0277,0.0825,-0.194,-0.0618,0.0322,0.187,-0.0496,0.0102,0.0103,0.0356,-0.113,0.258,0.404,0.0958,-0.172,0.0227,0.0126,0.228,0.0498,0.078,-0.0186,-0.2,0.00584,-0.184,-0.0224,-0.124,0.372,0.0199,0.0235,0.568,-0.115,0.154,0.0449,0.00221,-0.0561,-0.0779,-0.0248,-0.249,-0.376,-0.109,0.299,-0.0444,-0.0634,0.0966,0.0662,-0.112,0.0232,0.0246,-0.0877,0.0849,-0.026,-0.0605,-0.0372,-0.0142,-0.0464,0.00577,-0.0577,0.00926,0.000631,-0.0211,0.0595,-0.028,-0.109,-0.0516,0.0553,0.0601,-0.441,0.139,-0.0119,0.315,-0.0303,-0.0188,0.0379,-0.00991,-0.0667,-0.0118,0.012,0.0174,-0.0696,-0.00225,0.0142,0.09,0.0673,0.0876,-0.65,0.0111,0.0537,-0.0324,-0.105,-0.00832,0.0364,-0.0576,0.186,-0.0801,-0.122,-0.0827,-0.0806,-0.0941,0.25,-0.315,-0.00483,0.0333,0.236,-0.103,0.0152,-0.204,0.278,-0.00254,-0.192,-0.148,0.0776,-0.0208,-0.14,0.0432,-0.311,0.0854,0.00845,0.397,-0.138,0.0124,0.358,0.222,-0.0357,0.0871,-0.0264,-0.0615,-0.0864,0.253,0.0504,-0.073,-0.0807,-0.108,0.0546,0.0797,-0.0809,-0.466,-0.0381,0.0201,-0.00538,0.0544,0.00857,0.0116,-0.526,-0.0684,0.0105,0.0629,0.0309,0.031,0.00233,0.0212};
float f3_1_bias[64] = {0.134,0.0111,-0.0173,0.145,0.0462,-0.292,0.177,0.17,-0.101,-0.176,-0.0614,0.0378,-0.00733,0.075,-0.0682,0.297,0.137,-0.259,0.0591,-0.264,-0.047,0.201,0.0468,-0.0927,0.0161,0.186,0.0952,-0.252,-0.0471,0.0408,0.0963,0.316,0.144,0.111,-0.103,0.177,-0.246,-0.241,-0.128,0.084,0.118,0.128,-0.0448,0.071,0.147,-0.0795,-0.0374,0.0458,-0.118,0.0607,-0.344,-0.189,-0.00609,-0.0226,0.0868,-0.158,-0.024,0.205,-0.103,-0.0563,0.192,-0.0771,-0.0827,0.253};
float f3_2_weight[64*1*3*3] = {0.752,0.297,-0.949,0.508,-0.107,1.13,-0.36,0.22,-0.00541,-0.00169,-0.046,0.0393,-0.107,0.308,0.467,-1.49,-0.248,-0.222,0.0996,-0.51,-0.58,-1.04,-0.303,0.346,-1.05,1.03,-0.136,-1.63,-0.461,0.192,-0.594,-0.183,0.671,0.59,0.103,-0.27,-0.155,-0.413,0.0962,-0.419,-0.127,-0.231,-0.228,-0.385,0.403,-0.258,0.492,-0.434,0.429,0.324,0.342,0.595,-0.0701,0.332,-0.112,0.138,0.284,0.233,-0.331,0.0372,-0.227,-0.724,0.449,0.675,-0.973,0.141,-0.0707,0.881,0.572,0.942,-0.253,1.24,-0.0467,0.868,-0.557,0.245,-1.36,-0.284,1.65,-0.312,-0.543,0.261,-0.182,-0.107,1.93,0.873,-0.198,1.22,0.255,1.7,0.415,-0.671,0.217,-0.0982,-2.01,0.606,-0.0728,1.17,-0.364,-1.19,1.33,-2.19,-0.417,-0.505,0.957,-0.076,0.442,-0.405,-1.09,-0.922,-0.0133,0.613,0.834,2.15,0.174,2,-0.293,1.51,-0.561,0.0224,-1.55,0.546,-0.396,-0.856,-2.4,0.233,1.38,0.0537,-0.0303,-1.04,0.939,-1.12,0.223,-0.273,0.214,0.284,-0.0533,-0.187,-0.106,0.111,2.68,-0.0783,0.0479,0.196,0.255,0.657,-0.294,-0.0926,-0.317,0.885,0.239,0.495,0.225,0.449,0.603,0.147,0.107,0.0862,-0.236,0.654,-0.116,0.221,-0.13,-0.285,1.42,-0.79,-0.678,-0.288,0.102,-0.189,-0.106,-0.364,-0.0408,-0.185,-0.954,-0.151,-0.247,0.852,0.213,0.914,-0.171,-0.0531,-0.329,0.127,-0.962,-0.196,0.338,-0.203,3.06,0.179,-0.566,-0.58,1.08,-0.936,-1.55,1.37,-0.293,1.17,-0.221,0.287,0.67,-0.524,-0.229,0.0558,-0.31,-0.21,0.637,2.18,0.326,-0.211,-0.475,-0.612,-1.69,-0.203,1.42,0.341,-1.69,-0.182,0.114,-0.666,-1.31,0.364,-1.12,-0.792,0.583,0.722,0.144,-0.222,-0.526,0.961,0.00795,2.8,-0.516,0.269,0.146,0.214,-0.225,-0.427,-0.728,-2.3,1.92,-1.32,0.284,-0.00913,-0.0796,-0.155,0.387,0.416,1.05,-0.774,0.431,0.217,-0.0419,-0.168,-0.671,1.5,0.113,2.6,2.33,0.253,0.978,-0.384,0.274,0.309,-0.34,0.521,-1.03,1.28,-0.649,-2.93,-1.04,0.958,-1.16,-0.424,0.981,0.376,2.3,0.0555,0.751,-0.514,1.36,-2.98,-1.72,0.707,0.878,0.887,2.87,0.463,1.23,0.564,-2.18,-0.252,-1.02,2.63,0.0472,-0.42,-2.86,1.22,-1.6,-0.458,2.42,-0.85,-2.08,2.04,-3.1,-0.781,0.813,-1.26,0.559,0.218,-1.4,0.692,0.447,-2.42,-1.12,-1.56,-0.623,1.33,0.92,0.429,-1.46,-0.0151,-0.414,-1.12,-0.0368,-0.709,-0.396,0.0371,-0.593,-0.688,0.0323,0.241,0.849,-0.146,-1.02,-0.397,-0.0361,-0.32,-0.353,-0.1,-2.11,0.587,0.2,0.145,0.124,0.675,-0.729,0.15,0.833,0.122,1.4,1.41,0.221,0.259,-0.131,0.0148,1.13,0.726,-0.431,-0.249,-0.948,0.328,-0.111,-0.803,0.297,0.23,2.58,-0.649,-0.501,-0.659,-0.935,-0.604,0.0431,-0.0128,0.223,0.129,-0.486,-0.455,0.92,0.354,2.54,0.821,1.83,-1.6,0.337,-0.567,0.212,-0.251,0.494,-0.238,-0.252,-0.261,0.127,0.0372,-0.379,0.0209,-0.0168,0.861,0.223,1,-0.132,1.45,-0.203,-0.336,0.459,-0.525,0.601,-0.159,-1.32,-0.237,-0.0411,0.531,-1.31,-0.0241,0.566,-1.31,-0.303,-0.702,0.669,0.0708,-0.247,-0.511,0.256,0.483,0.465,-0.197,0.27,0.279,0.105,0.133,-0.338,-0.72,0.481,-0.0451,-0.154,0.326,0.00898,-0.319,0.0975,0.00753,0.0984,0.5,0.453,-0.162,-0.577,-0.109,-0.128,0.229,0.581,0.115,0.447,-1.03,-0.167,-1.51,0.821,-0.2,1.4,-1.5,0.0521,-0.15,-0.165,0.916,0.0601,-0.697,0.145,0.45,-1.43,-0.908,-0.298,0.158,-0.431,-0.0555,1.46,-0.223,-0.0695,0.887,0.124,0.898,-0.0529,-0.925,-2.58,-1.9,1.25,0.152,-1.37,0.342,1.65,-0.254,1.32,0.35,-0.64,2.59,0.336,1.92,0.0778,-0.026,-0.762,-0.289,-0.159,-0.445,1.11,-0.0947,0.00751,-2.32,0.146,1.27,-1.49,0.07,-0.967,0.417,-1.43,0.164,0.19,0.371,0.0306,0.562,-0.103,-0.437,-1.18,0.0657,0.359,0.137,-0.0278,0.126,0.123,0.911,0.106,0.108,-0.533,-0.519,-0.508,-0.764,0.118,0.0256,0.0442,-0.311,-0.0215,-0.156,-0.246,0.145,0.345,0.00414,-0.976,0.45,-0.174,-0.733,0.108,0.117,-0.839,-0.234,0.144,-0.0842,0.717,-0.307,0.134,0.0759,0.0941,0.174,0.591,0.153,0.124,-0.202,-1.56,-0.255,0.956,-0.12,-0.17,-0.309,-0.154,1.2,0.504,-0.195,1.13,0.0551,-0.146,-0.84};
float f3_2_bias[64] = {0.115,-0.0894,-0.083,0.207,0.165,0.0163,0.142,0.129,0.322,0.206,0.552,-0.976,-0.0159,-0.0156,0.174,0.0652,0.752,0.726,0.0974,0.304,-0.031,0.0448,-0.123,0.105,-0.1,-0.0191,0.459,-0.0541,0.0218,0.183,-0.0283,0.0352,0.138,-0.0141,0.411,0.17,0.0534,0.11,0.0149,-0.221,0.369,-0.46,0.248,-0.0929,0.496,0.154,-0.05,0.0822,-0.0755,0.019,-0.0511,0.0447,0.0685,-0.0671,0.541,0.321,0.181,-0.00551,0.405,-0.565,-0.615,0.169,-0.089,-0.0249};

float f4_1_weight[64*64*1*1] = {-0.165,0.0607,-0.0837,-0.0652,0.0338,0.0107,0.0415,0.102,0.164,-0.125,0.143,0.00394,0.0105,0.0152,-0.01,-0.134,-0.193,-0.0595,0.1,-0.159,-0.0619,0.0909,0.0743,-0.148,0.0619,0.0758,0.00145,0.101,0.0758,0.342,-0.0388,0.0954,-0.034,-0.0711,0.0678,0.0504,0.0151,0.0479,0.0925,0.0818,0.0319,-0.0503,-0.00912,0.166,0.0554,0.0192,-0.085,-0.158,0.0453,-0.0171,0.0125,-0.00913,0.107,0.0186,0.293,0.0719,-0.0334,0.05,-0.0442,0.0214,-0.0124,-0.0983,0.0135,0.0439,-0.0707,0.0374,-0.0338,0.145,-0.221,-0.174,-0.00643,-0.0162,-0.0608,0.038,-0.000915,0.0272,-0.162,0.0311,0.0619,0.136,0.0372,-0.227,0.0264,-0.152,-0.0355,0.0441,-0.0754,0.0469,-0.049,0.18,-0.023,0.317,-0.137,-0.0134,0.0175,0.108,-0.0885,0.3,-0.129,0.0882,0.00823,0.0697,0.01,-0.00459,0.195,0.0403,-0.131,0.177,-0.0824,0.259,-0.0885,-0.0575,0.0298,0.282,-0.00644,0.251,-0.0917,-0.0282,-0.0227,0.126,0.0928,0.109,0.0974,0.0928,-0.0281,0.0218,0.167,-0.23,-0.0277,-0.0227,0.0618,0.0189,0.0908,0.209,-0.0921,-0.0829,-0.179,-0.135,0.294,0.33,0.0388,0.0169,0.108,-0.0327,-0.0253,-0.132,-0.0255,0.128,-0.116,0.0907,-0.0471,0.0909,0.0157,-0.0125,-0.0232,0.0511,0.176,0.262,-0.0459,0.156,0.0484,0.341,-0.078,0.00976,0.0882,0.0254,-0.0238,-0.0302,-0.0278,0.0845,0.0906,-0.0143,-0.0445,0.124,-0.0797,-0.0894,-0.0655,-0.0266,0.117,0.0838,-0.0274,0.0496,-0.0675,-0.0645,0.00351,-0.00528,-0.00161,0.34,0.00943,-0.0308,-0.0763,0.257,0.0697,0.0619,-0.076,-0.0706,-0.156,-0.206,0.00453,-0.266,0.0877,-0.108,-0.198,-0.132,0.118,0.0471,-0.0224,-0.03,-0.00304,0.043,-0.12,-0.0433,-0.00516,0.0999,0.00105,-0.0603,0.0689,-0.0467,0.055,-0.111,0.109,0.146,-0.165,0.281,-0.102,-0.157,0.0495,0.139,0.166,-0.111,0.012,-0.0606,-0.169,0.103,-0.0724,-0.0555,-0.183,-0.0537,-0.0583,0.0966,-0.102,-0.0106,0.0102,-0.117,0.0124,0.0991,0.26,-0.0904,0.0546,-0.134,-0.0425,-0.0986,0.00876,0.194,-0.00304,-0.0718,-0.131,0.107,0.0503,0.196,-0.271,-0.0386,0.0129,0.168,0.138,0.0413,0.123,0.102,0.0889,-0.0256,0.0461,0.0372,-0.155,0.0239,-0.0112,0.0631,-0.0165,0.0161,-0.111,0.143,0.0948,-0.187,-0.123,0.0453,0.0956,0.161,-0.0434,0.159,-0.0652,0.0222,0.0406,-0.109,-0.063,-0.0718,0.17,0.0474,-0.101,-0.0598,0.0438,0.124,-0.0822,-0.0307,-0.0446,-0.0226,-0.0498,-0.108,-0.113,-0.0199,0.0822,0.00493,0.399,0.0933,-0.0416,0.0508,-0.0366,-0.0718,0.0622,0.0455,0.038,-0.0586,-0.18,-0.196,0.088,0.183,-0.0584,0.0603,0.164,-0.0113,0.0896,0.0502,0.162,0.00596,0.00133,-0.294,0.102,-0.117,0.0326,0.00354,-0.0188,0.0245,0.043,-0.02,-0.264,-0.0608,-0.00474,0.0184,-0.0619,0.283,-0.0177,0.154,-0.161,0.0122,-0.157,-0.0562,0.0783,-0.191,-0.239,-0.159,-0.124,0.125,-0.214,-0.00519,0.0886,-0.187,0.0155,0.0231,-0.228,0.0508,-0.077,-0.12,0.0279,0.0486,-0.114,-0.0245,0.0413,-0.0283,-0.0526,-0.0979,-0.0279,0.0931,0.126,0.0171,-0.239,0.177,0.103,-0.000237,-0.0543,0.0148,0.224,0.0482,0.0777,-0.0432,-0.243,-0.00785,-0.126,-0.0904,0.158,-0.292,0.0178,-0.0589,-0.0681,0.0546,-0.0698,0.106,0.0433,-0.00485,0.31,0.0903,0.0367,0.0702,-0.0408,0.0798,0.0182,-0.0388,-0.0396,0.0759,0.281,0.0369,-0.145,-0.101,0.0701,-0.0262,-0.131,-0.0589,0.156,0.133,-0.0443,-0.214,-0.119,-0.0562,0.0578,-0.053,-0.246,-0.0282,0.146,0.123,-0.123,-0.000296,0.0374,-0.0439,0.145,0.369,0.0241,-0.0404,0.0384,-0.0475,-0.0113,-0.0809,0.0119,-0.0106,-0.287,0.0497,-0.00912,-0.282,-0.00623,0.0987,0.144,-0.134,0.0762,0.183,-0.144,-0.0246,-0.0506,0.0324,-0.0409,-0.0106,0.292,0.115,-0.134,-0.124,-0.0336,-0.0971,-0.199,0.00204,0.0995,-0.132,0.107,0.0744,-0.0786,0.056,-0.139,-0.0324,0.275,-0.0731,-0.0387,-0.0946,0.0734,-0.228,-0.126,-0.0212,-0.268,-0.168,-0.0775,-0.109,-0.0188,-0.194,0.1,0.0247,-0.132,-0.134,-0.043,-0.0573,0.132,-0.00319,-0.154,-0.0098,0.181,-0.0541,-0.137,-0.134,0.164,-0.115,-0.014,-0.105,0.0902,0.127,0.128,0.0738,-0.227,0.171,-0.148,-0.0544,-0.0498,0.00952,-0.187,0.0892,-0.0261,0.0959,0.108,-0.0994,0.0174,-0.125,-0.0531,0.22,0.0497,0.174,0.0141,-0.0787,0.0679,0.0121,-0.0623,-0.13,-0.0642,-0.0718,0.0382,0.0386,-0.155,-0.263,-0.142,0.0219,-0.124,0.0388,0.0478,-0.14,0.00563,-0.0504,-0.0174,-0.0239,0.0966,-0.128,0.167,-0.0736,0.044,-0.103,0.0226,-0.132,0.0346,-0.0343,-0.08,-0.0965,-0.0629,0.0108,0.111,0.00863,-0.0113,0.117,0.103,0.164,0.0419,0.0272,0.0818,0.144,0.0876,0.157,0.0306,0.157,0.0148,0.35,-0.159,0.118,-0.0835,0.0106,-0.0377,-0.122,-0.075,-0.0409,-0.00184,-0.0401,0.214,-0.0145,-0.113,-0.0565,-0.0278,-0.0571,-0.0273,-0.0579,0.0368,-0.0765,0.0483,0.254,-0.085,0.127,0.313,0.267,0.115,-0.177,-0.0901,-0.0686,0.246,0.0804,0.291,0.28,-0.128,0.0267,-0.19,0.0899,-0.0584,0.0975,0.104,-0.127,-0.0974,-0.221,0.0257,-0.0502,-0.00568,0.166,-0.0942,-0.0195,0.0322,-0.231,-0.0649,0.0718,0.058,-0.188,-0.214,0.00181,0.0104,-0.0188,-0.119,0.0244,0.0322,-0.0534,-0.0585,0.0676,0.0632,0.184,-0.16,0.154,-0.2,0.042,-0.0774,-0.131,0.167,0.104,0.0262,-0.0791,0.167,-0.0204,0.0574,0.0888,-0.015,-0.0728,-0.125,-0.0189,-0.00292,0.0938,-0.0442,-0.0964,-0.121,0.00214,-0.184,0.0826,-0.073,0.0955,-0.12,0.306,-0.0308,-0.0703,-0.0593,-0.221,-0.202,-0.0671,-0.177,-0.00849,0.15,0.127,-0.00433,-0.0596,-0.109,-0.0982,-0.095,0.00263,0.0316,-0.0438,-0.0887,-0.0165,-0.0523,-0.0374,-0.145,-0.0632,0.0139,0.0606,0.0381,0.223,-0.137,-0.0151,-0.102,-0.034,0.0443,-0.0407,-0.366,-0.0314,0.207,0.00373,0.0721,0.0514,-0.022,-0.289,-0.00414,-0.0647,0.106,0.0302,-0.143,0.144,-0.0117,0.0342,0.074,-0.106,-0.0494,-0.208,-0.0096,-0.0147,-0.0354,-0.0122,-0.0743,-0.069,0.0315,0.00949,0.0834,-0.105,0.0516,0.124,-0.0143,0.0929,0.00936,-0.135,0.0102,-0.013,0.144,-0.112,-0.0119,0.0138,-0.177,-0.0714,-0.0945,0.115,-0.0103,-0.0218,-0.0681,-0.0292,-0.026,-0.115,-0.112,-0.00139,-0.255,-0.101,0.188,-0.147,-0.0681,-0.0688,0.087,-0.103,0.127,-0.14,-0.0436,0.0382,-0.0736,-0.0308,-0.00216,-0.0195,-0.193,-0.0559,0.0971,-0.191,0.00642,-0.0799,0.114,0.033,-0.217,0.109,-0.202,-0.177,0.206,-0.152,-0.13,-0.134,-0.118,-0.0981,-0.144,0.289,0.0287,-0.0102,-0.203,0.0419,-0.0658,0.0255,-0.0608,-0.00172,0.0237,-0.0313,-0.0858,-0.0863,0.00285,-0.282,0.108,-0.156,0.0244,-0.0278,0.0513,-0.0343,-0.145,0.167,-0.0422,0.0473,-0.0734,-0.168,-0.0175,0.0572,0.137,0.0865,0.00809,0.123,-0.142,0.21,-0.114,-0.143,-0.0153,0.0132,-0.0508,-0.159,0.12,0.0834,0.0196,0.0711,0.0373,-0.0984,-0.0289,-0.0317,-0.043,-0.0926,-0.121,0.0441,-0.1,0.181,-0.112,0.278,-0.128,-0.0147,0.117,-0.00753,-0.0791,0.105,-0.108,-0.161,0.0525,0.227,0.0555,0.24,-0.065,-0.0667,-0.104,-0.106,-0.0175,0.0394,0.0793,0.0897,0.0401,-0.0132,-0.12,-0.0644,-0.0788,0.31,0.164,-0.181,-0.161,0.0265,-0.0153,0.00345,0.036,0.0209,-0.057,0.104,0.195,0.0663,0.0499,0.339,-0.106,0.312,0.0671,0.0488,0.104,0.142,-0.00159,-0.149,0.247,-0.0378,0.0425,0.0194,0.0269,0.00871,0.0366,0.2,0.0209,0.172,-0.022,-0.0568,-0.077,0.0495,0.21,0.0364,-0.139,0.0259,0.118,0.0248,0.18,0.0534,-0.0895,-0.0232,-0.0823,-0.0779,0.0586,0.169,0.000428,-0.065,-0.165,-0.0816,-0.0362,-0.0567,0.271,0.0513,-0.0425,-0.166,-0.11,-0.174,-0.268,0.147,-0.00378,-0.0127,0.0232,-0.129,0.0587,0.119,-0.119,0.0191,0.109,-0.0687,-0.0945,0.0802,0.104,-0.156,-0.442,-0.0214,-0.0915,-0.224,-0.0917,-0.106,-0.147,0.172,0.0165,-0.0238,-0.0274,-0.0497,-0.0263,0.233,0.0291,-0.104,-0.0357,-0.106,0.0459,-0.0596,-0.0459,0.0334,-0.0149,0.0823,0.0214,-0.112,0.0828,0.0232,0.0454,-0.0659,-0.157,0.108,-0.0514,0.0778,-0.0511,0.0865,-0.00967,0.0447,-0.107,-0.317,0.141,-0.11,0.0913,0.0805,-0.139,0.0314,-0.0925,0.0017,-0.0269,-0.146,-0.122,0.0124,0.142,-0.0322,0.0807,-0.254,-0.0624,0.16,0.213,0.217,-0.099,0.0302,0.0479,0.0475,0.113,0.0839,0.0373,0.15,-0.0734,-0.0428,-0.166,-0.00339,0.138,0.0249,-0.0182,0.0469,0.00158,0.0948,-0.15,-0.101,0.198,0.19,-0.0154,0.0232,-0.0437,-0.237,0.12,0.131,0.0682,-0.0433,-0.0914,0.0478,-0.0599,-0.214,-0.0649,-0.0059,-0.0729,0.218,0.036,0.0173,-0.0376,-0.216,-0.115,0.0298,-0.0995,-0.00725,0.236,0.00865,0.00201,-0.143,-0.0677,-0.107,0.0848,0.00228,-0.0596,-0.0341,0.209,-0.167,-0.0108,-0.00112,0.069,0.0862,-0.1,0.0955,0.0387,0.122,0.00171,-0.043,0.112,0.0831,-0.17,0.0428,0.129,0.0564,-0.0489,-0.0526,-0.093,0.133,0.034,0.27,-0.0777,-0.181,0.219,-0.307,0.125,0.111,0.0496,0.226,0.298,-0.0504,-0.00654,-0.22,-0.0739,-0.269,-0.0635,-0.0965,0.0546,0.227,-0.159,0.0133,-0.154,0.109,-0.113,0.214,0.0638,-0.0385,0.244,-0.136,0.0868,0.0243,0.157,0.059,-0.0134,0.0185,-0.0659,-0.144,-0.0658,-0.0155,0.0274,0.0328,-0.139,0.209,0.217,0.112,0.477,0.123,0.0723,0.104,-0.144,0.098,0.124,0.0651,-0.189,-0.00471,0.157,-0.194,0.0636,-0.0843,-0.0441,-0.00781,0.0374,-0.0853,0.326,0.0331,0.0549,-0.0341,0.0313,-0.0968,0.236,0.173,0.272,-0.0509,0.23,-0.0267,-0.121,-0.0723,-0.0141,0.00112,-0.0274,-0.128,0.114,-0.0485,-0.146,-0.0883,-0.0302,-0.00522,-0.0368,0.0292,0.122,0.134,-0.0555,0.0953,-0.0109,-0.00944,-0.0425,-0.128,0.0895,0.0368,0.123,-0.0218,0.0352,-0.0243,0.108,0.124,-0.221,0.206,0.0411,-0.549,0.162,0.0711,0.0725,0.276,-0.041,0.181,0.0203,0.0926,0.0928,0.0938,-0.133,0.0694,0.00451,0.15,-0.00234,-0.236,0.0225,-0.0384,-0.117,-0.0765,0.0215,0.0317,-0.0999,-0.154,0.122,-0.0108,-0.373,-0.0948,0.185,-0.234,0.047,0.181,-0.0891,0.156,-0.159,-0.145,-0.118,-0.117,-0.166,0.00443,0.0112,0.0211,-0.116,0.118,0.171,-0.118,0.154,-0.168,-0.0293,-0.0848,0.0658,0.0328,0.12,-0.0967,-0.205,-0.145,-0.0436,0.0246,-0.0829,0.0673,-0.233,0.0607,0.0772,-0.0605,-0.054,0.105,0.00597,-0.0352,-0.0227,-0.00888,0.111,-0.213,-0.0164,0.133,0.0341,-0.265,-0.116,-0.0808,0.0468,0.137,-0.0297,0.0265,-0.0872,-0.0594,-0.205,0.12,-0.0912,0.0037,-0.0122,-0.0899,-0.127,0.0578,0.15,0.0293,-0.156,0.111,0.0513,-0.0985,0.0045,-0.265,-0.175,-0.0807,0.0438,0.48,-0.23,-0.136,-0.0667,-0.124,-0.0827,-0.0294,-0.0452,-0.0838,-0.0413,-0.177,0.00231,-0.217,0.0132,-0.00843,-0.0713,-0.0106,0.0314,-0.0355,-0.117,-0.263,-0.00946,0.0226,-0.0855,0.093,-0.0777,0.00997,-0.13,-0.00711,0.349,0.055,0.0191,0.0222,-0.00209,0.0455,0.0189,-0.0365,0.0141,-0.124,-0.154,0.0453,0.00198,0.115,-0.0159,0.2,-0.129,0.0247,0.0643,-0.0285,0.0914,-0.27,0.169,0.141,0.00758,0.102,0.0825,-0.0575,-0.0723,0.0122,0.0927,0.0446,0.0137,-0.0635,-0.0135,0.00768,0.028,0.143,0.0331,0.0144,0.059,0.0249,-0.0419,-0.00141,-0.0928,0.0466,0.266,-0.125,0.0167,-0.135,0.151,0.00746,-0.0967,-0.0324,-0.121,0.0567,0.122,-0.0482,-0.0554,-0.0772,-0.0462,-0.158,-0.115,-0.0839,-0.0796,-0.221,-0.019,0.0902,-0.189,-0.0485,-0.0683,0.0371,0.0145,-0.00411,0.109,0.082,-0.0379,0.0482,0.0617,0.11,0.156,-0.000862,-0.124,0.0566,-0.0583,0.0317,0.0262,-0.0271,-0.0423,-0.00413,0.0525,-0.0314,0.05,0.11,0.142,0.147,0.216,0.0429,0.078,-0.0132,0.111,0.0049,0.0845,0.0055,-0.0826,-0.00521,-0.0834,0.305,-0.0466,0.0885,-0.089,-0.0613,0.0649,0.0367,0.00322,0.0964,0.0645,-0.0866,-0.0671,-0.0113,-0.0561,-0.223,0.175,-0.00154,0.124,-0.271,-0.069,0.219,0.0912,0.284,0.0349,-0.00199,-0.103,-0.0533,-0.065,0.0479,0.0848,0.00914,-0.0234,-0.0136,0.0407,-0.133,-0.0651,-0.189,0.037,0.00343,0.0634,-0.0744,-0.0877,0.198,0.0415,0.0634,0.0949,-0.13,-0.159,0.00306,0.126,-0.233,-0.132,0.0136,0.182,-0.166,0.0491,-0.137,0.0245,-0.1,-0.0184,0.0269,0.139,0.00105,0.00264,-0.214,0.0797,-0.018,0.0605,-0.0456,0.135,-0.0566,0.0073,0.0153,0.17,0.0333,0.235,0.201,-0.0612,0.079,0.127,-0.122,0.0156,-0.0551,-0.0275,0.123,-0.121,-0.0594,-0.0837,-0.0132,0.152,-0.0173,0.131,-0.0178,0.113,0.105,0.148,0.154,0.107,0.226,0.0132,0.0642,-0.0146,-0.0863,-0.141,-0.133,0.265,0.128,-0.108,-0.0433,-0.0211,0.0493,-0.00502,0.0447,0.0112,0.156,0.126,-0.0769,-0.0338,0.242,-0.00659,-0.0913,0.0472,0.19,0.013,0.113,0.0355,-0.0901,0.0498,-0.0453,-0.208,0.161,0.0727,0.157,-0.0378,0.168,-0.0924,0.0559,0.162,-0.0241,0.154,0.0999,0.0283,-0.0715,-0.0929,0.0676,0.0996,0.0778,0.00439,-0.144,0.0789,0.0923,-0.131,-0.191,0.00785,-0.252,-0.0423,-0.188,0.0985,-0.0615,-0.00132,0.0276,0.115,0.0658,0.103,0.159,0.103,0.0791,-0.0898,0.15,-0.0061,0.0928,0.0162,-0.00544,0.0385,0.153,0.0382,0.0955,-0.141,0.104,-0.148,-0.00942,0.0373,-0.0536,-0.118,0.231,-0.436,0.0468,-0.179,-0.0971,-0.111,0.0852,-0.0667,0.11,-0.0296,-0.129,-0.106,0.136,0.0346,0.142,0.0682,0.165,0.0511,-0.224,-0.012,0.106,0.0669,0.114,-0.0849,-0.0478,0.0389,-0.0879,0.138,-0.0684,-0.176,-0.0199,-0.269,-0.0206,-0.066,-0.273,0.0969,-0.0682,-0.0901,0.0296,-0.0989,0.19,0.0282,0.173,0.0176,-0.00396,0.163,0.0445,-0.0576,0.0179,0.123,-0.0634,-0.0176,-0.017,0.139,-0.0631,0.1,-0.049,0.0195,-0.0433,-0.106,-0.0293,0.153,0.205,0.0885,-0.0783,0.3,-0.036,-0.0201,-0.212,0.137,-0.0333,0.0613,-0.0609,0.159,0.0188,-0.0319,0.0647,-0.0726,0.113,0.0182,0.22,0.173,0.0494,-0.0569,-0.14,0.00921,-0.0176,0.0214,0.000723,-0.0321,0.0849,-0.0508,-0.311,-0.0496,0.0529,-0.166,-0.0808,0.122,0.0374,-0.107,0.125,-0.159,0.105,0.0594,0.0413,-0.0366,0.14,0.061,0.157,0.0635,-0.0494,-0.137,0.0779,-0.1,0.145,-0.145,0.192,0.00628,-0.0221,-0.0392,0.185,-0.0293,0.0654,0.103,0.109,0.00266,0.0016,0.0308,-0.0146,0.0252,0.109,0.0597,-0.0864,-0.111,0.00863,0.00632,0.105,-0.0982,0.0823,-0.164,-0.0159,0.0869,-0.176,-0.0138,-0.0941,0.17,-0.0684,-0.139,0.263,0.0305,0.0363,0.0334,-0.0311,0.0678,0.075,-0.121,-0.0686,0.0523,-0.071,-0.0138,-0.108,0.0862,0.143,-0.0789,-0.0142,0.19,-0.0201,-0.157,0.225,-0.208,-0.0436,-0.0498,-0.0799,0.168,0.0761,0.109,-0.0584,0.011,-0.0058,0.0556,-0.00798,0.0473,-0.195,0.00475,0.284,-0.104,-0.152,-0.0588,0.104,-0.139,-0.191,0.11,0.434,-0.187,-0.112,-0.0665,0.0379,-0.12,-0.0579,-0.14,0.0381,-0.142,0.0479,-0.0458,-0.324,-0.0893,0.135,0.011,0.102,0.101,0.0978,-0.123,-0.0456,-0.0741,-0.345,-0.0657,-0.0261,0.0623,0.0946,0.0269,0.00794,0.272,0.0314,0.0406,0.119,0.137,0.128,-0.0197,0.0951,0.13,-0.0499,0.0369,-0.0813,0.0661,0.0229,-0.0929,-0.00457,-0.102,0.0521,0.0627,-0.203,0.0868,0.0595,-0.0435,0.0237,0.397,0.0672,-0.148,0.101,0.0288,-0.139,0.0578,-0.00686,0.149,0.0926,0.145,-0.148,-0.151,0.193,0.116,-0.00521,0.0295,-0.139,0.0263,-0.152,-0.288,0.116,0.105,0.17,0.264,0.00731,-0.231,0.00403,-0.0496,0.156,0.184,-0.00408,-0.0954,-0.0546,-0.0575,0.0579,-0.00725,-0.145,-0.0878,-0.231,-0.012,-0.0159,-0.0299,0.0458,-0.0964,-0.058,-0.0741,0.143,-0.065,-0.0456,-0.0204,0.0371,0.112,0.0655,0.0569,-0.0539,0.14,-0.104,0.12,-0.0461,-0.0973,-0.129,-0.0538,-0.0286,-0.0838,0.157,-0.125,0.0416,-0.0844,0.105,-0.141,-0.119,0.0732,0.131,-0.0673,0.0664,-0.075,-0.107,-0.155,-0.0176,-0.0247,0.0425,-0.00952,-0.0668,-0.0405,-0.00875,-0.154,0.346,-0.105,-0.0758,0.0413,-0.0373,0.137,-0.0417,0.0285,0.0921,-0.0928,0.077,0.0188,0.0937,-0.0856,-0.0704,0.074,-0.0861,0.119,0.0373,-0.11,-0.0731,0.0628,-0.0431,0.00949,-0.0484,-0.00533,0.0982,-0.0286,0.000803,0.185,0.141,-0.0478,-0.0165,-0.0703,-0.115,-0.094,0.188,0.0644,0.0777,-0.0131,-0.0448,-0.0644,-0.00822,-0.0742,-0.186,0.0742,0.242,0.327,0.0797,0.244,0.226,-0.00168,-0.194,0.129,0.00608,0.0875,-0.0342,0.0392,-0.0316,0.0524,-0.207,0.0253,0.0286,0.332,-0.0391,0.0575,0.044,-0.0294,-0.102,-0.04,0.0317,-0.0109,-0.0385,0.139,0.0602,-0.147,-0.0951,0.0721,0.176,0.0212,0.0484,-0.159,0.0386,-0.0978,-0.122,0.242,-0.0517,-0.227,-0.0852,0.0521,0.163,-0.0647,0.0182,-0.125,-0.164,0.00438,0.156,-0.0577,-0.114,-0.000399,-0.0768,-0.0314,0.119,0.108,-0.0255,0.00506,-0.137,-0.0548,0.153,0.0854,-0.178,-0.112,-0.0545,-0.027,-0.0601,-0.213,0.0402,-0.0219,-0.21,-0.126,0.0984,-0.0872,0.0122,0.0345,-0.0292,-0.0718,0.107,-0.0766,-0.263,-0.0316,-0.00554,-0.0524,-0.0681,0.0421,0.0824,-0.0807,0.0633,0.0356,-0.0818,0.0205,0.00672,0.122,0.0748,-0.0896,0.0497,0.0926,-0.0535,-0.143,0.243,0.0224,0.0321,0.179,-0.0392,-0.1,0.216,-0.00255,-0.0417,-0.0194,-0.127,-0.0164,-0.0863,0.0552,0.0789,-0.000441,0.0493,0.143,0.031,0.00725,0.0183,0.177,-0.147,0.121,0.0547,0.241,-0.0172,-0.25,-0.221,-0.121,0.0286,-0.0666,-0.143,0.0369,-0.098,-0.014,0.0252,0.205,0.0301,-0.0335,-0.17,0.0254,0.0637,-0.0846,0.211,-0.0593,-0.0691,-0.0301,-0.0309,-0.125,0.00299,0.196,0.208,-0.061,0.097,0.19,0.0222,-0.0334,0.0347,0.036,0.0123,-0.0147,-0.173,-0.0251,0.0949,-0.0833,-0.0276,0.147,-0.0848,-0.281,0.16,-0.198,0.079,0.0539,0.092,0.0705,-0.0247,0.0259,0.162,-0.0415,0.106,0.0695,0.142,0.0154,0.0489,-0.105,0.0295,0.102,-0.0466,-0.076,0.345,0.163,0.0616,0.0765,-0.00729,-0.012,0.0379,-0.000285,0.116,-0.0204,0.154,-0.134,0.0584,-0.029,0.0177,0.179,0.0855,0.0237,0.112,0.243,0.039,0.0594,-0.0986,0.0523,-0.0957,0.125,0.0781,0.0678,0.0174,0.068,0.0685,0.0204,0.00262,-0.16,-0.0366,-0.248,-0.153,-0.0447,-0.106,0.00519,-0.321,-0.0845,-0.0624,0.116,0.00699,0.115,0.331,-0.143,0.0627,0.0614,0.0258,-0.195,0.205,0.0114,0.114,-0.232,-0.108,0.151,0.139,-0.0509,0.00838,0.0758,-0.0193,-0.108,-0.0967,-0.159,-0.0201,-0.0227,0.0819,-0.0259,0.21,0.00224,-0.191,-0.0312,-0.26,0.00436,0.0397,-0.121,-0.126,0.121,0.0219,-0.189,-0.126,-0.0515,-0.233,0.0704,0.0367,0.267,-0.041,-0.0594,-0.0453,-0.103,0.0619,0.322,-0.0367,-0.289,-0.0175,0.208,0.0215,0.00559,-0.18,-0.0467,-0.0395,0.0911,-0.0389,-0.0797,0.238,-0.148,0.148,-0.0315,0.0882,0.0961,0.0799,-0.191,0.031,0.0831,0.0118,0.0327,-0.0912,0.0621,0.204,-0.0948,-0.0634,0.0263,-0.0456,0.0133,-0.0632,-0.145,0.00422,0.209,0.1,0.0559,-0.0748,0.146,0.103,-0.15,-0.0264,-0.0187,0.166,-0.0895,-0.126,0.00782,-0.025,0.253,0.133,0.224,0.0326,-0.166,0.0526,0.0654,0.0196,0.254,-0.0495,0.0325,0.0532,-0.103,-0.0134,0.0372,0.0332,-0.11,0.16,0.0161,0.0664,-0.223,0.0656,0.0349,-0.0855,-0.0259,0.134,-0.00354,-0.017,0.0818,-0.244,-0.0467,0.0886,0.0462,0.207,-0.115,0.307,0.0615,-0.071,-0.113,-0.0734,0.0246,-0.0174,0.0413,0.254,-0.0327,0.0193,-0.0678,-0.0358,-0.148,0.0165,-0.148,0.122,0.113,0.0933,0.13,0.0878,-0.0126,0.119,0.12,-0.0596,-0.0449,-0.0686,-0.0123,0.0807,-0.0122,0.219,-0.00238,-0.0632,0.186,-0.103,-0.117,-0.00438,0.434,-0.0947,0.0247,0.122,0.19,-0.0254,-0.036,-0.0599,-0.105,0.0342,-0.0282,0.0349,0.116,0.109,0.0497,-0.119,0.0332,0.0624,0.0505,-0.131,-0.0975,-0.00255,0.155,-0.00949,-0.0368,-0.0761,-0.0186,-0.0247,-0.0807,-0.132,-0.106,-0.0059,-0.102,-0.0279,-0.199,-0.106,0.0733,-0.189,-0.0401,-0.0746,0.0785,-0.136,-0.0917,0.0244,-0.0921,0.157,-0.0463,-0.122,0.0857,0.127,0.107,-0.105,0.0479,-0.13,0.12,-0.15,-0.066,0.0167,0.0426,0.0833,0.0793,0.187,-0.00181,-0.0556,0.129,-0.0176,0.0533,-0.198,0.111,-0.256,0.19,-0.0693,-0.135,-0.0616,0.0834,-0.128,-0.0222,-0.045,0.0747,-0.093,-0.276,0.0505,0.0139,0.21,-0.12,-0.167,-0.0297,0.109,0.0469,0.0242,-0.0085,-0.0294,-0.164,-0.00461,0.28,-0.154,0.0201,-0.128,0.0515,-0.0678,-0.192,0.0154,0.141,-0.0777,-0.148,-0.185,-0.068,0.0432,0.1,-0.0247,-0.06,-0.0357,-0.0152,-0.0709,-0.336,-0.029,-0.116,-0.0442,-0.229,-0.051,-0.0922,-0.142,0.0245,0.0665,-0.0527,-0.128,0.0687,-0.0535,0.128,0.0392,-0.0236,0.0129,-0.241,0.0877,0.00151,-0.146,-0.0446,0.0791,-0.148,0.218,-0.106,0.0407,-0.172,0.141,0.175,0.0364,0.0363,0.0729,0.084,-0.0128,-0.0972,-0.0461,-0.0846,-0.0865,0.0556,-0.0387,-0.014,0.0586,-0.00519,-0.0499,0.0613,-0.182,0.000339,0.147,-0.037,-0.08,0.0317,-0.00197,0.187,-0.0754,-0.0815,-0.0425,0.0822,0.0635,0.134,0.000788,0.0375,0.0309,0.00019,-0.0312,-0.0752,0.0171,0.0587,0.0379,-0.0745,-0.2,0.00712,0.171,0.0329,0.0503,-0.284,0.12,-0.0643,-0.0591,-0.056,0.0897,0.0336,0.123,0.0471,0.197,-0.0573,0.0625,-0.114,-0.144,-0.0432,-0.154,-0.126,-0.113,0.0413,0.0747,-0.0438,-0.117,-0.126,-0.201,0.0614,0.162,0.0015,0.151,0.0751,-0.0154,-0.201,-0.0777,-0.153,0.0955,0.0327,0.113,-0.0454,0.0416,-0.267,0.0139,0.0843,-0.117,-0.0744,0.0231,0.107,-0.172,-0.0202,0.0781,-0.212,0.0349,-0.0776,-0.0111,-0.0595,-0.0717,-0.00902,-0.0421,-0.145,-0.162,0.0871,-0.042,-0.188,-0.302,0.0591,0.0895,0.141,0.00915,0.239,-0.0712,-0.117,-0.11,0.0148,0.0175,-0.0522,-0.154,-0.0677,0.113,-0.0688,-0.263,0.15,0.0862,-0.0756,0.0552,-0.16,0.0566,-0.124,-0.181,0.0404,0.0393,0.0327,0.18,-0.105,0.115,-0.0692,-0.016,0.194,0.181,-0.0745,0.147,-0.0764,0.00744,-0.00358,-0.0928,-0.0209,-0.26,-0.000804,0.311,-0.0303,-0.0922,0.173,0.246,-0.123,-0.141,0.149,0.0112,-0.0132,0.00992,-0.00419,0.117,-0.101,-0.00752,-0.124,0.125,0.00957,0.0892,0.0676,-0.15,-0.0056,0.0852,-0.0281,0.0667,-0.0586,-0.00901,-0.279,-0.0817,0.0113,-0.253,0.0484,0.13,-0.0248,0.123,-0.0752,-0.0571,0.0841,-0.135,0.196,0.209,0.0827,0.023,0.0474,0.32,-0.168,0.0928,0.26,-0.075,-0.0196,-0.0732,-0.153,0.0653,-0.0319,0.156,-0.016,-0.0172,-0.0562,-0.0501,0.0485,0.117,-0.0866,-0.00607,-0.121,0.0921,0.161,0.151,0.127,0.0396,-0.0995,0.0716,0.0749,-0.125,0.0936,0.0393,-0.0342,0.0761,-0.0532,-0.166,-0.0337,-0.111,-0.177,0.0745,-0.000472,0.199,-0.000498,-0.0383,-0.0957,-0.226,0.128,0.0967,-0.0422,0.0402,-0.00623,0.0265,-0.0775,0.00351,0.021,-0.0324,-0.0471,0.0664,-0.0967,-0.171,-0.0236,-0.11,-0.0237,0.0328,0.117,0.0543,0.0144,0.11,0.00938,-0.0531,-0.149,-0.13,-0.0111,-0.0781,-0.168,-0.244,0.0974,-0.0326,-0.192,0.0175,-0.0309,-0.243,0.102,0.051,-0.0212,-0.0231,-0.0575,-0.123,0.0916,-0.011,-0.0651,0.046,-0.0026,-0.32,0.259,0.115,0.13,0.164,0.083,-0.00079,-0.0752,0.0253,0.0668,0.225,0.034,0.198,0.0663,0.00199,0.0693,-0.0054,-0.0831,0.236,-0.168,-0.177,0.000805,0.0108,0.197,0.153,-0.461,-0.134,-0.149,-0.221,-0.0631,-0.188,0.0179,-0.0177,-0.0293,-0.0465,-0.0249,0.113,-0.0494,-0.143,-0.0499,-0.0382,-0.0308,0.199,-0.0212,0.166,0.0178,0.0274,-0.176,-0.00615,-0.286,-0.0397,0.0318,0.106,-0.134,0.141,-0.0665,-0.0502,0.0607,0.111,0.189,-0.0484,0.0171,-0.0639,-0.0347,0.122,-0.0663,0.14,-0.228,0.0618,-0.276,0.0093,-0.133,0.0774,-0.218,-0.101,0.0384,-0.201,0.0305,-0.0184,0.222,0.00906,0.108,-0.0749,-0.0493,-0.142,0.0574,-0.0293,0.0557,0.198,0.182,-0.0666,-0.139,-0.143,0.161,-0.0339,0.0691,-0.0658,0.0505,-0.157,0.161,0.078,-0.0562,0.17,-0.209,0.0389,0.0169,-0.0547,0.00324,-0.0778,-0.102,-0.0467,-0.021,0.018,-0.102,0.203,0.0598,0.15,0.0823,0.142,0.0342,0.0306,-0.144,0.177,0.0268,0.0107,0.11,0.077,-0.143,-0.138,-0.0692,0.115,-0.141,-0.0423,0.197,-0.0986,0.0878,-0.0402,-0.176,-0.0641,0.0226,0.152,0.0878,0.024,-0.0951,-0.127,0.0579,-0.0492,0.12,0.0799,0.149,0.254,0.28,0.207,0.135,0.361,0.155,0.0537,0.125,-0.197,0.189,-0.116,0.0969,-0.0719,0.221,-0.121,0.0989,0.133,0.0951,-0.198,0.0897,0.143,-0.105,0.0336,-0.122,-0.167,0.115,0.042,0.0597,-0.0484,-0.074,-0.0117,-0.032,0.159,-0.102,-0.187,-0.0151,-0.0691,-0.0702,-0.135,-0.134,0.0968,-0.0915,-0.0243,-0.127,0.02,-0.089,-0.146,0.183,-0.0397,0.182,-0.0248,-0.099,-0.141,0.211,0.0144,-0.038,-0.0428,0.202,-0.125,-0.327,-0.0244,-0.00665,0.116,0.119,0.212,0.0833,0.13,0.0906,0.0444,0.0786,0.0396,-0.127,-0.035,0.00227,0.0783,0.0505,-0.245,0.106,-0.126,-0.0942,-0.021,0.2,0.0821,0.0664,0.0131,0.0166,-0.152,-0.237,-0.126,-0.00366,0.0733,-0.115,0.0299,0.1,0.0915,0.101,-0.0697,-0.0546,-0.132,0.00806,-0.123,-0.263,-0.0466,-0.0547,0.111,0.101,0.0758,-0.168,0.0329,-0.165,-0.26,0.225,-0.0171,0.192,0.0251,0.169,-0.106,-0.00638,-0.169,0.0194,0.0743,0.0668,-0.0971,0.103,-0.166,0.187,-0.0813,-0.0824,0.135,-0.106,-0.276,-0.145,-0.0168,0.0503,0.00828,-0.0331,-0.0674,0.0699,0.135,-0.161,0.0184,0.0179,-0.0368,0.0967,-0.0146,0.141,-0.0398,0.181,0.0114,-0.00247,0.0447,0.112,0.0528,-0.0157,-0.0736,-0.155,0.0778,0.0155,0.0907,0.0238,-0.028,0.115,0.12,0.12,0.041,0.176,0.141,0.0746,0.0841,0.0283,-0.0551,0.023,-0.127,-0.0178,-0.198,-0.145,0.0516,-0.128,0.0761,0.0167,0.0847,0.0882,0.0305,-0.151,0.106,0.0277,0.0747,0.0223,0.0461,0.0368,0.0571,0.00583,0.136,-0.00924,-0.0171,-0.022,-0.00985,0.0548,-0.0862,0.0177,-0.173,0.118,0.216,-0.0645,0.241,-0.127,0.257,-0.154,-0.00304,-0.122,-0.057,-0.207,-0.0878,0.069,-0.178,0.0665,-0.0915,0.0174,-0.0712,0.0991,-0.136,-0.0157,-0.202,-0.0352,-0.0477,-0.00728,0.208,-0.0444,0.0221,-0.0274,0.0947,0.199,0.00971,-0.0539,-0.101,0.2,0.0972,0.0938,0.249,0.0202,0.0965,-0.05,0.0418,0.121,0.221,-0.0329,-0.173,0.0087,-0.0786,-0.129,-0.0941,0.00337,0.181,-0.0442,0.276,0.0269,-0.179,0.0863,0.137,-0.112,-0.194,0.0667,-0.123,-0.201,-0.0214,0.0456,-0.104,-0.171,0.0596,-0.0317,0.0541,-0.364,-0.143,0.207,-0.0271,0.159,0.31,-0.155,0.00292,0.105,-0.14,-0.155,0.115,-0.0224,-0.102,-0.134,0.142,0.0764,0.166,-0.119,-0.0332,0.0711,0.0573,0.108,-0.0221,-0.0605,-0.041,0.0406,0.0117,0.083,0.295,-0.108,0.0572,0.117,-0.201,0.108,0.0469,-0.0875,0.0239,-0.109,-0.0523,0.058,0.024,0.204,0.0085,0.169,0.12,-0.0319,0.0188,0.064,-0.144,0.118,0.114,-0.0506,0.00101,0.0197,-0.232,-0.058,0.00685,0.0968,-0.159,-0.194,0.0209,-0.0397,-0.0497,-0.0465,0.0506,-0.27,0.000985,-0.0624,-0.119,0.0193,0.0524,0.136,0.351,0.168,-0.189,0.179,-0.00713,0.253,0.13,-0.0438,0.105,0.0517,0.0874,-0.0717,0.0441,0.0296,0.0282,-0.0783,-0.0565,0.03,0.0237,-0.206,-0.0788,-0.0483,0.0365,0.0228,-0.0791,-0.17,0.0163,-0.169,0.0162,0.0473,-0.125,0.111,-0.127,-0.0339,-0.00856,0.171,0.00275,-0.0509,0.0854,0.0794,0.0597,0.119,0.0647,-0.219,-0.158,0.0155,0.0599,0.102,-0.101,-0.121,0.0529,0.16,-0.0491,-0.00365,-0.0826,-0.195,0.178,-0.113,-0.0321,-0.0127,0.00444,0.235,-0.146,0.0275,0.0143,-0.111,0.187,-0.0464,0.143,0.114,0.0588,-0.0145,-0.0518,0.179,-0.0258,0.0699,0.0965,-0.00571,0.207,-0.147,0.154,0.048,-0.0857,0.0255,-0.176,0.175,0.0485,0.0899,0.0759,-0.0806,0.161,0.118,0.121,-0.0911,-0.0958,-0.0665,-0.0521,0.0649,0.0974,-0.0662,-0.0307,0.141,0.0282,-0.0851,-0.00617,-0.269,-0.269,0.0223,-0.0917,0.175,0.218,-0.126,0.0879,-0.0857,0.0312,0.125,-0.0766,0.0121,0.166,0.159,0.0147,0.0361,-0.0497,0.0101,-0.155,0.0713,-0.0075,-0.0301,-0.115,-0.0469,-0.0403,0.0285,0.0901,0.00128,-0.21,-0.0553,-0.238,0.0302,0.0838,-0.0493,-0.325,-0.257,-0.0563,-0.0847,-0.0126,-0.11,0.119,-0.0942,-0.0727,-0.0721,0.102,-0.0594,-0.00197,0.046,0.146,-0.0426,0.101,-0.161,0.0612,0.108,-0.00736,-0.193,0.0278,0.105,-0.0494,0.0417,0.23,-0.113,-0.00786,-0.11,0.0292,0.021,0.169,0.163,0.0501,0.0178,0.107,-0.0336,-0.241,0.0403,-0.0624,-0.0309,0.143,0.0499,-0.249,0.0811,0.00956,-0.11,-0.105,-0.064,0.0356,0.0139,0.0259,0.135,-0.0162,0.0655,-0.07,0.0407,0.0863,0.0174,0.142,-0.107,0.16,0.0479,0.0332,-0.111,0.0948,-0.00199,0.000583,0.0403,0.131,0.0321,-0.0251,-0.155,0.0844,-0.102,-0.0693,0.146,-0.211,0.0933,0.0679,0.0369,-0.0106,0.124,-0.000379,0.0436,-0.0564,0.157,-0.042,0.101,0.0883,-0.0308,0.0806,-0.0988,-0.0104,0.109,0.0215,0.0653,0.0268,0.151,0.0705,0.0587,0.0395,-0.0083,-0.112,0.128,0.0686,0.124,-0.0514,0.226,-0.133,-0.00687,-0.0317,-0.0916,0.182,0.01,-0.0133,0.0128,-0.0442,0.198,-0.109,0.0331,-0.0928,-0.0762,-0.0101,-0.298,-0.00542,-0.0346,0.0792,0.0182,-0.0422,0.2,-0.0218,-0.0505,-0.117,-0.132,0.173,0.00937,0.146,-0.0501,0.0195,0.0818,-0.104,-0.127,-0.0555,0.063,0.0783,0.0695,0.179,-0.232,-0.139,-0.000998,-0.0486,0.0407,0.103,0.0211,0.0904,0.0439,0.126,-0.14,-0.239,-0.0915,-0.0415,0.158,0.0217,0.0708,0.133,-0.0962,-0.0409,0.145,0.0604,-0.0783,0.0185,0.177,0.0242,0.0552,0.0958,-0.0934,0.0353,0.156,0.0747,-0.152,0.0181,0.0351,-0.0112,0.0699,-0.123,0.0682,-0.00553,0.184,-0.00615,-0.124,0.161,0.146,0.0838,0.155,-0.323,0.0117,0.0131,-0.154,0.167,0.079,0.0325,0.0406,0.13,0.202,0.0895,-0.111,0.0523,0.0943,0.0848,-0.215,0.0323,0.31,-0.0542,-0.0496,0.0595,-0.182,0.0921,0.344,0.0205,0.074,0.196,-0.0589,0.0784,-0.0388,-0.128,0.201,-0.0869,0.0335,-0.0889,0.00928,-0.0652,0.108,-0.102,-0.0596,0.0919,-0.279,-0.0167,0.0976,0.192,0.11,0.0523,-0.079,-0.0469,0.014,0.17,-0.127,0.0548,0.085,0.0828,-0.171,0.206,-0.00901,-0.109,-0.0169,-0.0871,0.101,-0.0327,0.135,0.125,-0.0945,-0.0998,0.115,0.00721,0.0551,0.123,0.0113,0.0367,-0.0317,0.0257,-0.125,0.186,0.187,0.0154,0.0243,0.0335,0.0542,0.00442,0.00979,-0.048,0.0989,-0.0614,0.0898,-0.015,0.0437,0.0197,0.173,0.0938,-0.0393,-0.0366,-0.0361,-0.2,0.0383,0.0272,-0.149,-0.0451,0.159,0.0397,-0.147,-0.0122,0.0136,-0.0845,0.03,-0.105,0.0887,0.361,-0.0282,0.00689,0.241,-0.0582,0.0696,-0.0668,0.158,-0.0166,-0.0298,0.161,-0.000462,0.036,-0.0576,0.0797,0.19,-0.0866,0.216,-0.0292,-0.0882,-0.0904,0.062,-0.124,0.012,-0.145,-0.0717,0.13,0.124,-0.0276,0.197,0.126,0.0507,0.177,-0.134,0.166,0.251,-0.0267,0.0909,0.0201,0.105,-0.0136,0.105,0.247,-0.116,-0.00423,0.00133,0.0604,-0.261,-0.0293,-0.0891,0.129,-0.0666,-0.078,-0.0796,-0.136,-0.0889,0.0149,0.273,0.0662,-0.095,0.157,-0.0576,0.181,-0.129,-0.0204,-0.07,-0.219,0.0307,-0.109,-0.105,0.0278,0.139,0.0287,0.0534,-0.0314,-0.0536,-0.0934,-0.0621,-0.0706,0.017,0.0398,0.173,-0.00347,-0.118,0.139,0.113,0.0305,-0.104,-0.132,0.0839,0.0384,0.0124,0.0538,-0.181,-0.00272,0.0463,-0.0362,0.285,-0.0314,-0.182,-0.0578,-0.031,-0.0438,-0.104,0.111,-0.0805,-0.0469,-0.146,-0.0106,0.0229,0.0789,-0.0698,0.187,0.0627,0.0951,-0.0251,0.118,0.0106,-0.167,0.0517,-0.0348,0.171,-0.0416,-0.222,-0.0722,-0.16,0.149,-0.0154,0.117,-0.0596,-2.24e-05,0.101,-0.0567,0.0275,0.124,0.232,-0.185,0.134,0.0773,0.0869,0.08,0.155,-0.195,0.11,0.067,-0.0213,-0.0425,0.00972,0.0116,0.0785,-0.129,0.0462,0.0453,-0.0034,0.2,0.0473,-0.135,0.374,0.206,-0.0715,0.152,0.191,0.165,-0.0529,0.0757,-0.0877,0.0179,0.019,-0.0527,-0.0532,-0.0923,-0.0126,-0.0013,0.0929,0.0383,-0.0847,-0.018,0.0552,0.0559,-0.0324,0.0679,0.205,-0.11,0.0871,-0.162,0.175,0.0396,0.152,0.0231,0.118,-0.000377,0.0163,0.21,0.0214,-0.218,-0.00174,0.188,-0.0173,0.0811,0.0842,-0.221,0.011,0.0745,0.0767,0.117,-0.0885,0.0977,-0.067,-0.0669,-0.0215,-0.135,0.0235,0.0349,-0.138,-0.136,0.0612,-0.0284,-0.015,-0.0248,-0.146,0.161,-0.059,0.0344,-0.146,0.0544,-0.0708,0.0256,0.206,0.254,0.132,-0.0167,-0.0423,0.197,0.063,0.0257,0.152,0.0182,0.00117,0.128,-0.393,0.0343,0.0753,0.0327,-0.14,0.0677,0.258,0.1,-0.000494,-0.0581,0.154,0.117,0.0558,-0.0471,0.00391,0.101,-0.0997,0.0604,-0.0423,-0.0254,0.0487,-0.0538,-0.143,0.0762,-0.0951,0.371,0.057,0.114,0.19,-0.105,0.0862,-0.00639,0.0381,-0.0911,0.0972,0.0938,-0.105,-0.0664,0.0541,-0.104,-0.0497,0.0531,-0.0396,-0.135,-0.114,0.118,-0.202,0.101,-0.0729,0.124,0.0355,-0.0768,0.0325,0.0582,0.0221,0.0692,0.11,0.0554,-0.0256,0.0618};
float f4_1_bias[64] = {0.0409,-0.133,-0.0321,0.161,0.0433,0.177,0.0661,0.0979,0.13,-0.0404,0.179,0.0492,0.0309,0.0241,0.0589,-0.0315,-0.0888,-0.0902,-0.0924,-0.0423,0.00456,-0.138,-0.0231,-0.082,0.00694,-0.0585,-0.016,0.0297,0.0141,0.0722,0.0268,-0.164,0.11,-0.102,-0.0554,-0.0762,-0.0812,0.0182,-0.0465,0.204,-0.0597,-0.0724,0.0488,-0.0166,0.0166,0.115,-0.109,0.0897,0.109,-0.067,-0.0637,0.0409,0.089,-0.0626,0.17,-0.0642,-0.105,-0.0283,-0.188,0.117,-0.105,-0.0663,-0.123,-0.173};
float f4_2_weight[64*1*3*3] = {-0.694,-0.0785,0.0284,1.17,-1.18,0.0988,-0.203,0.63,0.339,-0.215,-0.2,-0.188,0.00288,-0.159,-0.0992,0.157,-0.13,-0.503,0.041,0.207,-0.331,0.0962,0.743,-1.07,-0.164,0.0797,0.127,-0.216,-0.161,0.00147,-0.814,-0.195,1.27,-0.521,-0.819,0.161,0.237,0.173,0.531,0.0212,-0.282,0.276,-0.21,-0.732,0.403,-0.224,-0.274,-0.502,0.838,-0.15,-0.546,0.101,0.16,-1.59,-0.184,-0.491,0.0642,-0.0168,-0.00139,-0.154,0.466,-0.654,0.069,-0.101,-0.296,-0.614,-1.04,0.814,0.225,0.211,0.0742,1.04,0.67,0.358,-0.138,-1.08,-0.0215,-0.867,0.0348,-0.0822,-0.584,-0.223,0.154,0.0108,-0.141,-0.38,-1.03,-0.76,-0.202,0.217,-0.214,-0.7,0.779,-0.373,-0.544,0.128,0.564,-0.284,0.43,-0.386,0.301,0.108,0.51,0.112,-1,0.314,-0.0201,-0.852,1.21,0.145,-0.28,-0.52,0.651,-0.381,-0.964,0.356,1.03,-0.133,0.488,0.359,0.917,-0.135,-0.258,-0.085,0.0309,-0.863,-0.233,0.105,0.469,-0.589,0.132,-0.367,0.422,0.166,-0.224,0.476,0.136,-0.185,1.06,-0.844,-0.026,-0.0183,-0.0935,0.0451,-0.259,-0.00477,0.0517,0.36,-0.336,-0.14,-0.896,-0.462,0.0323,0.0324,-0.0162,-0.151,-0.172,-0.479,-0.329,-0.077,0.00961,0.334,0.0385,0.331,-0.0396,0.138,0.149,0.00104,-0.352,1.56,0.561,-0.415,0.611,0.024,0.542,-0.7,0.217,-0.0777,-0.598,0.216,-0.0765,0.0624,0.955,-0.233,0.0264,-0.255,0.161,-0.0295,-0.169,-0.456,0.126,0.108,1.72,-0.0394,-0.274,0.363,-0.593,0.643,-0.179,0.0434,0.915,-0.199,0.0555,0.236,-0.0391,-0.278,-0.27,0.275,0.473,-0.432,-0.417,-0.123,-0.172,-0.481,0.131,0.0649,-0.415,-0.00233,-0.367,-0.419,0.0749,0.0743,-0.224,-0.339,-0.0319,-0.711,-0.844,-0.0676,0.133,-0.00518,0.302,-0.014,0.289,-0.146,-0.0905,0.0092,0.234,0.186,-0.601,-0.07,0.0504,-0.0593,-0.0618,0.65,-0.225,-0.869,0.0935,-0.426,-0.932,-0.523,0.27,-0.663,1.26,-0.448,-0.0312,0.0279,-1.51,-0.0618,-0.811,-0.174,1.19,0.223,-0.798,0.042,0.561,-0.584,-0.551,1.76,1.69,-0.16,0.377,0.898,-0.395,-0.166,-0.276,0.373,-0.66,0.113,-0.334,-0.199,0.348,-0.267,1.46,-0.115,0.572,-1.48,-0.0993,0.0582,-0.292,0.041,-0.0173,0.0454,1.06,0.979,0.651,0.00591,-0.845,0.0693,0.16,0.868,-0.186,0.672,-0.626,-0.312,-0.361,-1.74,0.0827,0.382,-0.334,0.76,0.0779,0.707,0.88,-0.348,-0.168,-0.251,0.856,0.0488,0.937,0.271,-0.105,-0.226,-0.0272,-0.168,0.2,0.00457,-0.207,0.486,0.0601,-0.192,1.25,-0.325,0.269,-0.26,-0.177,0.123,-0.221,0.18,-0.272,0.37,-0.465,0.656,0.249,-0.316,-0.0776,0.139,0.8,0.108,0.265,-0.298,-0.0031,0.0442,-0.149,-0.00965,-0.143,0.0761,-0.0305,0.00878,0.00599,0.134,-0.271,-0.0577,0.496,-0.141,0.205,0.0671,-0.359,-0.32,0.177,0.295,-0.235,-0.281,-0.497,0.128,0.186,-0.302,0.345,-0.0531,-0.535,-0.0273,-0.0266,-0.00355,0.0895,-1.98,-0.146,-0.0532,0.0859,0.0664,0.0492,0.593,-0.43,0.21,0.162,-0.154,-0.00483,-0.0396,-0.131,-0.0676,-0.339,0.542,0.011,-0.496,-0.13,0.692,-0.174,-0.363,0.106,-0.00534,-1.17,0.575,0.000502,-0.809,0.108,-0.172,0.243,-0.887,-0.117,-0.211,-0.0443,0.397,0.127,0.245,-0.903,0.111,0.456,0.0809,-0.258,0.0834,-0.095,0.275,-0.0795,0.0148,-0.348,0.258,0.15,0.381,-0.354,-0.0313,-0.0215,-0.256,-0.54,0.501,0.411,-0.516,-0.0571,0.108,-0.448,0.251,-0.498,-0.0312,0.281,-0.113,0.0696,0.416,-0.571,0.176,-0.888,-0.547,0.144,-0.0188,-0.0149,-0.242,-1.95,-0.579,-0.232,0.0594,-0.922,0.63,-0.27,-0.293,-0.259,-0.136,-0.0143,1.06,0.662,-0.117,0.0454,0.3,-0.162,-0.0851,-0.208,-0.117,-0.129,1.54,0.158,0.309,-0.829,1.07,0.172,0.291,0.0291,-0.0845,0.0876,0.291,-0.262,-0.317,-0.0328,-0.107,-0.141,0.18,-0.421,-0.0391,-0.17,-1.03,0.267,-1.57,-0.095,-0.127,-0.423,-0.0304,-0.866,0.367,-0.211,-0.205,0.29,0.0178,-0.202,0.197,-0.304,0.258,-0.479,0.0206,0.588,0.0757,-0.133,-0.306,-0.288,0.292,-0.686,-0.0494,-0.476,0.0232,-0.043,0.518,0.0779,-0.06,0.391,0.772,0.476,-0.126,0.114,0.253,0.263,-0.213,-0.0343,0.0835,-0.258,0.168,-0.00533,0.289,-0.176,0.589,-0.128,-0.434,0.349,-0.134,-0.0931,0.0703,0.244,0.139,0.0192,0.325,-0.0219,0.249,-0.218,0.18,-0.0934,-0.203,0.527,-0.421,-1.37,-0.0104,-0.199,0.012,-0.493,-0.793};
float f4_2_bias[64] = {0.188,0.236,0.424,0.0597,-0.00505,-0.0147,0.244,0.187,0.107,0.426,-0.0899,-0.172,0.65,-0.274,0.187,0.433,0.0648,0.27,0.284,0.525,-0.821,0.574,0.14,-0.0956,0.641,-0.136,-0.634,0.391,0.219,0.496,-0.108,0.307,0.24,0.194,0.685,0.322,-0.601,-0.856,0.119,0.176,-0.341,0.385,0.256,0.463,0.336,0.384,0.138,0.113,0.262,0.0936,-0.0737,-0.086,0.103,-0.206,0.31,0.411,-0.00853,0.602,-0.0675,0.967,0.318,0.363,0.367,-0.0942};

float f5_1_weight[64*64*1*1] = {0.00786,-0.0388,-0.381,-0.024,0.0621,-0.129,-0.152,-0.13,0.122,0.288,-0.0857,0.00831,-0.0637,0.0676,0.00523,0.015,0.00544,-0.242,0.0793,-0.0118,-0.19,-0.016,-0.0267,0.0509,0.00392,0.0919,-0.0853,0.0994,0.07,-0.0841,0.0752,0.00418,-0.227,0.0774,0.094,-0.0511,-0.143,-0.0991,-0.0602,0.14,-0.1,-0.115,-0.202,0.0426,-0.124,0.264,0.0153,0.144,0.0437,0.105,-0.191,-0.0724,0.204,0.115,0.0175,0.0563,-0.104,0.0561,0.00557,-0.102,-0.0623,0.176,0.0112,-0.0704,0.247,0.133,0.0509,0.201,0.317,-0.0337,-0.0214,-0.0509,-0.0702,-0.0492,0.157,-0.0535,0.157,-0.102,-0.0371,-0.215,0.134,-0.034,-0.162,-0.112,0.0939,-0.0468,0.208,0.0749,-0.0228,0.14,-0.0111,0.099,-0.0713,-0.029,0.042,-0.0647,0.0558,-0.0514,-0.0952,0.0372,-0.0805,0.159,-0.124,-0.012,0.0576,-0.0434,-0.0492,-0.135,0.0239,-0.0618,-0.0365,0.106,0.296,0.221,0.0353,-0.0794,-0.0328,0.269,0.082,-0.13,0.0331,0.0292,0.0188,-0.0872,-0.0225,-0.0238,-0.0474,0.0694,-0.105,0.0308,0.0341,-0.0726,-0.0291,-0.138,-0.0653,0.00581,-0.08,0.119,-0.0142,-0.0662,-0.00208,-0.125,0.305,-0.0804,-0.181,-0.0324,0.0254,-0.0153,-0.0968,-0.025,-0.114,-0.0839,0.0794,-0.0275,0.0935,-0.0472,0.042,0.266,-0.0582,-0.239,-0.0224,0.0537,0.0712,0.0112,0.0735,0.0203,-0.213,-0.0848,-0.102,0.0114,-0.0966,-0.0683,-0.0159,-0.00626,0.00571,0.0532,0.163,-0.0686,-0.0125,0.0314,-0.027,-0.0684,-0.0378,-0.0441,0.133,0.285,0.0119,-0.207,0.239,-0.106,-0.134,-0.0815,0.0454,-0.291,0.0536,-0.082,0.0249,-0.19,0.0579,-0.303,0.00598,-0.0259,-0.043,0.178,-0.117,0.155,-0.165,-0.111,-0.131,-0.106,-0.181,-0.0338,-0.178,-0.147,-0.0466,0.00426,-0.0453,0.0726,-0.148,-0.0609,-0.045,0.0694,-0.113,0.0531,0.153,0.0557,0.0352,-0.0696,0.0116,-0.000731,-0.0803,0.1,-0.0256,0.112,-0.0462,-0.159,-0.223,0.0838,0.0452,-0.0326,-0.00159,-0.0783,0.184,-0.114,0.131,-0.0296,-0.0664,-0.0206,-0.0679,0.0155,-0.0375,0.11,0.174,-0.0812,-0.0232,0.0682,0.0195,-0.00615,0.0727,-0.032,0.00226,-0.118,0.0615,-0.00358,0.195,0.0343,0.0116,-0.0229,-0.0148,0.00634,0.0567,-0.0639,-0.0391,0.0868,-0.0562,-0.251,-0.0372,-0.0879,-0.108,-0.151,0.0871,0.0917,-0.0765,-0.0785,0.199,0.0987,-0.00587,0.126,0.0312,-0.0449,0.0645,0.0735,-0.107,0.0471,0.186,-0.0433,0.0978,-0.0943,-0.00741,-0.0827,0.0335,0.00263,-0.077,0.0878,-0.0891,0.0754,-0.0655,-0.0175,0.0815,0.0832,-0.01,-0.212,0.0691,0.0515,-0.0226,-0.273,-0.0771,0.012,-0.196,-0.0395,0.0198,0.21,0.13,0.174,-0.0389,0.16,0.0325,0.0794,0.0736,-0.162,0.0888,0.032,-0.077,0.04,0.129,-0.04,0.106,0.111,0.000933,0.0231,0.0387,0.07,0.0147,-0.00157,-0.109,-0.014,0.0999,-0.00433,0.00435,-0.0488,0.0891,0.125,0.0077,0.054,-0.169,0.0469,0.0252,-0.0384,-9e-05,-0.0391,0.123,0.0419,-0.181,-0.251,0.141,-0.205,-0.034,-0.0756,-0.0131,0.0905,-0.0358,0.0999,-0.225,-0.216,-0.00614,-0.148,-0.11,-0.0701,0.125,0.255,-0.0453,0.0209,-0.0561,0.154,-0.0131,0.151,-0.0766,-0.021,0.0411,0.152,0.0975,0.0947,-0.0646,-0.0145,0.0976,-0.123,0.0214,-0.0393,0.0676,0.173,0.167,0.125,0.268,0.127,0.156,-0.0465,-0.116,-0.195,-0.0225,0.0966,0.0758,0.159,-0.126,-0.00567,0.216,0.22,0.0396,0.00465,-0.0167,-0.213,0.111,0.217,0.00719,0.104,-0.0924,0.0223,0.0573,-0.0817,0.0401,0.0905,0.225,0.0263,-0.0501,0.0175,0.0974,0.0255,-0.147,-0.132,-0.102,0.109,0.0624,-0.0481,-0.0198,-0.118,0.0269,0.176,0.0967,-0.148,0.106,-0.138,0.0229,0.0399,-0.0409,-0.0306,-0.0134,-0.0803,-0.104,0.0201,0.0966,0.123,0.248,0.00168,0.0138,-0.0585,0.00369,-0.129,-0.0877,-0.0244,-0.0761,0.141,0.0368,0.093,0.0747,-0.195,-0.0836,0.0615,0.000791,-0.0877,-0.0548,-0.109,0.0387,0.103,-0.0225,0.159,-0.0839,-0.164,-0.0302,-0.0286,-0.121,0.145,-0.0997,0.0333,-0.0501,0.108,0.224,0.178,0.031,-0.137,0.169,-0.13,-0.0335,0.101,-0.0527,-0.0952,-0.134,0.111,-0.0235,0.0161,-0.09,-0.109,0.0525,0.0765,0.0461,-0.02,0.0484,0.0434,0.0521,-0.0642,0.00339,-0.0517,0.0469,0.0274,-0.0285,-0.0476,0.0388,0.118,0.121,-0.0377,-0.0877,0.0201,-0.031,0.103,-0.0399,-0.012,-0.105,-0.111,-0.0944,0.00822,0.0586,-0.0241,0.0745,0.34,-0.0829,0.0412,-0.199,0.0656,-0.122,-0.128,0.0102,0.0405,-0.0978,0.0499,-0.0863,-0.173,-0.0542,0.0604,0.0728,-0.0563,-0.126,-0.144,0.0144,0.128,0.0639,0.038,-0.0473,-0.0732,-0.0269,-0.142,0.0543,-0.219,0.108,0.0405,-0.284,-0.049,0.086,0.127,0.0219,0.164,-0.0664,0.0148,0.0801,0.0518,0.165,0.023,-0.00597,0.196,-0.0259,-0.0594,-0.101,-0.0897,-0.0507,0.047,0.14,0.256,0.168,0.183,0.0723,-0.0555,-0.141,0.0457,-0.032,0.133,-0.0166,0.0586,0.0297,-0.112,0.0624,0.0533,0.0528,-0.0376,-0.0631,-0.0927,0.265,0.0597,0.137,0.132,-0.0826,0.102,0.128,-0.0352,0.0987,-0.124,0.0842,-0.141,-0.0586,0.0421,0.0192,-0.167,-0.0174,0.153,0.00698,-0.0452,0.015,0.16,-0.224,0.104,0.0688,0.179,0.0673,-0.134,-0.0405,-0.0584,0.000544,-0.0505,-0.0159,0.0661,0.139,0.016,0.0143,0.037,0.139,-0.0107,0.0746,-0.00847,0.302,0.0592,0.0264,0.0327,0.113,0.165,0.0141,-0.0797,0.00761,-0.0157,0.0612,0.0515,-0.0192,-0.102,0.153,0.168,0.0288,0.0996,-0.0478,-0.0151,0.0329,0.0818,0.0321,-0.0477,-0.147,-0.117,-0.0214,0.0782,0.103,0.0465,-0.00314,0.132,0.104,0.133,0.0135,-0.0462,0.0624,-0.099,0.0375,-0.053,-0.0498,-0.0442,0.0434,0.236,-0.0596,-0.0618,0.0978,-0.00734,0.00707,-0.0547,0.044,0.0114,0.0133,0.0312,-0.0476,-0.149,0.168,0.0698,-0.0645,0.0591,-0.0461,-0.0513,0.0104,-0.058,0.0226,-0.0179,-0.0457,-0.151,-0.101,-0.132,-0.169,0.221,-0.0585,-0.0947,-0.16,-0.157,0.261,0.0132,0.125,0.0596,-0.169,0.0492,0.0306,-0.0436,-0.0771,0.0643,-0.00536,-0.0626,0.197,-0.147,0.198,-0.00839,-0.199,0.0314,-0.0887,0.109,0.00745,-0.0562,-0.1,-0.279,-0.0698,0.0109,0.0872,-0.0423,-0.109,-0.0737,0.0431,0.165,0.0996,0.0905,-0.0962,-0.0968,-0.103,-0.0673,0.00311,0.0238,-0.149,0.0815,0.0364,-0.0596,0.0517,-0.0404,0.133,-0.0742,-0.11,0.0237,-0.0164,-0.00949,-0.156,-0.161,0.0238,-0.0573,-0.123,-0.153,-0.0402,0.0268,0.0432,-0.0459,0.0328,-0.0869,-0.0241,0.202,-0.135,0.0104,-0.139,-0.0473,-0.0677,-0.176,-0.0614,-0.0906,0.0174,0.09,-0.122,-0.0872,-0.0348,-0.167,-0.0117,-0.039,0.123,-0.0229,-0.185,-0.0824,0.0584,-0.0372,-0.0339,-0.0601,-0.0575,0.107,0.0657,0.018,-0.0455,0.0297,-0.0457,0.0368,0.0416,-0.011,-0.0493,0.0246,-0.174,-0.0144,0.0871,-0.0659,-0.0721,0.0528,0.229,0.103,0.0225,-0.0127,0.00752,-0.0366,0.0117,0.0555,0.0477,-0.0837,-0.0189,0.00503,0.0199,0.0973,0.0687,-0.137,-0.126,0.000349,-0.0729,-0.0318,-0.0523,-0.0778,-0.0693,-0.0151,-0.0123,-0.0141,0.0295,-0.137,0.188,-0.00317,0.0505,-0.192,-0.0275,-0.153,-0.011,0.0517,0.036,-0.0461,-0.0122,0.00537,0.0179,-0.0911,-0.103,0.00874,-0.00445,-0.0462,-0.13,-0.095,-0.0681,0.00369,-0.1,-0.0101,0.0416,0.0933,-0.0368,0.0874,-0.152,-0.133,0.0937,-0.0621,0.0471,-0.00131,-0.0263,-0.116,-0.15,0.052,0.102,-0.033,-0.0511,0.0856,0.0439,-0.0811,-0.163,-0.193,0.0727,-0.0261,-0.00819,0.0206,0.0979,0.12,0.0754,-0.0453,-0.116,0.235,0.135,0.195,0.0957,-0.123,0.0496,-0.0988,0.0143,-0.13,0.0565,0.0573,-0.0806,0.0541,0.234,0.449,0.126,0.0202,0.0746,-0.0221,0.14,-0.096,-0.00668,0.00667,-0.0682,0.0191,-0.0599,-0.00616,-0.0436,0.0791,-0.0993,-0.137,-0.000264,-0.0702,-0.0223,-0.0648,0.0702,0.0937,-0.00864,0.171,-0.0089,0.166,0.106,0.116,0.0326,0.0852,0.104,0.122,0.158,0.0296,-0.0527,0.0421,-0.192,0.0737,0.00192,-0.048,0.0886,0.14,0.0416,0.0291,0.233,-0.0607,0.0322,-0.0951,-0.109,0.108,0.00207,-0.0183,-0.159,0.0199,0.151,0.175,-0.00907,-0.00162,-0.0846,-0.0557,0.181,0.0738,0.032,0.00747,0.0247,-0.0826,0.254,-0.102,0.132,0.028,0.0335,-0.0946,-0.0747,0.0406,-0.0428,0.0903,-0.133,-0.0222,0.0327,-0.199,-0.0193,-0.0161,0.0177,0.13,-0.0318,0.0891,0.146,0.00503,-0.16,-0.0283,-0.257,-0.00841,-0.00523,0.113,-0.188,0.0604,0.132,-0.0214,0.0935,-0.156,0.11,0.0185,-0.00744,-0.0439,0.0199,-0.025,-0.0768,0.135,-0.0414,-0.0264,0.0717,0.0462,0.0699,-0.0256,-0.24,-0.0139,-0.206,0.0537,-0.187,0.0302,-0.0785,-0.0461,0.0783,0.146,0.136,0.04,-0.125,0.18,-0.112,-0.0822,-0.0938,-0.0131,-0.131,0.14,-0.0373,-0.0799,-0.0686,0.085,-0.0465,-0.00525,0.0109,-0.019,-0.256,-0.0381,-0.089,0.0255,-0.0699,0.0955,-0.0141,0.104,-0.237,0.0232,0.0896,-0.0197,-0.1,-0.0513,0.0164,0.0763,-0.0403,0.0869,0.15,-0.154,0.0111,0.0865,-0.00562,0.065,-0.212,-0.00065,0.0687,0.0952,0.149,-0.193,0.0962,-0.0694,-0.00977,-0.048,-0.0264,0.104,-0.0592,0.0396,0.0541,-0.181,0.0879,0.173,0.0428,-0.04,-0.164,-0.0363,0.0936,0.043,0.133,0.0644,0.0239,0.122,0.00306,0.104,0.0148,-0.143,-0.000726,-0.0952,-0.131,-0.0156,-0.0433,-0.146,0.00986,0.0146,-0.0746,-0.0871,-0.101,-0.27,-0.106,0.15,-0.217,0.0966,0.104,0.0359,-0.0598,0.0243,-0.0702,-0.0339,-0.00881,0.059,-0.135,0.0172,0.0513,0.338,0.0146,-0.0587,0.0313,0.0195,-0.0438,0.0337,0.000173,-0.0894,-0.0768,0.149,-0.146,0.211,-0.0719,0.0336,0.109,-0.151,-0.119,-0.0931,0.134,-0.0529,-0.00882,0.0308,-0.063,0.126,0.103,0.00147,-0.108,-0.168,-0.0302,0.0114,-0.039,-0.0564,-0.0895,-0.128,0.0107,0.24,0.0781,0.063,0.104,0.0487,-0.0897,-0.145,0.0483,-0.00091,-0.121,-0.0142,0.00418,-0.057,-0.108,-0.0827,-0.00575,0.0648,0.303,-0.0703,0.112,0.0534,-0.143,-0.0678,-0.0934,-0.0722,-0.0496,-0.0574,-0.0878,0.172,0.296,0.103,0.109,-0.0427,0.00641,0.0546,0.0216,-0.156,-0.0431,-0.0678,-0.0139,-0.0679,-0.00522,-0.00447,0.0395,-0.205,-0.0991,-0.151,0.00687,-0.148,0.044,-0.171,-0.0765,0.23,-0.028,0.0388,-0.0601,0.000593,-0.0488,-0.149,0.0914,-0.192,0.0241,0.000668,-0.121,-0.193,-0.0748,0.0758,0.21,0.0144,-0.202,0.0495,0.166,0.0286,-0.0851,-0.0638,-0.109,0.0214,-0.15,0.0752,-0.235,0.0175,-0.0776,-0.02,0.0289,0.118,-0.0302,0.18,0.0281,0.0301,0.0129,-0.152,0.0215,-0.0632,0.0316,-0.0341,-0.0517,-0.0165,-0.02,-0.0374,0.0314,0.0141,0.092,-0.0761,-0.0724,0.135,0.26,0.201,0.00706,0.00881,0.153,0.0884,-0.0797,0.0347,-0.102,-0.0781,-0.0622,-0.0259,0.0433,0.00851,0.0498,0.0517,0.116,-0.000831,-0.0356,-0.157,0.216,0.068,-0.0822,-0.0942,-0.0766,0.18,0.0597,0.0451,0.127,0.0633,-0.0474,0.164,0.564,0.109,0.0388,-0.0199,0.0524,-0.122,0.0415,-0.187,0.0925,0.0868,0.146,0.0313,-0.0131,-0.00183,-0.49,0.0919,0.0673,-0.0842,0.108,-0.0252,0.132,-0.0638,0.0539,-0.0171,-0.0796,0.0165,0.122,0.0112,0.143,0.0654,0.024,0.0508,0.267,0.0646,0.212,0.103,0.135,0.108,-0.0247,0.134,-4.79e-05,-0.186,-0.0619,-0.00876,0.107,-0.243,0.0575,0.0341,-0.0157,-0.139,0.0476,-0.0507,-0.0363,-0.139,-0.0138,-0.0307,-0.0788,0.0174,0.0461,-0.0439,-0.111,0.256,-0.104,0.187,-0.0518,0.147,-0.0445,0.218,-0.00367,0.157,0.0523,-0.0918,0.00273,-0.127,-0.0195,0.0473,-0.0871,0.172,0.024,-0.0203,0.0479,-0.091,0.00694,-0.113,0.0518,-0.0528,-0.00521,-0.0989,0.165,-0.0444,0.0292,-0.184,-0.0936,0.0133,0.0566,0.156,0.13,0.0395,0.104,0.0498,0.0298,0.0164,-0.0697,-0.193,0.0225,0.0115,-0.00686,-0.0352,0.0949,0.0986,-0.054,0.13,-0.0305,0.115,-0.00503,-0.0681,0.128,0.0192,0.0794,-0.0652,0.0939,0.317,0.0299,-0.128,-0.0195,-0.0403,0.0778,-0.0422,0.19,0.016,-0.0319,0.0976,0.0306,0.158,0.166,0.0347,-0.0919,-0.0193,-0.0302,-0.161,-0.176,-0.119,0.0096,-0.0705,-0.125,-0.0689,0.0166,0.206,0.0135,-0.0759,0.0305,-0.125,0.0884,-0.0647,0.00721,-0.14,-0.00654,-0.121,-0.165,0.0303,-0.0782,-0.0394,-0.0592,0.0597,-0.111,-0.00224,0.145,-0.00616,0.00259,-0.0171,-0.115,0.127,0.186,0.0446,-0.0681,-0.0969,-0.0626,0.0435,-0.0506,-0.0304,-0.0798,0.0856,-0.1,0.137,0.0272,0.0081,0.0223,0.0952,-0.107,-0.156,0.147,-0.0193,-0.159,0.112,-0.124,-0.0708,-0.0856,-0.144,-0.0226,0.0568,-0.134,-0.00965,0.0602,-0.0417,-0.0398,-0.0482,-0.0615,-0.0196,0.124,-0.0331,0.158,-0.0198,0.0245,0.0239,-0.204,-0.0869,0.287,0.0329,0.0429,0.23,-0.2,0.237,0.0223,0.0804,0.109,0.00743,-0.216,0.0873,-0.0909,0.0344,0.00863,0.0619,0.262,0.284,0.00557,-0.0968,-0.0979,-0.018,0.0817,0.0435,-0.0209,0.182,-0.0775,0.0545,-0.0901,-0.0475,0.0704,-0.0929,0.0829,-0.0101,0.0959,0.049,0.0378,0.0615,0.093,0.124,-0.0268,-0.122,-0.12,0.000267,0.158,0.198,0.00543,0.0465,0.0939,0.00774,-0.00506,0.0787,-0.0455,-0.0168,0.0428,-0.0987,0.0369,-0.141,-0.107,0.0199,0.125,0.0884,0.0214,0.0283,-0.0287,-0.204,0.077,0.0619,-0.22,-0.292,-0.16,0.0286,0.0438,-0.162,-0.0519,0.0971,0.0239,0.136,-0.165,-0.0251,-0.148,0.0312,0.0367,-0.0518,-0.0335,0.00296,0.00937,0.0294,-0.0828,-0.0761,-0.192,-0.0144,0.0573,-0.0484,-0.108,-0.113,-0.0463,-0.247,0.0327,0.0847,-0.0611,0.0184,-0.0952,0.1,0.0765,-0.227,0.0142,-0.0485,0.0615,-0.00423,0.115,-0.149,0.102,0.0274,-0.00169,0.29,0.079,0.0216,0.177,0.0914,0.06,0.0692,-0.0365,-0.0371,0.0796,0.0215,0.0985,-0.13,-0.0494,0.0658,0.069,0.0489,0.0363,0.0726,0.108,-0.0382,-0.0645,0.00603,0.0322,-0.0939,0.049,0.0132,-0.00992,-0.153,0.0737,0.00657,-0.0326,-0.00172,-0.214,0.273,0.182,-0.0655,0.000697,-0.154,-0.0226,0.0986,0.114,0.154,0.105,-0.242,0.0493,-0.0908,0.138,0.0301,-0.136,0.0715,0.00921,-0.0616,0.0397,-0.0689,0.0239,-0.0443,-0.0247,0.0993,-0.0842,0.153,-0.00678,-0.0698,-0.0175,-0.0737,-0.0802,-0.127,-0.0214,-0.185,0.0602,-0.107,-0.0844,0.0249,0.184,0.167,0.014,-0.0225,0.0132,-0.0953,-0.149,-0.0548,-0.111,-0.274,0.0637,-0.211,-0.041,-0.0865,0.0355,-0.0903,-0.0966,-0.0682,0.108,0.0394,-0.122,0.0829,0.1,-0.0703,-0.076,0.0708,-0.162,-0.00655,0.0115,-0.051,-0.205,0.289,-0.0858,-0.0122,-0.00147,-0.106,0.0241,-0.0165,0.0978,-0.177,-0.0215,-0.0996,0.177,0.02,-0.0697,0.0628,-0.0624,0.00379,-0.00239,-0.0499,0.0342,-0.066,0.0274,0.0586,0.0372,0.0662,0.112,0.0481,0.00156,0.0403,0.138,-0.00294,0.0869,-0.133,0.00192,0.107,-0.179,0.0513,-0.0878,-0.116,0.0834,0.0996,0.02,0.0204,0.26,-0.202,0.123,0.000949,-0.0558,0.171,0.0641,0.109,-0.19,0.00213,0.0416,0.109,0.0129,-0.108,-0.167,0.00428,0.148,0.117,0.0633,0.087,0.0121,-0.0235,0.114,0.0218,0.0445,-0.153,-0.0157,0.0291,-0.123,-0.153,0.103,0.127,-0.024,0.00797,0.124,-0.11,0.0394,-0.0522,0.078,0.159,0.051,0.0223,-0.176,0.0175,-0.05,0.00833,-0.119,-0.043,-0.0624,-0.0239,-0.17,-0.0121,0.0873,0.275,0.0895,-0.0911,-0.163,-0.0629,-0.021,0.0152,0.0295,-0.0274,-0.124,0.0174,-0.148,0.0462,-0.138,-0.114,-0.0566,0.0689,-0.0528,-0.1,0.236,0.00611,0.0525,0.103,-0.089,0.2,0.112,-0.0048,-0.111,-0.106,0.0235,0.0238,-0.0749,-0.0749,-0.174,-0.0647,-0.0626,0.156,0.0469,-0.0858,0.0773,0.0524,-0.219,-0.139,0.162,-0.0518,-0.184,-0.0357,-0.119,-0.0582,-0.103,-0.152,-0.0449,0.0297,0.207,-0.0461,0.0577,0.235,0.21,0.162,-0.0369,-0.153,0.17,-0.107,-0.0039,-0.0417,0.0534,0.0813,0.0164,0.00599,-0.102,0.168,0.0622,0.132,-0.0618,0.149,0.0835,-0.117,-0.155,-0.118,0.03,0.0112,-0.064,0.0846,0.203,-0.13,0.0266,0.109,0.0613,0.244,0.0244,-0.0597,0.139,-0.0586,0.0131,0.0597,0.153,-0.0862,-0.033,-0.0692,0.0633,-0.0659,-0.0297,-0.0475,0.0121,-0.0137,-0.0626,0.0356,-0.102,0.028,-0.0326,-0.117,0.1,0.139,-0.0921,0.0929,0.0658,0.0966,-0.0339,-0.151,0.0267,-0.0149,0.0337,0.488,0.069,-0.0709,0.00602,-0.0861,-0.0429,-0.0579,0.0678,-0.00414,-0.0119,0.0524,0.0377,0.044,0.219,0.296,-0.00368,-0.00685,-0.0291,0.178,0.284,0.175,-0.128,0.0143,0.0412,0.0894,-0.021,-0.019,-0.113,-0.0206,-0.278,0.177,-0.128,0.0254,0.0454,0.0683,0.0164,0.0112,0.0604,-0.0568,-0.125,-0.0577,-0.0404,-0.0945,0.0342,0.263,0.00802,0.0673,0.0205,-0.0757,-0.00117,-0.0462,0.0302,0.069,0.0532,0.0257,0.0314,0.0551,-0.0761,0.0206,0.0781,0.124,-0.0436,0.0407,0.0425,-0.177,0.00359,-0.0174,-0.102,-0.0595,0.0336,-0.0465,-0.195,-0.0358,-0.0333,-0.298,-0.0271,0.0127,0.00135,-0.0512,0.132,0.0369,0.0582,-0.0152,-0.0595,0.00716,-0.0369,0.0654,0.0929,0.0298,0.209,-0.000653,-0.14,0.162,0.00136,-0.143,-0.0845,-0.0907,0.0121,0.073,0.0458,0.126,-0.0412,-0.0741,0.101,-0.0196,0.0469,0.152,0.0967,-0.116,0.163,-0.0987,0.0484,-0.0273,0.0559,-0.135,0.105,-0.0541,-0.132,-0.0309,-0.136,-0.00922,0.0551,0.00993,-0.0519,-0.14,0.00733,0.119,0.0564,0.138,-0.0245,0.013,0.162,-0.113,-0.0231,-0.0976,-0.107,0.141,0.0641,0.233,0.0775,0.03,0.124,0.00566,0.0454,-0.0515,0.0734,0.0651,0.0494,-0.0971,0.163,0.0353,-0.0837,0.158,-0.0501,0.0173,0.0117,-0.124,-0.02,-0.113,0.163,0.00228,-0.0259,-0.0119,-0.0726,0.0378,0.027,-0.0753,0.0501,-0.107,0.141,0.0144,0.154,-0.0558,0.00833,-0.201,-0.0179,0.0497,-0.104,0.035,0.0903,0.108,0.0297,0.0279,0.113,-0.177,-0.0599,0.0955,-0.195,0.16,-0.0731,0.122,-0.0157,0.165,0.0174,0.0462,0.154,0.134,0.278,-0.135,-0.0291,0.0216,0.0692,0.118,-0.0822,-0.152,0.163,0.0313,0.0305,-0.0479,0.0968,0.0292,0.0728,-0.183,-0.225,0.069,0.11,-0.00909,-0.0145,0.0877,-0.0136,0.134,-0.17,0.0198,0.0472,-0.059,0.203,0.121,0.095,0.0574,-0.0777,0.0895,0.0619,-0.11,0.0343,0.0118,-0.167,0.0262,-0.0549,-0.118,-0.0416,-0.0659,-0.12,-0.00991,0.00186,0.0792,-0.305,-0.0904,0.0475,0.259,0.0015,0.0406,0.134,-0.0914,0.109,0.0364,-0.0613,-0.0393,0.166,-0.125,0.019,-0.218,-0.0312,0.17,0.0866,-0.0444,0.0455,0.0754,0.00998,0.171,-0.0471,-0.0434,0.0693,-0.0508,-0.14,0.0609,-0.103,-0.0486,-0.219,-0.0699,0.138,0.00832,-0.144,0.0782,-0.05,-0.158,0.214,-0.0534,0.0692,0.00416,-0.0306,-0.0118,0.0149,-0.2,0.229,0.064,-0.137,0.0351,-0.0335,-0.0511,0.147,0.0461,-0.167,0.0831,-0.0073,-0.154,-0.00939,0.0959,-0.169,0.116,-0.0302,0.0494,0.0845,-0.0288,0.097,-0.169,0.12,0.209,0.0732,0.124,0.0495,0.034,0.067,0.184,0.0389,0.194,0.034,0.193,0.0558,-0.154,0.0818,-0.184,0.103,0.0389,-0.176,0.138,-0.0263,0.216,0.0971,-0.0115,-0.0702,-0.0154,0.0331,0.00375,0.148,-0.0489,0.102,0.114,-0.0361,0.103,-0.0195,0.00199,0.0587,0.0965,0.114,-0.135,-0.0981,-0.02,-0.00992,0.0561,-0.122,-0.0803,-0.0301,0.0323,0.127,0.145,0.0411,0.0695,-0.198,-0.0689,-0.159,-0.0318,-0.0907,-0.172,0.00806,0.0317,0.00809,-0.0724,-0.114,0.0532,-0.0682,-0.104,0.0478,0.0939,0.141,0.0285,0.0759,0.0919,-0.041,0.0845,0.17,-0.0212,-0.0448,-0.0151,-0.0993,0.0318,0.0978,-0.00192,-0.126,0.218,0.119,0.0325,0.0424,-0.0363,0.0191,-0.0983,-0.0872,0.117,0.0809,-0.0965,-0.0468,-0.0676,-0.0171,0.179,0.119,0.111,0.00965,-0.00123,0.0632,0.0716,-0.0279,-0.0599,0.0614,-0.114,0.0272,-0.0303,0.0605,-0.111,-0.0016,-0.0711,0.11,0.114,-0.0882,-0.0424,-0.0649,-0.0922,0.0235,-0.185,0.0803,-0.11,-0.0848,-0.0106,-0.0873,0.00468,0.0123,-0.0351,0.00707,-0.0675,-0.292,0.106,0.0844,-0.00906,0.0542,-0.0917,0.0117,0.0778,0.0428,0.0209,-0.00268,0.172,-0.184,0.069,0.0492,-0.00229,-0.285,-0.0343,-0.108,0.356,0.00381,-0.0558,-0.0367,-0.0628,-0.0735,0.131,0.0643,0.0358,0.121,0.0789,0.0125,-0.0798,-0.053,-0.103,0.105,-0.0081,-0.00764,0.134,-0.0715,-0.0434,0.0122,-0.00506,-0.0265,0.13,0.0625,0.0874,-0.0825,0.0258,-0.124,0.0982,-0.158,-0.0353,0.000907,-0.0574,0.214,-0.0504,-0.152,-0.0363,0.00795,-0.00391,-0.023,-0.00588,-0.00389,-0.0718,0.11,0.235,-0.0798,-0.0619,-0.159,-0.0135,-0.0679,-0.00819,-0.0219,0.0161,0.0997,0.0104,0.0482,0.0402,0.128,0.158,0.0217,-0.0389,0.192,-0.0434,-0.0406,-0.0768,-0.067,-0.00108,-0.0652,-0.0624,-0.0314,-0.104,-0.072,0.119,-0.029,0.198,0.135,0.0504,-0.164,0.18,0.0118,0.0328,-0.034,0.0954,-0.0654,0.00217,-0.033,-0.0225,-0.0163,0.168,-0.023,-0.052,0.0515,-0.0287,0.0569,0.0122,-0.013,-0.0265,-0.0561,-0.0262,-0.0614,0.0145,0.0807,0.026,0.0209,0.0233,0.111,-0.0433,0.0585,-0.0356,0.057,-0.0491,-0.0458,-0.0821,-0.104,0.0916,0.0355,-0.106,-0.00908,-0.0994,-0.0152,0.148,-0.0476,-0.138,0.0454,0.0681,-0.0938,-0.0247,0.0788,-0.349,0.0859,0.0636,0.133,-0.137,-0.0274,0.0581,0.0522,0.0545,0.0494,-0.0631,0.0778,-0.0857,-0.131,0.066,0.0764,-0.0319,0.108,-0.0754,-0.263,-0.00268,-0.0317,-0.233,0.0922,0.212,0.0483,-0.0122,0.0406,-0.0415,0.02,-0.0443,-0.134,-0.153,-0.0958,-0.132,0.067,0.119,0.179,0.0732,0.107,0.112,-0.0323,-0.0634,-0.109,-0.127,-0.00112,-0.0326,-0.00425,-0.25,-0.142,-0.0512,0.00893,-0.0748,0.000167,-0.0521,-0.0746,0.0234,0.0903,0.0284,-0.143,-0.152,-0.122,0.0146,0.0277,-0.0384,-0.0273,-0.00602,0.00947,-0.0326,-0.293,0.0582,-0.17,-0.0645,-0.151,0.0713,-0.191,0.00123,-0.0402,-0.03,0.0251,-0.109,0.0324,-0.00827,-0.048,-0.0629,0.0044,0.0983,-0.0502,0.0185,-0.151,0.0638,-0.00219,-0.00681,-0.0735,0.004,0.177,-0.0746,-0.0297,-0.0025,0.0287,-0.015,-0.0496,-0.198,-0.0193,0.0193,-0.00878,-0.0643,-0.0855,0.0364,0.0703,-0.038,-0.182,-0.0746,0.108,0.122,-0.0356,0.0149,0.0271,-0.0792,0.0288,0.117,-0.0284,-0.127,-0.0576,-0.00292,0.0475,0.219,0.0138,0.069,-0.106,0.0561,0.0669,0.0703,-0.0647,0.045,-0.0138,-0.0157,0.0301,-0.0649,-0.182,-0.0426,-0.0915,-0.0895,0.0734,-0.0141,0.0417,0.0706,-0.0208,0.013,0.032,-0.0384,0.0102,0.0658,-0.00326,0.106,-0.031,-0.0488,-0.109,-0.0103,-0.00914,-0.138,0.0357,-0.0016,-0.255,-0.0178,-0.0799,-0.0495,0.0444,-0.00756,-0.0272,-0.0225,0.0331,0.041,-0.132,0.0845,0.106,0.082,0.153,0.0535,0.0234,0.126,0.0944,-0.11,0.223,0.0719,0.224,0.208,0.166,-0.0192,-0.0187,-0.19,0.0794,-0.18,-0.0647,0.119,0.0651,0.0194,0.0433,0.162,0.254,-0.0158,0.0129,-0.0884,-0.103,0.0239,0.151,-0.0875,-0.0751,-0.136,0.0412,0.0427,0.171,0.0126,0.134,0.102,0.0801,-0.203,-0.0485,-0.0476,-0.0579,-0.15,0.0455,0.0353,0.187,-0.0371,0.00865,0.0653,-0.292,0.0355,0.0627,0.071,-0.00368,0.0292,0.00239,0.0896,-0.105,0.0252,-0.163,0.059,0.0911,0.131,0.108,-0.0651,0.0451,-0.281,0.0337,0.051,0.00301,0.0748,0.0441,-0.0243,0.0369,-0.0442,0.0911,0.00111,0.174,-0.00973,0.0733,0.09,0.0613,0.0483,-0.0411,0.118,0.0663,-0.0569,-0.061,-0.1,-0.0106,-0.258,0.1,0.0545,0.0184,-0.0733,0.127,-0.185,0.118,-0.208,0.0858,0.0196,-0.175,0.00295,0.111,0.0969,-0.243,0.136,0.00795,0.208,0.061,-0.00294,0.0463,0.197,0.13,0.0575,0.122,0.121,-0.0706,-0.228,-0.14,0.105,-0.0642,0.0201,0.0265,0.262,0.0343,0.0235,0.0145,0.033,0.0651,-0.141,-0.0022,0.054,-0.175,-0.0747,-0.0519,0.128,0.0173,0.13,0.0428,0.0661,0.0168,0.0466,0.193,0.143,0.0499,0.0624,-0.0553,0.24,0.1,0.0284,-0.0131,0.101,0.0138,-0.165,0.116,0.0493,0.166,0.0161,-0.152,0.0823,0.271,-0.157,0.0456,-0.0878,0.0537,-0.192,-0.0307,0.217,-0.0868,0.00374,-0.0766,-0.0629,0.143,0.137,0.0119,-0.204,0.0906,-0.124,-0.0485,0.0226,0.13,0.0402,0.036,-0.102,0.154,-0.076,0.147,0.0297,-0.151,0.000886,-0.0134,0.00945,-0.16,0.192,-0.0112,-0.0365,-0.0135,-0.0578,-0.0349,-0.0181,-0.148,-0.0765,-0.0352,0.0137,-0.048,0.106,-0.0319,-0.149,-0.144,-0.0675,0.0363,-0.0631,-0.106,0.0758,0.000938,0.0482,-0.058,0.238,-0.165,-0.13,0.00696,0.0225,-0.103,0.152,-0.0569,0.231,0.0312,0.0379,0.00163,0.113,0.0208,0.00238,0.0916,-0.194,0.181,-0.0351,0.0265,-0.0973,-0.0219,-0.096,-0.0111,-0.124,-0.11,-0.141,0.0146,0.249,0.0218,-0.0706,-0.125,0.0754,0.122,-0.211,-0.176,-0.133,-0.0442,0.0406,-0.0271,0.0929,-0.232,0.00607,-0.0126,-0.127,-0.0408,-0.0162,0.0439,-0.214,-0.0532,-0.22,-0.0341,-0.0525,-0.00483,-0.13,0.0958,-0.209,0.0747,-0.06,-0.164,-0.136,0.0526,-0.145,-0.0136,0.0433,-0.0282,0.00391,0.0655,0.0542,-0.0209,-0.189,-0.183,0.0674,-0.174,0.13,0.0877,0.00643,0.113,-0.0496,0.03,-0.00409,0.194,-0.0719,-0.127,0.132,-0.00134,-0.000296,0.142,-0.0584,0.0647,-0.17,0.128,-0.0834,-0.0101,0.123,0.0893,0.105,-0.0217,0.0395,0.127,0.0617,0.0935,-0.117,-0.0462,0.0511,-0.183,0.0437,-0.0856,-0.11,0.0247,0.0871,0.0333,0.0255,0.104,-0.116,0.0759,0.0477,-0.0801,0.0852,0.0649,0.126,-0.193,0.0153,0.0143,0.0831,0.0616,-0.0529,-0.152,-0.0532,0.0937,0.137,0.0509,0.0601,0.00165,-0.0581,0.105,-0.0158,0.0366,-0.139,-0.081,-0.077,-0.119,-0.00241,0.0191,0.214,-0.0905,-0.0216,0.0912,-0.126,0.0439,-0.0611,0.0798,0.114,-0.0392,-0.0593,-0.159,0.0127,0.0248,-0.0485,-0.0821,0.0638,0.0727,-0.142,-0.103,-0.102,0.0243,0.0701,-0.036,0.0107,-0.195,-0.217,-0.0791,0.0271,-0.114,-0.178,-0.0485,0.0609,-0.141,-0.0259,-0.032,0.152,0.158,0.0892,0.0693,0.0757,0.0397,0.199,-0.164,-0.0377,0.101,0.154,-0.0992,-0.121,0.0566,-0.0984,-0.145,0.114,-0.00113,0.0985,-0.274,0.0134,0.12,-0.105,0.0914,0.0194,0.204,0.0769,0.128,-0.137,-0.189,-0.0373,0.009,-0.0298,-0.075,0.0398,0.123,0.0247,0.213,-0.0364,-0.0236,-0.044,-0.415,0.0818,-0.0138,0.0794,-0.0666,0.0612,0.015,0.0836,0.197,-0.117,0.0644,-0.0382,0.0564,0.0431,0.0459,-0.0771,-0.0133,0.0994,0.0464,-0.00983,0.085,0.11,0.0305,0.0516,0.127,0.169,0.127,-0.0133,-0.124,0.0859,-0.0306,0.09,-0.163,-0.101,0.0453,-0.0198,0.122,0.138,-0.0104,0.123,0.0837,0.0622,0.0605,-0.225,0.0418,-0.0561,-0.024,-0.0898,-0.0981,0.028,-0.115,0.145,0.0178,-0.324,0.0339,0.125,0.0245,-0.157,0.0843,-0.0897,0.207,0.0579,-0.0496,0.17,-0.137,-0.0327,0.203,-0.0255,-0.14,0.111,0.0236,0.0495,0.0816,0.0978,-0.128,-0.0329,0.0218,-0.0446,-0.0327,-0.0218,-0.0267,-0.0744,0.0571,0.145,0.0352,-0.0464,0.0569,0.125,0.191,-0.132,-0.0589,-0.114,-0.262,-0.0192,-0.194,0.101,-0.041,0.184,-0.217,-0.0697,0.175,0.074,0.0941,0.206,0.0289,0.0134,0.0689,0.0883,0.0866,0.125,0.137,0.128,0.0878,-0.159,0.105,0.0095,0.0643,-0.0282,-0.000297,-0.0765,-0.0759,0.138,-0.0363,0.306,-0.117,0.0418,-0.0385,0.106,-0.134,0.122,-0.0406,0.048,-0.00424,0.0436,0.0529,0.0743,0.0958,-0.0704,-0.015,-0.208,-0.0884,0.0416,0.0218,0.121,0.0716,0.108,0.11,-0.0477,0.0998,-0.116,0.118,-0.105,-0.0261,0.127,0.101,-0.0443,-0.00595,0.128,0.0883,0.0988,-0.0575,-0.135,0.026,-0.195,0.127,0.199,0.0535,-0.0323,0.131,-0.173,0.103,-0.156,0.089,-0.0311,-0.251,-0.112,-0.00162,0.173,-0.232,0.153,0.044,-0.0297,0.0408,0.101,0.211,-0.0344,0.0329,-0.0168,0.173,0.127,-0.0814,-0.156,0.109,0.00344,-0.236,-0.0243,-0.0442,-0.0816,-0.0142,0.0572,-0.0263,0.0986,0.00596,0.017,0.0236,-0.33,0.0033,0.168,-0.15,-0.0861,-0.122,0.00945,-0.101,-0.0707,-0.0328,-0.0625,0.106,0.153,-0.102,-0.0352,0.217,-0.0403,-0.0591,0.0245,-0.153,0.0757,-0.141,0.0892,-0.0898,-0.171,0.105,0.071,-0.0771,0.141,0.0334,0.262,-0.238,0.00912,-0.142,-0.0693,-0.101,0.0748,-0.128,0.0815,0.0487,-0.00127,-0.0451,-0.0108,0.0747,0.019,0.00181,0.0267,0.033,-0.0295,0.135,0.00189,-0.0352,-0.0317,-0.00866,-0.117,-0.0454,0.0337,-0.0933,0.236,0.149,0.209,0.0409,-0.0642,0.0415,-0.146,0.0698,-0.0648,-0.0759,-0.0953,0.00306,0.148,0.123,0.0278,-0.0635,-0.0036,0.0745,0.0974,-0.116,-0.00839,0.194,0.0143,0.0795,0.0502,0.0386,0.00564,0.131,-0.0147,-0.114,-0.104,-0.0261,0.00954,0.0638,0.0917,-0.039,0.0126,-0.148,0.184,0.0555,-0.0505,0.042,0.06,0.0917,0.0634,0.121,-0.00247,-0.143,0.0572,-0.0321,-0.0401,-0.033,-0.118,-0.0488,0.0587,0.0118,-0.0254,-0.00799,0.159,0.0978,0.0818,-0.00784,0.0424,0.00402,0.139,0.118,0.0536,-0.058,-0.0286,-0.297,0.0499,-0.0692,-0.108,0.00114,0.125,0.0554,0.0287,0.0295,-0.115,0.0266,0.015,-0.063,0.113,0.0337,0.0562,-0.112,0.0256,0.0504,0.125,-0.0305,-0.0345,-0.0585,-0.0382,0.0592,0.0833,0.0661,0.0896,0.0304,-0.114,0.114,-0.0815,0.0398,-0.0691,-0.0629,-0.0883,-0.0989,-0.0333,-0.0617,0.0998,-0.1,-0.0556,0.0777,-0.123,0.0404,-0.116,0.0176,0.0778,-0.0158,0.0358,-0.0523,-0.0289,-0.00556,0.07,0.129,-0.102,0.00483,0.0527,0.196,0.149,0.0733,0.197,0.0424,-0.0638,0.201,-0.0652,-0.0219,0.0563,0.0327,0.154,0.11,0.195,0.198,0.022,-0.0259,0.0237,-0.0412,0.166,-0.00745,-0.132,0.0916,0.187,0.125,0.188,0.0079,-0.224,0.0459,0.0413,0.0591,-0.0882,-0.104,-0.013,0.0701,0.0233,0.206,0.092,0.153,0.175,0.114,0.112,-0.029,-0.0503,0.0396,-0.0441,0.0949,0.057,-0.16,0.00352,0.00341,0.082,-0.155,-0.0112,0.0466,0.077,0.0183,-0.0101,-0.0225,0.155,0.0758,-0.011,0.112,-0.0266,-0.0773,0.0159,0.0117,-0.0467,0.00668,-0.0428,0.0719,-0.132,0.00386,-0.0413,0.241,-0.169,-0.0153,-0.0302,-0.0775,0.00304,-0.0416,0.0199,-0.0689,0.0759,0.16,-0.144,0.0484,0.0413,-0.0292,0.192,-0.0914,-0.0505,0.0195,-0.0723,0.0543,-0.0961,0.0763,-0.0446,0.0186,-0.0249,0.0648,0.0343,0.0232,-0.232,0.202,0.0536,0.0288,-0.204,0.00338,0.244,0.129,-0.136,-0.0381,-0.0912,0.0954,-0.0617,0.0709,0.0252,-0.148,0.0748,0.0912,0.0595,-0.14,0.0133,-0.132,0.0426,-0.238,-0.00727,-0.218,-0.102,0.054,-0.126,-0.014,-0.00379,-0.0824,-0.234,0.0245,0.158,-0.19,0.0317,-0.113,-0.00146,-0.134,-0.177,0.0491,0.191,0.0506,0.00417,0.172,-0.0259,0.0922,0.0588,0.0197,0.0197,-0.257,0.175,-0.0982,-0.0564,-0.111,-0.0115,-0.0203,0.172,-0.0803,0.0694,-0.0917,0.0886,0.0804,-0.0847,-0.0162,0.167,0.369,-0.0381,0.0597,-0.0688,0.036,0.00208,0.11,0.0186,-0.0725,0.0357,0.101,0.0039,0.0326,-0.0383,-0.0653,0.0417,0.0839,0.0125,0.082,0.131,-0.00526,0.0585,0.228,0.0171,0.0605,-0.0615,0.0359,0.00834,0.0105,0.311,0.148,0.0249,0.139,0.107,-0.0377,0.134,0.00932,0.0759,0.0872,0.00146,-0.0579,0.0117,0.129,0.0153,-0.0323,0.114,0.0571,0.0572,-0.097,-0.0432,-0.188,-0.0614,-0.123,0.19,-0.042,-0.0825,-0.0816,0.0134,0.00138,0.000764,0.144,0.27,-0.0705,0.0381,-0.125,0.126,0.0715,0.0221,0.00593,0.2,0.0165,0.029,-0.0452,0.092,-0.0096,0.0993,-0.0416,-0.304,-0.0797,-0.104,0.0795,0.138,0.105,-0.0242,0.0788,0.0803,0.131,-0.0404,-0.0564,0.013,-0.0229,-0.113,-0.0865,-0.0437,-0.024,0.185,0.159,-0.22,0.187,0.13,0.0371,-0.0652,0.0187,0.00395,0.198,0.211,-0.132,-0.101,0.142,-0.106,0.0224,0.00471,0.0846,-0.018,-0.0959,0.0667,0.0983,-0.0728,-0.0937,-0.00879,0.159,0.0708,0.211,-0.0806,0.0968,0.193,-0.0426,-0.101,0.0262,0.014,0.066,0.0646,-0.212,-0.00373,0.16,0.19,0.0535,-0.0659,0.102,-0.0495,-0.0118,0.0604,-0.133,-0.145,-0.0819,-0.13,-0.0899,-0.0103,-0.0134,-0.0515,-0.128,-0.117,-0.0904,-0.01,-0.00841,-0.0303,0.0877,0.0291,-0.127,-0.0622,0.137,0.00678,-0.112,-0.111,-0.17,0.0803,0.104,-0.0381,-0.0677,-0.202,-0.157,0.0495,-0.0883,-0.00828,-0.144,0.0508,-0.0357,0.00714,-0.0778,-0.0528,-0.082,-0.00527,-0.0126,-0.0769,-0.0137,0.0493,-0.123,-0.0429,-0.123,0.00345,-0.0686,-0.0767,0.0755,-0.0592,-0.00574,-0.0137,0.143,0.0493,-0.0157,-0.102,-0.11,0.0957,0.0169,0.175,0.0281,0.00889,-0.0142,0.0476,-0.0466,-0.164,-0.000524,-0.0309,0.0659,0.1,-0.0513,-0.121,-0.00944,0.246,0.327,-0.0711,-0.0373,-0.125,-0.0335,-0.0583,0.0228,0.0439,-0.0772,0.0846,-0.115,-0.164,0.0204,-0.023,0.165,-0.107,-0.0473,-0.181,-0.073,0.0493,-0.04,0.0552,0.00206,0.104,-0.00283,-0.172,0.128,-0.188,-0.00251,-0.0739,-0.0797,0.11,0.00641,-0.0794,-0.0177,-0.11,0.147,0.0506,-0.03,0.157,0.121,0.00416,-0.0702,-0.271,-0.125,0.0666,-0.0683,-0.117,-0.0384,-0.165,0.094,-0.0241,0.25,0.0178,0.0382,-0.0363,0.0663,0.0706,0.0158,0.126,-0.0718,-0.0756,-0.115,0.186,0.0239,0.0224,0.114,-0.115,0.116,0.109,-0.0717,0.131,0.0729,-0.0227,0.0901,-0.0384,0.0114,0.000418,0.105,0.147,0.115,0.0491,0.21,0.0728,0.139,0.0426,-0.00708,0.0781,0.0803,0.065,-0.0975,-0.0652,0.0728,-0.105,0.0291,0.00683,0.0561,0.0352,-0.0498,0.147,0.181,0.133,-0.0244,0.0102,0.00731,0.125,0.112,-0.0117,0.0121,-0.00505,0.112,0.101,0.0341,-0.0368,-0.0124,0.14,0.0563,0.106};
float f5_1_bias[64] = {0.0214,-0.0954,0.0671,-0.0885,0.0654,-0.0554,-0.0745,-0.0355,-0.174,-0.0715,0.00564,0.103,0.196,0.104,0.0208,-0.00277,0.117,0.0376,0.0767,-0.175,-0.313,-0.00745,-0.119,-0.00031,-0.0115,-0.0175,-0.00642,-0.022,0.197,-0.0416,0.0583,-0.231,0.0454,-0.0139,-0.0383,0.00521,-0.041,-0.116,-0.0995,-0.1,0.0624,0.18,-0.115,-0.0197,0.00685,-0.165,-0.102,-0.133,0.0117,-0.0288,0.0512,-0.0932,-0.0222,-0.00589,-0.139,-0.0621,-0.21,-0.0142,-0.0491,-0.0974,-0.128,0.0745,-0.0586,-0.306};
float f5_2_weight[64*1*3*3] = {0.63,-0.492,-0.0151,0.26,0.186,-0.0583,-0.0834,-0.297,0.23,-0.4,0.134,-0.184,-0.672,0.867,-0.0571,0.197,0.326,-0.606,0.487,-0.12,-0.552,-0.73,-0.332,0.0385,-0.52,0.306,-0.991,-0.0368,0.105,0.0345,-0.44,-0.574,0.0879,-0.119,-0.209,0.998,-0.173,-0.12,-0.139,0.277,0.135,0.485,0.606,0.11,0.542,-0.28,0.0875,0.055,-0.0389,0.498,-0.465,0.301,-1.81,0.243,-0.568,-0.134,-0.0506,-0.16,0.109,-0.4,-0.042,0.339,0.441,-0.93,0.615,-0.204,-0.353,0.391,0.114,-0.518,-0.191,-0.411,0.287,-0.0925,0.432,-0.0602,-0.224,0.493,-0.0658,-0.251,0.211,-0.266,1.13,-0.0386,-0.754,-0.965,-0.503,0.368,0.191,0.0221,-0.924,-0.334,0.259,0.396,-0.6,-0.653,0.142,-0.379,-0.239,0.885,-0.429,0.186,0.0101,-0.129,0.125,0.903,0.516,0.0601,-1.07,-0.00738,-0.199,0.116,0.011,0.724,-1.21,0.18,-0.658,-0.0105,-1.06,-1.28,0.137,0.0617,0.0481,-0.547,-0.28,0.299,0.885,0.478,0.214,-0.456,-0.178,0.262,0.0947,-0.442,-0.366,-0.232,0.343,-0.202,-0.0555,0.96,0.943,0.251,-0.208,0.139,0.282,-0.0231,0.166,0.205,-0.516,-0.331,-0.588,-0.162,0.0365,0.00146,-0.224,-0.294,0.0547,0.331,-0.223,-0.425,0.184,-0.482,-0.0507,0.114,-0.423,0.117,-0.165,-0.204,0.361,0.757,0.697,-0.45,-0.643,-0.502,-0.139,0.107,-0.129,0.453,-0.414,0.224,0.107,0.0561,-0.541,-0.292,-0.381,-0.269,0.264,-0.207,-0.527,-0.53,0.812,0.727,0.347,-0.187,0.283,0.203,0.252,-0.0731,-0.0362,0.252,0.346,-0.774,0.806,-0.295,-0.164,0.41,-0.0138,0.0392,0.31,-0.492,-0.0383,0.0205,-0.038,-0.268,0.166,0.934,-0.651,0.497,-0.466,-0.257,-0.587,0.474,-0.658,-0.506,0.0809,0.212,-0.738,0.717,-0.101,-0.589,-0.128,0.0222,0.336,-0.551,0.105,-0.059,0.176,0.0115,1.11,0.0697,0.0305,-0.0787,-0.601,0.224,-0.345,0.379,-0.689,0.0411,-0.696,-0.467,0.328,-0.743,-0.108,0.159,0.189,-0.461,0.151,-0.298,0.255,0.59,0.0975,-0.571,-0.493,1.85,0.676,-0.375,1.02,0.501,-0.165,0.13,-0.247,-1.54,0.456,-0.572,0.267,0.55,-0.0721,-0.573,-0.136,1.22,-0.33,0.122,0.0603,-0.518,-2.33,1.57,-0.134,0.00269,0.31,-0.185,-0.337,0.156,-0.146,-0.13,-0.095,-0.337,0.32,-0.371,0.0253,-0.58,-1.24,-0.127,0.933,0.312,-0.176,0.385,-0.946,0.328,0.012,0.311,0.816,0.0127,-0.854,-0.247,0.289,-0.488,-0.355,0.513,0.433,-0.19,0.0976,-0.312,0.138,0.516,0.178,-0.349,-0.357,0.688,0.249,-0.21,-0.409,0.71,0.6,-0.254,-0.582,-0.57,0.188,-0.429,0.0653,0.383,-0.586,-0.492,-0.372,-0.119,0.154,0.0938,0.61,-0.0844,0.0825,1.41,-0.0857,-0.027,0.445,-0.52,-0.0858,-0.0116,-0.21,0.177,-0.195,-0.125,0.323,1.11,0.102,-0.356,-0.927,-0.783,-0.42,0.28,-1.19,0.613,-0.257,0.189,0.082,0.13,0.757,0.0718,-0.554,-0.0981,0.212,0.169,-0.542,-0.347,1.03,0.34,0.132,-0.199,0.697,0.158,0.343,-0.099,-0.423,-0.115,0.672,-0.334,-0.873,0.248,-0.517,-0.0711,-0.178,-0.0496,0.0746,0.112,0.0518,0.572,-0.0923,-0.334,0.0796,0.151,-0.106,0.419,0.06,0.0118,0.108,-0.284,-0.665,-0.262,0.367,0.23,-0.785,0.665,-0.0528,-0.776,-0.623,-0.982,0.393,-0.276,-0.481,-0.625,0.147,-0.1,0.67,0.205,-0.00248,-0.225,-0.069,0.286,0.0144,0.398,-0.211,-0.0292,-0.125,-0.503,0.563,-0.478,-0.323,0.455,-0.127,-0.758,0.105,-0.0359,1.18,0.492,0.223,-0.494,-0.412,0.462,0.602,-0.699,-0.978,0.708,0.216,-0.549,-0.616,-0.213,0.206,0.12,0.168,0.593,0.0889,-0.628,-0.0188,0.26,-0.964,0.199,0.326,-0.229,-0.343,-0.552,-0.0107,-0.00291,0.395,-0.0405,-0.858,0.442,0.031,-0.51,-0.406,-0.233,0.152,-0.463,-0.609,-0.551,-0.171,-0.864,1.01,0.407,0.0264,-0.237,-0.0108,0.267,0.0557,0.27,1.24,0.1,-0.236,-0.671,0.375,0.0507,-0.333,1.14,0.0523,-0.823,0.00675,-0.185,0.911,0.13,0.218,-0.119,-0.324,0.0836,0.405,-0.723,-0.837,0.116,0.513,-0.507,-0.251,-0.125,0.316,-0.0621,0.00897,0.294,-0.408,-0.491,-0.0304,-0.0122,-0.466,0.141,0.35,-0.306,0.119,0.175,-0.144,-0.0231,0.213,-0.254,-0.214,0.168,-0.164,-0.0241,-0.455,-0.12,0.252,0.514,-0.339,-0.647,-0.152,-1.23,0.117,0.282,-0.309,0.0298,0.135,0.298,0.0328,0.143,0.804,0.0424,-0.219,-0.524,0.428,0.0406,-0.299,-0.214,0.358,-0.17};
float f5_2_bias[64] = {0.149,0.00321,-0.0897,0.742,0.248,-0.24,0.418,-0.66,0.593,0.339,-0.291,-0.143,-0.155,0.0226,0.133,0.294,0.328,-0.209,-0.784,0.866,0.0267,-0.212,0.154,0.269,0.327,0.37,-0.129,-0.75,-0.249,-0.261,0.535,0.00403,-0.13,0.194,-0.0291,-0.374,0.132,-0.0409,0.0831,-0.00257,0.0768,-0.0241,-0.00121,0.246,-0.368,0.141,-0.212,0.906,-0.101,0.0639,-0.0746,-0.388,-0.481,0.156,-0.541,-0.158,0.331,-0.102,0.225,0.122,0.226,0.045,0.176,-0.104};

