// Auto generated data file
// Copyright (c) 2018-2021, Shiqi Yu, all rights reserved.
#include "facedetectcnn.h" 

float f0_weight[16* 32 * 1 * 1] = {0.00174,0.00102,-0.00018,-0.00192,-0.00152,0.00159,-0.00189,-0.000107,0.00185,0.00159,0.00181,0.00209,-0.00404,-0.00265,0.00271,-0.00405,-0.00145,0.00281,0.00315,0.00165,0.000425,-0.0019,-0.00221,0.00154,-0.00235,-0.00128,0.00151,0,0,0,0,0,-0.00241,-0.000375,0.00115,-0.00163,-0.00112,0.00182,0.00199,-0.000445,0.000489,-0.00394,-0.000885,0.00264,-0.00354,-0.00159,0.00372,0.000932,-0.00032,0.00255,-0.00284,-0.000165,0.00273,-0.00328,-0.00146,0.00338,0.000995,-0.000428,0.00211,0,0,0,0,0,0.000531,-0.000159,-0.0014,0.00286,0.000208,-0.00313,0.000315,-4.28e-05,0.00104,0.00197,-0.000201,-0.00295,0.00493,1.56e-05,-0.00549,0.00175,-0.00053,-0.00107,0.00146,-6.29e-05,-0.00136,0.00447,0.000105,-0.00411,0.00125,-0.000827,-0.000159,0,0,0,0,0,0.00124,-0.00106,0.000544,0.000165,-0.00224,-0.000693,0.000361,0.0016,0.00017,0.000589,-0.00207,0.000318,-0.00141,-0.00402,-0.00195,0.000736,0.00237,0.00114,0.00103,-0.000766,0.000147,-0.000872,-0.00198,-0.000968,0.000597,0.00408,0.00263,0,0,0,0,0,0.00151,0.00273,0.00213,-0.00106,-0.00126,0.000597,-0.000467,-0.00326,-0.00237,0.00612,0.00775,0.00557,-0.00109,-0.000863,6.64e-06,-0.00392,-0.00559,-0.00531,0.00206,0.00233,0.00305,-0.000963,-0.00233,0.000925,-0.000646,-0.00415,-0.00181,0,0,0,0,0,-0.00146,0.00222,-0.00116,-0.00485,0.00609,-0.00137,-0.0024,0.00512,-0.00223,-0.0015,0.0039,-0.00101,-0.00564,0.00726,-0.00198,-0.00358,0.00573,-0.00334,-0.00187,0.00196,-0.000676,-0.00555,0.00592,-0.00042,-0.00349,0.00501,-0.000872,0,0,0,0,0,-0.000335,-3.18e-05,-0.000421,-5.19e-05,-0.000358,-0.00152,-0.000241,-0.000983,-0.00172,0.000772,0.00113,0.000868,0.00136,0.00141,0.000604,0.00177,0.00172,0.00164,0.000378,-0.000244,0.001,-0.000193,-0.00115,-0.000408,0.00104,-5.61e-07,0.00126,0,0,0,0,0,-0.000252,0.000218,0.000166,-0.000101,-0.000702,-9.45e-05,0.00108,0.000252,0.000315,-0.000907,-0.000708,-0.000605,-0.00085,-0.0017,-0.000882,-0.000216,-0.00103,-0.000638,0.00011,0.000382,-0.000336,-1.18e-05,-0.000335,0.000282,-0.000254,-0.000299,0.000585,0,0,0,0,0,0.0004,0.00231,0.000386,0.000866,0.00137,0.000271,-0.00122,-0.00293,-0.00146,0.00191,0.00421,0.00207,0.00111,0.0015,0.000779,-0.00349,-0.00593,-0.00351,0.0006,0.0036,0.00133,0.00069,0.0018,0.000827,-0.00227,-0.00387,-0.00178,0,0,0,0,0,-4.78e-05,0.000139,4.18e-05,0.000755,0.000608,0.000175,0.000133,0.000164,-0.000255,0.000993,0.0012,0.00114,0.00176,0.00158,0.00115,0.00132,0.0013,0.000878,-0.00156,-0.00162,-0.000631,-0.00172,-0.0021,-0.00134,-0.00127,-0.00144,-0.000691,0,0,0,0,0,-0.000573,-0.000419,0.000136,-0.00134,-0.00139,-0.000706,-0.00148,-0.00141,-0.000495,0.000314,0.000438,0.000714,0.000156,5.69e-05,0.000365,7.85e-05,0.000138,0.000689,0.000204,0.000173,-0.000875,0.0013,0.000899,-0.000182,0.00147,0.00122,0.000396,0,0,0,0,0,-0.000129,8.98e-05,-0.00128,-7.94e-05,0.000313,-0.001,-0.000806,-0.000614,-0.00109,0.00092,0.00219,0.000721,0.00119,0.00265,0.00104,0.000663,0.00175,0.000816,-0.0014,-0.000307,-0.000271,-0.000826,4.49e-05,-0.000614,-0.000327,4.63e-05,-0.000314,0,0,0,0,0,2.38e-06,-0.000198,-0.000521,8.27e-05,0.000194,-0.000368,-1.11e-05,-0.000266,-0.000959,0.00185,0.00238,0.00312,0.00165,0.0024,0.00291,0.00159,0.00191,0.0022,-0.00266,-0.0025,-0.00122,-0.0027,-0.00264,-0.00163,-0.0013,-0.00177,-0.00121,0,0,0,0,0,0.000574,0.000867,0.000613,0.000628,0.00114,0.00016,0.000179,0.000303,0.0002,-0.0013,-0.00063,-0.000708,-0.000879,2.4e-05,-0.00109,-0.000799,-0.000444,-0.000814,-0.000303,0.00133,-0.000185,0.00107,0.003,0.000402,3.2e-05,0.00125,-0.000492,0,0,0,0,0,0.00044,0.00319,0.0013,-0.000676,-0.0033,-0.00188,0.00185,-0.00113,-0.000206,0.00209,0.00555,0.00331,-0.00145,-0.0046,-0.00352,0.00208,-0.00201,-0.00113,0.000566,0.00492,0.00368,-0.00142,-0.00363,-0.00191,0.000948,-0.00199,-0.00043,0,0,0,0,0,-9.16e-05,-0.000161,-3.59e-05,-8.83e-05,-0.000371,-0.000294,0.000273,-0.000231,-0.000368,-0.000777,-0.00103,-0.000724,-0.000811,-0.00121,-0.000798,-4.25e-05,-0.000396,6.05e-05,0.000212,-0.000368,-0.00027,-0.000283,-0.000828,-0.00023,-0.00034,-0.00063,0.000247,0,0,0,0,0};
float f0_bias[16] = {0.24,0.209,0.263,0.15,-0.448,0.00848,-1.43,0.54,0.233,0.34,0.108,0.298,-0.321,0.0567,0.306,0.383};
float f1_1_weight[16*16*1*1] = {-0.413,-0.145,0.0374,0.125,0.725,-0.116,0.0234,0.11,-0.63,-0.085,0.068,-0.0181,0.0135,0.101,-0.305,-0.000569,0.308,0.293,-0.107,-0.135,-0.0494,0.000768,0.0415,-0.0185,-0.00627,0.0847,-0.00681,0.211,-0.0887,0.253,-0.0872,-0.0801,-0.135,-0.152,0.244,-0.206,-0.211,0.0228,0.111,-0.134,0.289,0.0805,0.092,-0.169,-0.00992,0.0522,0.255,-0.116,0.213,0.0426,-0.202,-0.212,-0.252,0.00174,0.0378,-0.172,0.289,0.0132,0.0199,-0.0559,-0.0801,0.11,0.14,-0.191,0.0152,0.0722,0.117,0.136,0.0679,0.112,0.187,0.21,0.0622,0.736,-0.0503,0.0378,-0.35,-0.198,-0.056,0.274,0.0796,-0.00369,0.0969,0.076,-0.0427,0.0754,0.175,0.432,0.12,-0.177,0.158,-0.351,0.154,-0.442,-0.0582,0.588,-0.0746,-0.0335,-0.0719,-0.31,-0.0392,-0.12,0.0982,-0.287,0.316,-0.0759,-0.0116,-0.182,0.112,0.026,-0.238,-0.337,-0.00105,0.0121,0.0042,-0.113,0.0734,-0.0239,-0.0876,-0.329,-0.0558,-0.521,0.151,0.647,-0.233,-0.553,-0.0379,-0.0813,0.005,0.0776,-0.0334,-0.0225,0.0327,-0.0124,0.37,-0.0842,-0.0133,0.162,0.218,0.299,-0.0135,0.57,0.0648,-0.286,0.0507,0.036,0.0725,-0.0208,0.0455,0.107,0.494,0.232,-0.0468,0.0175,-0.27,-0.619,0.53,0.489,-0.0244,0.0873,0.372,0.665,-0.167,0.0229,-0.0588,-0.488,-0.0366,0.0472,0.161,0.122,-0.0178,0.0526,-0.0672,-0.0636,-0.0495,0.0382,-0.0196,0.245,-0.592,0.0294,0.333,0.152,-0.0119,0.0703,-0.458,-0.0983,0.0513,-0.0176,-0.0064,0.122,-0.378,-0.00932,-0.297,-0.116,0.671,0.284,0.373,-0.0433,-0.0295,-0.071,-0.385,0.0814,-0.0212,0.113,-0.0321,0.0057,-0.278,-0.0231,0.00817,-0.0104,-0.0026,-0.0533,-0.0242,-0.00185,-0.315,-0.236,-0.0122,-0.0621,-0.846,0.358,-0.464,-0.347,0.0318,-0.0656,-0.249,0.118,-0.0116,-0.201,0.177,-0.0659,0.113,-0.0496,-0.0185,-0.0246,0.0738,-0.127,0.00618,0.0196,-0.506,-0.0672,0.155,-0.55,-0.16,-0.167,-0.49,-0.146,0.0665,-0.0173,0.469,-0.0737,-0.00574,-0.0958,0.0568,-0.0433,0.435,0.0507};
float f1_1_bias[16] = {0.51,-0.1,0.106,0.158,-0.393,0.32,0.285,0.0627,-0.00202,-0.079,-0.21,0.0644,0.0565,0.549,-0.136,-0.0832};
float f1_2_weight[16*1*3*3] = {0.0728,0.629,-0.281,-0.48,0.00141,-0.1,0.698,0.189,0.229,-0.198,0.069,-0.202,-0.21,-0.312,-0.32,0.025,0.629,0.339,-1.66,-1.38,-0.497,0.369,1.68,-1.19,0.382,-0.663,-0.754,-0.0323,-0.208,0.733,-1.43,0.165,0.202,-1,-0.683,-1.27,-0.406,0.311,1.16,0.0615,0.171,-0.529,-0.0304,0.749,0.108,0.582,-0.682,0.241,0.285,0.106,-0.36,0.132,0.0706,-0.211,-0.559,0.046,0.0105,-0.212,0.298,-0.303,0.358,0.13,0.67,0.27,0.525,1.31,0.158,1.26,-0.643,0.913,-1.63,-0.649,0.459,-0.366,-1.22,1.01,-1.19,0.284,1.8,0.873,0.748,-1.75,1.35,-0.00297,-0.408,0.0758,-1.06,-1.19,0.194,-0.403,0.21,0.193,-0.602,0.476,1.01,0.75,-0.0354,0.264,0.203,0.294,0.249,0.115,-0.185,-0.312,0.112,0.0247,-0.0798,-0.0158,0.109,-0.00397,0.0037,-0.0579,0.134,0.348,0.761,0.661,-0.182,-0.0254,0.0554,0.352,-0.326,-0.0959,-0.232,0.127,0.455,-0.0977,-0.157,0.128,0.16,-0.232,0.23,0.598,0.144,-0.0118,-0.0684,0.237,0.131,-0.146,-0.104,0.118,-0.363,-0.154,0.128,-0.363};
float f1_2_bias[16] = {-0.369,-0.011,0.0154,0.0226,0.277,0.693,-0.00273,-0.089,-0.0318,-0.0698,0.136,0.425,0.109,0.308,0.449,0.212};

float f2_1_weight[16*16*1*1] = {-0.35,-0.125,0.473,-0.508,-0.000634,0.227,-0.133,0.068,0.225,-0.0909,-0.067,0.408,-0.732,-0.0231,-0.0544,0.215,0.323,-0.701,0.126,0.191,0.0803,-0.0204,0.206,-0.106,0.0587,-0.0588,-0.797,-0.122,-0.16,0.00789,0.231,0.161,-0.141,-0.031,-0.0773,-0.153,-0.316,0.258,-0.236,0.0449,-0.214,0.28,0.0125,0.00563,-0.0868,0.181,-0.194,-0.179,0.331,-0.00434,0.11,0.227,0.105,-0.203,-0.265,-0.153,-0.289,-0.139,-0.134,0.161,-0.022,-0.00529,-0.0796,-0.108,0.148,-0.168,-0.671,0.463,0.05,0.0583,-0.0781,0.041,0.178,-0.0932,-0.181,-0.631,0.484,-0.0161,-0.0496,-0.317,0.0209,0.0101,-0.00337,0.00181,0.288,-0.0577,-0.0187,-0.422,0.209,0.455,-0.0445,0.00376,0.00349,-0.467,-0.0255,0.00435,-0.0865,0.0461,-0.0115,-0.0323,0.255,-0.56,-0.0954,-0.0111,0.492,0.0536,-0.0354,-0.0187,-0.048,-0.171,-0.0951,-0.0381,-0.46,-0.165,-0.117,-0.261,0.123,-0.317,-0.191,0.147,-0.369,0.203,-0.189,-0.0314,0.0912,-0.185,-0.3,-0.0134,0.0641,0.0345,-0.0365,-0.0232,0.0924,0.678,-0.00956,-0.0191,-0.165,0.138,0.102,0.0545,0.0127,-0.522,0.0121,0.0158,0.0267,0.0725,0.0201,0.0162,0.4,-0.4,0.00915,0.022,0.733,-0.133,-0.0149,0.0044,0.0191,-0.146,0.00173,-0.0126,-0.0827,-0.0397,-0.0392,0.0196,0.251,-0.588,-0.0802,-0.0735,0.00588,0.0297,-0.0661,-0.195,-0.00815,-0.283,-0.00803,-0.152,-0.122,0.0211,-0.00886,0.00431,0.582,-0.089,0.0382,-0.694,-0.564,-0.504,0.0102,0.00425,0.0136,-0.663,0.0151,0.0568,-0.052,0.291,-0.111,-0.156,0.115,0.294,-0.626,-0.169,0.182,-0.12,0.177,0.111,0.0725,0.187,-0.657,-0.319,-0.219,0.042,0.256,0.135,0.044,0.3,0.0762,-0.115,0.341,-0.154,0.0171,-0.0079,0.166,0.246,-0.0748,0.562,0.466,-0.356,-0.0122,0.118,0.0497,-0.104,0.0686,-0.0987,-0.191,-0.0104,-0.142,-0.497,-0.324,-0.0246,-0.00222,0.441,0.0661,0.0473,-0.00167,-0.0186,-0.505,-0.146,-0.029,-0.274,-0.108,0.566,-0.0145,0.015,0.00784,0.475,-0.052,0.0297};
float f2_1_bias[16] = {-0.0488,-0.00259,0.17,-0.0875,-0.208,-0.0994,0.294,0.0982,-0.245,-0.398,0.643,0.211,0.00912,-0.0337,-0.0122,-0.129};
float f2_2_weight[16*1*3*3] = {0.0714,0.0197,-0.156,-0.0316,0.0824,0.432,-0.124,-0.081,-0.361,-0.461,-0.0392,0.0653,0.0695,0.0849,0.016,-0.394,0.2,0.04,-0.257,-0.25,0.115,1.16,-0.234,0.133,-0.892,-1.15,0.479,-0.201,0.0552,-0.08,0.203,-1.41,0.0949,0.106,0.462,0.0195,0.056,0.415,0.49,-0.105,-0.225,-0.187,-0.274,0.124,0.0214,0.0278,-0.0273,-0.266,-0.0194,0.0388,-0.916,-0.00888,0.0805,0.034,-0.437,0.165,-0.0372,-0.207,0.494,-0.113,-0.0016,-0.0195,-0.138,0.0591,0.732,0.845,0.000987,1.5,0.879,-0.5,-1.12,-1.08,-0.372,0.485,1.85,1.07,0.951,1.05,1.1,0.363,0.123,0.11,0.737,-0.0177,0.135,0.167,1.56,0.0772,-0.205,-0.0812,-1.03,-0.188,-0.215,-0.154,-0.103,0.125,0.0435,0.025,-0.211,0.163,0.067,-0.00319,-0.0515,0.00617,0.29,0.133,-0.0617,0.00742,0.0322,0.079,0.0346,0.151,0.0356,0.0735,-0.07,-0.395,0.117,-1.64,-0.384,0.0563,1.82,1.32,-1.08,0.066,0.133,-0.0528,0.000752,1.08,0.0987,0.0421,0.428,-0.0089,0.0429,-0.122,0.336,-0.0102,0.155,0.183,0.116,0.00187,0.0293,0.103,0.044,0.197};
float f2_2_bias[16] = {0.471,0.519,0.287,0.537,0.665,0.154,0.211,-0.131,0.107,0.122,0.397,1.3,0.389,-0.418,0.79,0.247};

float f3_1_weight[64*16*1*1] = {-0.0387,0.117,-0.0726,0.158,0.0565,0.0613,-0.046,0.0268,0.11,0.194,-0.162,-0.157,-0.512,0.222,0.0839,0.0493,-0.424,-0.105,0.0179,-0.0343,0.157,0.051,0.00322,0.171,0.0391,-0.111,-0.0191,-0.00271,0.0947,0.0466,-0.0901,0.0508,-0.0939,-0.268,0.00808,-0.108,0.0582,-0.112,0.138,0.077,-0.126,-0.184,0.135,0.0327,0.294,-0.129,-0.17,-0.133,0.0327,0.174,-0.448,0.101,-0.0122,0.021,0.31,-0.0695,0.00805,0.171,-0.167,-0.0426,0.0773,0.0911,-0.178,0.0563,0.00318,-0.0324,-0.0403,-0.153,0.0295,-0.441,-0.137,-0.104,0.389,-0.00459,-0.0621,0.013,-0.103,0.0117,-0.035,-0.0575,0.0547,0.0456,-0.0528,-0.0228,0.033,-0.0556,-0.0973,-0.106,-0.012,-0.0617,0.0527,-0.786,-0.0386,-0.102,-0.066,-0.0212,0.256,-0.327,0.12,-0.112,-0.232,0.056,0.0336,-0.0703,0.00265,-0.0557,0.0661,0.114,-0.145,0.133,-0.0652,0.0862,-0.0648,-0.112,0.0371,-0.232,-0.0409,0.103,0.0214,0.0799,-0.0494,0.0269,-0.158,0.243,-0.236,0.129,-0.0188,0.0864,0.0691,-0.0985,-0.0717,-0.135,-0.227,-0.107,0.44,-0.133,-0.172,0.0557,-0.1,0.068,-0.0379,-0.0378,0.0206,-0.0601,0.00789,-0.0407,0.0266,-0.0512,0.0721,0.0735,-0.0302,0.0984,0.212,-0.00293,-0.213,0.642,0.0185,-0.0376,-0.0319,0.0394,0.024,0.0442,-0.0983,-0.207,0.047,0.468,-0.131,-0.0446,0.278,0.349,-0.0116,-0.207,-0.0785,-0.0691,0.0581,0.507,-0.0547,0.245,0.012,0.196,0.0617,0.131,-0.0143,0.139,0.211,0.215,-0.208,-0.129,-0.261,0.0853,0.141,0.117,0.447,0.0959,-0.19,0.161,-0.515,-0.057,0.0383,-0.056,-0.0346,-0.0282,0.0868,0.0282,-0.142,0.109,-0.0764,0.047,0.0281,0.152,0.0566,-0.0324,-0.0145,-0.0462,-0.0644,0.0544,-0.0317,-0.0665,-0.0781,-0.213,0.0851,-0.0371,-0.0599,0.677,-0.132,0.0895,-0.0468,-0.0174,-0.189,-0.0573,-0.0992,-0.0409,-0.287,-0.209,0.0264,0.219,-0.56,-0.0894,0.104,-0.146,0.026,-0.014,-0.00115,-0.0998,0.033,0.0345,-0.0464,-0.0475,0.0319,0.0204,-0.187,-0.668,-0.0342,0.0452,-0.0219,0.0243,0.0661,-0.136,0.107,0.128,-0.0822,-0.0576,-0.0881,0.0997,-0.0666,0.0654,0.0818,-0.0026,0.15,-0.104,0.191,-0.0368,0.0773,-0.198,0.0995,-0.198,0.0629,-0.0799,0.0653,0.0292,0.0222,-0.0529,0.0505,-0.114,0.381,-0.274,0.204,-0.105,0.0404,-0.196,-0.00599,-0.279,-0.0146,-0.0926,0.0268,-0.296,-0.0679,-0.742,0.0541,0.116,0.0127,0.0328,0.0505,-0.0769,-0.155,-0.196,-0.183,0.0378,-0.0754,0.0635,0.0867,0.321,0.0247,0.0328,-0.063,-0.174,0.000607,0.292,-0.274,0.0505,0.203,0.297,-0.19,-0.0177,-0.0943,0.0144,0.177,-0.399,0.0308,-0.101,-0.109,0.114,-0.191,0.11,-0.121,-0.0171,0.031,0.185,-0.0694,0.00859,0.0814,0.0513,-0.146,-0.226,0.0165,-0.0272,-0.0593,0.512,-0.0362,-0.195,0.141,0.0385,0.127,-0.216,-0.00528,-0.191,-0.301,-0.193,0.0535,0.178,-0.237,-0.29,-0.0548,-0.0191,0.139,-0.0988,-0.229,-0.116,-0.0389,0.0604,-0.00461,0.0957,-0.0244,-0.06,0.0552,0.135,0.00531,-0.0108,-0.1,0.169,-0.168,-0.4,-0.0231,-0.0274,0.379,0.343,0.0872,0.135,-0.0487,0.00446,0.0146,-0.201,0.0505,0.0672,0.0555,-0.0822,-0.152,0.224,0.195,-0.0088,0.12,0.0773,0.042,0.0492,0.0651,-0.238,-0.00958,-0.282,-0.239,-0.122,0.149,0.307,-0.0564,-0.161,0.0804,-0.176,-0.0382,-0.0843,0.00692,-0.0502,-0.124,0.0372,0.0512,-0.393,-0.0497,-0.0203,0.235,0.303,0.124,0.206,0.0927,0.023,0.0592,-0.0303,0.0118,0.031,0.0546,-0.0571,0.108,-0.193,0.0286,0.0563,-0.0468,0.0944,0.275,-0.377,0.206,-0.0993,-0.0505,-0.281,0.0355,-0.241,-0.0322,-0.0135,0.0806,-0.1,0.0485,-0.118,-0.185,-0.0465,0.13,0.112,-0.103,-0.0267,0.304,-0.137,0.117,0.0941,-0.248,-0.0797,0.173,-0.00174,-0.048,0.00985,0.154,-0.0109,0.13,0.103,-0.141,-0.059,-0.114,0.0199,-0.0604,-0.0668,0.0939,0.074,-0.0232,0.0874,0.0337,0.00455,-0.238,-0.507,0.0115,0.12,-0.18,0.0109,-0.0256,0.0101,0.0765,0.0182,0.0165,-0.158,-0.185,-0.235,-0.289,-0.0733,-0.192,-0.136,-0.176,-0.0425,0.0897,-0.144,0.247,-0.0815,0.0201,-0.0243,-0.194,-0.0715,-0.322,-0.0178,-0.115,0.00619,0.157,0.0727,0.133,0.00513,0.182,-0.0937,0.156,0.0364,-0.15,-0.0232,0.0134,-0.153,0.056,-0.225,-0.0211,0.0441,0.0448,0.0646,0.294,-0.294,-0.172,-0.177,0.115,0.139,0.076,0.16,-0.239,-0.0659,0.279,0.13,-0.14,0.0549,-0.032,-0.0801,0.11,0.012,-0.525,-0.0433,-0.0403,-0.0696,0.0381,0.221,-0.105,0.00785,0.0316,0.149,-0.174,-0.0982,-0.046,0.0724,0.201,-0.37,0.0136,-0.0843,0.115,-0.112,0.0765,0.0238,-0.0358,-0.106,0.00949,-0.161,-0.236,-0.065,0.272,0.091,0.234,-0.294,-0.0427,-0.0433,-0.0788,-0.204,0.0497,0.0149,-0.0104,-0.0814,-0.00544,0.171,-0.157,-0.138,-0.026,-0.00606,0.0488,-0.284,0.315,-0.0963,0.0973,-0.0192,-0.102,-0.0555,0.149,0.38,0.00293,0.0155,-0.286,-0.27,0.101,-0.047,-0.125,0.0438,-0.0601,0.284,-0.152,0.0461,-0.257,-0.0511,0.324,0.0225,-0.0566,-0.286,-0.000273,-0.0517,0.0197,0.0645,0.317,-0.202,0.0655,-0.0492,0.149,0.288,-0.0816,0.00535,0.151,0.0362,-0.0104,-0.32,-0.00434,0.109,0.039,0.218,-0.063,-0.1,0.203,0.0221,0.214,0.072,-0.0534,0.0175,-0.31,-0.0204,0.179,-0.0263,0.0316,-0.0466,-0.118,-0.0338,-0.0892,0.12,-0.229,9.51e-05,0.414,-0.0381,0.0438,0.0806,-0.292,-0.2,-0.128,0.119,-0.158,0.0107,0.0301,-0.0208,0.142,-0.214,0.132,-0.0711,-0.182,-0.101,0.238,0.0473,-0.0291,-0.0244,0.0258,0.251,0.0498,0.0588,-0.154,-0.251,-0.113,0.00716,0.0262,-0.0411,0.325,-0.00355,0.0107,0.158,-0.212,0.0666,-0.106,-0.022,-0.00134,0.0944,0.0745,-0.2,-0.061,0.151,0.0535,0.0104,0.131,0.296,0.106,0.00504,0.135,0.0454,0.0576,-0.379,0.0725,-0.035,0.0354,-0.194,0.186,-0.156,0.0902,0.0194,-0.0122,-0.313,0.0505,-0.0521,-0.0419,0.0784,0.0821,0.135,0.0796,-0.132,0.123,0.106,0.228,0.123,-0.114,0.0512,-0.103,0.134,-0.0963,-0.0415,-0.0263,0.0263,0.272,-0.201,0.0601,-0.117,-0.0857,0.0279,-0.0538,-0.149,-0.0743,0.01,0.261,-0.01,-0.255,0.0711,-0.223,0.0347,-0.236,-0.0926,0.0398,-0.072,-0.107,0.0858,0.0465,0.0497,0.0806,0.0358,0.068,0.0181,0.13,0.00137,-0.16,0.0174,-0.164,0.261,-0.0129,-0.0354,-0.349,0.0901,-0.189,0.0974,-0.0748,-0.0248,-0.00904,0.0133,0.0251,-0.0999,0.0122,-0.0369,0.0148,0.0384,-0.0625,-0.0504,0.0682,-0.669,0.047,0.0315,-0.0582,-0.0324,-0.0429,0.075,-0.0925,-0.0504,0.0123,-0.0158,-0.0353,-0.166,0.0146,0.86,-0.107,0.0165,-0.00112,0.0288,0.0955,0.0686,-0.0686,-0.107,0.0917,-0.0775,0.113,0.182,-0.0599,0.149,0.105,0.00664,0.287,-0.0436,-0.0969,0.133,0.203,0.0937,-0.0329,0.00311,0.00395,0.0519,-0.0626,-0.412,0.0649,0.00784,-0.214,-0.163,0.0557,0.0907,0.0192,0.0275,-0.026,0.416,0.125,0.121,0.0485,-0.0506,-0.0918,-0.108,-0.723,0.0984,-0.0653,0.0468,0.153,0.0513,-0.0628,-0.0823,0.158,-0.0486,0.0134,0.197,-0.0205,0.0894,-0.164,0.154,-0.0302,-0.188,0.175,0.0732,0.413,-0.0592,-0.0862,0.461,0.172,0.00834,0.0321,-0.045,0.00036,-0.133,-0.00797,-0.0824,-0.0266,-0.0255,-0.143,-0.0249,-0.122,-0.0876,0.278,-0.368,0.0174,-0.113,-0.00914,0.19,-0.685,0.0759,0.14,-0.0156,-0.185,-0.112,0.0326,0.0396,0.156,0.0469,-0.104,0.0952,0.0784,0.0132,0.137,0.284,-0.0373,-0.00403,0.186,0.046,-0.076,-0.284,0.0919,-0.0256,-0.0419,0.0999,-0.0687,-0.158,0.156,0.0583,-0.104,-0.169,-0.0684,-0.172,0.0891,0.0542,0.165,-0.212,-0.0348,-0.124,-0.00611,-0.00675,0.193,0.108,-0.175,0.0266,0.435,-0.121,-0.0122,-0.0365,-0.507,0.131,-0.179,-0.0645,0.181,0.059,0.0581,-0.0142,0.0489,0.108,0.0439,0.0803,0.317,-0.257,0.049,-0.041,-0.0958,0.131,-0.229,0.0717,0.142,-0.0133,0.417,-0.104,0.151,0.16,0.153,0.0294,-0.273,-0.21,0.0571,-0.0481,-0.0943,-0.0331,-0.295,-0.018,0.235,0.129,0.116,0.23,0.078,-0.312,-0.227,0.0367,-0.00356,0.0425,-0.0729,-0.217,0.103,0.00858,0.0214,-0.13,0.135,-0.223,0.175,-0.144,-0.0248,0.049,-0.0629,0.117};
float f3_1_bias[64] = {-0.0365,0.00493,-0.235,0.108,0.0454,-0.0562,-0.00988,0.0439,0.135,-0.428,0.00291,-0.108,0.28,-0.0626,0.0508,0.434,-0.0244,0.0389,0.0116,-0.0337,-0.295,-0.0111,-0.109,0.132,-0.0216,0.126,-0.0498,0.269,0.000407,-0.205,0.047,-0.286,-0.0381,0.0942,0.0839,-0.0159,-0.174,-0.0112,0.0104,0.0592,-0.141,0.173,-0.0815,-0.023,-0.1,-0.295,0.329,0.294,-0.0363,-0.222,0.216,0.0803,0.0918,-0.0149,-0.152,-0.0646,0.175,0.0363,-0.0432,-0.198,-0.023,-0.177,-0.0688,-0.112};
float f3_2_weight[64*1*3*3] = {-0.648,0.557,0.245,-0.229,-0.214,0.0505,0.415,-0.957,0.62,-1.47,0.0715,0.187,-0.0371,0.129,0.0462,-0.654,0.584,-0.172,0.125,0.477,0.661,-0.0372,-0.316,-0.0609,0.0595,-0.55,-0.495,0.187,1.95,-1.06,-0.506,0.432,-0.19,0.196,0.25,-0.00954,-0.0389,0.417,-0.3,0.105,0.746,0.941,0.842,0.281,-0.625,-0.714,1.14,1.87,1.37,0.469,0.901,-0.368,0.551,-0.046,1.03,0.0291,0.925,-0.0183,0.676,-0.514,-0.48,0.128,-0.162,0.503,-1.79,0.35,0.981,0.275,0.416,-1.05,0.494,-0.965,0.446,0.403,-0.264,0.66,-1.23,-0.487,0.187,0.161,1.77,0.113,-0.22,0.484,0.515,-0.975,-1.1,0.476,-0.061,1.48,-0.408,0.908,-1.87,0.449,-2.25,-0.17,0.239,0.0312,0.15,-0.117,-0.427,0.0472,0.568,-0.434,1.6,0.613,-0.384,-1.45,-0.0554,-0.844,1.48,-1.09,0.651,0.276,0.833,0.447,0.111,-0.428,-0.0267,0.445,1.95,0.512,0.408,1.91,0.504,-1.29,0.712,0.252,-0.4,-0.112,-1.46,-0.125,-0.0971,-0.0223,-0.157,-1.24,0.0994,1.77,0.266,0.0914,-0.199,-0.0828,0.072,0.755,-1.03,1.31,0.111,0.0545,-0.425,0.0721,0.102,0.234,0.271,0.816,-0.493,0.536,-0.0392,1.09,-0.35,0.757,-0.101,0.305,-0.738,-0.00483,-0.00568,-0.456,-0.205,-0.0994,0.563,-0.00304,-0.473,-0.67,0.0126,-1.01,0.712,0.207,-1.32,-0.142,-0.281,-0.263,-0.621,0.23,0.0632,0.0426,1.55,0.794,-0.606,-0.673,0.419,-0.0028,-0.0554,0.552,0.227,-0.634,-0.477,0.0727,-0.124,-0.0343,1.01,-0.234,0.321,-1.54,0.304,-0.0749,-0.612,-0.0526,-0.278,-2.05,-1.72,-0.00206,0.135,0.506,-0.00385,0.141,-0.119,-0.331,1.2,-1.34,-0.48,0.38,0.431,-0.0141,-0.259,-0.179,-0.466,1.89,0.309,-0.0288,-1.82,-0.5,0.0295,1.2,0.771,-0.0757,0.363,0.287,-1.47,-0.281,-1.07,1.47,0.676,0.334,1.56,0.0534,1.04,0.0363,0.685,-0.528,-0.403,-0.227,1.29,-1.22,0.642,-0.592,-0.369,-0.216,0.29,1.18,-0.24,-0.959,-1.61,-0.503,-1.28,2.57,0.625,-0.0271,-0.111,0.513,0.413,-0.869,1.29,-0.0804,-1.45,-1.47,-0.362,0.26,1.51,-2.21,-0.761,2.56,0.979,-0.395,2.44,1.64,0.574,0.0821,0.155,-0.282,0.37,-0.884,-0.944,-1.11,0.132,3,-0.157,-0.331,-0.54,0.636,1.17,2.41,-0.77,1.33,-2.45,-1.57,-0.715,0.322,0.473,-1.41,-3.11,1.46,0.0651,-0.881,-1.89,-0.107,0.164,0.898,1.11,0.00498,1.39,-1.86,0.0776,0.148,-1.08,-0.138,0.0133,-0.0156,-1.49,0.841,-0.425,1.14,0.0159,-0.00389,-0.471,0.0363,-0.0911,1.41,1.67,1.5,0.304,-0.647,-0.104,-0.966,0.712,-0.0576,-0.557,1.15,0.375,-0.428,0.132,-1.39,1.13,-0.241,-0.151,-0.188,-1.07,-0.18,0.951,-1.44,0.117,-0.438,0.182,0.431,0.594,-0.171,0.237,-0.0337,-0.554,-0.000235,-0.0534,-0.0514,-0.293,-0.33,0.524,-0.275,-0.214,-0.594,-0.931,0.132,-1.45,0.663,-0.291,0.243,0.163,-0.0887,0.103,-2.16,-0.297,-0.906,-0.00838,0.295,0.763,-0.451,0.367,-0.364,0.11,-0.628,-0.192,-0.289,-0.0473,-0.816,0.824,0.00174,0.144,0.138,-0.0689,1.72,-0.164,-0.606,0.341,-0.257,-0.1,-0.56,0.126,0.628,0.0813,0.739,-0.3,0.803,-0.0983,0.647,-0.678,-0.153,-0.0219,1.12,-0.529,-0.434,-0.364,-0.39,0.491,0.231,-0.148,0.182,-0.0586,-0.158,0.297,-0.362,0.605,-0.0776,0.0464,-0.325,-0.153,0.0276,0.772,-0.192,0.117,-0.256,0.0928,-0.356,0.57,0.18,0.756,-0.446,-0.6,0.193,-0.0654,0.236,0.226,-0.407,-1.63,-1.82,0.463,-0.363,0.421,0.572,-0.541,-0.694,2.24,-0.899,-0.396,1.78,0.128,-0.905,0.0908,-1.02,0.0155,-0.758,0.0299,0.164,1.02,0.608,2.98,-0.624,-0.0103,1.66,1.66,0.984,-1.66,0.092,-1.66,-2.24,0.119,0.0912,2.14,0.599,-0.0699,-0.236,-0.526,0.525,-1.9,0.512,-0.451,1.3,0.278,0.0439,0.00561,0.91,-0.328,-0.0681,-0.455,-0.0193,-0.351,-0.0502,0.247,0.352,0.56,0.187,0.0365,0.215,-0.475,-0.149,0.531,0.314,-0.613,-0.0244,-0.178,-0.409,-0.139,0.934,-0.849,0.71,-0.0426,-1.14,0.409,0.576,0.2,-0.932,-0.0723,0.729,0.102,-0.584,-0.00439,-1.24,1.11,0.00617,-0.494,-0.45,0.179,0.594,0.76,-0.68,-0.249,-0.364,-0.677,-0.521,0.169,0.727,0.352,0.22,-0.0788,-0.193,0.147,0.351,-1.47,-0.474,0.429,0.0869,0.27,-0.0935,-0.0137,0.521,-0.511,0.757,0.118,-0.0348,0.142,-0.439};
float f3_2_bias[64] = {-0.292,0.174,0.00246,0.21,-0.546,-0.376,0.0141,-0.0378,0.0587,0.00104,0.271,0.152,0.628,0.047,1,0.0173,0.152,-0.205,0.647,-0.00265,0.996,-0.0353,-0.33,0.00632,-0.778,-0.0787,-0.0318,-0.487,0.39,0.271,0.00279,1.54,-0.316,-0.0342,0.218,0.049,0.0556,0.0688,0.0891,0.147,-0.0994,0.0185,-0.149,0.25,0.0325,0.0595,0.55,-0.0779,0.165,0.691,-0.0105,0.498,0.281,-0.168,0.417,0.715,-0.132,0.129,-0.0214,0.478,-0.0769,0.555,0.731,-0.591};

float f4_1_weight[64*64*1*1] = {-0.101,-0.0431,-0.0912,-0.0556,0.124,-0.0692,-0.0992,0.0274,-0.063,-0.0886,-0.0539,-0.034,0.0527,0.0432,0.0831,-0.0928,-0.0566,-0.0978,0.0644,0.0947,0.0403,0.228,-0.109,0.168,-0.0662,-0.0817,-0.155,-0.076,-0.104,-0.127,-0.0675,0.108,-0.0296,-0.0904,-0.13,0.0559,-0.0448,-0.062,0.188,0.0691,-0.0185,0.0219,0.009,-0.0424,-0.0936,0.16,0.00679,-0.439,-0.00958,0.0371,-0.0919,-0.253,-0.121,0.277,0.0874,0.211,0.00908,0.0749,-0.0539,-0.209,-0.0275,-0.0722,0.0446,0.119,-0.0542,0.012,0.199,0.0502,-0.0469,-0.025,0.0289,-0.0615,0.0893,0.106,0.113,0.0814,-0.0572,0.12,-0.0222,0.133,0.0755,0.0267,0.00604,0.00543,0.123,-0.0527,-0.213,-0.18,-0.0654,0.259,-0.0425,-0.0224,0.00449,0.212,-0.0304,-0.107,0.00889,0.0714,-0.109,-0.015,0.174,0.0524,0.00301,-0.0621,0.0456,0.0494,-0.0266,0.0168,-0.142,-0.177,-0.216,-0.00126,-0.0974,-0.0201,-0.0148,-0.107,0.0844,-0.0726,-0.076,-0.0181,-0.151,-0.139,0.0157,-0.114,0.0118,0.0881,-0.107,0.0682,0.0773,0.0768,0.196,-0.11,0.118,-0.146,0.0603,-0.155,-0.0608,0.0405,-0.0919,0.193,0.0136,0.0887,-0.0883,-0.00831,-0.0379,0.0134,0.0812,-0.0967,-0.0392,0.0215,0.0991,-0.076,0.0568,-0.153,0.0811,0.0103,0.0476,0.141,0.164,-0.0697,0.0685,-0.0721,0.137,-0.0237,0.0816,-0.0883,0.232,-0.247,0.132,0.102,0.162,0.114,0.0872,0.0352,-0.0363,-0.0579,-0.115,-0.055,0.0121,-0.104,-0.0132,-0.00829,-0.117,0.0542,-0.0882,0.0341,0.0621,-0.00687,0.128,0.113,0.0621,0.173,-0.00379,-0.0172,-0.109,-0.0332,-0.0213,-0.0381,-0.0274,-0.109,0.00728,-0.102,0.184,-0.00236,0.00403,-0.0617,0.151,-0.12,-0.0492,-0.134,-0.249,-0.00176,-0.158,-0.0909,0.1,0.128,0.0304,-0.0155,-0.157,0.132,-0.0331,-0.0819,0.203,-0.0114,0.0375,-0.0239,0.3,-0.0838,0.109,0.0313,-0.0693,-0.102,-0.108,0.0425,0.207,0.00414,0.0956,0.105,-0.0512,-0.197,-0.0136,0.0885,0.134,-0.0253,-0.0178,-0.0416,0.188,-0.0611,-0.000278,-0.174,-0.0555,-0.0283,-0.0925,-0.239,0.0602,0.126,0.0981,-0.0615,0.0429,-0.226,0.12,-0.000244,-0.043,-0.0379,0.0996,-0.146,-0.159,0.0418,0.082,-0.00296,0.0472,-0.162,-0.0161,-0.0213,0.11,-0.0716,-0.0435,0.15,0.0659,0.0651,0.161,-0.00192,-0.224,0.103,-0.223,0.0764,0.022,0.0535,0.123,-0.0945,-0.0273,0.00295,0.0642,-0.19,0.296,-0.0847,0.062,0.14,-0.0145,0.0893,0.148,0.139,-0.0285,-0.112,0.000261,0.0364,0.132,0.184,-0.0899,0.176,-0.222,0.045,-0.0368,0.11,-0.0239,-0.0421,0.133,-0.214,0.112,-0.131,0.0815,0.0546,0.258,0.00266,0.0606,0.0349,0.0518,0.128,-0.0464,0.161,-0.0304,0.1,-0.274,-0.0262,-0.232,0.19,-0.156,0.132,-0.21,0.199,-0.104,0.272,-0.0504,0.0933,-0.0571,0.0557,0.0952,0.163,-0.0978,0.131,0.295,0.124,0.0241,0.038,0.118,-0.0642,0.228,0.0376,-0.331,0.126,0.0484,-0.126,-0.0765,0.168,0.0233,-0.014,-0.00889,0.212,-0.0461,0.0207,0.131,0.0313,0.109,0.158,-0.037,-0.0125,0.0846,0.0436,0.0823,0.041,-0.132,-0.0622,-0.161,0.169,0.097,0.0603,0.00108,-0.216,0.0794,0.00969,-0.0133,-0.0704,-0.116,0.0336,0.0859,-0.111,-0.0187,0.0229,-0.0292,0.00096,-0.0485,0.132,-0.278,-0.106,0.22,-0.191,0.025,0.0817,-0.000611,0.0213,-0.13,0.015,0.0404,-0.119,-0.0457,0.0551,0.095,-0.074,-0.216,0.124,-0.0711,-0.15,-0.00626,-0.0217,-0.0378,-0.0584,-0.00917,-0.00532,-0.0621,0.0696,-0.133,-0.0722,0.0135,-0.0737,-0.0297,-0.245,0.116,-0.14,-0.188,0.113,-0.00397,0.181,-0.00839,-0.214,0.0915,0.361,0.119,0.0402,-0.178,0.138,-0.133,0.021,0.132,-0.13,0.12,-0.0106,-0.0878,-0.163,0.198,-0.0698,0.00699,0.066,0.0728,-0.0288,-0.0731,-0.0532,-0.00352,-0.00377,-0.214,-0.0408,-0.0427,0.111,-0.00155,0.0203,-0.106,0.035,-0.0729,-0.023,-0.0114,-0.0293,0.13,-0.00515,-0.0478,0.176,-0.0225,0.159,0.121,-0.0202,-0.0204,0.15,0.181,-0.19,-0.0681,0.0371,-0.00176,-0.0373,-0.0425,-0.0653,0.0596,-0.126,0.0121,-0.0153,0.0987,0.0971,0.143,-0.114,-0.039,0.00173,-0.0393,-0.0589,-0.0767,-0.0393,-0.0685,0.0468,0.0262,0.0136,-0.00225,-0.0227,0.152,-0.108,0.0476,0.116,0.0684,-0.0359,-0.138,-0.0124,-0.217,0.0824,0.0564,-0.0381,-0.114,0.0361,-0.117,-0.112,-0.269,-0.0123,-0.286,0.123,-0.0184,0.0455,-0.084,0.0403,-0.0909,-0.1,-0.118,0.00443,0.0445,0.015,-0.0715,0.0501,-0.103,-0.0437,-0.12,-0.021,0.0385,0.0873,0.131,0.133,-0.165,0.0266,-0.058,-0.0105,-0.106,0.00422,0.188,-0.0565,0.0061,-0.104,-0.0171,-0.154,-0.0746,0.0631,0.0546,0.0478,0.183,0.00208,-0.0842,0.00364,0.0842,0.0219,0.095,-0.0334,-0.0503,0.144,0.0134,-0.0232,0.0396,0.0381,0.00426,0.0284,0.0524,0.196,-0.0465,0.00885,-0.329,0.0626,0.0575,-0.0142,0.13,0.0508,0.0192,-0.0106,-0.112,0.191,-0.00223,0.00797,0.0325,-0.0349,0.353,-0.042,0.0285,0.0434,0.111,0.133,0.0595,-0.0585,-0.00311,-0.0647,0.0577,0.0496,0.0742,-0.0934,-0.0295,0.0427,-0.00215,-0.0874,0.0708,-0.174,0.0719,-0.0845,0.0713,0.125,0.0374,-0.0303,0.119,-0.0454,0.0352,-0.00503,-0.0196,0.0805,-0.102,-0.0486,-0.102,-0.0345,-0.0385,0.471,-0.0578,-0.0624,0.0104,-0.063,-0.0234,-0.0685,0.051,-0.0256,0.172,-0.0398,-0.0602,-0.00533,-0.0527,0.046,-0.0238,0.0386,0.0818,0.048,-0.0875,0.0159,0.219,0.0218,0.018,-0.0606,0.197,0.121,-0.0301,-0.138,0.0487,0.0333,-0.0176,-0.0183,-0.00758,0.0146,0.101,0.0476,-0.0531,-0.0982,0.0172,0.0583,0.084,-0.000235,0.133,0.165,0.0466,-0.0825,-0.057,0.00715,0.039,-0.0224,-0.0522,-0.0311,-0.0613,-0.0664,-0.103,0.161,0.114,0.061,0.0474,-0.181,-0.0371,0.00111,0.02,0.0604,-0.141,0.0411,0.116,-0.101,0.0264,0.0427,-0.272,-0.045,0.117,-0.1,-0.265,0.0129,-0.193,0.0365,-0.038,-0.0799,0.0919,0.0797,0.082,-0.181,0.182,0.137,-0.114,-0.0923,0.105,0.255,-0.0867,-0.213,-0.0521,-0.0673,0.0944,0.091,-0.0834,-0.0494,0.105,-0.214,-0.252,-0.115,0.167,0.121,0.0824,0.0303,-0.0275,-0.123,0.134,-0.0206,0.00355,-0.00703,0.0525,0.067,-0.0198,-0.00245,0.0287,-0.172,0.0781,0.00231,0.0275,0.0953,0.127,-0.127,0.125,0.128,0.0534,-0.369,-0.0483,0.0601,0.0173,0.0906,0.0387,-0.0764,0.155,-0.0976,0.231,0.229,-0.161,0.157,0.0402,-0.0304,0.147,0.15,0.157,-0.0552,0.0252,0.128,0.0274,0.062,0.232,0.112,-0.225,-0.222,0.032,0.0283,-0.085,0.0449,0.0182,-0.0254,0.134,-0.000969,-0.0156,-0.0636,-0.132,-0.0314,-0.041,-0.202,0.0576,0.00905,0.0515,0.0959,-0.152,-0.0794,-0.056,0.193,-0.115,-0.0644,0.176,0.113,0.0355,-0.0719,-0.0485,0.0665,-0.0355,-0.249,0.261,0.0854,0.108,-0.194,0.0907,-0.00975,0.000156,-0.0236,-0.113,-0.0487,-0.0744,-0.00804,-0.235,-0.0221,0.0714,-0.0163,-0.052,0.0608,-0.0508,0.0497,-0.109,0.198,0.0982,0.0329,-0.0474,0.117,0.0105,0.128,-0.0573,0.155,0.0368,0.114,-0.155,-0.0706,-0.0474,-0.1,0.105,-0.0732,0.0715,-0.0672,-0.0362,0.121,-0.0794,0.0515,0.145,0.0376,-0.00449,-0.013,-0.189,-0.162,0.0512,-0.117,-0.0235,0.107,0.0979,-0.189,0.0729,-0.127,-0.12,-0.0726,-0.158,-0.0978,-0.0482,0.0422,-0.0168,0.0286,0.0879,0.00193,0.0278,0.109,0.0542,0.103,-0.249,-0.162,-0.0171,-0.228,-0.315,-0.0948,-0.0771,-0.18,-0.0304,-0.0698,0.083,0.0571,-0.0923,0.0215,0.0329,-0.0623,-0.0534,-0.0979,0.0472,0.0684,-0.0595,0.0264,-0.0577,0.295,-0.0504,-0.0883,0.115,0.138,-0.145,0.0916,-0.0197,-0.0206,0.11,-0.171,-0.141,-0.00587,-0.037,0.0269,-0.0811,0.172,0.134,-0.0315,-0.06,0.0194,-0.125,-0.0412,-0.216,0.0207,0.113,-0.0239,-0.0443,-0.0617,0.00547,-0.115,0.0436,0.25,-0.0682,0.176,-0.00014,0.253,0.00583,0.00104,0.0644,-0.0113,0.0339,0.156,0.0725,0.049,0.0899,-0.00125,-0.0726,0.333,0.258,0.228,-0.0362,0.0233,0.0441,0.0405,-0.0755,-0.0991,-0.0938,0.251,0.0635,-0.105,0.13,0.0875,-0.0908,0.00191,0.019,-0.115,-0.0438,-0.081,0.0481,0.0553,-0.0281,0.155,-0.0192,0.0692,0.103,0.248,0.034,-0.00646,-0.0958,0.0456,0.026,-0.0738,-0.0591,-0.0764,0.0973,0.0462,0.0874,-0.113,-0.00666,-0.0234,0.293,0.0304,-0.074,-0.0536,-0.179,0.0912,-0.0344,-0.219,-0.132,-0.0491,-0.0182,-0.0907,-0.0219,-0.146,-0.37,-0.137,-0.0127,0.103,-0.0498,0.161,-0.0717,-0.154,0.0961,0.128,-0.0985,-0.00881,0.00651,-0.032,0.206,-0.0398,-0.0986,-0.0669,-0.00649,0.0709,0.0216,-0.0132,-0.0992,0.0558,0.1,-0.185,0.2,0.0968,-0.0791,0.0843,0.111,-0.25,0.0813,-0.166,0.0235,-0.0358,-0.0383,-0.151,-0.0477,-0.0174,0.117,-0.0363,-0.0853,-0.00865,-0.132,0.0262,-0.0371,0.0644,-0.145,-0.0117,-0.133,0.131,-0.347,0.15,0.152,-0.0214,0.0271,-0.0277,0.145,0.0771,0.016,0.0334,-0.108,0.116,0.106,0.122,-0.0691,-0.0307,0.0249,-0.027,-0.0161,-0.0759,0.0129,0.0562,-0.00817,0.156,-0.233,-0.0201,0.0186,-0.0424,-0.0455,0.086,-0.117,-0.153,-0.0547,0.202,-0.0372,-0.0263,0.117,0.0896,0.112,0.0522,0.0225,0.0489,-0.0242,-0.0574,0.011,0.055,0.138,0.157,0.0634,-0.161,-0.00564,-0.073,-0.0906,0.148,-0.0853,-0.256,0.00307,-0.00178,0.281,0.0451,0.0625,-0.085,-0.00773,-0.0574,-0.0565,-0.295,0.0859,-0.0427,0.048,0.111,0.0657,0.156,-0.0159,-0.117,0.0956,-0.0253,-0.013,0.019,-0.177,0.0434,-0.154,0.076,-0.14,0.00996,-0.0324,-0.23,0.0356,-0.0345,-0.23,0.142,-0.0613,-0.128,0.105,-0.0269,0.16,0.192,0.0464,0.178,-0.055,-0.0361,-0.0333,0.079,0.0635,-0.0307,0.11,-0.00294,-0.0428,-0.0197,0.185,0.109,0.0214,0.0643,-0.033,-0.0179,0.0569,-0.0515,-0.129,-0.0395,0.0168,0.118,0.00646,0.153,-0.203,-0.188,0.124,0.0287,0.017,0.199,0.25,0.0889,0.00698,0.063,0.222,-0.0687,-0.0301,-0.0134,-0.116,0.0362,-0.0913,0.0194,0.0421,-0.00222,-0.00846,-0.0727,0.255,-0.0423,0.192,0.0146,-0.051,-0.0759,0.0121,-0.0419,0.1,0.00808,0.024,-0.0996,-0.0974,0.0495,0.167,-0.00275,0.0671,-0.0487,-0.0751,0.03,-0.075,-0.00638,0.017,0.0569,-0.118,0.0174,-0.063,0.164,0.0688,-0.000905,0.00714,-0.134,-0.112,0.0303,-0.149,-0.0452,0.0147,0.108,-0.137,0.157,-0.0288,-0.0422,0.0974,-0.089,-0.0217,0.222,0.013,-0.0648,-0.0319,-0.153,0.0873,-0.146,-0.0163,0.052,0.137,-0.069,0.168,-0.355,-0.0182,-0.0408,-0.196,-0.0814,-0.159,0.326,-0.0679,0.302,-0.132,-0.0611,0.037,-0.0664,-0.0559,0.0261,0.0504,0.203,0.0207,-0.0735,-0.0181,-0.11,0.101,0.11,-0.119,-0.0122,-0.101,0.0611,-0.105,-0.133,0.0317,-0.112,-0.114,0.0174,0.244,0.0814,0.0849,-0.0652,-0.00903,0.211,-0.105,0.211,-0.0423,-0.0522,-0.127,0.0997,-0.0524,-0.204,0.00722,0.162,0.115,-0.00631,-0.0718,-0.0718,-0.00458,0.00939,-0.0108,0.0547,-0.108,0.213,0.0211,-0.0215,-0.0536,-0.00687,-0.0175,-0.0163,-0.0365,-0.13,0.0191,-0.102,0.0657,-0.0539,0.0865,-0.0738,0.012,-0.0729,-0.0474,-0.208,0.152,-0.0661,0.102,0.276,0.037,0.0502,0.01,0.0547,0.156,0.145,0.168,0.0504,0.0373,-0.159,-0.193,-0.0356,-0.0613,-0.172,0.0184,-0.335,-0.142,-0.147,0.145,0.207,0.077,-0.0535,0.155,0.172,0.178,-0.377,-0.181,-0.187,-0.001,0.0738,-0.25,-0.129,-0.0108,-0.0167,-0.00394,0.0409,0.0188,-0.149,-0.0242,-0.184,0.0793,0.012,-0.291,0.187,-0.127,0.16,0.0277,0.315,0.0781,-0.0934,-0.0827,-0.114,0.0238,0.105,-0.0359,-0.12,0.0693,0.186,0.0576,0.0594,-0.0688,0.0526,0.106,-0.00594,0.155,-0.00792,-0.0405,0.217,-0.0728,0.0135,-0.13,-0.0211,0.039,0.188,0.0355,-0.0802,-0.039,-0.00584,0.0469,-0.0522,-0.0966,0.0335,-0.128,0.0738,0.0774,-0.0526,0.138,-0.102,-0.189,-0.112,0.0127,-0.0264,-0.309,-0.132,-0.0299,-0.209,0.0753,0.0813,-0.0564,0.0988,-0.00206,-0.0209,-0.0453,0.118,0.00731,0.13,0.0935,-0.127,0.0451,0.0102,-0.108,0.0346,0.0703,0.00639,-0.0794,0.0919,0.0626,-0.148,0.0595,-0.0574,-0.0363,-0.0654,-0.00278,0.0312,-0.274,-0.112,0.00857,-0.0713,0.0246,-0.0661,-0.079,-0.0251,0.00638,-0.207,0.12,-0.0174,0.0971,-0.00927,0.0441,0.127,0.033,0.114,0.0978,-0.0123,-0.0122,0.0869,0.119,-0.0672,-0.157,-0.0828,0.00975,-0.106,-0.134,-0.0736,-0.0765,0.163,-0.0212,-0.0355,0.0603,-0.0025,0.0412,0.0253,-0.0199,0.0937,-0.134,-0.0101,0.0888,-0.00867,0.109,0.0472,0.0219,0.0182,-0.0518,-0.0698,-0.0354,-0.0404,0.0742,-0.324,0.0306,-0.0373,-0.0644,-0.0566,0.0614,0.0113,-0.0861,0.0461,-0.0574,-0.0711,0.132,-0.161,-0.0393,-0.148,0.031,-0.152,-0.199,0.0141,0.151,0.228,0.0397,-0.144,-0.0497,-0.13,0.0162,-0.0718,0.0102,-0.177,0.123,0.0062,0.00542,0.00891,0.0606,0.151,0.0385,-0.075,0.158,0.0375,-0.154,-0.1,0.0457,-0.199,0.0608,0.147,0.0918,0.0661,-0.162,0.00208,-0.377,-0.00958,-0.028,0.0651,0.102,-0.0621,0.133,-0.076,0.166,-0.0732,0.153,0.114,0.0948,0.0501,0.196,-0.0379,0.142,0.0125,-0.171,0.121,-0.119,0.0231,-0.132,0.202,-0.0645,-0.134,-0.0472,0.0212,0.0636,-0.0242,0.0378,-0.0224,-0.0695,-0.0299,0.0485,0.0128,-0.0564,0.0356,0.227,-0.104,0.0578,0.0136,-0.0653,0.0597,0.189,-0.182,-0.0733,-0.073,0.0508,-0.0181,0.184,0.0486,0.179,0.0363,0.00739,0.0441,0.024,-0.177,0.244,-0.117,0.17,0.0629,-0.00395,-0.031,0.0612,-0.00855,0.0408,-0.16,0.221,-0.0872,-0.0249,-0.077,-0.165,0.0305,-0.12,-0.00894,-0.0119,0.026,0.0846,0.0522,-0.0318,-0.0174,0.245,0.394,0.119,0.0222,0.0074,0.113,-0.0144,0.0574,0.147,0.112,-0.0518,0.00938,-0.0936,0.0279,0.0201,0.0791,-0.0254,-0.28,0.127,-0.042,-0.0584,0.0588,0.0862,-0.0635,-0.0334,-0.0113,0.0459,-0.0589,-0.0112,0.108,-0.0186,0.212,0.178,-0.0955,-0.0274,0.106,0.134,0.0258,-0.0822,-0.15,-0.0139,-0.136,-0.00301,-0.381,0.108,0.206,-0.151,0.0295,0.104,-0.0303,0.0821,0.116,-0.0548,-0.108,0.0218,0.123,-0.18,0.133,0.0351,-0.0141,0.162,-0.157,-0.0549,0.0655,0.0524,-0.124,0.0594,0.0631,-0.149,0.142,-0.0568,0.00995,0.028,-0.108,0.094,-0.0572,-0.291,-0.14,-5.78e-05,-0.0686,-0.067,0.15,-0.0837,-0.0325,0.00753,0.00384,0.175,-0.095,0.00581,-0.229,0.0682,0.1,-0.00381,-0.0782,-0.169,0.00929,0.0552,-0.0538,-0.0318,0.0366,-0.275,0.0603,0.0896,0.138,0.012,-0.0974,0.171,-0.0868,-0.083,0.156,-0.287,0.0371,0.0529,0.105,0.0818,-0.0504,0.17,-0.0579,-0.07,-0.166,-0.0665,0.109,0.0593,0.00234,-0.0903,0.00778,0.0102,-0.169,0.191,-0.0348,0.013,0.17,-0.0428,-0.0972,-0.0699,-0.05,-0.0727,0.0203,-0.103,-0.111,0.011,0.272,-0.0175,0.0495,-0.237,0.108,0.00497,-0.0623,0.00651,-0.00416,-0.0459,0.0911,-0.0531,0.0431,-0.177,-0.0236,0.152,-0.0292,-0.0594,0.0285,0.149,0.00521,-0.0034,0.159,0.038,0.0185,-0.0801,0.0747,0.117,-0.136,-0.112,0.0944,0.00594,0.0924,-0.022,-0.0509,0.174,-0.0133,-0.0522,-0.0346,-0.0724,0.0162,0.0164,0.0382,0.0185,0.2,-0.0108,0.0655,0.00308,-0.0564,0.201,0.0995,0.179,-0.0665,0.22,0.0528,-0.0141,0.0887,-0.0611,0.0698,-0.0144,0.0659,0.168,-0.0315,-0.0559,0.194,0.0669,0.0298,-0.0845,-0.25,-0.174,-0.118,-0.0563,0.0087,-0.0256,-0.0105,0.0507,0.0431,0.0461,0.0727,0.0104,-0.117,-0.0365,-0.00344,-0.00836,0.0202,-0.000108,0.00608,-0.0852,-0.0573,0.0694,0.167,0.0429,-0.0548,0.0133,-0.0432,-0.272,0.252,-0.0215,-0.0943,0.0791,0.0614,-0.123,0.102,0.047,-0.0802,-0.168,0.0195,-0.18,0.00886,-0.0239,0.177,-0.0205,-0.0365,0.0521,0.0891,0.0503,-0.0916,-0.0467,-0.0716,-0.049,-0.0121,0.0463,0.0558,-0.013,0.19,-0.158,-0.0304,0.015,0.252,-0.0779,0.00329,-0.0508,-0.128,-0.0285,-0.0867,-0.0015,0.0331,-0.0622,0.134,-0.217,0.0864,-0.157,-0.0243,-0.0454,0.152,-0.113,-0.0413,0.0723,-0.207,0.0458,-0.0546,-0.00214,-0.0123,0.126,0.0452,-0.0803,-0.17,-0.0214,0.107,0.153,0.0334,0.0399,-0.181,-0.158,0.0547,-0.0639,0.0651,0.119,0.0341,0.0289,-0.0259,-0.159,0.146,0.0271,-0.0473,-0.0968,-0.104,0.0382,0.0194,-0.0994,-0.277,0.0884,-0.0864,-0.00932,0.0379,0.238,-0.288,0.197,0.0349,-0.0101,0.0297,-0.0798,-0.0107,-0.0373,0.0637,0.0342,0.044,0.0556,0.0246,0.0318,0.0262,0.007,-0.191,-0.0776,-0.104,-0.118,0.0161,0.17,0.256,-0.089,0.141,0.0162,0.0592,0.0498,-0.0299,0.0373,-0.0666,-0.0206,0.0937,0.0179,-0.143,0.000184,0.0679,0.108,-0.367,-0.132,-0.114,-0.0312,-0.113,0.0621,0.0999,-0.093,-0.164,0.144,0.102,-0.0922,0.198,0.024,-0.0584,-0.151,-0.0716,-0.168,0.0533,-0.0602,-0.0764,-0.07,0.195,0.00532,0.124,0.0444,-0.034,-0.135,0.00137,-0.0461,0.098,0.045,0.0732,0.0711,0.0774,-0.151,0.0116,0.0996,-0.0244,-0.086,0.0952,-0.0123,-0.0906,0.215,0.106,0.106,0.0984,0.116,-0.0749,-0.0189,-0.00757,0.01,0.0734,0.119,0.012,-0.132,0.00918,-0.0769,-0.0372,-0.134,-0.0963,-0.156,0.0551,0.295,-0.165,-0.114,-0.156,0.0573,0.186,-0.185,-0.0764,-0.031,-0.052,-0.0658,-0.0233,0.0447,-0.152,-0.212,0.239,0.00648,-0.00437,0.0877,0.169,-0.0698,0.0138,0.144,-0.257,0.209,0.143,0.0584,-0.0649,0.0413,0.0203,0.0102,0.0246,-0.16,-0.0949,0.0876,0.0836,-0.0274,-0.174,-0.021,-0.0558,-0.137,-0.0597,0.0538,-0.0938,-0.122,-0.0051,0.0829,0.031,-0.302,0.163,-0.293,0.0133,0.0641,-0.0048,-0.191,0.0714,0.0101,0.0167,-0.157,0.0942,-0.313,0.0522,-0.0359,-0.0648,0.0233,-0.000459,-0.07,-0.0194,-0.0965,0.0262,-0.0782,-0.0212,0.155,-0.111,0.165,-0.0573,0.0215,-0.0258,0.0714,0.00259,-0.0627,-0.044,-0.153,0.00875,-0.0147,-0.156,0.127,-0.0172,-0.0454,0.0352,0.206,0.0714,-0.048,-0.153,-0.0215,0.0441,0.132,-0.00631,-0.0064,0.0406,-0.0848,-0.0153,0.154,0.0119,-0.073,0.138,0.00357,-0.0181,0.00468,0.0135,0.00816,0.219,0.0162,0.199,-0.0424,-0.0463,-0.089,-0.0519,0.094,-0.0949,-0.00314,0.0971,0.035,0.118,-0.0964,0.0071,-0.171,0.0183,0.0225,-0.0184,-0.0176,0.0214,-0.0784,0.182,-0.221,-0.0185,0.0089,-0.0658,-0.0142,-0.00426,0.0784,-1.68e-05,0.0496,0.00406,0.00997,-0.0289,-0.113,-0.0339,0.0371,0.00459,0.0971,0.0214,-1.47e-05,-0.00079,-0.0034,-0.0431,-0.2,-0.0991,0.155,-0.0439,-0.0684,0.0504,0.0186,0.0856,-0.0171,0.0692,-0.0664,-0.0225,-0.0122,0.0112,-0.156,-0.00691,-0.381,-0.0885,-0.0031,-0.0692,0.00833,0.00988,-0.0542,-0.0124,0.0433,-0.0217,-0.0148,0.00952,0.156,-0.0463,0.0248,0.0957,0.00918,-0.0624,-0.0364,0.0273,-0.282,0.0495,0.0225,0.057,-0.00834,-0.0712,-0.0391,0.247,-0.0279,-0.239,-0.362,0.0955,0.0311,0.102,-0.00491,-0.119,0.0534,0.0307,0.0877,-0.108,-0.0228,0.014,0.0481,-0.069,0.0925,-0.0115,-0.123,-0.0382,0.0391,-0.0241,-0.0152,-0.29,0.0411,0.0345,0.0526,-0.0964,0.118,0.00729,-0.132,-0.131,0.12,-0.169,0.241,0.0933,0.104,-0.0923,0.081,-0.283,-0.0396,-0.0716,0.203,0.0988,-0.00162,-0.139,-0.136,-0.0305,0.0503,-0.374,0.122,-0.0154,0.0646,-0.0184,-0.192,-0.0443,0.00455,-0.0249,0.118,0.00511,0.0302,-0.217,0.122,0.06,-0.0755,-0.00849,0.0772,-0.0945,-0.0988,0.168,-0.0721,-0.188,0.0826,0.00224,0.00275,-0.275,0.281,-0.101,-0.0112,0.00498,-0.079,0.164,-0.0594,-0.0134,0.152,0.0052,0.044,0.000533,0.132,-0.0514,0.0107,-0.266,0.0639,0.0964,0.0356,0.059,-0.0123,0.0561,0.0889,0.0831,-0.0422,-0.157,0.142,-0.0408,0.0505,0.0178,-0.0506,0.0378,0.0159,0.00816,-0.0156,0.00598,-0.13,-0.0583,0.13,0.0298,0.098,0.093,0.155,-0.0687,0.0101,-0.0126,-0.0153,0.0533,0.143,-0.0559,-0.00417,-0.092,-0.0595,0.00706,-0.0968,-0.0134,-0.121,0.0916,-0.0734,0.187,0.0804,0.058,-0.00124,0.211,0.0482,-0.0732,-0.185,0.0468,-0.00974,-0.00526,0.0165,0.179,0.141,0.175,-0.0759,-0.113,0.157,0.031,0.000282,-0.107,0.182,-0.127,0.152,-0.0746,-0.0619,0.0554,-0.159,0.266,-0.195,-0.207,-0.133,0.00341,-0.195,-0.0799,0.0664,-0.0027,0.0513,0.133,-0.00103,-0.0385,-0.156,0.0429,0.114,-0.195,-0.122,-0.0946,0.0926,-0.163,0.0251,-0.0375,-0.0564,-0.000226,-0.0833,0.195,-0.0289,-0.0774,0.31,0.124,0.0955,0.132,0.137,0.107,0.00959,-0.108,-0.0614,-0.107,0.03,0.202,0.00685,0.0553,0.0822,0.0148,-0.0938,0.0578,0.233,0.0352,-0.0457,-0.0996,0.048,-0.142,-0.12,-0.185,-0.0554,0.00713,0.0566,0.0543,0.044,0.0897,-0.0225,-0.0745,0.0451,0.179,-0.0578,0.0446,0.117,0.118,-0.0552,0.046,-0.00401,0.191,0.00222,0.164,-0.0638,0.00238,-0.105,-0.0467,-0.0357,-0.287,-0.0601,0.0338,0.172,-0.0123,-0.00199,0.0345,-0.0574,-0.0692,0.167,-0.0061,0.169,0.129,0.0643,-0.0624,-0.0508,0.0277,0.298,-0.154,0.101,-0.19,0.0711,0.0483,0.123,0.0572,-0.0738,0.299,-0.0194,0.098,-0.0165,0.149,0.0383,0.0113,-0.0272,-0.208,0.0484,-0.0197,-0.125,-0.229,-0.182,0.0191,0.122,0.146,-0.0212,0.23,0.106,-0.0636,0.115,-0.00711,0.00879,-0.172,0.0378,0.101,0.0412,-0.263,0.184,0.0912,-0.134,-0.0735,-0.000205,0.00525,-0.0558,-0.0303,0.0255,0.0111,0.00163,0.0832,0.0216,-0.063,0.0165,-0.0183,-0.143,0.0955,0.00733,-0.027,-0.161,-0.277,0.238,0.113,-0.107,-0.0374,-0.135,0.0229,-0.138,0.173,-0.165,0.111,0.156,0.0303,-0.0279,0.176,-0.107,0.0232,0.447,0.153,-0.174,-0.038,-0.0794,-0.0908,-0.199,-0.0752,-0.126,-0.0436,-0.351,-0.03,-0.151,-0.116,0.0407,-0.135,-0.0719,0.0488,0.00327,0.03,0.0406,-0.213,-0.0769,-0.124,-0.131,0.045,-0.0972,-0.0193,-0.0529,-0.0871,-0.171,-0.0653,-0.0856,0.0426,0.0712,0.0747,-0.00246,0.0667,-0.0763,-0.135,-0.0918,0.0347,-0.051,0.0105,0.0808,-0.098,-0.234,0.0113,-0.0242,0.0327,0.0972,-0.184,-0.135,0.0145,-0.0502,-0.0128,0.054,0.018,0.0742,-0.26,0.116,-0.0149,-0.0468,0.0312,0.108,-0.107,-0.01,-0.128,-0.0575,0.232,-0.0449,-0.0502,-0.0171,0.0123,-0.0584,-0.39,0.094,0.0313,-0.088,-0.0478,0.0614,0.164,-0.175,0.0944,0.0849,0.0505,-0.0677,-0.277,-0.0135,-0.184,-0.0284,-0.165,0.0664,0.00745,0.15,0.161,-0.0572,9.39e-05,0.0133,-0.167,0.291,0.0937,0.119,0.0524,-0.0115,-0.0701,0.0176,0.08,0.0856,-0.179,0.228,0.109,-0.0277,0.0201,0.0674,0.126,0.00359,0.184,-0.0912,0.0297,-0.224,-0.0468,0.0736,0.185,-0.111,0.0648,-0.157,0.102,-0.0205,0.148,-0.13,-0.00336,0.0511,-0.223,-0.194,0.00238,0.0582,-0.0823,0.0553,0.0696,-0.171,-0.117,0.092,-0.0672,0.0434,0.0379,-0.0494,0.188,0.00163,0.127,-0.00424,-0.0516,0.0176,0.243,-0.14,0.0505,-0.133,-0.118,-0.139,-0.0705,0.0989,0.0996,0.0148,-0.0285,0.0329,0.0821,0.04,0.039,0.115,0.0642,0.00657,0.0892,0.461,0.0799,-0.0781,-0.198,0.0423,-0.0308,0.306,0.0454,-0.0718,-0.0633,-0.0507,-0.0144,-0.0658,-0.245,-0.0626,-0.0229,-0.0529,0.0469,0.0115,-0.134,0.0199,-0.0112,0.104,-0.0803,0.145,-0.248,0.142,0.0015,0.00145,-0.194,0.0827,0.111,0.232,0.151,0.0577,-0.042,-0.00585,0.0251,-0.0445,-0.0259,-0.0191,0.013,0.0023,0.049,-0.0825,0.00931,0.0967,0.0355,-0.0301,0.233,0.00717,0.159,-0.165,0.0203,-0.118,-0.00485,-0.061,-0.043,-0.00243,-0.0932,-0.0864,-0.0151,-0.253,-0.05,-0.0455,-0.0535,0.0571,-0.101,-0.0222,-0.169,-0.138,-0.295,-0.128,0.18,-0.202,0.0787,0.0548,-0.0729,0.202,0.0184,0.156,-0.13,0.0129,-0.0715,0.153,0.18,-0.142,0.0509,0.0906,0.0945,-0.254,-0.126,-0.0957,0.159,-0.199,-0.0414,-0.0418,-0.183,-0.0693,-0.164,-0.0834,-0.0375,-0.0192,0.0963,0.0443,-0.201,-0.303,0.0018,-0.0894,0.161,-0.154,-0.124,0.0546,-0.21,-0.244,-0.112,-0.246,-0.00102,0.104,0.12,0.106,0.0364,0.067,0.00553,0.0212,-0.0121,-0.0891,0.187,0.147,-0.0635,0.0607,-0.0509,-0.116,-0.0485,-0.176,-0.115,0.00478,0.017,-0.158,0.0878,-0.275,0.0872,0.205,-0.0204,0.2,-0.107,0.0679,0.0865,-0.0358,0.0238,0.118,-0.0176,0.0301,-0.138,-0.0732,-0.075,-0.0269,-0.0291,-0.0123,-0.164,0.0179,-0.059,-0.13,0.0126,-0.225,0.0254,-0.15,0.015,-0.0865,-0.0746,-0.0931,0.0197,-0.0796,-0.0932,-0.00048,-0.0655,-0.207,-0.161,-0.0561,-0.0236,-0.142,-0.073,0.154,0.341,0.0454,0.146,-0.177,0.0678,-0.122,0.0141,-0.0342,0.203,-0.0525,-0.2,-0.0892,-0.215,0.119,0.0781,0.0578,0.0743,0.105,0.184,0.099,-0.219,0.0255,-0.061,-0.0983,0.0939,0.043,0.0018,-0.237,-0.0535,-0.0917,0.0689,0.106,0.0337,-0.119,0.0337,-0.0579,0.0829,-0.15,-0.0152,0.0189,-0.0166,-0.094,0.00048,0.0612,0.1,-0.048,-0.0323,-0.105,0.00125,0.064,-0.0383,0.0177,0.0244,0.0144,-0.136,0.0221,-0.0378,0.0374,0.0887,0.00521,0.285,-0.0493,0.226,-0.0263,0.078,0.0828,-0.0702,0.0593,0.137,-0.217,0.164,-0.0975,0.108,0.24,0.133,-0.0161,-0.0643,0.209,-0.162,-0.0479,-0.118,0.15,0.104,0.0185,0.0725,-0.068,-0.0891,0.0441,0.000369,-0.134,0.0321,-0.11,0.168,-0.0703,0.304,0.08,0.00647,0.105,0.113,-0.0893,-0.105,-0.253,-0.0518,-0.184,-0.136,0.0364,-0.0124,-0.0754,0.082,0.00095,-0.143,-0.063,0.0782,-0.0392,-0.0129,0.104,0.0325,-0.00397,0.0495,-0.00384,-0.00179,-0.109,-0.0956,-0.0227,-0.133,-0.0745,0.00985,-0.074,0.227,0.0689,-0.234,0.106,0.0919,-0.00704,-0.19,0.036,0.108,0.0807,0.0126,0.0868,-0.098,-0.00676,-0.101,0.196,-0.0215,-0.214,0.0207,-0.101,-0.0539,-0.152,-0.22,-0.0477,-0.0116,0.00606,-0.0344,-0.00515,-0.186,0.0465,-0.0874,-0.0876,0.0744,0.303,0.117,-0.0176,-0.0439,0.177,-0.105,0.0559,0.027,0.265,-0.0457,0.0633,-0.148,0.254,0.0839,-0.0196,-0.104,0.297,0.0863,0.00854,-0.0203,-0.019,-0.153,0.00669,0.0884,0.0201,-0.0473,0.11,-0.0739,0.0321,0.00971,-0.159,-0.0454,-0.00161,0.0631,-0.105,0.0334,-0.0284,-0.0351,-0.249,-0.131,-0.0799,0.103,-0.057,0.054,-0.0918,0.089,-0.00322,-0.0451,0.0415,-0.0597,-0.0299,-0.0385,-0.109,-0.068,-0.0887,0.0261,0.00315,0.0986,0.0403,-0.0435,0.00589,0.0119,-0.0922,0.0389,0.207,-0.0296,0.322,-0.00231,0.14,-0.00432,-0.0146,0.108,0.119,-0.139,0.0678,0.061,-0.0939,0.0272,-0.187,0.0235,-0.287,-0.0344,-0.0284,0.0362,0.0539,-0.0803,0.0289,-0.0436,-0.168,0.112,0.128,0.0647,0.0179,-1.42e-06,0.0379,-0.097,-0.126,-0.0201,-0.141,0.00897,-0.24,-0.104,-0.0165,0.0236,0.023,0.0646,-0.0931,-0.148,0.037,0.0512,0.00689,0.138,-0.0454,0.0567,-0.0252,-0.111,0.00686,-0.0235,0.105,-0.0414,-0.0792,0.0817,0.0567,0.0267,-0.0174,0.00831,-0.0634,-0.0582,0.121,0.11,-0.084,-0.0881,0.181,-0.1,0.0605,0.214,0.00783,0.12,-0.133,-0.0783,0.0285,-0.153,-0.0302,0.0353,-0.18,-0.12,0.101,-0.16,-0.0529,-0.162,0.0283,0.0373,0.036,-0.0872,0.111,0.0499,0.0287,-0.0725,-0.0477,0.0561,0.176,0.0667,0.0566,0.0972,-0.236,-0.186,0.0744,0.00832,-0.0598,-0.00421,-0.031,0.217,-0.178,-0.0332,-0.025,0.0345,0.00549,0.0151,0.0272,-0.157,0.0855,-0.107,0.0244,0.0491,-0.0817,0.0309,-0.0568,0.00622,0.152,0.0637,0.0341,-0.0182,-0.214,-0.22,-0.0818,-0.181,-0.138,0.0115,0.0574,0.077,-0.0347,0.0844,0.0621,0.0758,0.0165,-0.115,0.177,-0.00217,-0.0493,-0.169,0.0375,-0.0233,0.0517,-0.0732,0.0696,-0.111,0.0706,0.133,-0.142,0.139,-0.0806,0.108,-0.00294,0.117,-0.0342,-0.29,-0.012,-0.0457,0.0807,0.145,-0.0648,-0.0973,0.134,-0.00994,-0.0594,0.072,0.127,0.0455,-0.0378,0.0731,-0.171,-0.177,0.0116,-0.0662,-0.126,0.022,-0.23,-0.294,0.142,-0.0586,0.0711,-0.12,-0.00172,-0.101,0.0656,0.0494,0.0149,-0.374,0.0746,0.0744,0.229,0.1,-0.0354,-0.184,-0.043,-0.00134,-0.0913,0.0699,0.108,-0.0127,0.133,-0.173,0.109,0.126,-0.152,-0.0207,0.0081,-0.0307,0.0153,-0.00032,0.178,-0.00602,-0.0248,-0.0355,0.0893,0.0569,0.0697,0.16,-0.198,0.0238,0.029,0.00409,0.103,-0.17,0.115,-0.063,-0.193,-0.106,-0.0236,0.00933,0.282,-0.0898,0.136,0.203,-0.00552,0.0528,0.0432,-0.00979,-0.0246,0.0526,0.256,0.134,0.0607,-0.0675,0.282,-0.0138,0.0368,0.0147,-0.0257,0.0458,0.146,0.0955,-0.223,0.151,0.0944,0.0805,0.043,0.156,-0.0546,-0.126,-0.0067,0.128,-0.0237,-0.13,-0.0736,-0.236,-0.0176,-0.0393,0.0624,0.184,-0.0725,0.0968,0.103,-0.12,0.00995,-0.0199,0.124,0.0329,0.14,-0.123,-0.169,-0.0229,-0.0184,0.0603,-0.29,-0.0878,0.143,-0.141,0.0964,-0.227,0.251,0.19,-0.0974,-0.134,0.168,-0.0477,0.00791,-0.158,0.0361,0.156,-0.00368,0.051,0.121,0.0519,0.112,-0.0646,-0.184,-0.1,0.186,0.0742,0.18,-0.0481,0.244,-0.275,-0.209,0.0297,-0.0526,0.0431,-0.0211,0.00946,-0.244,-0.0647,-0.0248,-0.0431,0.114,-0.126,0.241,0.0673,0.0662,0.102,0.234,-0.0161,-0.124,-0.115,-0.0232,0.164,0.192,-0.0416,0.171,-0.0575,-0.0802,-0.0823,0.00963,-0.0959,0.154,-0.0257,0.0288,0.0394,0.0567,0.0755,-0.0443,-0.0286,-0.0604,-0.0252,0.0923,-0.0347,-0.206,0.157,-0.045,-0.0841,0.0827,-0.00668,0.03,0.164,-0.0835,-0.0826,0.0972,-0.00792,0.117,0.0517,0.0116,0.0544,0.023,-0.0991,0.0996,0.0562,-0.129,-0.0717,0.145,0.0685,-0.136,-0.0289,0.191,-0.094,0.014,-0.0251,0.194,-0.068,-0.00391,0.0141,0.0507,-0.0351,-0.0148,0.0703,0.237,-0.011,-0.0609,0.067,-0.033,-0.156,-0.0225,0.0745,0.011,-0.0338,0.0298,-0.00176,-0.0887,0.042,0.0397,-0.046,0.0148,-0.0231,-0.126,0.0601,-0.033,-0.227,0.0918,-0.101,-0.0111,0.0365,0.0234,-0.049,0.0957,0.0816,0.00974,0.0459,0.0464,0.0236,0.19,-0.0306,-0.0658,-0.004,-0.0122,-0.0139,0.127,-0.0088,0.109,-0.0678,-0.182,0.16,0.144,0.05,0.0763,0.2,-0.0985,0.128,0.0352,0.056,0.193,-0.166,-0.0483,0.0908,-0.0125,0.223,-0.0166,0.0397,0.0852,-0.151,-0.163,-0.0617,0.144,0.156,-0.00097,0.012,-0.137,0.122,0.0976,0.0327,-0.0848,0.128,0.071,0.00931,-0.105,-0.0999,0.00713,-0.144,-0.0603,0.013,0.0469,-0.0225,0.0508,0.146,0.0268,0.191,-0.092,0.0414,0.245,0.146,0.0466,-0.048,0.0342,-0.126,-0.0405,0.0758,0.0296,-0.0435,0.141,0.0459,0.00539,0.0768,0.114,-0.166,0.279,-0.105,-0.0382,-0.111,-0.0766,-0.14,-0.0837,0.12,-0.116,0.0235,0.0663,0.174,-0.0782,-0.052,0.0349,0.00304,0.0304,0.23,-0.0443,0.146,-0.129,-0.0118,-0.15,0.044,0.0537,0.158,0.021,0.0229,0.109,-0.116,-0.13,0.0564,0.0044,0.0677,-0.0334,0.154,0.0271,-0.104,0.126,0.0348,0.245,0.0144,0.0104,0.182,-0.0267,0.0984,0.0866,-0.0384,0.0204,-0.16,-0.117,-0.0785,-0.195,0.134,-0.0911,0.0655,-0.266,-0.00437,-0.12,0.032,0.0069,0.00018,0.0598,0.0299,-0.0698,-0.0633,0.0286,0.2,0.0744,0.133,0.103,0.00846,0.167,-0.0154,-0.0829,0.0342,-0.0524,0.0447,-0.0528,-0.176,-0.115,0.035,0.00323,-0.0705,-0.0625,0.0171,0.065,0.0777,-0.125,0.00877,-0.136,-0.17,0.0717,0.0662,-0.0141,-0.00206,0.0564,-0.0013,0.168,-0.0202,0.0238,0.0883,-0.121,-0.0121,-0.121,0.0559,-0.0693,-0.279,-0.126,0.0381,-0.349,0.0335,-0.0844,0.142,0.083,-0.0339,0.0293,-0.161,-0.00831,0.0539,0.00796,-0.0403,0.0592,0.0845,0.0403,0.171,0.039,-0.107,0.0339,-0.0257,0.123,-0.243,0.0627,-0.0661,-0.167,0.0383,-0.00528,0.0943,0.124,-0.122,0.011,-0.0614,0.152,-0.0506,0.0437,0.165,-0.0806,0.00761,0.0934,0.138,-0.135,-0.00825,-0.0258,0.278,-0.0753,0.0948,0.093,0.102,-0.00258,0.208,0.182,0.0412,0.019,-0.129,-0.103,-0.0733,0.0721,0.0521,0.156,0.0843,-0.0335,0.265,0.0356,-0.148,0.278,-0.047,-0.135,-0.047,-0.0827,0.00552,0.0627,0.0983,-0.0546,0.0898,-0.0295,-0.131,0.0849,0.0238,-0.2,0.000197,0.00118,-0.102,-0.115,0.122,-0.0163,-0.0549,0.0937,-0.0145,-0.194,0.0414,-0.154,-0.17,-0.0938,0.0228,0.214,0.137,-0.199,0.0691,-0.043,-0.0254,-0.0749,-0.18,-0.116,-0.0999,0.12,-0.12,-0.0139,0.0809,-0.0217,0.0187,-0.0618,-0.0578,0.0457,0.0906,4.13e-05,-0.116,-0.099,-0.162,-0.0683,-0.0257,-0.0879,0.0189,-0.0713,-0.271,0.0901,0.00303,0.101,0.0199,-0.0176,-0.0929,-0.0758,0.116,0.069,-0.0973,-0.0139,0.0363,0.113,0.0223,-0.00217,-0.0245,0.0257,0.015,-0.0292,0.0464,0.0187,-0.0404,0.0203,-0.0252,-0.00993,0.0128,-0.0171,0.00894,-0.0673,0.0817,0.0949,0.185,-0.155,0.0384,-0.12,0.0419,-0.106,-0.113,0.0362,0.0961,-0.0564,0.0532,-0.047,0.111,-0.0956,-0.0357,0.141,0.149,-0.162,0.0653,0.253,-0.0363,-0.0496,-0.05,0.133,0.0324,0.105,0.0111,0.0514,-0.00462,0.0171,0.0612,0.112,0.0356,0.0357,-0.00733,-0.0377,-0.0552,0.0196,0.0101,-0.104,-0.23,-0.0802,0.024,0.0955,0.14,0.16,-0.165,0.209,-0.121,-0.00526,-0.0519,-0.386,0.184,-0.0646,0.0448,0.0564,-0.0172,0.000108,-0.0644,0.00744,0.0426,-0.013,0.0412,-0.104,-0.00828,-0.0555,-0.0678,0.0334,0.0593,-0.0459,0.0277,-0.0127,-0.124,-0.0108,-0.052,-0.131,-0.233,0.0385,-0.0889,0.0447,0.112,0.0126,0.0297,0.131,0.168,0.149,0.24,-0.0111,-0.0576,-0.0366,-0.0814,0.0821,-0.173,0.189,0.151,0.0843,-0.0592,-0.21,0.0484,0.00465,-0.039,0.0913,0.0844,0.0876,0.0693};
float f4_1_bias[64] = {0.0488,-0.0205,-0.123,-0.00367,-0.111,-0.183,0.0878,0.0374,0.0449,-0.0688,0.222,0.136,0.0386,0.163,-0.0641,-0.34,-0.0567,0.0354,0.274,-0.0048,-0.171,0.0266,0.0364,-0.0517,-0.0307,-0.153,0.0997,0.178,0.0823,-0.0527,0.12,-0.0177,-0.0714,0.13,-0.0884,0.0909,0.0192,-0.092,-0.0227,-0.0673,-0.0268,0.0107,0.0326,-0.136,0.0202,0.0677,0.0214,-0.119,0.0969,0.0376,0.0747,0.00867,0.153,0.181,-0.0571,-0.191,-0.116,-0.12,-0.136,0.11,0.0411,0.184,-0.0289,-0.0653};
float f4_2_weight[64*1*3*3] = {0.328,-0.313,0.404,-0.143,-1.03,-0.475,0.233,0.415,0.456,-0.297,-0.243,-0.427,0.209,0.856,0.0938,-0.0455,-0.154,-0.448,-0.102,-0.188,-0.0816,0.00755,-0.0173,-0.143,0.399,0.315,0.134,0.402,-0.37,0.298,1.66,-0.427,0.472,0.687,1.35,-0.311,0.998,-0.625,-0.559,-0.95,-0.0707,-0.257,0.293,-0.0294,-0.14,0.241,-0.19,-0.45,-0.0589,-0.185,-0.179,-0.0862,-0.0127,0.608,-1.65,-0.154,0.248,-0.233,0.417,0.468,0.362,0.221,-0.262,0.458,-0.0561,0.672,-0.0392,0.244,-1.58,-1.07,-0.000364,1.08,-0.449,-0.841,-0.052,0.373,0.194,0.73,0.832,-0.305,0.59,-0.108,-0.165,-0.186,-1.2,-0.00394,-0.0554,-1.62,-0.0598,0.22,0.269,0.793,-0.902,0.446,1.1,-0.0262,0.0427,1.08,0.586,-0.637,0.0376,-0.81,-0.578,-0.317,0.204,0.414,-0.0188,-0.374,0.493,-0.103,-0.375,-1.29,1.05,0.0502,0.388,0.188,1.01,0.0616,-0.0679,0.00417,1.12,0.192,0.271,0.615,0.148,-0.209,-0.7,0.743,0.362,0.63,0.00363,0.723,-0.0894,-0.756,0.373,0.105,-0.534,-0.0657,-0.353,0.412,0.0227,0.979,0.409,-1.36,0.989,-0.0439,-2.56,-0.0572,-0.226,0.189,-0.351,-0.235,-0.0125,0.257,0.0845,0.118,-0.512,0.0716,-0.421,-0.218,-0.0892,0.21,-0.111,0.711,0.14,-0.35,-0.768,0.354,-0.0821,-0.089,-0.19,-0.294,-0.45,0.0415,-0.32,-1.67,0.00322,0.00307,0.762,-0.0193,0.271,0.165,0.0375,0.192,0.161,0.316,-0.504,0.668,0.234,0.189,0.909,-0.411,0.383,-0.657,0.124,0.0796,-0.11,-0.335,0.372,-0.462,0.527,0.00318,-0.187,-0.0953,0.224,-0.3,-0.0688,-0.0148,-0.174,-0.573,0.333,-0.288,-0.0129,0.106,0.114,1.02,0.134,0.0436,-0.00691,0.22,0.371,0.122,0.947,-0.521,-0.0699,0.221,0.24,-0.406,0.389,8.17e-05,-0.156,-0.485,-0.0451,0.222,0.342,-0.00287,1.18,0.566,-0.402,-0.484,0.913,0.0523,-0.475,0.271,-0.0629,0.465,-0.387,-0.131,1.29,-0.0173,0.391,-0.225,-0.184,-0.441,0.432,-0.0644,0.238,0.357,0.146,0.3,0.432,0.217,1.11,0.359,-0.277,-1.11,0.181,0.197,0.274,-0.574,-1.08,0.291,0.37,-0.227,-0.204,-0.675,0.0512,0.323,-0.427,0.923,0.503,-0.213,0.353,0.557,1.17,0.688,-0.393,-0.662,1.38,-0.112,-0.0315,-0.528,0.814,-0.101,-0.37,-0.0802,-0.801,1.72,0.0472,-0.278,-0.0491,-0.319,-0.707,0.648,0.307,-0.602,0.426,-0.264,-0.988,0.2,0.202,0.497,-1.53,-0.809,0.797,0.497,0.192,-1.22,-2.15,-0.916,0.185,0.166,-0.07,0.792,0.21,-0.223,-0.0244,0.14,-0.057,-0.222,-0.603,0.62,0.288,0.333,1.81,-0.539,0.221,0.0763,0.184,0.806,-0.0497,0.26,-0.267,0.695,0.474,-0.231,-0.0214,-0.166,0.363,0.433,-0.44,-0.17,-0.351,-0.243,-0.258,1.11,-0.00712,-0.309,-0.479,0.541,-0.154,0.349,-0.194,-0.372,-0.693,0.147,-0.357,0.515,-0.484,0.715,0.786,0.278,-0.413,-0.0873,0.189,0.249,-0.401,0.537,-0.867,0.544,0.406,-0.248,1.78,-0.648,0.342,-0.761,-1.95,-0.0267,-0.402,-0.255,0.225,-0.592,0.816,0.1,0.18,0.11,0.287,-0.625,-0.00562,0.134,-0.151,-0.126,0.049,-0.383,-0.213,0.179,-0.0873,-0.633,-0.0686,0.0825,-0.0699,0.0571,0.381,-1.04,-0.298,-0.211,-0.0398,0.118,-0.875,-0.549,0.0687,0.328,0.102,-0.713,-0.357,-0.433,0.975,-0.0266,1.2,0.116,-0.105,-0.212,0.902,-0.169,-0.864,-0.00974,-0.49,0.394,-0.0698,0.936,-1.06,-0.376,0.527,0.0907,0.282,0.816,0.0698,-0.487,0.881,0.0151,-1.2,0.343,0.31,-0.039,0.29,-0.478,0.295,0.945,1.63,-0.0326,0.429,-0.133,0.371,0.285,-0.323,-0.69,-0.197,0.371,0.00842,0.645,-0.194,-0.429,0.265,-0.621,1.21,-0.106,-0.0137,-1.29,0.0596,-0.305,0.33,-0.309,-0.646,0.0699,0.0469,-0.051,-0.165,0.369,-1.24,-0.146,0.341,-0.118,0.0334,1.22,0.0867,0.272,-0.513,-0.0576,-0.994,-1.08,-0.602,0.0221,-0.0195,0.257,-0.416,-0.841,-0.485,0.527,0.137,1.12,0.292,-0.705,-0.0387,0.523,0.463,0.249,-0.25,-0.329,0.0356,-0.272,-0.437,0.825,-0.0533,0.451,0.0881,-0.59,0.534,0.0999,-0.204,-0.0665,0.271,1.29,-0.0982,0.656,-0.54,-0.453,0.969,-0.888,-0.0681,0.156,0.439,0.241,-0.0624,-0.234,0.413,0.101,-0.124,0.71,-0.132,-0.0823,-0.156,0.198,-1.01,-0.154,0.0755,-0.392,-0.629,0.182,0.157,0.623,-0.316,1.35,0.308,-1.44,-0.548,-0.16,-0.122,-0.134,0.0946,-0.141,0.47,-1,0.646,0.655,-0.119,-0.204};
float f4_2_bias[64] = {0.374,0.182,-0.106,0.0716,-0.169,0.276,-0.0829,0.0709,0.26,0.0973,-0.112,0.183,-0.135,-0.103,0.376,0.14,0.472,0.146,0.538,0.0139,-0.201,0.359,0.389,-0.0678,0.422,0.245,-0.539,-0.0623,0.129,0.0553,-0.376,-0.632,0.228,0.0616,0.0329,0.00635,0.308,0.0267,-0.306,0.299,-0.192,0.441,0.25,0.0406,0.0271,0.53,-0.581,-0.194,0.0882,0.155,-0.0217,-0.246,0.0634,0.0769,0.16,0.33,-0.0732,0.349,0.183,0.0753,-0.702,0.115,-0.0123,-0.251};

float f5_1_weight[64*64*1*1] = {0.0531,-0.0887,0.0995,0.098,-0.0284,0.0536,0.167,-0.00907,0.104,-0.0522,0.0882,-0.2,0.0072,0.083,-0.0102,-0.0894,-0.214,-0.0777,0.0434,-0.0968,-0.0754,0.109,0.0345,-0.0482,0.0502,0.0849,0.097,-0.0177,0.12,-0.0502,-0.118,-0.0172,-0.216,-0.0432,0.103,0.0429,0.14,0.0586,0.00975,0.254,0.149,-0.0516,0.309,-0.173,0.11,0.159,0.164,0.0069,-0.0295,-0.0938,0.0323,0.0114,0.0819,0.218,0.0935,0.126,-0.0505,-0.202,-0.114,0.152,-0.157,-0.0947,-0.151,0.0203,0.0532,0.158,-0.0606,0.0943,0.0757,0.213,0.0438,-0.053,-0.0506,-0.0886,0.0227,0.104,0.0597,0.0273,-0.0197,-0.0392,0.0333,-0.0488,-0.000105,-0.06,0.000479,0.0115,0.0502,0.0505,0.0239,0.116,0.148,0.183,0.00651,-0.0509,0.02,0.0131,0.165,0.0507,0.0614,-0.161,-0.0774,0.154,0.00729,0.167,0.0986,0.124,-0.0527,0.0983,-0.117,-0.139,0.0412,-0.0908,-0.00622,0.0828,-0.0601,-0.282,0.116,-0.221,0.139,0.142,-0.115,-0.191,-0.0571,-0.00852,-0.129,0.0507,0.105,0.00431,0.00209,-0.0378,0.041,0.0278,0.0431,-0.0949,-0.0474,0.0964,0.0498,-0.0397,0.314,-0.0483,-0.175,-0.0679,-0.00625,-0.125,0.105,0.0493,0.0197,-0.0188,-0.197,-0.112,-0.0965,0.0916,-0.0797,-0.0405,-0.0991,-0.0552,-0.0604,0.0134,-0.0125,-0.0945,-0.127,-0.122,-0.0477,-0.0172,-0.0417,-0.0353,0.133,-0.0485,0.0427,0.23,-0.0615,0.103,-0.0555,0.0817,-0.0995,0.045,-0.0608,0.0148,-0.0502,0.0447,-0.0303,-0.107,0.0726,-0.071,-0.0396,0.0473,-0.00759,0.0686,-0.114,0.0905,0.0389,0.0956,-0.00842,0.114,-0.00741,-0.0498,-0.132,0.0564,-0.115,0.0681,0.0453,-0.00235,-0.0793,-0.0914,0.175,0.0897,0.0814,0.237,-0.173,-0.0011,-0.0259,0.169,0.0938,0.139,0.103,-0.216,0.106,0.143,-0.0921,0.0868,0.0109,0.0935,0.0855,0.0943,0.136,0.128,0.0824,0.054,-0.0189,-0.063,-0.243,-0.174,0.0532,-0.0381,-0.0204,0.119,0.108,0.0367,0.13,0.0918,0.00199,-0.0622,0.0089,0.0569,0.0419,-0.0447,0.0147,0.0335,0.0505,-0.0993,0.0616,-0.0803,0.194,-0.199,0.004,-0.164,-0.155,0.175,0.0389,-0.0711,0.0661,-0.247,-0.159,-0.276,-0.159,-0.116,0.0318,-0.112,0.121,0.152,-0.0687,-0.0279,-0.0375,-0.119,-0.0291,0.00491,0.17,0.00831,0.0728,-0.0269,-0.0753,0.0046,-0.107,0.0358,-0.0265,0.0197,0.00667,0.0415,0.0266,0.0863,0.108,0.163,0.0484,-0.147,0.101,0.144,0.137,0.18,-0.0697,0.149,0.151,-0.0772,-0.0488,0.00299,-0.13,0.00185,0.0662,-0.0579,-0.138,-0.144,0.0146,0.0739,-0.0584,-0.0119,-0.0673,0.0663,0.141,-0.0305,-0.0594,0.0614,0.242,-0.169,0.109,0.052,-0.0132,0.0526,-0.0813,0.0345,0.0021,0.0336,0.119,0.0296,0.0432,0.0647,0.0797,-0.101,0.105,0.0445,0.112,-0.164,-0.104,0.137,-0.0287,0.0424,-0.0937,-0.018,-0.0725,-0.126,0.0603,0.0598,0.0779,-0.0954,-0.0287,-0.0368,0.122,-0.148,-0.101,0.0582,0.121,-0.212,-0.0649,0.0387,-0.00358,0.0165,-0.00729,-0.0978,0.0292,0.112,-0.179,-0.109,0.108,-0.0842,0.125,-0.00736,-0.115,0.0559,0.184,0.00126,0.066,-0.15,-0.0468,0.0828,0.0858,-0.0182,-0.00124,-0.0445,0.0334,0.0565,0.133,-0.0429,0.0353,-0.011,-0.0391,-0.108,0.227,-0.000717,-0.261,-0.0166,-0.0135,-0.0663,0.089,0.0119,-0.00701,-0.0696,-0.084,-0.127,-0.184,-0.00473,-0.0401,-0.0775,-0.106,0.00306,-0.0634,0.0198,-0.0519,-0.0758,-0.168,-0.147,-0.0522,-0.057,-0.0859,-0.0533,0.141,-0.0585,-0.163,0.193,-0.0311,-0.0145,-0.0851,0.068,-0.161,-0.0108,-0.067,-0.0415,-0.00205,0.0761,-0.0641,-0.111,0.105,-0.111,-0.0494,0.0572,-0.0776,0.0322,-0.0768,0.137,-0.0211,-0.00467,-0.0565,-0.0389,0.104,0.076,-0.0377,0.102,0.0806,-0.0608,0.00353,-0.0225,-0.135,-0.175,-0.0335,0.0159,-0.184,0.0306,0.0354,0.0209,-0.00279,-0.183,-0.0171,0.151,0.25,9.4e-05,0.0503,-0.108,-0.0679,0.00232,0.0221,-0.232,0.048,0.142,0.0936,0.151,0.126,0.00513,0.00643,0.138,-0.0544,0.217,0.139,-0.0307,-0.0583,0.201,-0.0276,-0.0402,0.155,-0.237,0.181,0.182,-0.00669,0.0647,0.00157,-0.0783,-0.166,-0.00997,-0.111,0.0738,-0.104,0.229,0.119,-0.075,-0.0562,-0.0395,0.0339,-0.117,-0.0109,0.112,0.112,-0.0385,0.0282,-0.0632,-0.0337,-0.0302,0.105,0.00976,-0.129,-0.0704,0.000643,-0.0817,0.0893,0.0185,-0.0779,-0.109,-0.179,-0.122,-0.118,0.214,-0.0491,0.0062,0.0348,-0.0428,-0.0749,-0.0508,-0.0477,-0.128,-0.172,-0.123,-0.0822,-0.0669,-0.0734,0.0744,0.138,0.0378,-0.198,0.142,-0.000663,-0.046,-0.107,0.0826,-0.0738,-0.0474,0.0134,-0.0646,0.0162,-0.0133,-0.0373,0.00545,0.102,-0.0485,-0.0465,0.123,-0.109,0.0599,-0.0729,0.295,0.012,0.17,-0.108,-0.0744,-0.077,-0.0923,0.0224,0.0366,0.201,-0.264,-0.103,-0.0367,0.0795,0.141,-0.0404,-0.139,-0.0519,-0.017,0.15,-0.093,-0.0517,-0.0456,0.0681,-0.134,0.0133,0.00607,0.101,-0.0749,-0.00471,0.138,0.11,0.146,-0.0589,-0.108,-0.0588,-0.0707,0.0676,0.137,-0.0247,0.116,-0.0159,0.0116,-0.0246,0.0205,0.0467,0.224,0.00848,-0.115,-0.00487,0.116,0.0193,-0.16,0.0474,-0.109,0.0567,-0.182,-0.0926,-0.143,0.0853,0.0429,0.0181,-0.0204,-0.126,-0.141,0.0293,0.0224,0.143,-0.0314,-0.0357,0.106,0.0101,-0.00295,0.0271,0.125,0.0712,0.0119,-0.0697,0.189,0.0844,-0.178,0.0876,-0.118,-0.161,0.169,-0.149,-0.00981,0.189,0.142,0.0356,0.0556,0.0327,0.194,0.0638,0.215,0.113,-0.0922,0.142,-0.149,0.0698,0.203,0.0928,0.0135,0.025,0.101,0.115,0.00294,-0.0983,-0.0158,-0.0052,0.0929,-0.0412,-0.0752,0.0826,-0.0338,-0.0602,-0.0496,-0.0735,-0.104,-0.0682,-0.0726,-0.18,0.135,0.0638,-0.00831,-0.15,-0.122,-0.0869,-0.0278,-0.0971,-0.0395,-0.0858,0.0285,-0.0965,0.0398,-0.122,0.0463,0.084,0.115,0.0477,0.0302,-0.0681,-0.0329,0.146,0.0591,-0.0439,0.0956,-0.0488,0.00412,-0.104,-0.0699,-0.0561,0.117,0.0421,0.112,0.0147,-0.0168,0.176,0.01,0.143,0.091,0.0278,-0.0716,0.0194,-0.132,0.00676,-0.0974,0.0697,0.0445,0.0016,0.0248,-0.0346,-0.199,0.027,0.0063,-0.058,-0.149,0.145,-0.0756,0.077,-0.129,0.137,-0.0196,0.15,0.0494,-0.114,0.0228,0.122,-0.00596,-0.0495,-0.0644,0.167,0.186,0.0852,0.193,-0.0069,-0.173,-0.0159,0.133,0.0813,-0.0404,0.0446,0.0187,0.0478,-0.0283,0.054,-0.0592,0.0198,-0.0546,-0.0869,0.0522,0.00234,0.0333,-0.245,-0.0559,0.0476,0.00214,-0.101,0.0273,-0.232,0.0078,-0.0558,-0.0669,-0.0679,-0.111,-0.0985,-0.164,0.0351,-0.133,-0.0746,-0.0692,0.119,-0.0138,0.183,-0.0985,-0.0672,-0.0667,0.0651,-0.0861,0.000661,-0.0238,0.00908,0.121,-0.12,0.00526,0.0382,0.19,-0.0629,-0.225,0.181,0.0258,-0.0109,0.0874,-0.00939,0.0274,-0.0747,-0.0429,-0.121,0.188,-0.0617,-0.0301,0.123,0.0729,-0.0333,0.0168,-0.091,-0.128,0.0899,0.0548,0.00226,-0.172,0.0609,0.0609,0.12,0.0427,-0.00102,-0.0167,-0.0675,-0.0766,0.176,0.0844,0.0674,0.0736,0.121,-0.0641,-0.194,-0.0423,-0.0954,-0.192,-0.202,0.1,0.164,0.0562,0.0942,-0.191,0.175,0.0223,0.00534,-0.082,0.052,-0.00702,0.0916,0.096,0.162,-0.0195,0.0289,-0.062,0.0927,-0.134,0.0253,0.333,-0.0975,0.0525,-0.00774,0.127,-0.0291,0.105,-0.106,0.191,0.152,0.0693,0.026,0.0959,0.293,0.26,-0.123,0.166,-0.0751,-0.0715,0.216,-0.0977,0.193,0.0636,0.021,-0.0964,0.123,0.17,-0.00424,-0.0124,0.0662,0.0832,-0.18,-0.00761,0.0108,0.271,0.0853,-0.0414,0.0257,-0.0434,0.148,0.0269,0.0131,-0.102,-0.013,0.00348,0.138,-0.177,0.0318,-0.126,0.152,-0.0626,0.0431,0.0166,-0.123,0.0595,-0.0337,-0.0265,0.000876,0.00238,0.035,0.0442,0.0594,-0.0512,-0.0575,0.00624,-0.202,-0.0879,0.00481,-0.0852,-0.0873,-0.0355,-0.0972,0.239,-0.0304,0.00884,-0.118,0.0592,-0.0986,-0.0584,0.293,-0.143,-0.0413,-0.0417,-0.0474,0.118,-0.0197,-0.0924,0.0769,0.0302,-0.0965,-0.0984,-0.065,-0.0343,-0.0913,-0.137,0.293,-0.132,-0.117,-0.15,-0.00981,0.013,-0.00971,0.0438,-0.101,0.00925,0.138,-0.0195,0.118,0.0153,-0.186,-0.0899,-0.109,0.0779,-0.148,-0.119,0.111,0.0214,-0.239,0.0549,0.0195,0.174,-0.106,-0.147,-0.08,0.0714,-0.104,0.271,0.011,-0.0961,0.044,-0.096,0.00716,-0.0196,0.0234,-0.0631,-0.124,-0.0458,-0.034,-0.0337,0.0254,-0.0668,0.116,0.0602,0.0235,-0.118,0.242,-0.183,-0.0572,-0.0646,-0.0229,-0.058,0.148,0.0575,0.0587,-0.152,-0.0423,-0.0568,-0.169,-0.211,-0.0632,-0.0665,0.0254,-0.0596,0.000171,0.0971,-0.148,0.142,-0.00491,0.218,-0.0978,0.0371,0.0263,0.0668,0.0173,-0.0581,0.0563,-0.11,-0.0625,0.0861,0.138,-0.0489,0.121,0.178,-0.0434,0.0492,0.00325,-0.107,0.0758,0.0429,-0.0752,0.0215,-0.0105,0.00225,-0.00243,0.0609,-0.0284,0.0123,-0.102,-0.19,-0.166,0.0858,0.0525,0.0641,-0.00442,0.0113,-0.0995,-0.109,0.0117,0.0364,0.191,-0.0687,-0.0309,-0.0408,-0.0955,-0.102,0.0267,0.0487,-0.0478,-0.0204,0.155,-0.144,0.145,-0.0647,0.0546,-0.175,0.147,-0.1,-0.126,0.0981,-0.0671,0.0631,0.0652,-0.0623,0.0691,0.124,-0.0466,-0.0605,-0.269,-0.183,-0.066,-0.057,-0.117,-0.0639,0.0722,-0.0699,-0.138,0.0199,0.0422,0.0342,-0.168,0.0822,-0.139,0.0644,0.0333,-0.0083,0.0294,-0.0563,-0.149,-0.113,0.14,-0.114,-0.125,-0.0213,-0.0907,-0.143,-0.0536,0.115,0.211,0.02,-0.168,0.139,-0.0229,-0.0639,0.0699,0.203,0.116,0.0711,-0.113,-0.0716,-0.026,0.0485,0.0303,0.019,0.085,-0.0829,0.0405,-0.239,0.00709,0.0509,-0.023,0.101,0.0784,-0.0316,0.155,0.236,0.0914,0.11,0.0338,0.039,-0.0424,0.0451,-0.194,0.0399,0.128,-0.0376,0.0567,0.105,0.0497,-0.137,-0.115,0.0928,-0.0685,-0.0571,0.141,0.00506,0.0288,-0.0173,-0.0353,0.0226,0.0325,0.104,0.0509,0.228,-0.0384,0.0487,-0.236,-0.133,-0.106,0.074,0.105,-0.0689,0.106,-0.161,0.084,-0.0472,0.0262,-0.318,0.0795,0.0101,-0.24,-0.136,0.165,0.00845,0.0399,0.197,0.00884,0.00441,0.0313,-0.00388,0.0286,-0.311,0.0618,-0.0398,0.0294,0.1,0.059,-0.00679,-0.0148,0.0549,0.0294,0.157,0.117,0.143,-0.121,-0.00068,-0.179,0.0756,-0.0573,-0.206,0.0698,-0.0599,-0.0711,0.0886,0.0369,0.164,0.104,0.07,-0.113,-0.294,0.124,-0.0472,-0.0346,-0.11,-0.265,-0.0708,0.00537,0.0691,-0.0895,0.0534,-0.245,0.00549,-0.056,-0.167,0.0115,0.0254,-0.159,0.0479,0.282,0.0787,-0.135,-0.126,0.0121,0.0309,0.0199,-0.149,0.0815,-0.0447,0.0974,-0.00461,0.0853,0.0139,-0.0608,-0.172,0.0482,-0.0733,-0.0716,0.0193,0.0721,-0.0149,0.00741,0.0926,0.0654,-0.107,0.0402,-0.0264,-0.0858,0.136,0.00554,-0.164,-0.00909,0.0377,-0.0641,-0.0246,0.272,-0.0767,-0.0388,-0.028,0.0601,0.024,-0.0668,0.103,-0.0498,-0.0154,-0.0275,-0.0231,0.0809,0.0206,0.045,0.0923,0.0119,0.0367,-0.0335,0.019,0.161,-0.0188,0.105,0.00771,0.0119,0.0269,0.0258,0.0115,0.0114,-0.0953,0.0162,0.163,0.0852,0.0451,0.125,-0.121,0.0968,-0.145,0.0379,0.18,0.119,-0.0485,-0.103,0.0283,0.0266,0.00275,0.0205,-0.0587,0.105,0.0615,-0.13,-0.0652,0.0905,-0.0727,-0.0892,0.0739,-0.126,-0.0118,-0.144,-0.0446,0.0115,0.11,-0.221,-0.194,-0.00478,-0.101,0.00109,0.00393,-0.0439,0.199,0.0808,0.00191,-0.0697,0.0597,0.0751,-0.0337,-0.152,-0.177,-0.0279,0.0442,-0.205,0.0314,-0.134,0.0422,-0.178,0.042,0.164,-0.0732,-0.0314,-0.137,-0.0996,0.121,-0.00537,-0.0271,-0.00871,-0.0822,-0.193,0.0504,0.0412,0.0415,-0.00184,0.0428,-0.199,0.0866,0.123,0.054,0.00957,0.0893,-0.0852,-0.0385,-0.0196,0.0372,0.0289,0.015,0.064,0.185,0.0135,0.0903,0.163,-0.0929,0.106,-0.00352,0.0787,0.099,0.0946,0.0916,0.0201,0.025,0.0996,0.0106,-0.151,0.0446,0.109,-0.246,0.0568,0.0077,0.0513,-0.104,0.109,0.0289,0.0285,-0.00287,0.0181,-0.0832,0.0928,0.151,-0.129,0.11,0.0866,-0.0253,0.143,-0.0656,0.11,0.0666,0.0748,0.0861,-0.163,0.056,-0.0708,-0.0521,-0.0866,0.0593,0.108,-0.0562,-0.272,-0.0279,0.0215,-0.123,0.0777,0.0106,0.0358,0.299,0.105,0.0498,-0.048,0.266,-0.033,0.0743,0.0969,-0.0413,0.106,0.104,-0.101,-0.0662,-0.15,-0.0212,0.0947,0.0502,-0.0244,-0.0064,0.0405,-0.0428,0.109,-0.0446,0.0868,0.083,-0.144,-0.00705,-0.00131,0.0331,0.0163,-0.00668,0.117,-0.0715,0.239,-0.0245,0.109,0.203,-0.103,0.0297,-0.119,-0.195,0.0354,0.144,-0.144,-0.108,0.000886,0.0452,0.129,0.0751,0.153,-0.113,0.0938,0.109,0.0137,0.0462,-0.0192,0.0561,-0.00255,-0.238,-0.0452,-0.0908,0.0451,0.178,-0.0395,-0.00943,-0.0559,0.0729,0.0404,-0.123,-0.00829,0.00873,0.0306,-0.00924,0.287,0.0281,0.0219,0.0303,0.0681,0.019,-0.271,0.0599,0.0646,-0.0046,-0.0785,0.086,0.0525,0.163,0.0416,0.127,-0.0402,0.0992,0.134,0.122,0.0404,0.0426,0.0949,0.0617,0.115,-0.16,-0.226,0.0576,-0.0205,0.236,-0.00869,-0.294,0.0966,0.021,0.28,0.00769,0.0606,-0.0285,-0.13,0.105,0.0757,0.0116,0.0175,-0.136,-0.043,-0.231,-0.22,0.0352,-0.19,0.0495,-0.0316,0.133,-0.124,-0.00554,-0.0534,-0.155,0.221,-0.163,0.0127,-0.143,-0.0331,0.0938,-0.101,-0.0503,0.0639,0.0897,-0.0109,0.0498,-0.255,-0.0115,0.349,0.05,-0.272,0.0637,0.045,-0.0356,-0.146,-0.202,0.0634,-0.158,0.157,0.0411,-0.0604,0.131,0.0772,-0.0167,0.0935,-0.0618,-0.0743,-0.0543,-0.0154,0.00891,0.0297,-0.0417,0.0992,0.00807,0.041,-0.0664,-0.0314,-0.0561,0.00797,0.161,0.129,-0.0465,-0.0187,0.0228,0.0448,0.053,0.0262,0.118,0.082,-0.234,0.0258,-0.161,-0.132,0.0724,0.0112,-0.0524,-0.0356,0.0259,-0.125,0.0879,0.017,0.16,-0.245,-0.0102,0.0336,-0.113,0.0916,-0.152,-0.0384,0.208,-0.0385,-0.0146,0.165,0.112,-0.0106,0.254,-0.00106,-0.161,0.0518,0.108,0.0915,-0.0733,0.0498,-0.022,0.0377,-0.0816,0.00341,0.0888,0.196,-0.151,-0.0434,-0.0234,-0.114,0.0855,0.0807,0.0183,-0.0777,-0.112,-0.0805,-0.0821,-0.223,0.0336,0.146,-0.103,0.00127,-0.0425,0.0106,0.0674,-0.2,0.136,0.0722,0.0656,0.111,-0.0264,0.0537,0.0638,-0.0312,0.0579,0.173,0.0896,0.227,0.0217,-0.0274,-0.0178,-0.286,0.13,0.0786,0.0734,0.00137,0.0421,0.0584,0.0355,0.0805,0.0439,0.085,0.0698,-0.0166,0.0266,0.146,0.0232,0.0531,-0.044,0.0152,-0.0512,-0.0383,-0.0364,0.0815,0.032,-0.0583,0.0113,0.0728,-0.0094,-0.00444,-0.0363,-0.00823,-0.17,0.0708,-0.0193,-0.00891,0.0203,0.06,0.00847,0.0598,-0.0642,0.0813,-0.0879,0.0486,0.156,-0.0147,0.1,0.0945,-0.173,-0.223,-0.0324,0.018,-0.0955,0.148,0.053,0.0459,0.112,0.0802,0.0602,0.0358,0.0206,-0.135,-0.229,0.218,-0.0945,-0.00171,0.0962,0.166,0.0239,-0.109,0.00743,0.00263,-0.00141,0.216,-0.0125,-0.075,0.0838,-0.0843,-0.109,-0.0645,-0.00345,0.141,-0.0577,0.109,-0.0333,0.00735,0.0629,0.136,-0.118,0.0597,-0.0648,-0.1,-0.0852,-0.0111,-0.0306,-0.0148,0.071,-0.148,-0.0916,-0.0363,0.0564,-0.0797,-0.074,0.117,0.145,-0.154,0.0481,-0.0737,0.0674,0.0584,0.165,-0.0699,0.0225,0.0061,-0.0263,-0.0882,-0.101,0.184,-0.00728,0.0608,-0.0182,-0.118,0.00728,-0.15,-0.0541,0.101,-0.00868,0.00331,-0.198,-0.0869,0.119,0.0983,-0.0776,-0.0629,-0.0186,0.143,0.173,-0.085,-0.096,-0.0583,0.0997,0.0498,-0.0303,-0.0522,-0.0692,-0.0654,-0.0303,0.0151,-0.0717,-0.0113,-0.0637,0.0463,0.103,-0.333,-0.0657,0.0123,-0.0672,-0.0211,0.0349,-0.193,-0.0151,0.0477,0.0187,0.0833,-0.173,-0.133,0.312,0.0521,-0.258,-0.0582,-0.0519,-0.108,-0.0561,0.0979,-0.0815,0.0081,0.043,-0.0389,0.116,-0.0971,0.0196,0.0486,-0.0756,-0.105,0.122,0.0523,-0.0835,0.136,0.0417,-0.086,0.0883,-0.0209,-0.0796,0.0363,-0.146,-0.139,-0.187,-0.142,-0.07,0.0685,0.0112,0.341,0.127,-0.0813,-0.0907,0.131,0.0726,-0.043,-0.135,0.121,-0.0146,0.0691,0.0187,0.0626,-0.0129,-0.181,0.06,-0.00614,0.0264,0.108,-0.208,0.0233,0.117,0.0408,-0.24,0.11,-0.0399,-0.0256,-0.112,0.0885,0.055,0.12,-0.0271,-0.0723,-0.142,-0.0387,-0.0936,0.0382,0.103,0.0372,0.00991,-0.0118,0.013,0.0467,-0.00418,-0.0431,-0.026,0.167,-0.0495,0.0755,0.094,0.136,0.0818,0.01,0.0419,-0.0281,-0.0943,-0.0143,0.206,-0.0614,-0.025,0.229,0.0513,-0.0465,0.243,0.0147,0.0723,0.0578,-0.00953,-0.15,0.175,0.0147,-0.0229,0.0379,-0.0612,0.107,0.196,0.042,-0.0962,-0.0235,0.0625,-0.0051,0.135,-0.0756,0.201,0.0762,-0.0602,0.0373,0.164,0.037,-0.0974,-0.0551,0.0994,0.0827,0.0101,-0.0754,-0.054,-0.0878,0.145,0.248,-0.0131,-0.0959,0.0732,-0.05,-0.000882,0.0966,0.129,0.0549,-0.114,0.032,0.0574,0.061,-0.0693,-0.0933,0.0272,-0.108,-0.173,0.00515,-0.156,0.0533,0.152,0.00733,0.129,-0.359,0.0182,-0.24,0.0383,-0.0599,-0.0238,0.0973,0.202,-0.154,0.0149,-0.0173,-0.01,-0.0897,-0.16,0.000375,0.075,0.0437,0.0746,0.0398,0.06,-0.123,-0.0556,-0.0147,-0.028,-0.0361,0.0583,0.0224,-0.0131,-0.0958,-0.0783,-0.0344,0.0425,-0.0555,-0.187,0.0361,0.0355,-0.17,0.115,0.079,-0.0573,-0.15,-0.0443,0.088,0.163,-0.0378,-0.132,-0.0749,0.0994,-0.217,-0.15,0.136,-0.0263,-0.00105,-0.0485,-0.117,-0.127,-0.201,0.0989,-0.0222,0.183,-0.266,-0.0744,0.0271,0.147,-0.128,0.0408,-0.0328,0.00444,0.0748,0.182,0.0342,-0.116,-0.00124,0.0154,0.0129,-0.121,0.12,-0.0669,0.338,0.0706,0.133,-0.016,-0.132,-0.0731,-0.142,-0.183,0.135,0.0561,-0.0274,0.0785,-0.0867,-0.101,0.195,-0.0126,-0.0376,-0.0221,-0.0925,-0.257,0.00275,-0.0359,0.0537,0.148,0.0331,0.014,-0.105,-0.00906,0.0484,0.0249,-0.0357,0.0113,-0.012,0.0318,-0.0571,0.0595,0.14,-0.0918,0.0466,-0.121,-0.015,0.00201,0.0849,0.0139,-0.0509,-0.0195,-0.0854,0.0186,0.281,-0.0016,0.00843,0.177,0.075,0.00718,-0.129,-0.00782,0.133,0.18,0.115,0.135,0.032,-0.0588,0.0916,-0.0834,-0.0434,-0.0316,0.0662,0.0832,0.0728,-0.0526,-0.0504,0.0101,0.00939,-0.0671,0.0839,0.136,0.0267,-0.0667,0.184,-0.216,-0.204,0.398,0.125,0.025,0.0558,0.0966,-0.0527,0.105,-0.0454,0.03,0.0821,-0.00102,-0.116,-0.138,-0.0959,0.0279,-0.0623,-0.0104,0.00373,0.0248,0.0332,0.0223,0.00516,0.193,-0.0349,-0.0486,0.0111,0.0493,0.0172,0.113,0.0513,-0.156,0.0204,0.029,0.0842,0.101,0.0676,-0.0617,-0.023,0.019,0.227,-0.00828,0.0206,0.0988,0.0281,0.0471,0.0183,-0.0427,0.102,-0.0684,-0.00945,0.0339,-0.0191,-0.0191,-0.0814,-0.0948,-0.0391,-0.0548,-0.0749,-0.341,0.056,0.0178,0.0284,-0.035,0.102,-0.0145,0.131,-0.0246,-0.0296,0.0258,0.0562,0.0915,-0.0996,-0.162,-0.0697,0.0079,0.102,0.0704,0.000583,-0.0879,0.0261,-0.0527,-0.0257,0.0128,0.203,-0.00534,-0.187,0.0644,-0.0414,-0.037,0.0765,0.104,-0.0724,0.0418,0.0216,0.0624,-0.114,0.107,0.0161,-0.067,0.033,0.123,0.0509,-0.0129,0.105,-0.0979,-0.162,0.0123,-0.00675,0.111,0.0106,0.00584,0.118,-0.228,0.0621,0.201,-0.00462,0.157,0.109,-0.044,0.168,-0.0815,0.115,-0.0208,0.0187,-0.136,0.0358,0.164,-0.171,-0.0603,0.0755,0.134,0.149,-0.0279,0.133,0.024,0.0647,0.102,-0.0349,0.161,0.0586,-0.0171,0.0551,0.107,-0.0718,0.0329,0.017,0.0162,0.0443,0.0609,-0.0273,0.0226,-0.0857,0.0646,0.0642,-0.0183,0.000639,0.177,-0.157,0.274,0.053,0.128,0.00597,0.0792,0.102,0.0313,0.235,0.203,-0.113,-0.098,-0.0608,-0.132,0.00602,0.106,0.0687,0.16,0.0862,0.0268,0.0844,-0.0749,-0.0826,0.19,-0.0563,-0.00627,-0.234,-0.0273,-0.0689,-0.0357,0.134,0.0381,0.0671,-0.155,0.0881,-0.183,0.0304,0.0864,0.246,-0.0731,-0.023,0.138,-0.103,0.0333,0.0962,0.0102,-0.0822,0.0955,0.00364,0.000415,-0.264,-0.14,0.00747,-0.04,0.063,-0.112,-0.0884,0.0753,-0.0347,0.0183,-0.046,-0.0142,0.161,0.022,0.111,-0.125,-0.212,0.0158,0.141,0.00316,-0.0232,0.000648,-0.0511,-0.0316,-0.0183,-0.191,0.112,0.239,0.0366,-0.0102,-0.012,-0.116,-0.024,-0.0862,-0.0429,-0.101,-0.0343,0.0787,-0.0114,-0.0186,-0.107,-0.0281,-0.0787,0.157,0.00741,0.156,-0.0268,-0.014,-0.0574,-0.143,-0.194,-0.14,0.0813,-0.101,0.0268,-0.0926,0.116,0.0417,-0.143,-0.071,0.00204,0.02,0.102,-0.0602,-0.00839,0.193,-0.126,0.104,0.000482,0.071,0.155,0.173,-0.0388,0.0772,0.125,-0.0181,0.0383,0.11,0.102,0.142,0.0501,-0.112,0.00881,0.195,-0.0686,-0.0736,0.0786,0.352,0.232,0.0792,0.0381,0.0983,0.0242,0.109,0.124,-0.0315,0.0192,-0.0433,0.122,0.165,0.0156,-0.0973,0.0642,-0.212,-0.193,0.0982,-0.227,0.0259,0.115,-0.0327,0.0575,-0.0625,0.0462,-0.0598,0.0877,-0.089,0.049,-0.246,0.0873,0.0961,-0.101,-0.166,0.219,-0.0608,-0.0604,0.0459,0.0361,0.0293,-0.182,0.0225,0.0621,-0.0822,-0.0673,0.106,0.00974,-0.0744,-0.109,0.185,-0.11,-0.0639,0.273,0.00688,0.101,-0.0632,-0.151,0.0247,0.0325,-0.108,-0.0692,0.176,-0.00198,0.125,0.0423,-0.105,0.0106,0.221,-0.00835,-0.0606,-0.0157,-0.104,-0.0902,-0.0579,-0.13,-0.0712,0.14,-0.0999,-0.0826,0.102,-0.128,-0.0842,-0.00159,0.161,-0.0822,0.141,-0.0799,-0.147,-0.0528,-0.121,-0.0331,-0.0532,0.184,-0.0437,0.0781,-0.128,0.0899,-0.152,-0.198,0.0721,0.121,0.0582,0.143,-0.268,0.0119,0.0982,-0.00605,-0.0812,0.0831,0.0685,-0.0755,0.0655,0.105,-0.245,-0.128,0.166,0.0149,0.0185,0.187,0.0834,0.0148,0.034,-0.0901,0.0563,-0.113,0.00801,-0.166,0.0546,0.0824,-0.464,0.103,0.00813,-0.0272,-0.108,-0.0325,-0.0203,-0.219,-0.0676,0.222,0.115,-0.0548,0.222,-0.0425,0.0271,0.000781,0.017,-0.0519,-0.0356,-0.0685,0.000352,-0.0486,0.0161,0.0661,-0.125,-0.0157,-0.0151,-0.0372,0.0544,-0.0406,0.051,-0.131,-0.00102,0.0419,0.0181,-0.0665,-0.0142,0.072,-0.203,0.0228,-0.0109,0.101,0.171,-0.00487,0.069,0.101,0.0291,0.199,-0.064,-0.002,0.0305,0.0244,0.0051,0.217,0.0982,-0.0364,-0.0629,0.0354,0.0417,-0.0182,0.0228,0.0824,-0.115,-0.0359,0.193,-0.0483,-0.0107,0.0544,0.144,0.0414,0.101,0.0505,-0.0199,0.0456,0.0668,0.00528,0.0756,0.162,0.032,0.0677,0.0817,-0.125,-0.0107,0.0738,0.157,-0.0424,-0.0475,0.0644,-0.0616,-0.00525,0.0111,0.0752,0.00573,0.0227,-0.0259,-0.154,-0.0245,0.0317,0.0146,0.00286,0.0135,-0.105,0.0281,0.0339,0.0487,-0.0412,0.0998,0.0706,0.0552,0.32,0.202,-0.136,0.13,0.274,0.129,0.17,0.206,0.118,-0.0793,-0.0959,-0.144,-0.0673,0.115,0.176,-0.0612,0.0225,-0.0678,-0.0337,-0.111,0.0336,0.00129,-0.0755,0.126,-0.0621,0.116,-0.00994,-0.0274,-0.1,-0.052,0.0748,0.0773,-0.0175,0.0546,-0.119,-0.161,0.00829,0.25,0.112,-0.095,-0.0808,0.0154,-0.0704,-0.0243,0.0327,-0.00184,0.0624,0.0417,-0.197,-0.0882,-0.125,0.0448,-0.0593,-0.00682,-0.154,-0.00476,-0.0887,0.0401,0.00878,0.128,0.268,-0.00858,-0.0596,-0.129,-0.0624,-0.0123,0.0161,0.0492,-0.0261,-0.118,-0.032,-0.134,0.0381,0.0934,-0.0363,-0.114,-0.0697,0.0498,-0.0886,0.191,-0.146,0.047,0.0513,0.0696,-0.104,-0.0123,-0.118,-0.155,-0.167,-0.115,0.00999,-0.032,-0.0387,0.000812,-0.0594,-0.0397,-0.067,0.000577,0.0709,-0.105,-0.0501,0.0464,-0.0385,-0.058,-0.019,0.0174,0.0166,0.146,-0.167,-0.151,0.0152,-0.0382,-0.0983,0.153,-0.104,0.0273,-0.132,0.158,-0.0129,0.273,-0.0748,-0.0943,0.0591,-0.0821,0.0255,-0.0597,-0.00637,0.00406,-0.149,0.0721,-0.00143,0.0923,-0.119,-0.121,0.235,-0.0228,0.0204,-0.0251,-0.04,0.158,-0.108,-0.175,-0.0535,-0.019,-0.056,0.0233,-0.19,-0.0195,-0.00592,0.275,0.0266,0.103,-0.22,-0.00957,-0.0593,-0.0331,-0.108,-0.028,0.0631,0.0304,-0.131,-0.0498,-0.0782,-0.0723,-0.0216,0.16,-0.026,0.224,-0.0832,-0.111,0.00598,0.0496,0.18,0.11,-0.127,-0.118,0.0618,-0.00282,0.0431,-0.08,-0.111,-0.0852,0.0491,-0.0598,-0.0484,-0.0317,0.143,-0.0295,0.0543,0.126,0.0543,-0.0122,-0.196,-0.153,-0.0447,-0.0822,0.115,-0.0803,-0.0481,-0.0986,-0.182,-0.0656,0.0298,0.071,0.0252,0.188,0.198,-0.0106,0.0924,-0.0195,0.0195,0.101,-0.0295,-0.0655,0.00788,-0.0793,0.0146,0.0132,-0.152,-0.0229,0.125,-0.123,0.0236,-0.0129,0.0409,0.0628,0.201,0.0653,0.0957,-0.124,0.018,-0.182,0.0441,0.0844,-0.0812,0.109,-0.122,0.163,-0.0332,-0.173,0.0911,0.0668,-0.0486,0.221,0.0505,0.00209,-0.0884,0.0815,-0.0727,0.0517,0.0361,-0.123,-0.119,0.112,0.104,-0.09,-0.0404,-0.101,-0.109,0.0968,-0.0138,-0.0246,-0.127,-0.0369,-0.0734,0.0409,0.093,0.003,-0.0118,-0.00366,0.13,-0.113,-0.0059,-0.102,-0.0551,0.132,-0.04,0.0732,0.00877,-0.0452,0.0491,0.218,-0.00886,-0.0196,0.0782,-0.057,0.00274,0.0496,0.025,-0.135,0.0414,-0.223,0.126,-0.09,0.116,-0.0893,-0.00149,0.0228,-0.0821,0.0537,0.0137,0.234,-0.302,-0.0166,0.0521,0.0438,0.0436,0.0638,-0.0885,-0.124,-0.0542,-0.125,0.145,-0.00605,-0.0115,0.168,-0.0219,0.233,0.175,0.0825,-0.0107,0.0787,0.127,-0.116,-0.0294,-0.00807,-0.0636,-0.123,0.0707,0.0819,0.0162,-0.0174,-0.0236,0.0818,0.0406,0.0478,0.0263,0.0292,0.0777,0.0828,0.107,-0.0242,-0.013,0.0419,-0.0537,-0.0669,-0.0276,0.038,0.161,0.00164,0.0241,0.0413,0.0757,-0.00225,0.0691,-0.205,0.0318,-0.0481,0.105,0.0371,-0.0428,-0.0484,0.057,-0.000292,0.0508,-0.022,-0.0465,-0.06,-0.0265,0.219,0.00129,0.0394,0.000901,0.0513,-0.0139,0.111,0.17,0.0231,0.039,-0.00119,0.0149,0.0182,0.121,-0.0188,-0.207,0.12,-0.114,0.0577,0.0659,0.00939,0.0853,-0.132,0.18,-0.157,-0.0893,-0.0122,-0.0769,0.0221,0.177,0.0331,0.0646,0.0531,-0.0439,0.00448,-0.0949,0.0274,-0.0819,0.106,0.0769,0.148,0.102,0.261,0.183,0.181,-0.002,-0.00442,0.0541,-0.0571,-0.101,0.143,0.0755,0.0744,0.0566,0.0767,0.00563,0.107,0.0103,0.0741,0.111,0.155,-0.203,0.00483,-0.00492,0.156,0.148,-0.022,-0.115,-0.133,-0.0781,0.0548,-0.0423,-0.0517,0.00286,0.0776,-0.0253,0.0617,-0.028,-0.00145,-0.0202,0.0606,0.0304,0.414,-0.0305,-0.3,0.0396,0.211,-0.0952,-0.0738,0.0038,0.0315,0.188,-0.0241,0.228,-0.00392,-0.105,-0.155,0.0206,0.00611,-0.0828,0.00208,-0.0515,0.0692,0.0541,-0.0363,0.0358,0.0365,0.031,-0.00133,0.183,-0.0062,0.0925,0.0752,-0.189,0.179,0.0159,0.0742,0.0234,-0.0268,0.0712,0.0471,-0.0936,-0.0109,0.0534,-0.0251,0.148,0.0721,0.029,-0.155,0.0816,-0.00544,-0.00876,0.00918,0.0335,0.0887,0.0808,-0.284,-0.059,0.125,-0.0661,-0.218,0.173,0.169,0.0961,-0.0276,0.27,0.19,-0.127,-0.0732,-0.0335,-0.211,-0.184,0.0643,-0.075,0.0499,0.0123,-0.0508,-0.216,0.00132,0.125,-0.145,0.0386,-0.134,-0.124,0.182,-0.0738,-0.124,-0.00075,0.011,-0.111,-0.0402,-0.0921,0.108,0.0624,-0.0899,-0.0708,-0.105,0.185,-0.0269,0.123,-0.119,-0.0252,0.0967,-0.188,0.00741,-0.0481,-0.142,0.121,-0.0398,-0.0128,0.121,0.0995,0.0545,0.0677,-0.0251,-0.000878,0.00141,-0.112,0.0189,-0.0624,0.0838,-0.1,-0.0153,0.0313,0.0476,0.0656,0.205,-0.177,0.0781,0.00461,-0.104,0.0244,-0.122,-0.114,-0.256,0.0911,0.0537,0.0246,0.0441,-0.0661,-0.0565,-0.0926,-0.0254,0.147,-0.0268,-0.141,-0.0904,0.133,-0.0375,0.0323,-0.0756,-0.0322,-0.0981,-0.137,0.0894,-0.1,0.174,-0.0264,0.083,-0.0157,-0.0569,0.0267,-0.289,0.0382,0.025,-0.205,-0.0712,-0.283,0.0816,0.251,-0.0166,-0.00891,0.0588,-0.0804,-0.0567,-0.157,0.0357,0.00856,0.255,0.114,-0.0355,-0.0144,0.0615,-0.000896,0.0828,0.153,0.0302,0.0956,-0.134,-0.14,0.244,0.0827,-0.043,0.0512,-0.168,0.102,0.373,-0.0097,0.0127,-0.0102,0.0827,0.00453,0.0785,-0.00702,-0.0505,-0.0384,0.19,-0.0135,-0.039,-0.0645,-0.0217,0.23,0.127,-0.0932,0.16,-0.0279,0.106,-0.128,-0.0358,0.0046,0.209,-0.108,0.0145,0.0103,-0.064,-0.0711,0.0468,0.0147,-0.0752,0.0641,-0.0221,-0.0896,0.0532,0.24,0.193,-0.00221,0.0194,0.0827,-0.102,-0.213,-0.11,-0.0059,-0.0715,0.0725,0.173,-0.0377,0.0357,-0.00937,0.0467,-0.18,-0.0764,0.0188,-0.146,-0.141,0.0455,-0.0174,-0.034,-0.152,0.026,-0.0147,-0.0209,-0.00553,-0.0182,0.135,0.00203,0.107,-0.0354,0.183,0.0668,-0.0931,0.0557,0.0925,-0.0871,-0.0577,-0.163,0.0333,0.0499,-0.0717,-0.156,-0.097,-0.00818,-0.00857,0.0393,-0.129,-0.178,-0.243,0.02,-0.071,-0.0128,-0.0553,-0.0614,0.217,0.0333,0.0737,-0.00583,0.198,0.144,0.0279,-0.00493,-0.0698,0.113,0.123,-0.069,0.0269,0.0548,0.139,0.0993,0.0286,-0.0422,0.00745,-0.097,-0.106,0.107,0.0199,0.0543,-0.0837,-0.0349,0.14,-0.262,0.00925,0.0616,-0.0595,0.0644,-0.0576,0.00837,0.0616,-0.051,-0.0267,-0.102,0.027,0.269,-0.0775,-0.0812,0.152,0.122,0.0228,-0.115,-0.0879,0.106,0.152,-0.0288,0.0898,0.000662,-0.107,0.0276,0.15,0.41,0.124,-0.21,-0.0422,0.0762,0.064,0.0892,0.072,-0.0499,0.0162,-0.0282,0.0872,0.0403,0.145,0.264,-0.285,-0.00918,0.0092,-0.0299,0.111,0.0548,0.333,-0.0416,0.0768,0.0547,0.0767,0.138,-0.0486,0.0417,0.127,0.064,0.0921,0.128,0.011,0.123,0.0694,0.0491,-0.0578,-0.128,-0.0297,-0.122,0.105,0.0597,0.0355,0.0611,0.00172,0.126,0.0202,0.0461,-0.175,0.0633,0.152,-0.0506,0.213,0.0931,-0.115,0.119,0.0401,0.0213,-0.0438,-0.0415,0.0677,0.0472,0.0155,0.0222,0.0702,0.0365,0.176,0.0811,-0.0759,0.00745,0.235,0.0678,-0.0483,0.199,0.104,-0.0992,0.108,0.0316,-0.0011,-0.101,0.0386,0.0783,-0.0243,-0.111,-0.057,-0.0961,0.0588,0.0966,0.118,0.0316,-0.11,0.0183,-0.0153,0.0154,0.0153,-0.0626,-0.00815,0.0329,0.101,0.071,-0.114,0.162,0.033,-0.0335,-0.0524,0.047,-0.0215,-0.0425,0.0594,-0.162,0.0632,-0.0243,-0.0171,0.0564,0.183,-0.0784,0.0254,0.0376,0.12,0.129,0.0445,0.107,0.0867,0.0175,-0.0107,-0.0718,0.018,-0.12,0.209,0.196,0.0577,-0.0234,-0.192,-0.0386,0.143,-0.0581,-0.227,-0.314,0.114,-0.0177,0.0078,-0.111,0.0559,-0.0503,0.141,0.13,0.0468,0.0473,0.0559,0.0483,-0.0253,-0.121,-0.19,-0.025,0.0678,-0.0505,0.186,-0.187,-0.103,-0.00702,-0.0451,0.00231,0.0729,0.0627,0.00535,0.256,0.0128,-0.00653,0.0243,-0.0721,-0.0385,0.197,0.0344,-0.106,-0.00293,-0.0677,-0.0927,0.0811,0.112,0.0349,0.0766,-0.119,-0.0363,-0.129,0.0859,0.097,-0.0792,-0.0521,0.0226,-0.0161,0.111,-0.0607,0.0385,-0.109,-0.0136,0.0106,0.0661,-0.0636,-0.0824,0.00643,-0.058,-0.0917,-0.226,0.0426,-0.195,-0.0945,-0.112,-0.0479,0.09,0.13,-0.0908,0.109,-0.0425,0.0288,-0.0375,-0.0562,0.0246,-9.4e-05,-0.0801,0.078,0.127,-0.089,-0.0559,0.0764,0.032,0.151,-0.0225,-0.108,-0.0526,0.0752,0.0119,-0.0219,0.0895,0.0146,-0.15,0.107,-0.0757,0.0523,-0.193,-0.00394,-0.383,-0.0253,0.161,-0.00181,0.0216,0.066,-0.0237,0.143,-0.13,-0.0942,-0.0662,0.197,0.0825,0.0313,0.0597,-0.0269,0.15,0.0847,0.174,0.126,0.0673,0.0581,0.0109,0.0109,-0.00555,-0.0655,0.206,-0.0633,-0.0262,0.00687,0.0668,0.0589,0.147,0.156,-0.0923,0.0594,-0.00393,0.209,-0.177,0.14,0.0264,0.00444,-0.22,-0.059,-0.0249,0.183,-0.115,-0.0604,0.00211,-0.175,0.112,0.0271,-0.0218,-0.0205,0.0633,0.00353,0.136,0.0119,-0.0189,0.145,-0.0813,0.0112,0.0279,0.0137,0.00347,-0.134,0.0562,-0.111,0.03,-0.118,-0.00104,0.0332,0.00252,-0.0351,-0.0194,-0.296,0.183,-0.111,-0.0143,0.0341,-0.206,0.0656,-0.136,-0.00391,-0.112,0.035,-0.11,-0.068,0.0758,0.00833,-0.107,-0.00269,-0.0822,0.0632,-0.154,0.083,0.0663,-0.105,0.00368,-0.0947,0.0632,-0.104,-0.0478,-0.0725,0.103,0.0785,-0.0126,0.0623,-0.0603,-0.0118,0.0446,-0.0794,-0.0302,-0.105,-0.0517,0.137,-0.0556,-0.0566,0.0105,0.0336,-0.0324,-0.0268,0.0213,-0.0772,0.0691,-0.0121,-0.147,-0.16,0.145,-0.181,-0.0932,0.0318,-0.142,-0.231,-0.11,-0.013,0.168,0.0634,-0.028,-0.0296,-0.112,-0.254,-0.0355,0.109,-0.0611,0.0442,0.000526,-0.0272,-0.0601,-0.0668,-0.0519,-0.232,-0.0548,-0.122,-0.0448,0.0436,0.191,0.0795,0.0677,-0.0314,0.401,0.0504,0.056,0.00377,0.0553,-0.0664,0.0224,-0.00403,-0.113,0.0847,-0.0227,-0.0286,-0.116,0.0436,-0.0617,0.0189,-0.0118,-0.0948,-0.04,0.0668,0.186,-0.00262,0.108,0.0288,-0.164,-0.0113,0.0464,-0.0256,0.0399,0.0411,-0.0148,0.0542,-0.0631,-0.053,-0.133,-0.103,-0.126,0.0474,-0.198,0.0246,-0.0432,-0.0281,-0.028,-0.152,0.00697,-0.0425,-0.052,0.061,-0.0942,-0.0406,0.0922,-0.072,0.103,0.148,-0.183,0.0166,0.00423,-0.0226,-0.298,0.0525,-0.166,0.0616,-0.0568,0.0305,-0.0107,-0.16,0.0386,-0.196,-0.0956,0.0896,-0.0102,0.0548,0.0189,-0.0969,0.0123,-0.0955,-0.0602,-0.16,-0.0505,0.11,0.0675,-0.0181,-0.125,0.0824,-0.139,0.0192,-0.0165,0.00614,-0.148,-0.111,-0.0272,0.033,0.159,0.0317,-0.0654,-0.0452,-0.346,-0.04,-0.133,-0.0212,-0.0959,-0.0573,-0.107,0.0303,-0.108,0.102,-0.164,-0.0725,0.0811,-0.0247,0.184,-0.0563,-0.00242,-0.059,0.161,-0.0667,-0.104,0.0569,0.0728,-0.262,0.0964,0.135,-0.0743,-0.059,-0.116,-0.203,0.0777,0.007,-0.0298,0.0472,0.00445,-0.0993,0.192,-0.118,0.0197,-0.0208,0.0497,0.0637,0.162,0.00608};
float f5_1_bias[64] = {0.0626,0.115,0.131,-0.074,0.0249,-0.0393,-0.0675,0.0902,0.0269,-0.129,0.0702,-0.0677,-0.166,-0.0743,-0.091,0.162,0.0184,0.0179,-0.025,0.0185,-0.0421,0.033,0.0749,0.00972,0.0314,0.0895,0.0875,-0.113,-0.0222,0.0753,0.0142,-0.178,0.0438,-0.0246,0.166,-0.0284,-0.0305,0.00681,0.0537,-0.2,-0.109,0.0741,-0.0257,-0.106,-0.0544,0.125,0.0632,0.0336,0.0625,-0.0577,-0.0608,-0.057,0.183,-0.0714,-0.0736,-0.0635,-0.0901,0.048,0.0171,-0.0515,0.0511,-0.104,0.096,0.0409};
float f5_2_weight[64*1*3*3] = {-0.314,-0.294,0.062,-0.0143,-0.385,-0.137,0.0703,-0.222,-0.0603,0.197,0.122,-0.898,0.637,0.135,-0.223,0.272,-0.664,0.535,-0.192,0.359,-0.349,0.437,0.247,-0.288,-0.175,0.446,-0.397,1.14,0.39,0.126,-0.0382,-0.0302,0.262,0.317,-0.0994,-0.352,-0.222,-0.343,0.821,-0.0873,0.236,0.373,-0.935,-0.164,-0.39,-0.771,-0.412,-0.206,0.849,-0.753,-0.613,0.124,0.231,-0.337,-0.132,-0.519,0.0909,0.0503,0.121,-0.059,0.449,0.274,0.0816,-0.0693,-0.227,-0.56,0.0927,-0.505,-0.483,-0.356,-0.0378,-0.0629,-0.0367,0.193,-0.815,-0.9,0.614,0.142,-0.466,0.04,-0.693,0.14,-0.178,0.353,-0.105,0.214,0.162,0.0598,-0.00254,0.493,-0.569,-0.454,0.614,0.291,-0.113,0.257,0.669,0.529,-0.442,-0.0631,-0.205,-0.187,1.06,0.08,1.64,0.573,-0.667,-0.285,-0.13,-0.177,-0.0151,-0.218,0.13,-0.571,-0.615,0.203,0.362,-0.151,0.0472,-0.0503,0.238,0.228,0.0367,0.0975,0.479,0.17,-0.0453,0.43,-0.225,-0.194,0.0387,-0.857,-0.278,-0.207,0.0892,-0.179,-0.00458,0.173,-0.896,0.237,0.549,-0.246,-0.36,-0.329,-0.182,-0.0436,0.0432,0.546,0.712,0.138,0.247,-0.297,-0.0418,0.431,-0.251,-0.138,0.035,0.219,-0.188,-0.237,0.428,0.365,-0.483,-0.49,-0.0231,0.203,-0.367,-0.428,0.244,0.429,-0.127,-0.271,-0.3,0.975,0.141,-0.213,-1.14,-0.401,-0.108,0.209,0.447,-0.276,-0.0447,-0.242,0.182,-0.192,0.236,0.0909,0.125,0.36,-0.0121,0.506,-0.565,-0.513,1.11,0.219,-0.379,-0.0605,-0.121,0.15,0.27,0.107,-0.305,-0.33,0.42,-0.113,-0.318,0.981,-0.716,1.29,-0.282,0.218,-0.505,0.186,-0.205,-0.349,-0.608,0.285,-0.159,0.224,0.191,0.208,-0.257,0.351,0.138,0.64,-0.117,0.135,-0.353,-0.466,0.892,0.0471,0.46,0.16,-0.939,-0.191,0.407,-0.646,-0.547,-0.00138,0.135,-0.722,-0.00297,0.147,0.0623,-0.209,-0.238,-0.278,-0.601,-0.49,0.466,-0.215,-0.0466,0.202,0.0717,-0.242,-0.0677,-0.233,0.254,0.0433,-0.165,-0.19,-0.139,-0.708,1.5,0.384,-0.591,-0.366,0.136,-0.306,-0.238,0.348,-0.395,0.648,-0.0586,0.432,-0.452,0.378,-1.95,-0.272,-0.237,0.716,-0.272,-1.44,0.457,0.205,-0.384,0.00794,0.179,0.121,-0.394,-1.24,-0.217,-0.674,0.475,-0.196,0.896,0.0237,0.364,-0.269,0.822,0.815,-0.471,-0.301,0.781,-0.532,-0.197,0.393,0.121,-0.242,-0.331,-0.395,-0.659,0.00926,0.0706,-0.229,0.121,0.354,0.415,0.31,0.0206,-0.0223,-0.134,-0.608,-0.305,-0.112,-0.151,-1.14,0.66,0.243,0.132,0.234,0.132,-0.426,-0.235,-0.0554,-0.00619,0.277,0.0912,0.355,0.431,0.114,-0.831,-0.318,0.227,0.11,-0.152,-1.01,0.442,0.227,-0.34,-0.617,0.331,0.16,-0.66,-1.13,-0.152,-0.75,-0.627,-0.663,-0.767,0.0982,0.45,-0.0361,0.214,0.943,-0.122,-0.343,-0.455,0.169,-0.687,0.18,0.215,-0.29,-0.221,-0.249,-0.377,-0.279,0.197,-0.0793,0.425,0.331,0.034,0.662,-0.436,-0.425,0.259,0.0753,-0.163,-0.184,0.186,0.0619,0.0236,0.203,-0.514,0.0139,-0.0237,-0.304,-0.173,0.879,-0.0809,-0.0838,-0.598,0.296,-0.328,0.298,-0.0247,-0.505,-0.376,0.376,-0.032,-0.0678,-0.0931,0.429,-0.515,-0.3,0.0289,0.401,-0.196,0.989,-0.355,-0.0203,0.359,-0.237,0.387,-0.0655,-0.651,-0.273,0.351,-0.0993,-0.155,0.125,-0.324,-0.158,-0.0648,0.202,0.0556,-0.317,-0.356,-0.182,-0.244,-0.975,0.241,-0.294,0.0049,0.0525,-0.0191,-0.222,-0.757,-0.0809,0.123,0.0643,0.0514,-0.296,1.44,-0.468,0.0222,0.275,-0.151,0.124,-0.28,-0.413,-0.106,0.916,0.36,-0.0839,-0.664,0.376,-0.68,0.236,-0.142,-0.468,-1.05,0.505,-0.14,-0.113,0.135,0.32,-0.592,-0.826,-0.0501,-0.0535,-0.122,0.382,-0.197,-0.234,-0.029,-0.598,0.0704,0.0421,-0.0402,-0.127,1.13,0.93,-0.256,-0.643,-0.036,-0.221,0.25,0.103,0.115,-0.348,-0.29,-0.304,-0.454,-0.712,0.262,-0.536,-0.0749,0.257,1.26,0.0847,-0.267,-0.0728,-0.086,-0.205,-0.108,-0.328,0.175,-0.184,0.228,0.313,-0.121,0.0761,-0.489,-0.235,-0.151,0.0715,0.355,-0.00781,-0.365,0.0649,-0.146,0.457,-0.155,-0.401,-0.504,0.443,-0.0208,-0.326,0.395,0.58,-0.141,-0.873,0.0388,0.0995,-0.466,0.337,-0.136,-0.578,-0.591,-0.271,-0.293,0.0507,0.287,-0.0528,0.777,0.684,-0.27,-0.483,-0.931,-0.051,-0.733,0.207,0.255,-0.313,-0.321,-0.495,-0.125,-0.46,0.504,-0.395,0.715,0.149,0.739,0.724};
float f5_2_bias[64] = {0.226,0.359,-0.0107,0.0995,-0.136,-0.137,0.544,0.0757,-0.0798,0.414,0.217,-0.0403,0.4,0.15,-0.0315,-0.276,-0.346,0.259,0.171,-0.154,-0.0355,-0.0611,0.372,0.139,0.383,-0.133,-0.216,-0.0986,-0.266,0.418,-0.525,0.211,0.194,0.0902,0.649,-0.455,0.385,0.268,-0.285,0.0371,-0.184,0.0678,0.058,0.203,0.162,-0.66,0.0695,-0.125,0.0451,0.284,0.0992,0.372,0.0517,0.212,-0.012,0.405,0.282,-0.0364,0.0204,0.176,0.112,0.675,0.0819,0.107};

