// Auto generated data file
// Copyright (c) 2018-2021, Shiqi Yu, all rights reserved.
#include "facedetectcnn.h" 

float f0_weight[32* 32 * 1 * 1] = {-0.000477,-0.000475,-0.000761,-0.000413,0.000691,-1.65e-05,-0.000824,0.000274,-0.000998,0.000463,0.000463,0.000842,0.000283,0.00112,0.00104,0.000614,0.00146,0.000378,0.000345,-0.000346,0.000332,-0.00129,-0.00155,-0.000794,-0.000569,-0.00104,-0.00126,0,0,0,0,0,5.75e-05,-0.00077,0.000133,-0.00024,-0.00115,-0.000551,-0.000191,-0.000512,-0.000232,-0.000342,-0.00097,-0.000698,-0.00102,-0.00118,-0.00109,-0.000932,-0.000507,-0.000444,0.000444,0.00114,0.000419,0.000595,0.00239,0.00143,-0.000617,0.00132,0.000754,0,0,0,0,0,-0.00118,0.00589,-5.86e-06,-0.00186,0.000635,0.000322,-0.00175,-0.00133,-0.000699,-0.00079,0.00767,0.000661,-0.00259,-4.3e-05,-0.00149,-0.00118,-0.000526,-0.00107,-0.00328,0.00601,0.000488,-0.00443,-0.00155,-0.00143,-0.000108,0.000803,0.0017,0,0,0,0,0,-0.000909,-0.003,-0.00363,0.00118,0.0026,0.000238,0.00239,0.00149,0.00109,0.00155,-0.000794,-0.00192,0.00186,0.00369,0.00216,0.0013,0.000413,0.00144,0.00287,0.00176,0.00356,-0.00271,-1.28e-05,0.00345,-0.00761,-0.00847,-0.00198,0,0,0,0,0,-2.12e-06,-4.08e-06,-4.78e-06,3.65e-07,7.79e-07,-5.26e-07,3.68e-07,6.9e-07,3.85e-07,9.78e-07,-1.52e-06,-3.98e-06,1.56e-06,2.09e-06,3.84e-07,4.79e-07,7.22e-08,1.14e-06,2.17e-06,1.56e-06,2.36e-06,-3.66e-06,-2.78e-06,9.51e-07,-8.89e-06,-9.79e-06,-3.14e-06,0,0,0,0,0,0.000838,0.00105,0.000533,0.000453,0.000367,0.000166,-0.0017,-0.00223,0.000731,0.00118,0.00126,0.000339,0.00086,0.000467,0.000213,-0.00198,-0.00294,0.000359,0.002,0.0023,0.000562,0.000897,0.000947,0.000594,-0.0035,-0.004,-0.00012,0,0,0,0,0,0.000814,8.78e-05,-0.000759,0.00113,-0.000996,-0.00172,0.000999,0.000116,0.000223,0.00143,7.59e-05,-0.00136,0.00185,-0.00105,-0.00243,0.00133,2.22e-05,-2.61e-05,0.00182,-8.94e-05,-0.00234,0.00266,-0.000893,-0.00326,0.00219,0.000375,-0.000521,0,0,0,0,0,-0.000974,-0.00148,0.000561,-0.00156,-0.00192,-0.000707,0.000242,0.00431,0.00203,-0.000454,-0.00206,-0.000892,-0.00182,-0.00353,-0.00215,0.00208,0.00544,0.00379,0.00234,-0.00159,0.00362,-0.00365,-0.00877,-0.00302,0.00258,0.00321,0.00304,0,0,0,0,0,-0.00192,-0.00273,-0.0019,0.00148,0.00614,0.00324,-0.000663,-0.00223,-0.00164,0.000257,-0.00248,-0.00107,0.00219,0.00563,0.0038,-0.00152,-0.00443,-0.00248,-0.00071,-0.0034,-0.000948,0.0018,0.005,0.0036,-0.000289,-0.00339,-0.00173,0,0,0,0,0,0.000294,-0.000976,-0.00104,-0.00051,-0.00143,-0.000666,0.000352,-0.000492,-0.000255,-0.000327,-0.000539,-0.000446,-0.000883,-0.000696,4.92e-05,-0.000228,-0.000365,-0.000261,0.000376,0.00156,0.000563,0.000754,0.00253,0.0017,0.00024,0.0012,-0.000285,0,0,0,0,0,0.00143,0.00154,-0.00206,0.0009,0.00209,-0.00244,-0.00152,0.00168,-0.00101,-5.33e-05,-0.000328,-0.00389,0.00167,0.00238,-0.0029,0.00126,0.00349,-7.3e-05,0.0018,-0.00102,-0.00588,0.00299,0.00189,-0.00448,0.00136,0.00262,-0.00118,0,0,0,0,0,0.000818,0.00159,0.00153,0.000876,0.00162,0.00132,-0.000438,5.84e-05,-0.000258,0.00115,0.0011,0.000913,0.000945,0.00108,0.000943,0.000986,0.00117,0.00111,-0.00171,-0.00269,-0.00233,-0.00186,-0.00268,-0.00221,-0.000483,-0.00104,-0.000725,0,0,0,0,0,-0.000732,-0.00077,-0.00144,-0.000232,7.21e-05,-0.000967,-0.00133,-0.000981,-0.00212,0.00231,0.00196,0.00176,0.00202,0.00204,0.00199,0.00254,0.00241,0.00188,-0.000496,-0.0011,-5.89e-05,-0.00253,-0.00311,-0.00134,0.000109,-0.000798,-0.000178,0,0,0,0,0,0.000747,0.00212,0.00159,0.000623,-0.0016,-0.000834,-0.000551,-0.00115,-0.00107,0.00299,0.00251,0.000638,0.000806,-0.00288,-0.00262,0.000541,-0.000924,-0.00106,0.0056,0.0029,0.00194,0.00156,-0.0056,-0.00366,0.00156,-0.00304,-0.00162,0,0,0,0,0,-0.000498,-0.00145,0.000873,-0.00115,-0.00188,-0.00169,0.000985,0.00366,0.000883,-0.000167,-0.00162,0.00104,-0.00134,-0.00242,-0.00207,0.00133,0.00417,0.000973,-0.00047,-0.00154,0.000428,-0.00137,-0.00232,-0.00292,0.00218,0.00532,0.00112,0,0,0,0,0,-0.000204,0.000745,-0.000359,0.00104,0.00247,-0.00306,-0.00108,0.000575,-0.00103,-0.000887,0.000907,-0.000654,0.00161,0.00313,-0.00385,-0.000217,0.00136,-0.00143,-0.00137,0.00107,-0.000436,0.000756,0.00356,-0.0037,7.63e-05,0.0024,-0.00125,0,0,0,0,0,-0.000352,0.000612,-0.000231,-0.0026,0.00147,0.000762,-0.00161,0.000835,0.000862,-0.00036,0.000997,-0.000192,-0.00306,0.00187,0.00103,-0.00202,0.00107,0.000919,-0.000413,0.00104,-0.000873,-0.00298,0.00225,0.00106,-0.00212,0.00121,0.000901,0,0,0,0,0,-0.0013,-0.000711,-0.000847,-2.38e-05,-0.000695,-0.000332,0.000858,-0.000136,0.000429,-0.000147,0.000851,0.00057,-0.000398,-0.00128,-0.000667,-0.000612,-0.00188,-0.000566,-0.00159,-0.000188,-0.00106,0.0018,0.000314,0.000177,0.00176,-0.00122,9.82e-05,0,0,0,0,0,-0.00139,-0.0011,-0.00121,-0.00069,-0.000679,-0.000792,-0.00127,-0.00123,-0.000944,0.00184,0.00187,0.00113,0.00238,0.00215,0.00146,0.00213,0.0018,0.00142,-0.000305,-0.00041,-0.000151,-0.00117,-0.00157,-0.000766,-0.000402,-0.00107,-0.000192,0,0,0,0,0,0.000358,0.00275,0.0003,-0.00224,-0.00236,-0.00095,0.000118,0.000276,0.00118,0.00128,0.00412,0.0012,-0.00295,-0.00296,-0.00172,0.000218,9.84e-06,0.000529,0.00121,0.00518,0.000818,-0.00294,-0.0017,-0.00153,-0.000444,0.000346,1.07e-05,0,0,0,0,0,0.000952,0.000805,0.00118,0.000416,-0.00175,-0.000833,0.00179,-0.000949,-0.00186,0.000787,0.00113,0.00195,0.000366,-0.00178,-0.000557,0.00173,-0.0014,-0.00202,0.000591,0.00157,0.00314,0.000261,-0.00157,2.29e-05,0.00129,-0.00206,-0.00272,0,0,0,0,0,7.79e-05,0.000535,-0.00292,-0.000209,0.00174,7.8e-05,0.000177,0.000435,9.81e-06,0.000468,0.000103,-0.00444,-0.000296,0.00183,-9.87e-05,-0.000376,0.000984,0.00114,0.000167,0.000518,-0.00504,-0.000181,0.00278,-0.000634,-0.000358,0.00215,0.00114,0,0,0,0,0,0.00024,-0.000339,0.000385,0.000477,0.000507,0.000402,-0.000888,-0.000498,-0.000745,-0.00169,-0.00133,-0.000204,0.000273,0.00169,0.00189,-0.000929,0.000914,0.0013,-0.00285,-0.00418,-0.00222,0.00079,0.0022,0.00275,0.000593,0.00183,0.00138,0,0,0,0,0,-0.00196,-0.000904,0.0005,0.000577,-0.00144,0.00174,-0.00104,0.000454,0.00176,0.000269,-0.000847,-0.000316,0.000994,-0.00408,-0.00104,-0.000782,-0.000382,0.00165,0.00598,0.00212,0.00048,0.00433,-0.00359,-0.00303,-9.96e-06,-0.00179,-0.000944,0,0,0,0,0,0.000534,4.39e-05,0.000505,-6.77e-05,0.000311,0.000213,-0.000246,0.000234,-0.00012,0.000517,9e-05,7.54e-05,-4.78e-05,0.000588,0.000352,-4.43e-05,0.000638,0.000186,0.000395,0.000482,0.000773,-0.000374,0.000502,0.000686,-0.000893,-0.000551,-0.000215,0,0,0,0,0,-0.000236,-0.000228,-0.00052,0.000504,0.00062,0.000636,0.000765,0.000464,0.000161,-0.000372,-0.00082,-0.000593,-0.00132,-0.00115,5.15e-06,-0.000214,-0.000385,-0.000457,0.00159,0.000189,0.000757,-0.00265,-0.0028,0.000431,0.000164,-0.00044,0.000455,0,0,0,0,0,-0.00211,0.00122,-0.000654,-0.000985,0.00158,0.000327,0.00126,-0.000267,-0.00065,-0.00403,0.00176,0.000484,-0.00194,0.00259,0.0011,0.00074,-0.000172,-0.00122,-0.00247,0.00302,0.000276,-0.00142,0.00303,0.000544,0.000773,-0.000281,-0.00214,0,0,0,0,0,0.000623,-0.000172,0.000347,0.000334,-0.00351,0.00104,0.00025,-0.000126,0.000391,8.91e-05,-0.00156,0.000739,-0.000624,-0.00517,0.00148,0.00119,0.000405,0.00208,-7.45e-06,-0.00152,0.00169,-0.000507,-0.00523,0.00254,0.00136,0.000584,0.00342,0,0,0,0,0,-0.000791,-0.00303,0.00061,0.000368,0.00116,0.00101,-0.000101,-0.000315,0.000701,-0.0017,-0.00413,8.5e-05,0.00132,0.00229,0.00142,-0.000334,-0.000254,-0.00029,-0.000924,-0.00309,-0.000247,0.00265,0.0042,0.00169,-0.000678,0.000398,-0.00155,0,0,0,0,0,0.000651,0.00027,2.85e-05,0.000984,-0.000156,-0.000821,6.18e-07,-0.000417,-0.000505,-0.000452,-0.000139,-0.000308,0.000651,9.78e-05,-0.0012,-0.00034,8.03e-05,-0.000801,-0.00128,-0.000368,0.000485,-0.00043,-0.00121,-0.00133,-0.000905,-0.000589,-0.000763,0,0,0,0,0,0.00114,0.00107,0.00154,0.00133,0.000892,0.00131,0.0013,0.00128,0.00122,-0.000465,-0.000492,-0.000674,-0.00147,-0.00176,-0.00169,-0.002,-0.00181,-0.00214,-6.14e-05,-0.000237,-1.59e-05,0.000184,0.000185,0.000167,0.000478,0.00073,0.000111,0,0,0,0,0,-0.00116,0.000953,-0.000862,-0.000638,0.00317,0.00201,-0.00132,-1.93e-05,-0.00189,0.000188,0.000456,-0.000232,0.000233,0.00187,0.000763,-0.000841,0.000621,-0.00012,0.00269,-0.00127,0.00219,0.000512,-0.00429,-0.00197,0.00309,0.00119,0.00344,0,0,0,0,0};
float f0_bias[32] = {0.766,0.257,-0.158,-0.301,-0.00111,0.136,0.151,-0.242,0.0167,0.0475,-0.231,0.322,-0.179,-0.136,0.146,0.2,0.113,0.544,0.131,0.142,0.117,0.129,-0.15,0.201,-0.376,0.471,0.155,0.12,0.226,0.348,0.168,-1.86};
float f1_1_weight[32*32*1*1] = {0.0239,-0.0292,-0.244,0.122,0.000949,-0.271,-0.433,-0.27,-0.281,0.136,0.219,-0.0548,0.0117,0.631,0.235,-0.272,0.262,0.00123,-0.0248,-0.203,-0.466,-0.0336,-0.137,-0.225,0.0264,0.0964,0.0994,0.131,0.154,0.0166,-0.0214,0.0415,-0.151,0.229,0.0275,0.058,0.000932,-0.0596,-0.0315,-0.00813,-0.043,0.327,0.0288,-0.521,0.0702,-0.0096,-0.0195,0.0227,0.0662,0.0323,-0.124,-0.0199,0.0214,0.0178,-0.165,0.0481,-0.0199,-0.055,-0.0673,-0.0253,0.101,-0.175,-0.0432,0.214,0.107,-0.137,0.00418,-0.053,-0.000896,0.103,0.0348,-0.0739,0.0728,-0.494,0.00312,0.461,-0.048,-0.000366,0.0788,-0.0505,0.0057,-0.0264,0.0388,-0.00337,0.0154,0.0971,0.0621,0.0264,-0.0207,0.149,0.00392,0.00732,-0.109,0.269,0.0461,-0.0223,0.0172,-0.0405,0.312,0.0438,0.000231,-0.381,0.596,-0.27,0.19,-0.114,-0.659,0.0718,-0.0441,0.232,0.338,0.197,-0.198,0.0156,0.0747,-0.117,-0.17,0.244,-0.0428,0.0195,0.0355,-0.106,-0.034,0.182,0.119,-0.0268,0.00655,-0.117,-0.221,0.0242,-0.0116,-0.0402,-0.00225,0.0023,-0.0108,0.0881,0.00844,0.0494,-0.133,0.379,-0.0894,-0.275,-0.0767,0.229,-0.026,-0.21,0.249,0.0839,0.152,0.0302,0.125,0.351,0.268,0.0445,0.0331,-0.022,-0.0933,-0.0805,0.196,-0.0193,-0.00447,0.032,0.268,0.0078,4.4e-05,-0.326,-0.294,-0.447,0.279,-0.078,0.195,0.0263,-0.0303,0.398,0.472,-0.287,0.417,-0.0204,0.0587,-0.111,-0.258,0.142,-0.151,-0.0953,-0.00962,0.0472,0.0799,0.304,0.131,-0.089,0.0129,-0.0483,0.202,0.0152,-0.0067,0.0457,-3.55e-05,-0.00139,-0.0257,-0.0454,-0.0984,-0.151,0.00739,0.819,-0.341,0.0198,0.0384,0.0132,0.0586,0.0487,0.564,-0.0373,0.00775,0.054,-0.0185,0.0182,-0.0161,0.0886,0.0454,0.0536,0.0992,0.215,-0.0795,-0.0442,-0.517,0.0142,0.048,0.0438,0.00109,-0.0403,-0.00753,0.0319,-0.0754,0.407,-0.0295,-0.0337,0.144,0.00693,-0.0201,-0.042,-0.12,-0.345,0.00806,-0.00138,0.0123,0.00774,0.0712,-0.095,0.474,-0.162,0.0154,-0.0527,0.0622,-0.421,-0.00407,0.35,-0.0597,0.104,-0.44,-0.191,-0.0032,0.376,-0.353,0.26,0.219,-0.122,0.332,0.0574,0.0171,0.141,-0.323,-0.0525,0.265,0.0324,0.0171,0.308,0.123,-0.279,0.0558,-0.0435,-0.0731,-0.0717,0.193,0.175,-0.157,-0.0965,0.0121,-0.131,-0.432,0.34,-0.0104,0.0915,0.001,-0.109,-0.0987,0.054,0.0114,0.268,-0.0209,0.0217,0.0966,-0.0157,-0.0171,0.047,-0.0544,0.136,-0.147,0.0299,0.0719,-0.0542,0.0657,0.0678,0.246,0.00594,0.000325,-0.0862,-0.0188,-0.0183,0.394,0.208,0.00453,0.139,0.139,-0.104,-0.0012,0.0597,-0.0211,0.144,0.018,-0.0503,-0.0441,0.0591,0.113,0.119,-0.262,-0.0638,-0.0395,-0.0299,-0.0581,-0.161,-0.229,0.203,-0.0964,-0.0903,0.0182,-0.26,-0.177,-0.0847,0.187,-0.206,-0.124,0.15,-0.0384,0.0567,0.12,-0.0485,-0.0026,0.151,-0.0848,0.445,-0.0943,0.00874,-0.00484,-0.00404,0.0959,0.109,-0.302,-0.0505,-0.212,0.0998,-0.0759,-0.388,0.0765,-0.154,-0.0134,-0.134,-0.0703,-0.129,0.167,-0.278,0.244,0.00593,-0.0945,0.112,0.118,0.12,-0.0125,-0.222,-0.00218,0.336,-0.0821,0.277,0.0809,0.0933,0.15,0.036,0.164,-0.165,-0.277,-0.1,0.00471,0.0587,-0.0849,-0.0493,0.142,-0.135,-0.0366,-0.00505,-0.268,-0.0581,0.0122,-0.186,0.03,-0.143,0.0625,0.149,0.0714,-0.0393,-0.168,-0.163,-0.00145,0.103,-0.137,-0.0356,0.15,-0.00389,0.0786,-0.034,-0.156,-0.225,0.103,0.00919,0.00786,0.0744,0.00249,0.386,0.108,-0.2,0.266,0.122,-0.142,-0.0345,-0.141,-0.0921,-0.301,-0.0628,-0.0525,0.00224,-0.0342,-0.397,-0.03,-0.0702,-0.00133,-0.00079,0.0245,0.0196,0.0624,-0.182,-0.0219,0.0978,-0.11,0.014,0.0328,0.0334,0.041,-0.366,-0.139,0.0202,-0.00799,-0.0335,0.0545,-0.0844,0.275,-0.251,-0.0384,0.00744,-0.0431,-0.226,-0.246,-0.341,0.00166,0.0786,-0.296,-0.0549,-0.000845,0.0838,-0.105,0.0393,-0.032,-0.0319,-0.0854,0.0482,0.00882,0.119,0.0103,0.186,0.411,-0.185,-0.0197,0.248,-0.211,0.101,-0.0722,-0.162,-0.129,-0.0659,0.268,-0.116,-0.083,-0.149,-0.0112,-0.0272,0.394,0.167,0.143,-0.0511,-0.000817,0.0316,0.102,-0.04,0.0462,-0.322,0.0306,-0.172,-0.158,-0.0365,-0.0199,-0.0436,0.142,0.321,-0.0377,-0.102,-0.00335,0.0179,0.0346,0.0983,-0.326,0.286,-0.0616,0.105,-0.0574,0.359,0.0212,0.00724,-0.0693,0.00154,0.212,0.147,0.00177,-0.151,0.256,-0.0669,-0.0897,-0.0648,-0.224,-0.0844,0.0502,0.00745,0.0893,0.179,-0.149,-0.106,-0.105,-0.174,-0.0436,0.195,-0.125,0.0652,0.241,-0.177,-0.214,-0.0842,0.192,-0.0893,-0.0456,-0.125,-0.0977,0.506,0.00737,0.0232,3.9e-06,0.00442,-0.0491,0.0229,-0.0137,0.299,0.0445,-0.158,-0.154,-0.012,0.0723,-0.0395,-0.055,0.194,0.535,0.0506,0.0251,-0.0402,0.00394,-0.0614,-0.00259,-0.0659,-0.0274,-0.0477,0.0394,0.0846,0.00455,0.315,-0.0176,-0.0382,0.105,-0.086,-0.000765,0.155,-0.052,0.0108,0.0576,-0.0446,0.209,0.0311,-0.0134,0.0202,-0.0806,-0.299,-0.112,-0.0287,0.0596,0.0349,-0.0588,-0.241,0.0841,-0.000516,0.029,0.163,-0.0697,0.47,0.204,-0.0552,-0.0239,-0.154,-0.231,0.0646,-0.182,-0.101,-0.000708,0.148,-0.17,0.00899,0.0101,-0.045,0.189,0.0552,0.075,0.125,-0.0906,-0.13,0.253,0.0371,0.0575,0.0825,-0.0128,-0.235,-0.0663,-0.141,-0.0891,0.0164,0.128,0.148,0.0207,-0.0362,0.00141,0.0681,0.0229,0.163,-0.179,-0.0966,-0.00124,-0.0259,-0.407,0.00412,-0.0702,-0.0934,0.27,-0.0464,0.00171,0.231,-0.0386,-0.0893,0.189,-0.114,-0.00566,0.0528,-0.208,-0.291,-0.0912,-0.197,-0.0519,0.0488,0.0898,0.0272,0.0935,-0.0265,-0.000796,0.0528,-0.133,-0.124,0.000626,-0.000962,-0.00022,0.111,0.103,0.168,0.000631,-0.0945,-0.0801,0.0499,0.0687,-0.251,-0.25,0.265,-0.111,0.213,0.0226,0.12,0.163,-0.0858,0.243,0.135,-0.25,-0.223,-0.0357,-0.138,-0.171,0.0911,-0.0276,-0.226,0.133,-0.0772,0.0454,0.215,0.00181,-0.159,-0.0187,-0.144,-0.0721,-0.00923,0.0768,0.0225,-0.0779,-0.0497,0.222,0.0238,-0.218,0.108,0.0188,0.00318,0.149,-0.198,0.0408,0.159,0.0621,0.0976,0.0463,0.181,-0.00426,0.267,0.0258,-0.116,-0.0542,0.0211,0.183,0.0554,-0.000648,-0.0435,0.0899,-0.00514,-0.202,-0.0863,-0.0574,0.0773,0.048,0.18,0.00176,-0.024,-0.0011,0.134,-0.00712,-0.366,-0.123,0.174,-0.348,-0.172,0.0169,-0.0798,0.131,0.148,0.371,-0.0875,0.0386,0.0736,0.0244,0.02,-0.0252,-0.119,0.000541,0.466,-0.0113,0.124,0.0458,-0.0985,0.217,0.0657,0.0229,-0.352,-0.185,-0.000465,0.26,-0.0417,0.00203,0.107,0.56,-0.113,-0.0119,0.113,0.014,-0.00777,0.0813,-0.0214,0.0162,0.0857,0.0202,-0.00325,0.00988,-0.158,-0.108,0.0484,0.00126,0.0518,0.0846,0.12,-0.693,0.172,0.0984,-0.303,0.0126,-0.212,-0.385,-0.037,0.0815,0.0171,-0.0336,-0.0664,0.0338,-0.162,-0.0412,0.0113,-0.138,-0.161,0.0814,-0.103,0.135,-0.254,-0.234,-0.185,0.11,-0.285,0.0141,-0.00333,-0.000337,-0.0787,-0.00467,-0.0243,-0.0669,0.175,-0.0473,-0.221,0.0215,0.0201,-0.0689,0.0235,0.00805,-0.334,0.142,-0.059,-0.0482,-0.0925,-0.114,0.0322,0.0284,-0.293,0.00646,0.0087,0.0244,-0.273,-0.42,-0.085,0.184,-0.39,0.00426,-0.0852,0.000218,0.0147,0.00681,-0.0108,0.075,-0.589,-0.00583,-0.0446,-0.0951,0.0123,0.000732,-0.0331,-0.0237,-0.131,-0.0418,0.0105,-0.0206,0.0139,0.014,-0.146,-0.0166,-0.111,-0.0464,-0.0161,-0.0787,-0.179,-0.208,-0.601,-0.0108,0.0411,0.0103,-0.0507,-0.000965,0.0283,0.0814,-0.137,-0.0358,-0.0511,-0.0309,-0.0674,-0.0551,-0.108,0.024,-0.236,0.00802,-0.0445,0.023,0.0369,-0.0993,0.0594,0.17,0.295,0.0864,0.0984,-0.384,0.124,-0.282,0.055,-0.00482,0.0655,-0.216,-0.127,-0.178,-0.0601,0.000206,0.0979,-0.124,0.0576,0.0546,0.136,0.221,0.00234,-0.131,-0.0249,-0.144,-0.231,0.0508,0.118,0.0395,0.171,0.0818,-0.125,0.123,-0.112,-0.229,0.14,0.209,0.0642,-0.208,0.00153,0.0395,0.139,0.0195,-0.0616,-0.158,-0.185,-0.00233,0.228,0.0445,0.179,0.0566,0.0558,-0.0597,-0.142,-0.154,-0.237,-0.113,0.159,-0.117,0.0986,0.00431,0.217,0.145,-0.151,0.296,0.146,-0.168,-0.112,-0.0909,-0.208,-0.14,0.118,-0.0372,-0.0325};
float f1_1_bias[32] = {-0.00634,0.231,-0.203,-0.183,0.0283,0.12,-0.00561,0.0373,-0.138,-0.00418,-0.363,-0.0373,0.135,0.0198,0.352,0.082,0.0548,-0.00623,-0.223,0.377,-0.179,0.111,0.0892,-0.047,0.0316,-0.112,0.133,0.287,-0.0533,0.1,0.0696,0.0181};
float f1_2_weight[32*1*3*3] = {-0.283,0.0946,-0.873,-0.45,0.13,0.222,0.202,-1.19,-0.432,-1.29,-0.7,0.0799,0.838,0.331,0.927,0.181,-0.654,0.714,0.897,0.238,-1.19,0.503,-0.117,1.12,0.23,-0.141,0.151,-1.24,-0.39,0.201,0.726,-0.33,0.117,-1.01,-1.25,-0.6,-0.284,-0.151,-0.235,-1.37,-0.614,-0.0346,-1.91,0.0887,1.55,0.652,1.37,-0.61,-0.68,1.25,1.49,-0.494,0.836,1.02,-0.196,-2.19,0.524,-1.57,0.246,0.12,0.196,-0.297,-2.2,-0.663,0.501,-0.386,0.1,-0.134,-0.184,-0.422,0.0755,-1.04,0.469,1.11,-0.488,-0.129,0.459,0.326,0.917,0.0533,1.32,0.472,0.901,-0.0596,0.137,-0.44,0.443,0.157,0.552,-0.93,0.0275,1.14,0.0217,0.213,0.485,-0.804,0.00607,1.35,-1.51,-0.18,-0.543,-0.219,-0.328,0.252,-0.486,-1.07,0.827,0.0618,-0.923,0.855,0.194,0.574,-0.728,-1.4,-0.588,0.876,-1.78,0.0804,-0.127,-0.885,-0.46,0.303,0.435,-1.46,0.0829,-0.259,-0.898,-0.784,1.17,-0.598,0.338,-0.947,-0.786,-0.829,-0.903,1.01,-1.07,-0.387,1.84,1.7,-1.51,1.61,-0.271,-1.95,-0.378,0.065,-0.223,-2,1.07,1.45,2.72,2.49,-1.43,-0.322,0.801,-0.318,1.27,2.59,3.24,-0.904,0.718,-0.991,1.51,-0.58,-0.151,-0.827,-0.297,0.328,-0.186,1.58,0.651,1.74,-0.836,-0.0998,-0.199,0.588,1.52,1.12,0.635,0.154,0.114,-1.55,-2.33,-0.649,-1.73,-0.186,0.302,1.74,0.328,-0.963,-0.888,0.0498,0.0927,1.47,-0.0142,0.164,-0.189,-0.548,0.128,0.612,-0.0353,-0.0953,0.383,-0.24,0.0293,-0.964,-0.468,0.0427,-0.522,-0.0353,-1.08,0.17,-0.426,0.358,0.597,0.0271,-0.113,0.203,0.168,-0.569,-0.135,0.046,-0.00936,0.341,0.571,0.716,1.48,-0.0784,-0.0789,-0.649,-0.326,0.965,-0.373,-0.561,0.0725,-0.851,0.152,-1.26,-1.74,-0.375,-0.246,-1.26,-1.49,-0.497,0.322,0.145,-1.43,0.184,0.523,-0.0258,0.518,-0.133,0.284,-0.395,-0.273,1.96,0.0676,-0.606,0.203,-0.358,-0.0778,0.22,0.0607,0.322,-0.104,0.625,-0.126,-0.404,0.0248,-0.994,-0.805,0.109,0.574,-0.594,-0.701,0.0273,0.635,-0.559,0.042,0.0513,-0.0496,0.027,0.101,0.711,-0.113,0.0404,-0.202,1.3};
float f1_2_bias[32] = {0.456,-0.0428,-0.0492,0.103,1.03,0.602,1.21,0.0132,-0.36,-0.0438,0.276,0.363,-0.00307,-0.0321,-0.0642,0.181,0.00926,0.0211,-0.0734,0.603,-0.0887,-0.0225,-0.00769,-0.0293,0.167,0.266,0.883,-0.043,1.08,0.0568,-0.022,-0.0385};

float f2_1_weight[32*32*1*1] = {-0.122,0.165,-0.3,0.256,0.106,0.0766,-0.081,0.0298,0.209,-0.0111,-0.0463,-0.224,-0.177,-0.172,-0.144,-0.157,-0.0506,0.383,-0.00288,-0.123,-0.127,-0.246,0.181,0.502,-0.278,-0.0279,0.17,0.0369,-0.00439,0.0942,0.53,-0.198,0.0111,0.0427,0.154,-0.0658,-0.264,0.0316,0.175,0.258,0.0537,0.00179,0.0457,0.163,0.14,0.0384,0.222,-0.0564,-0.0944,0.0459,0.206,-0.026,-0.0557,-0.03,0.0674,-0.015,0.0735,0.0202,-0.333,0.0192,0.0915,0.0781,0.00355,0.238,-0.0784,0.0669,-0.0264,0.136,-0.0902,0.0303,0.0739,-0.393,-0.059,0.0369,-0.151,-0.0775,-0.0605,-0.0505,-0.22,0.101,0.0309,0.0313,-0.151,0.153,0.0806,0.15,-0.0197,0.0589,-0.108,-0.382,0.118,0.032,-0.0308,-0.00408,0.0331,-0.069,0.00193,-0.053,0.0217,-0.227,0.0504,-0.0486,-0.499,-0.133,0.00114,-0.153,-0.00483,0.00331,-0.0133,0.00177,-0.0727,-0.0444,-0.0217,-0.0971,-0.0361,-0.0336,-0.0463,-0.0413,-0.0859,-0.0901,-0.0441,-0.0405,0.387,-0.0246,0.158,-0.0528,-0.132,-0.0468,0.012,0.141,-0.174,0.0694,0.11,-0.29,0.0705,-0.0722,0.215,0.0367,-0.134,-0.323,-0.276,-0.136,-0.209,0.0667,0.00965,0.0137,0.0033,0.0121,0.112,-0.034,-0.32,0.0533,-0.301,0.00484,0.206,0.00258,-0.115,-0.285,0.0232,-0.204,-0.224,-0.126,-0.152,-0.0117,-0.153,-0.0321,0.0191,0.116,-0.177,-0.276,-0.00215,-0.103,0.00281,-0.106,0.12,-0.0761,-0.173,-0.0768,0.114,-0.065,-0.091,-0.0865,-0.158,-0.0645,-0.00683,-0.00551,-0.118,-0.218,0.0283,-0.109,-0.00889,-0.00861,-0.0397,0.0124,0.0311,0.242,-0.345,0.157,-0.452,0.124,0.00152,0.0252,-0.107,-0.196,-0.219,-0.152,0.295,0.0609,-0.0635,0.153,0.116,-0.0219,-0.00092,-0.0502,-0.0534,0.0426,-0.303,-0.078,0.388,0.0296,0.199,-0.0766,-0.00935,-0.0205,0.0199,0.0673,-0.0949,0.129,0.129,-0.208,-0.0395,0.0608,0.154,-0.0221,0.282,0.184,0.306,0.137,0.0752,0.00788,-0.0506,0.231,0.108,-0.00689,-0.059,-0.0274,0.00611,0.0357,0.305,0.201,-0.146,-0.0297,0.0582,-0.047,0.0427,0.178,0.121,0.0406,-0.0206,-0.0434,-0.0198,0.133,-0.0979,-0.115,-0.0575,0.184,-0.0438,-0.112,-0.115,-0.106,-0.044,0.389,0.157,0.0134,-0.0746,0.408,0.362,0.399,0.301,-0.00878,-0.129,-0.109,-0.124,0.201,0.0744,0.218,0.0358,-0.0804,-0.251,0.105,-0.16,-0.0113,-0.0969,-0.0876,-0.118,-0.0806,0.148,-0.0292,-0.0679,-0.0959,-0.221,-0.27,0.0584,0.448,0.0161,-0.0137,0.12,0.293,0.419,0.0429,0.0536,0.234,-0.0697,0.048,0.275,-0.0943,0.000163,0.0604,0.214,-0.276,-0.385,0.209,-0.253,0.279,-0.186,-0.292,-0.0557,-0.222,0.225,0.00852,0.0868,-0.0587,0.0389,0.0882,-0.0987,0.125,0.16,0.237,-0.00521,0.0754,0.091,0.0118,-0.353,0.109,0.0543,0.109,0.0605,0.0216,-0.0351,-0.38,0.141,-0.302,-0.186,-0.00834,-0.0581,0.207,0.0612,-0.167,-0.0586,0.0613,0.209,-0.112,0.305,0.136,0.322,0.256,0.107,-0.0847,-0.156,0.194,0.307,-0.13,-0.0819,-0.179,-0.173,0.208,0.194,0.158,-0.135,-0.107,0.101,-0.174,0.162,0.204,0.05,-0.0177,0.198,0.154,-0.199,0.289,0.00188,-0.185,0.0937,-0.0778,0.0221,0.168,0.0474,0.132,-0.116,-0.117,-0.0815,0.172,-0.117,-0.197,-0.0748,-0.103,0.0198,0.0251,0.0985,0.021,0.000525,-0.106,-0.158,-0.13,-0.00579,0.283,-0.0375,0.104,-0.0508,0.0176,-0.0207,0.0933,-0.125,-0.0139,0.19,0.117,0.252,-0.0377,0.085,-0.0454,-0.0439,0.101,0.148,0.166,-0.0189,0.0579,0.152,0.0353,-0.014,0.194,0.00343,0.0566,-0.414,0.209,0.216,-0.0609,0.189,0.07,-0.00132,-0.0188,-0.0733,0.0177,-0.318,-0.00512,-0.375,0.0647,-0.0121,-0.0288,-0.024,0.00428,0.0277,0.0438,0.0118,-0.0137,-0.108,0.0241,0.0861,-0.0401,-0.026,-0.0193,-0.0442,-0.0469,0.0211,-0.0104,-0.196,-0.0474,0.543,-0.0509,-0.0403,0.0236,-0.0927,0.212,-0.205,0.171,-0.0182,-0.0884,0.315,-0.0322,0.176,-0.00109,0.0464,-0.0662,-0.0491,-0.0294,-0.0942,0.00706,-0.0812,0.132,-0.0129,0.0159,0.0265,-0.00257,-0.143,0.0974,-0.0822,0.0683,0.2,0.0542,-0.367,-0.145,0.0801,-0.0617,-0.281,0.341,-0.207,0.298,0.00958,-0.302,4.2e-05,-0.197,0.289,-0.0278,0.254,-0.165,0.118,0.0586,-0.136,0.205,0.196,0.503,0.0183,0.169,0.373,0.233,-0.258,0.0359,0.0483,-0.0286,0.0124,0.0389,0.0611,-0.253,-0.0952,-0.231,0.0665,0.0709,0.0445,-0.121,0.731,-0.00887,0.124,0.0417,0.0585,-0.0787,0.0357,0.0207,0.0438,0.0701,-0.0795,0.0456,0.00345,-0.0518,-0.0985,0.0361,0.0994,0.0169,-0.0258,-0.0302,0.0227,0.0174,-0.0843,-0.0714,-0.262,0.0088,0.0111,0.0437,-0.0221,0.105,-0.0162,0.0712,0.0759,0.139,-0.163,-0.119,0.112,-0.00236,0.0414,-0.3,0.0352,0.161,0.0578,0.0838,0.196,0.0597,-0.0304,0.123,0.0264,0.101,0.035,0.207,-0.18,-0.111,-0.204,0.0447,0.095,0.0151,0.215,-0.182,0.0156,0.148,0.113,0.0253,-0.199,-0.0841,0.898,0.00801,-0.0213,-0.0749,-0.00169,-0.0151,0.0231,-0.00349,0.0269,-0.0416,0.026,0.0123,-0.022,-0.0348,-0.0255,-0.0149,-0.0093,-0.0236,-0.0419,-0.0396,-0.0243,0.0306,-0.492,-0.0238,-0.0277,0.0554,0.418,-0.00686,0.0826,-0.0682,-0.0595,-0.109,-0.141,0.118,-0.153,0.0236,-0.0711,0.0613,-0.0141,-0.00161,-0.107,0.0867,-0.222,-0.155,-0.0145,0.0982,0.103,0.155,0.291,-0.108,-0.0526,0.147,-0.0217,-0.00703,0.0727,0.303,-0.0711,0.0364,0.157,0.00508,-0.124,0.241,0.136,-0.287,0.0113,0.00861,-0.00181,0.00116,0.13,-0.0802,0.121,0.162,-0.0513,-0.135,-0.738,0.0217,0.0451,-0.227,-0.00506,-0.218,-0.0288,0.196,-0.0306,0.161,-0.109,-0.0889,-0.043,-0.0458,0.158,-0.182,-0.161,-0.0483,0.0267,-0.334,-0.259,-0.0976,0.0778,-0.0662,-0.2,0.243,-0.017,-0.124,-0.117,-0.178,-0.0411,-0.156,0.0292,-0.183,-0.00479,-0.158,-0.14,-0.188,0.0112,-0.0253,-0.117,-0.0838,0.348,0.247,0.0564,0.04,-0.0365,-0.18,-0.114,0.00745,0.00694,-0.0651,-0.0829,-0.0955,-0.1,0.839,-0.0543,-0.0348,0.161,-0.125,0.177,0.0136,0.0978,0.0155,0.0294,0.00141,0.116,0.012,-0.108,-0.0399,-0.186,-0.0414,-0.0262,0.19,0.197,-0.0363,0.0672,-0.148,-0.0214,-0.111,-0.123,0.134,-0.0943,-0.229,-0.147,-0.35,0.141,-0.161,-0.00713,0.158,0.0842,-0.116,-0.00652,-0.153,-0.0773,0.244,0.0728,-0.0779,-0.056,0.22,0.201,0.0447,-0.00603,0.0642,-0.0286,-0.163,0.0259,0.111,-0.17,0.00958,0.114,-0.0999,-0.182,0.029,-0.211,0.0314,-0.131,-0.126,0.184,-0.0369,0.051,-0.208,0.084,0.00606,0.124,0.0633,-0.154,-0.0146,-0.28,0.039,-0.0381,-0.082,-0.0154,-0.136,-0.211,-0.000289,0.0998,0.0357,-0.0136,-0.144,-0.112,-0.218,-0.00268,-0.0509,-0.222,0.417,-0.249,0.0535,-0.0682,-0.0912,-0.0695,0.181,0.235,0.305,-0.0843,-0.128,-0.0507,-0.0602,0.226,0.0404,0.144,0.0523,0.402,-0.0253,0.0224,-0.121,-0.131,0.0764,-0.0743,-0.0794,0.0155,0.287,0.121,-0.112,0.00135,-0.0854,0.072,0.108,-0.0332,0.348,0.0377,-0.373,-0.0414,-0.0411,-0.341,0.241,0.093,-0.0909,-0.101,-0.208,0.0836,0.0974,-0.0455,0.195,0.138,0.0692,0.0466,0.0934,-0.0895,0.177,0.0483,-0.173,-0.11,0.255,0.0486,-0.0689,0.196,-0.101,0.301,-0.101,0.2,-0.222,-0.102,-0.17,0.0622,-0.119,0.0963,-0.0216,-0.209,-0.0129,-0.397,-0.196,0.0467,-0.0137,-0.0115,0.0103,0.0438,0.118,-0.0489,0.195,0.088,0.0399,-0.138,0.423,-0.21,0.0048,-0.0916,0.0948,0.0772,-0.0152,0.141,-0.179,0.151,-0.0171,-0.0505,-0.0338,-0.0377,-0.085,-0.227,0.264,-0.182,-0.00668,-0.0907,-0.0708,-0.042,0.33,0.149,-0.102,-0.112,0.465,0.137,0.473,-0.158,-0.159,-0.114,-0.126,0.237,0.286,0.0247,-0.0528,-0.109,0.0438,-0.135,0.00697,-0.00583,0.132,-0.0066,0.111,0.513,-0.0207,-0.111,-0.037,0.0843,0.0485,-0.0283,-0.136,-0.0923,0.048,-0.0736,0.0168,-0.0803,0.0391,0.0317,0.0644,-0.0413,0.0106,0.0859,0.288,0.474,-0.0568,-0.435,-0.07,0.0104,0.0264,0.0172,-0.0328,-0.0691,-0.0762,-0.158,-0.127,-0.375,0.0152,0.000112,0.0463,-0.12,-0.137,-0.197,-0.186,0.052,-0.0778,-0.064,0.0141,0.0766,-0.0453,-0.0389,-0.00798,-0.0555,-0.0614,-0.28,-0.117,0.337,0.00715,0.134,-0.0617,-0.063,-0.00815};
float f2_1_bias[32] = {-0.0845,-0.383,0.103,0.228,0.0454,0.483,0.00743,-0.261,-0.114,-0.0649,-0.0784,0.0174,-0.101,-0.0552,0.249,-0.148,-0.06,0.0763,-0.108,0.0712,-0.105,-0.0403,0.109,0.0373,0.24,0.388,-0.0828,0.0173,0.268,0.0782,0.191,0.38};
float f2_2_weight[32*1*3*3] = {-0.0847,-0.0236,-0.00861,-0.141,0.0638,0.109,-0.051,0.0261,0.0299,-0.0467,0.0999,-0.0418,0.0974,0.012,-0.063,-0.069,-0.0628,-0.189,0.417,0.102,0.0968,0.00896,-0.209,-0.148,-0.113,0.38,0.0338,-0.089,0.0461,0.00467,-0.0562,0.16,-0.186,-1.67,-0.124,-0.799,0.0675,-0.916,-0.25,0.101,-0.0321,0.0978,0.215,-0.174,0.409,0.422,-0.201,-0.449,-0.201,-0.195,0.116,0.837,0.288,0.127,0.161,0.0693,0.362,0.497,-0.372,-0.0638,0.103,0.0735,0.0461,0.329,-0.086,0.275,-0.033,0.335,0.0101,-0.0984,0.101,0.0175,0.0471,0.0326,0.0494,-0.179,0.0534,-0.0446,0.227,0.117,-0.219,-0.193,0.215,0.551,-0.047,0.0787,0.0989,-0.0441,0.379,-0.531,0.0399,0.0893,-0.019,-0.0965,-0.178,-0.152,-0.0612,0.18,0.243,-0.298,0.0589,0.236,-0.00659,0.344,-0.0356,0.0209,0.197,0.129,0.0368,-0.0248,-0.908,-0.785,-0.149,-0.129,0.593,0.0538,0.364,-0.03,-0.0478,0.0687,0.162,0.734,0.106,0.0923,0.147,-0.0589,-0.3,0.657,-0.645,0.651,-0.805,-0.831,0.931,-0.569,-0.853,-0.423,-0.868,-0.887,0.742,-1.04,-0.541,0.284,-0.329,0.352,-0.845,-0.504,-1.04,-0.172,-1.12,0.922,-1.11,-1.15,0.404,-0.486,-0.371,-0.814,0.119,-0.877,1.52,-0.898,-0.0682,0.188,0.318,0.492,-0.0705,0.319,0.389,-0.481,-0.508,0.241,-0.102,0.104,0.416,0.0904,1.13,0.859,-0.105,-0.326,0.156,-0.0637,-0.0107,-0.00507,0.052,0.113,0.148,0.0702,-0.662,-0.0964,0.0183,0.0132,-0.165,-0.514,-0.0867,0.0411,0.104,0.31,0.0029,0.167,0.112,0.168,0.0634,-0.0515,0.0181,-0.0424,-0.141,-0.0548,-0.248,-0.117,-0.083,-0.107,0.0279,-0.0819,-0.163,0.168,-0.0869,-0.0126,-0.0306,0.0165,-0.0891,0.0594,0.0895,0.0192,-0.0976,0.329,-0.0942,0.36,1.12,0.486,-0.0883,0.261,-0.2,-0.0488,0.178,-0.327,-0.0711,0.104,0.528,-1.44,0.0516,-0.328,-0.00995,1.41,0.151,-0.774,-0.257,0.167,0.374,-0.176,-0.634,-0.739,0.205,-0.0561,0.722,-0.177,-0.35,0.138,-0.00322,0.0175,0.202,0.402,-0.0624,0.141,0.0029,-0.521,-0.0513,0.0413,0.186,0.108,0.122,0.212,0.393,0.297,-0.0142,0.398,-0.0384,-0.372,0.0406,-0.0236,0.226,-0.0646,-0.0871,-0.0596,-0.0271,-0.166,-0.0106,-0.043,-0.216,-0.186};
float f2_2_bias[32] = {0.564,0.11,0.138,0.0605,0.519,0.385,0.249,0.352,0.415,0.449,0.694,0.531,0.561,0.285,0.0109,0.174,0.473,0.0419,0.409,0.178,0.185,0.436,0.207,0.373,0.386,0.159,0.361,0.38,0.265,0.623,0.318,0.172};

float f3_1_weight[64*32*1*1] = {0.0583,0.25,-0.0578,0.0423,0.105,0.0558,-0.0977,0.257,0.017,-0.138,-0.0994,-0.0209,-0.0979,-0.174,0.131,0.316,-0.00627,0.119,0.082,0.0469,0.213,0.183,0.104,0.0333,0.117,-0.0203,-0.0804,-0.195,0.0642,-0.276,-0.0111,-0.117,0.0216,0.0318,0.221,0.0509,-0.0343,0.0576,0.0739,-0.0108,-0.0348,-0.16,0.0773,-0.0587,-0.106,0.0196,-0.00814,-0.067,0.0562,0.0306,0.119,-0.0119,-0.0989,-0.0906,-0.167,-0.155,0.0853,0.0271,0.0757,0.161,0.0255,0.306,-0.126,-0.00149,-0.106,-0.00409,-0.0956,0.187,0.00305,0.114,-0.00978,0.0426,-0.421,-0.0343,0.0192,0.016,-0.121,-0.148,0.215,0.145,-0.169,-0.0262,0.11,-0.123,0.0267,-0.0973,0.0143,-0.0115,-0.0351,0.104,-0.0985,-0.123,-0.0841,-0.157,-0.118,0.223,-0.0126,-0.0167,0.0638,0.0528,-0.0967,-0.0494,0.086,0.0963,0.103,0.131,-0.059,-0.0921,-0.0553,-0.141,0.0193,-0.129,-0.0183,0.0174,0.000222,-0.11,-0.0795,0.403,0.111,-0.0713,0.116,0.0316,0.00739,-0.156,0.0586,-0.0323,-0.0546,-0.0182,0.0549,-0.151,-0.0236,0.0383,-0.0257,0.0683,0.246,-0.104,-0.0828,-0.165,0.0756,-0.278,0.084,-0.254,-0.017,0.0583,-0.22,0.0154,-0.0246,-0.104,-0.132,0.00205,0.0628,-0.0596,0.195,-0.114,-0.104,-0.0586,0.106,0.151,-0.119,0.144,0.0339,0.00033,0.142,0.0181,0.13,-0.027,-0.18,-0.155,0.192,0.0709,0.184,-0.229,0.0452,0.123,0.0766,0.0417,-0.0871,-0.151,-0.0447,0.016,0.00382,-0.0461,-0.0382,0.0432,-0.0841,-0.035,-0.213,-0.11,0.0402,0.0177,0.0518,0.0763,0.0453,0.0419,-0.0831,0.167,0.0583,-0.135,0.0838,-0.156,0.0581,0.0172,0.187,0.226,-0.117,-0.205,-0.0248,-0.107,0.00273,0.0277,0.141,-0.147,0.0874,0.0152,-0.369,0.0889,0.14,0.088,0.215,0.0392,0.0224,0.121,0.132,-0.0818,-0.0562,0.117,0.0945,-0.0018,0.143,0.261,-0.0636,0.00571,-0.0101,0.0135,0.113,-0.112,-0.0141,-0.0486,-0.0931,-0.0264,-0.11,-0.144,-0.0407,-0.0564,-0.0345,0.284,0.149,-0.0433,0.285,-0.0317,-0.019,-0.137,0.0099,-0.0117,-0.0788,-0.162,0.0332,0.0334,-0.0996,0.00726,-0.047,0.114,-0.0529,-0.0777,-0.139,-0.183,0.0864,0.363,-0.108,-0.0452,0.27,0.163,-0.0623,-0.0819,0.024,0.0588,-0.000389,-0.0549,-0.0935,0.0848,-0.0849,0.0681,0.0429,0.0147,-0.0904,-0.0178,-0.279,0.271,-0.145,-0.229,0.0402,-0.112,0.164,0.296,-0.0181,0.0457,-0.304,0.0851,-0.0508,0.237,0.23,-0.148,0.14,0.383,-0.104,-0.104,-0.0196,-0.102,0.142,0.0108,-0.0697,-0.0355,-0.00929,0.00453,0.0225,0.0606,-0.00123,-0.253,0.118,0.0571,-0.0205,0.0945,0.00489,0.0784,0.0267,-0.194,0.058,0.021,-0.00818,-0.0383,0.245,-0.134,0.117,-0.0478,-0.0289,0.111,-0.303,0.0832,-0.0645,-0.0279,0.183,0.373,-0.0431,0.113,-0.0888,0.134,-0.0694,-0.325,-0.306,-0.152,0.108,-0.0676,-0.0638,-0.0089,0.0856,-0.0117,-0.234,-0.0303,0.0478,-0.139,0.0246,-0.115,0.14,-0.0204,-0.227,0.096,0.076,0.0395,0.0921,0.158,-0.0833,-0.00485,-0.224,-0.235,0.0534,0.0446,-0.135,0.0467,-0.0488,0.00658,-0.0501,0.172,-0.186,0.103,0.0771,0.232,-0.0334,0.0371,0.301,0.00459,-0.0708,-0.0234,-0.0162,-0.0282,-0.0575,0.0701,-0.128,-0.256,0.00866,0.143,-0.131,-0.094,0.0233,0.0567,-0.0467,-0.00411,-0.193,-0.0159,0.0754,-0.147,-0.0973,0.12,0.0449,-0.18,0.0779,-0.014,-0.109,0.0332,0.0599,0.0593,-0.109,0.224,-0.0753,-0.0719,-0.334,0.00809,0.05,-0.0664,-0.104,-0.0153,0.16,0.0533,-0.25,-0.0269,-0.0233,0.0681,0.0683,-0.0558,0.011,-0.108,-0.0902,0.075,-0.243,-0.0642,0.0159,-0.0494,-0.0786,0.0583,-0.0465,-0.0994,-0.142,0.0452,0.0948,-0.127,0.0898,0.184,-0.0294,-0.179,0.285,0.00081,-0.0973,-0.269,-0.0283,-0.138,-0.242,-0.0316,-0.0766,-0.0442,0.1,0.00514,-0.0731,0.24,0.111,0.0535,0.128,-0.0285,-0.154,-0.0927,0.135,-0.223,0.00876,0.0918,0.0519,-0.0444,-0.177,-0.0034,-0.0162,-0.0831,-0.264,-0.118,0.0218,0.0633,-0.0505,-0.0841,0.16,0.0792,-0.133,0.0382,-0.0569,0.0182,0.0122,-0.0639,0.223,0.0981,0.0611,0.077,-0.173,-0.136,-0.109,-0.271,-0.0572,0.0855,-0.384,0.00232,0.0115,-0.192,0.121,-0.15,0.0588,0.127,0.0979,0.0332,0.276,-0.125,-0.0643,-0.172,0.00243,0.0631,-0.288,0.0328,-0.146,0.11,-0.00122,0.0318,0.0366,0.0172,-0.0726,-0.105,-0.101,0.0283,0.113,0.0619,-0.0423,-0.137,0.0967,0.00535,-0.0247,0.202,-0.202,-0.0673,0.11,0.241,-0.00308,-0.0891,-0.276,-0.205,0.0612,-0.102,-0.158,-0.187,0.161,0.0216,-0.00307,0.0631,-0.115,-0.0202,0.189,0.0618,0.148,-0.112,0.166,-0.124,-0.0714,0.0269,-0.0582,-0.0952,-0.0954,0.0934,0.231,0.183,-0.0394,0.0608,-0.138,0.088,-0.251,0.16,0.0847,0.116,-0.0247,0.303,0.232,0.0576,0.0669,0.02,-0.0614,0.0491,0.147,0.0303,-0.0596,-0.0297,0.227,0.291,-0.215,0.0513,0.144,0.0285,-0.134,0.0503,0.0362,-0.0288,-0.128,-0.0539,0.323,-0.0934,0.103,0.0851,-0.149,0.08,-0.19,0.116,0.144,-0.0335,-0.0104,-0.00235,-0.224,-0.0858,-0.0211,-0.124,-0.065,0.0325,-0.0424,-0.221,-0.0816,0.0736,-0.0646,0.135,0.17,-0.105,0.0915,-0.174,0.0224,-0.0553,0.0407,-0.12,-0.051,-0.246,-0.32,0.0954,-0.195,-0.186,-0.0871,0.0563,-0.0738,0.263,-0.0368,-0.039,-0.0328,0.0677,-0.121,0.0101,0.131,-0.215,0.116,0.289,0.0705,-0.0755,0.046,-0.212,-0.168,0.0639,0.154,-0.0763,0.0884,0.0596,0.00354,0.0229,-0.037,-0.0919,0.0842,0.0477,-0.00656,0.168,-0.00252,0.0025,-0.00581,0.0698,-0.0713,-0.0635,-0.0415,0.0256,-0.0109,-0.0217,0.0243,-0.155,-0.0797,-0.201,-0.0491,0.0555,-0.307,0.306,0.0822,0.104,-0.0234,-0.0325,-0.285,0.0912,-0.0753,-0.0617,0.186,0.0666,0.0517,0.113,-0.168,0.323,0.101,-0.0976,-0.0709,0.0909,0.0444,-0.0135,-0.109,-0.0429,-0.195,-0.0978,0.0828,-0.0302,0.0316,-0.0351,0.0455,0.086,-0.245,0.112,-0.168,-0.05,-0.00756,-0.241,0.0417,0.0744,-0.0462,-0.144,0.197,0.137,-0.151,-0.0951,0.0268,-0.154,-0.00122,0.0446,-0.168,0.22,0.0239,-0.291,-0.0183,-0.00691,0.033,0.0719,0.0381,-0.098,0.0079,-0.00326,0.0866,0.112,0.242,0.0572,-0.0942,-0.0977,-0.0633,-0.212,0.127,0.0757,-0.0946,0.181,-0.269,-0.0461,0.0367,0.0521,-0.0298,0.232,-0.239,0.0336,0.112,-0.0192,0.0733,-0.00595,0.239,0.0939,-0.0242,0.0613,0.0921,-0.0376,-0.128,0.0547,-0.0621,0.262,0.119,0.0976,-0.207,-0.166,-0.137,0.0368,-0.269,0.105,-0.0814,-0.0549,-0.193,0.0413,0.128,0.0397,0.0014,-0.138,-0.0834,-0.0846,-0.0416,0.0143,0.176,0.158,0.201,-0.0239,0.107,0.0868,0.119,-0.04,-0.487,0.133,-0.00724,0.16,0.0515,-0.0482,0.0179,0.21,-0.127,0.13,-0.105,0.159,0.028,0.0494,-0.234,0.0833,0.00163,-0.00713,-0.385,0.00134,-0.0513,-0.0305,-0.0357,-0.0713,0.111,0.128,-0.172,-0.044,0.017,0.00139,0.0431,-0.0921,0.127,-0.0169,-0.0552,0.154,-0.0984,-0.177,-0.0585,-0.111,-0.304,0.108,0.0544,-0.0671,-0.0961,0.122,-0.11,0.0872,0.0522,0.175,0.158,-0.0301,0.15,-0.161,-0.0358,-0.103,0.378,-0.0922,-0.0241,-0.256,-0.12,0.235,0.00593,-0.0144,-0.0589,-0.00118,0.0489,0.0252,0.0126,-0.0232,0.0395,0.0461,0.147,-0.0641,-0.0492,0.00884,0.0721,-0.0104,0.0903,0.377,0.0862,0.178,-0.309,0.119,-0.0116,0.122,-0.0207,0.139,-0.151,0.0592,-0.264,-0.222,-0.0736,-0.0337,-0.164,0.00362,-0.045,0.0585,-0.173,-0.139,-0.12,0.186,0.224,-0.0167,-0.113,-0.088,-0.0489,-0.213,0.0832,0.0931,0.0587,-0.155,-0.0758,0.114,0.0838,-0.0878,0.0223,-0.0961,0.112,-0.0405,-0.281,0.121,0.00235,0.0411,0.154,-0.123,-0.0416,-0.17,0.0269,0.0675,0.0475,-0.314,-0.011,-0.0163,0.115,0.184,-0.0679,0.0695,-0.153,-0.0662,0.00177,-0.134,-0.101,-0.000668,0.213,0.0922,-0.101,0.0439,0.245,-0.0948,-0.0251,-0.247,-0.0316,0.0679,-0.144,0.112,-0.265,-0.0301,0.00566,0.184,0.0903,-0.036,-0.0295,0.0185,-0.00928,-0.163,0.0121,0.0593,0.0681,-0.0861,0.174,0.077,0.0754,0.0259,-0.032,-0.000767,-0.0695,0.0665,0.0773,-0.0232,0.178,0.111,0.127,0.0553,0.0193,0.0929,0.211,0.161,-0.241,-0.00184,0.041,0.157,0.0687,0.0598,0.238,0.104,-0.238,-0.0615,0.0115,-0.00885,-0.356,0.0953,0.0319,-0.0415,0.0433,0.0391,-0.138,0.0479,0.247,0.0649,-0.157,-0.326,0.0193,-0.0514,-0.0175,-0.0176,0.0728,-0.000279,-0.157,0.0107,-0.251,0.00167,-0.159,0.0399,0.15,-0.223,-0.089,-0.00317,0.0851,-0.0898,0.0439,-0.162,-0.191,0.0997,0.344,-0.3,-0.113,-0.135,0.105,-0.0166,-0.0263,-0.113,0.187,0.162,0.291,0.0717,-0.259,0.194,0.00804,0.0185,-0.151,0.00477,0.223,-0.0061,0.107,0.0418,0.117,-0.0323,-0.023,0.0914,-0.024,0.00421,-0.165,0.232,-0.0753,0.0489,0.0309,-0.0701,-0.134,0.0845,0.0355,0.0356,-0.0155,-0.156,-0.0376,0.0188,-0.171,0.0133,0.0975,-0.151,-0.0189,-0.109,0.00779,0.101,0.0747,0.0538,0.0158,-0.322,-0.00853,0.0575,-0.124,-0.234,-0.106,0.146,0.0467,0.0922,0.0111,0.209,-0.161,-0.072,-0.0144,-0.0468,-0.161,0.147,0.166,-0.166,-0.271,-0.141,-0.223,0.0194,0.242,-0.0427,0.0732,-0.133,-0.223,-0.00389,0.102,0.0167,-0.0256,-0.0819,0.0511,0.0065,-0.113,0.0193,-0.0275,0.0803,-0.0752,-0.149,0.0672,0.251,0.167,-0.0445,-0.0648,0.262,-0.221,-0.117,0.271,-0.027,-0.0844,-0.00637,-0.0892,-0.152,-0.00247,-0.0109,0.106,0.0117,0.0558,0.106,-0.122,-0.168,-0.0472,0.0306,0.0482,-0.0658,0.0694,0.0272,-0.145,-0.0406,0.0443,-0.00828,-0.227,0.0876,0.0248,-0.0264,0.0537,0.108,-0.179,0.056,0.0799,0.275,-0.0869,-0.0349,-0.344,0.0998,-0.0206,0.0968,0.0212,0.0994,0.188,-0.0463,0.103,-0.0491,0.141,-0.06,-0.165,-0.0952,-0.138,0.106,-0.00428,0.0775,0.0244,-0.148,-0.0576,0.0665,0.185,0.123,0.0511,-0.0317,0.193,-0.0191,-0.404,-0.14,0.121,0.0487,0.0331,0.07,-0.0984,0.192,-0.118,0.00857,0.139,0.0884,0.0689,0.112,0.0204,-0.0608,-0.0333,0.0592,-0.0135,0.0482,0.136,-0.113,-0.00462,0.262,-0.0407,-0.0128,-0.0873,0.179,0.0712,0.182,0.092,0.104,-0.202,0.358,0.0205,0.106,0.00878,-0.0657,-0.11,-0.0174,0.0544,0.0621,0.102,0.167,0.288,-0.0363,0.322,0.0055,0.105,-0.0178,-0.255,-0.0101,0.0907,-0.0177,0.119,0.23,-0.101,0.0311,-0.0454,-0.145,-0.0752,0.0101,-0.211,-0.00253,0.0636,0.0342,-0.00906,-0.075,0.0572,-0.177,0.00887,0.0148,0.0309,-0.0415,-0.0808,0.0952,-0.0113,0.0719,0.312,-0.309,-0.178,0.101,0.0522,-0.0225,-0.0978,0.281,-0.145,0.194,0.0824,-0.162,0.321,-0.099,0.223,-0.0823,-0.317,0.122,0.146,0.126,-0.0414,0.0293,-0.0498,-0.141,0.0478,0.193,0.0724,-0.0112,0.092,0.112,-0.0704,0.0077,-0.249,-0.0854,0.0679,-0.0597,0.152,0.118,-0.0506,0.116,-0.0475,-0.167,-0.119,-0.0966,-0.103,-0.196,-0.153,-0.079,0.0792,-0.204,0.268,0.00914,-0.0687,-0.000193,0.108,-0.21,0.229,-0.0532,-0.181,-0.0688,-0.186,-0.0752,-0.0579,-0.067,-0.0472,-0.0503,0.0219,0.0447,0.168,-0.367,0.0886,0.163,-0.22,-0.0313,0.173,0.0369,0.0838,0.0685,0.265,-0.0311,0.193,0.0341,-0.14,-0.157,0.0481,0.0626,-0.0484,0.131,0.0937,-0.0123,0.0304,0.00947,0.0432,-0.0847,0.115,-0.115,0.152,-0.0353,0.0491,0.0283,-0.0355,0.0134,-0.144,0.244,-0.227,0.057,-0.0324,-0.148,-0.122,-0.00202,0.0113,-0.045,0.206,-0.155,-0.0469,0.191,-0.0313,0.00402,-0.0192,0.0503,0.129,0.0529,-0.136,-0.0578,0.00951,0.119,-0.242,-0.101,-0.131,-0.0485,0.187,0.0311,0.00425,0.0034,-0.249,0.134,-0.0548,-0.0312,0.135,-0.368,-0.0711,0.00544,-0.132,-0.137,0.301,0.126,-0.138,-0.0499,0.0294,-0.0151,-0.197,0.232,0.197,0.0738,-0.0131,-0.00906,-0.0514,0.00913,0.205,-0.122,-0.00876,0.0717,0.0979,-0.0414,-0.174,-0.165,0.067,-0.114,-0.00404,-0.256,-0.0168,-0.00715,0.0757,-0.159,0.0901,-0.0788,0.144,0.189,-0.0563,0.045,-0.15,-0.189,0.0132,0.313,0.176,-0.0431,0.0712,-0.285,0.0439,0.17,0.21,-0.182,-0.0525,-0.102,0.218,0.0482,0.0668,-0.0841,0.0221,-0.077,0.0191,-0.139,-0.0129,0.0313,0.00788,0.0286,-0.0639,-0.00503,0.0323,-0.0455,0.0631,0.0562,0.0341,-0.0185,0.146,0.134,0.0561,-0.0859,-0.0337,0.0412,-0.165,0.0259,0.0231,-0.0183,0.0227,0.0489,0.0869,-0.0811,-0.237,0.072,-0.217,0.0883,0.409,-0.0109,-0.0274,0.0236,-0.258,-0.152,0.0238,-0.142,0.02,-0.158,0.0333,0.163,-0.254,0.141,-0.197,0.105,0.15,-0.14,0.131,0.0949,-0.201,-0.276,-0.0675,-0.163,0.0453,-0.0508,0.0212,-0.0438,-0.0224,0.141,0.0417,0.137,0.0546,-0.175,0.319,-0.00776,-0.053,0.0364,-0.184,-0.0968,0.0663,-0.151,-0.00365,0.177,0.0237,0.251,-0.221,-0.0628,0.0406,0.143,0.0357,-0.126,0.164,-0.0213,0.0305,-0.00706,-0.157,0.0609,-0.0951,0.279,-0.134,0.133,0.152,-0.0496,-0.0931,-0.00446,0.105,-0.107,-0.0882,-0.0602,0.0769,-0.138,0.0239,-0.0526,0.101,-0.019,-0.0553,-0.0685,-0.029,0.104,0.0457,-0.0255,-0.0267,-0.0612,-0.0425,0.236,-0.0355,-0.818,0.0456,-0.0227,0.0904,-0.203,-0.068,0.0913,0.0829,0.0396,0.00861,-0.0125,-0.0128,-0.0623,0.101,0.0255,0.0472,-0.0379,0.106,0.0526,-0.203,0.144,0.12,-0.0727,-0.0965,0.277,-0.0468,0.0033,0.032,-0.0667,0.0807,-0.0905,-0.0322,-0.101,0.00351,0.0467,-0.168,-0.133,-0.0501,-0.00983,0.0198,0.259,0.0285,-0.0677,0.0719,-0.121,0.0617,-0.101,0.214,-0.0436,0.202,-0.0563,-0.0674,0.0188,0.157,0.297,-0.0876,-0.0228,0.259,0.032,0.0591,0.112,-0.0478,-0.0391,0.114,0.0316,0.155,0.225,-0.0307,-0.0175,-0.283,-0.127,-0.192,0.19,-0.118,-0.0727,0.151,-0.0851,-0.00778,-0.153,-0.18,-0.108,-0.357,0.168,0.0462,-0.303,0.279,0.119,-0.153,-0.187,0.173,-0.0454,-0.036,-0.121,-0.1,0.126,-0.0571,0.0109,-0.00804,0.0402,0.183,-0.0865,-0.0457,-0.0326,0.0595,0.0502,-0.0631,0.0392,-0.16,0.0183,-0.118,0.111,-0.0984,0.111,-0.051,-0.245,0.166,-0.00553,-0.0756,0.038,-0.0716,0.00259,-0.0156,0.0256,0.041,-0.0194,-0.226,0.13,-0.00184,0.0907,-0.241,0.247,-0.0742,-0.299,0.0344,0.000558,0.0791,0.0898,0.167,-0.149,-0.0993,-0.0132,-0.0495,-0.028,0.0735,-0.167,0.121,0.078,-0.0881,-0.281,0.235,-0.351,0.0163,-0.111,0.206,-0.136,0.0623,0.111,-0.0542,-0.0357,-0.0305,0.0293,0.0128,0.00659,0.0333,-0.0496,-0.0422,-0.153,-0.0308,-0.196,0.0608,-0.0757,-0.0222,0.163,-0.129,0.091,0.171,-0.0439,0.108,0.171,-0.147,0.0658,0.0128,-0.0379,-0.0273,0.0662,0.0958,0.0123,-0.0101,-0.139,0.0414,-0.138,-0.0239,-0.00797,-0.00266,0.0854,-0.12,-0.0449,-0.0874,0.0104,0.0509,0.221,0.0596,-0.0877,0.475,-0.0703,-0.0338,-0.212,0.123,-0.216,0.167,-0.0639,0.0228,-0.122,0.0484,0.0345,-0.131,-0.174,-0.0317,0.0411,-0.125,-0.0567,-0.0319,0.103,-0.0573,-0.201,-0.0714,0.14,0.0274,-0.261,0.104,-0.0893,-0.0223,0.207,0.261,-0.0314,-0.146,-0.0523,0.145,0.28,0.0359,-0.0633,-0.0232,0.0968,-0.14,-0.198,0.296,0.0342,0.00264,-0.183,-0.1,0.2,-0.184,0.00945,0.123,-0.102,-0.0887,0.403,0.154,0.0619,0.184,-0.0817,0.00352,-0.000179,-0.143,0.0343,0.0914,0.224,-0.121,-0.14,-0.201,-0.141,0.0597,0.15,-0.00328,0.181,0.0316,0.17,0.0842,0.225,-0.0483,-0.213,0.116,-0.0324,-0.138,-0.0537,-0.144,-0.281,0.0146,-0.123,-0.0924,0.326,0.0927,-0.249,0.127,-0.0948,-0.0205,-0.00173,-0.0297,-0.0666,0.0892,-0.14,-0.016,0.139,-0.278,-0.0155,0.175,0.0637,0.0628,-0.177,0.222,-0.122,0.102,-0.15,-0.0113,0.0291,0.113,-0.216,-0.176,0.0229,0.00808,0.0576,-0.0937,0.103,0.0737,0.00553,0.142,-0.165,-0.181,0.0304,-0.00935,0.0209,0.0441,0.0542,-0.157,0.139,-0.114,0.00364,-0.0183,0.0593,0.0284,0.00626,0.00514,0.0578,0.403,-0.0946,-0.116,0.0799,-0.0309,0.055,-0.243,-0.0057,-0.141,0.0734,-0.0776,-0.184,0.106,0.0138,0.116,0.112,-0.159,0.231,-0.104,0.176,0.0312,-0.114,0.00338,0.00344,-0.217,-0.154,-0.0808,0.0181,-0.0637,0.0258,0.0263,-0.042,0.166,0.107,-0.131,-0.155,0.00136,0.00735,0.00475,0.171,0.0963,0.0691,-0.00242,0.0584,-0.0666,0.22,-0.185,-0.0179,0.00646,-0.0312,0.0384,-0.155,-0.2,0.121,-0.144,0.13,-0.0338,0.217,-0.031,-0.0869,0.166,-0.0155,-0.00857,-0.0884,0.149,0.12,-0.0509,-0.104,-0.111,-0.08,-0.1,-0.0865,-0.0972,0.00964,0.146,-0.436,0.0519,-0.27,-0.00803,-0.0643,-0.0637,0.327,0.216,0.155,-0.0523,-0.00172};
float f3_1_bias[64] = {-0.0892,0.0313,0.09,0.116,-0.111,-0.0504,-0.144,-0.0598,0.026,-0.146,0.145,-0.00563,0.00861,-0.0305,-0.0471,0.155,0.302,0.126,-0.0509,-0.0205,-0.155,0.0606,-0.0793,-0.207,-0.063,0.0668,0.265,-0.152,-0.0553,0.0907,0.0949,-0.0193,0.252,0.0539,0.115,0.0548,0.217,0.0101,-0.0712,-0.00497,-0.0828,0.326,0.0785,-0.159,-0.148,-0.0566,-0.145,-0.257,-0.0159,-0.0325,-0.0226,0.0963,0.057,0.179,-0.0537,0.0872,0.163,0.0159,-0.0457,-0.149,0.151,-0.0587,0.0484,0.0274};
float f3_2_weight[64*1*3*3] = {-0.731,-0.546,-0.492,0.314,0.275,0.0381,-0.667,-0.291,0.0757,0.771,-0.29,0.837,0.391,0.494,-0.0935,0.339,0.332,0.523,-0.131,-0.24,0.0834,0.608,-0.147,-0.423,0.108,0.188,0.399,0.134,0.204,-0.244,-0.695,0.308,-0.201,0.00164,-0.0732,-0.728,-0.283,-1.33,0.782,-0.256,0.115,0.236,-0.372,-0.824,0.112,0.435,-0.15,0.0785,-0.525,0.192,0.0846,0.373,-0.0658,0.218,-0.268,-0.0808,-0.148,0.213,-0.133,-0.0504,1.1,-0.872,0.252,-0.488,0.13,0.519,-0.248,-0.705,1.17,-0.579,-0.936,-1.7,0.936,0.6,-0.588,0.507,2.08,1.12,0.118,1.44,0.756,0.043,-1.18,-0.0151,-0.29,-0.753,0.0892,0.168,-0.0855,-0.592,0.426,0.548,-0.0174,-1.09,0.0565,0.201,-0.223,0.127,-0.935,-0.198,-0.0741,-0.565,-1.34,0.161,0.925,0.182,-0.5,-1.4,0.457,-0.38,-1.19,-1.56,0.0866,-0.725,0.672,0.496,2.4,0.0261,0.366,-0.457,-0.936,1.39,0.174,0.301,-0.437,-0.932,-0.853,-0.79,0.0371,0.048,0.855,0.336,-0.209,-1.67,-0.382,-0.435,0.679,-0.133,0.133,-1.31,0.35,-1.8,0.106,0.37,1.05,-0.239,0.521,0.0658,0.163,-0.0501,1.4,-0.246,-0.0554,-0.122,-0.331,-0.84,-0.0518,-0.488,0.00632,-0.161,-0.403,0.0609,0.68,-0.792,0.897,0.169,-0.528,0.26,-0.126,-0.205,0.0222,-0.556,0.411,-0.188,-0.321,-0.685,-0.342,-0.228,0.007,1.38,-0.0998,0.422,-0.0605,-0.408,-0.175,0.839,-0.023,0.669,-0.325,-0.0961,0.434,-0.101,-1.34,0.304,-0.6,0.382,0.333,-0.323,-0.402,-0.0885,0.144,0.229,0.155,0.844,0.106,-0.539,0.225,0.175,-0.102,0.902,-0.237,-0.798,0.256,1.25,0.27,-1.82,0.363,-0.297,0.915,0.376,-0.279,-0.183,-1.06,-1.84,-0.265,0.271,-0.498,0.116,-0.15,-0.267,1.21,0.0862,0.582,-0.481,0.0711,0.677,-1.49,2.2,0.29,0.269,-0.692,-0.107,0.304,-0.218,-0.261,-0.588,1.13,0.278,-0.0975,-0.251,-0.204,-0.0074,0.211,0.026,1.2,0.305,0.241,-2.08,0.0852,-1.77,0.683,1.67,0.823,0.904,0.123,0.0827,-0.41,0.0867,0.174,1.58,1.39,-0.444,0.218,-1.34,-0.72,-0.7,1.66,-1.18,-1.33,0.83,-0.151,-1.02,-0.438,-1.11,0.135,-0.796,0.0761,-0.419,-1.86,-1.01,0.269,0.608,-1.89,0.705,-0.568,-1.57,0.431,0.116,0.468,1.34,1.21,-1.25,-0.996,1.98,-1.35,0.801,0.437,-1.78,-0.433,-0.993,1.28,-2.21,-0.34,-0.367,-0.404,1.23,0.424,-0.353,0.631,-0.67,-0.0409,1.05,0.664,1.84,-2.22,1.16,-0.202,0.14,0.233,-0.0518,-0.373,-1.22,0.382,-0.642,0.389,0.0359,-0.261,-0.0389,0.124,0.349,0.621,-0.00617,1.38,0.632,0.0495,-0.593,-0.695,-0.989,0.27,0.117,1.66,0.157,-0.195,0.296,1.51,-0.17,1.65,-0.0223,-0.323,-0.168,-0.00808,-0.166,0.28,0.289,0.183,-0.0606,-0.119,-0.255,-0.335,-0.332,0.896,0.117,-0.319,0.324,0.104,0.0617,-0.0384,-0.713,0.0491,-0.214,-0.422,-0.0141,0.67,-0.652,-0.252,0.943,-0.314,-0.424,0.0523,-0.15,-0.274,0.0774,-0.713,0.168,-0.0836,0.000772,0.369,-0.824,0.069,-0.305,0.025,0.917,-0.051,0.0888,0.134,0.947,-0.128,0.433,-0.102,0.286,0.755,0.00613,-0.432,-0.23,0.0252,-0.225,0.314,-0.131,-0.613,0.58,0.153,1.09,0.236,0.166,0.599,-1.51,0.31,0.239,-0.114,0.343,0.245,0.181,-0.00945,-0.72,0.0588,-0.786,-0.0301,-0.475,0.382,0.759,0.184,-0.114,-0.246,0.38,0.659,0.15,-0.0916,0.118,0.0916,-1.43,-0.153,0.403,-0.407,0.056,0.494,0.177,0.528,-0.0492,-0.125,-0.193,-1.27,0.343,-0.406,-0.991,-0.229,0.27,0.0287,2.37,0.125,0.446,-0.069,1.19,-1.02,0.448,-0.457,-0.104,-1.35,0.844,0.199,-0.2,1.33,-0.834,0.31,0.295,-0.646,0.598,-0.107,-0.248,-0.084,-0.8,1.16,-0.254,0.216,-0.199,0.42,0.173,0.428,1.63,-0.015,0.098,-0.135,-1.13,-0.0357,0.352,1.52,-0.116,-0.723,-0.447,0.0846,0.384,-1.68,0.163,-0.222,0.503,0.18,0.23,-0.105,0.66,-0.138,0.202,-0.0808,-0.0347,-0.208,-0.0698,-0.342,0.646,0.0194,-0.567,-0.0133,-0.29,0.173,-0.168,0.0241,-0.613,-0.332,-0.0241,-0.671,-0.233,-0.566,-0.118,-0.267,0.206,-0.117,0.0292,0.748,-0.143,0.0538,-0.344,-0.649,-0.232,0.358,-0.101,0.0518,0.567,-0.284,0.196,0.424,-0.102,0.369,0.157,-0.192,0.555,0.0299,0.388,-0.208,0.38,0.106,-0.127,-0.141,-0.251,-0.17,0.17,-0.28,0.0562,-0.356,-0.275};
float f3_2_bias[64] = {0.0744,0.127,0.247,-0.0477,-0.215,-0.0267,0.265,0.141,0.294,0.138,0.156,-0.22,-0.0927,0.14,0.427,0.028,-0.044,0.215,0.565,0.0555,1.13,0.00215,0.209,0.16,-0.00676,0.107,0.0676,-0.0956,-0.0213,0.168,0.0699,0.319,-0.166,0.723,0.105,0.238,-0.0476,0.0834,0.125,0.952,0.403,0.697,0.215,0.0388,0.476,-0.0457,0.106,0.11,-0.443,0.0278,0.475,-0.047,-0.331,-0.202,0.573,-0.351,0.117,0.099,0.475,0.204,0.0311,0.0817,0.0798,-0.0884};

float f4_1_weight[64*64*1*1] = {-0.187,-0.0999,0.0561,-0.141,-0.0751,0.0516,-0.0318,0.0865,-0.0791,-0.247,0.00227,0.0645,0.0316,0.0222,-0.175,0.0671,-0.044,-0.18,-0.147,-0.0432,0.146,0.0201,-0.0452,-0.0599,0.139,0.0119,-0.0571,0.0166,0.18,0.129,0.107,-0.1,0.192,-0.00892,0.126,0.179,-0.05,0.0447,-0.198,-0.18,0.135,-0.174,0.00495,0.0289,0.0631,-0.0142,0.0611,0.119,-0.025,-0.0279,0.4,0.116,0.172,-0.07,0.17,-0.185,0.146,0.00417,0.184,-0.06,-0.245,-0.124,0.0731,0.141,0.0734,-0.047,-0.0891,-0.0188,-0.062,0.135,-0.0413,0.153,0.0507,0.0798,0.0819,-0.0645,-0.0515,0.107,0.206,0.0371,-0.00659,-0.00332,0.000897,-0.0267,0.109,0.0766,-0.0141,0.0199,-0.285,0.163,-0.15,-0.134,0.158,-0.112,-0.107,0.0573,0.0689,0.0318,-0.00772,-0.0376,0.247,-0.0359,-0.00525,-0.0623,-0.105,0.128,-0.0786,-0.0447,0.0845,-0.15,-0.0314,0.0882,0.0106,-0.022,-0.141,-0.109,0.0528,-0.0663,-0.0428,-0.135,-0.036,-0.159,-0.154,-0.0404,0.0907,-0.0897,0.143,0.0628,-0.123,0.048,-0.0292,0.0905,0.132,-0.045,0.0213,0.151,-0.022,-0.185,0.0643,-0.046,0.0614,-0.023,-0.104,-0.14,-0.15,-0.0241,-0.0266,0.0749,-0.149,0.205,-0.0182,-0.00817,0.152,0.141,-0.0189,-0.0245,-0.168,0.0967,-0.192,-0.0834,-0.233,0.0708,-0.104,-0.0614,0.0626,-0.0477,0.0608,-0.0522,0.0145,0.0252,-0.0106,-0.0323,0.0559,0.22,-0.0852,0.0166,-0.018,-0.0538,0.0298,-0.235,-0.0295,-0.0766,0.0309,-0.0386,0.108,-0.152,0.149,-0.0194,0.0044,0.143,-0.101,-0.183,-0.0798,0.00361,0.288,-0.181,-0.00217,0.0417,0.215,-0.106,-0.101,-0.226,0.0299,-0.0475,0.0046,0.279,-0.0368,-0.0523,0.176,0.029,-0.117,-0.0934,-0.07,0.0482,-0.0545,-0.0757,-0.0593,-0.0899,-0.0852,-0.241,-0.134,-0.132,-0.0253,-0.0245,-0.0401,-0.0446,-0.127,-0.0262,-0.0145,-0.0823,-0.022,0.143,0.0992,-0.00631,0.0906,-0.0372,0.0989,-0.031,0.0103,0.00441,0.0165,0.018,0.128,0.241,-0.0963,-0.0347,-0.0929,-0.00926,0.0161,-0.126,0.173,0.0201,-0.105,-0.18,-0.0191,0.156,-0.0176,0.1,0.317,0.00148,0.0259,0.0892,-0.0674,-0.0212,0.0628,0.186,0.154,0.105,-0.0583,0.0976,0.0943,-0.138,0.531,0.143,0.172,0.0658,0.0554,-0.0185,0.032,0.00883,0.0702,0.172,-0.179,-0.0293,0.0938,-0.1,-0.22,-0.0332,0.0435,-0.0226,-0.0783,-0.135,0.022,-0.161,0.0111,0.0461,-0.0874,0.0447,-0.0764,-0.00177,-0.0653,0.0255,-0.0853,0.0227,0.217,-0.0402,0.00376,0.0141,0.026,0.134,0.0667,0.124,0.0959,0.0162,-0.181,-0.0771,0.185,-0.125,0.0146,0.0788,0.135,-0.016,0.114,-0.0015,-0.176,-0.0444,-0.000696,-0.0384,0.0543,-0.026,-0.185,0.0223,0.0587,0.0553,-0.151,0.192,-0.00381,-0.0977,0.121,0.0244,-0.146,0.0619,-0.0213,0.0613,-0.0485,0.124,-0.0397,-0.195,-0.0139,-0.0106,-0.0266,0.0985,-0.031,0.111,-0.0427,0.126,-0.172,-0.106,-0.0379,-0.013,-0.0123,-0.237,0.117,0.0496,0.154,-0.137,0.0558,0.203,-0.0174,0.00838,0.0465,0.367,-0.0968,-0.0641,0.0767,-0.0853,0.00904,0.071,-0.0592,-0.197,-0.0144,-0.101,-0.0441,-0.00837,-0.0413,0.0579,-0.525,0.11,0.165,-0.198,0.153,0.00104,0.0764,-0.0248,-0.0656,-0.0092,-0.0132,-0.349,-0.143,0.131,0.0178,-0.0286,0.0287,-0.0405,0.0531,-0.0167,-0.0966,-0.0467,0.044,0.0331,-0.175,0.158,0.0619,-0.14,0.0586,0.0175,0.174,0.0339,0.0544,0.0343,0.00716,-0.0699,-0.121,0.0351,-0.0369,-0.00683,0.203,0.149,0.0778,0.137,-0.0321,-0.0596,0.0676,-0.0204,-0.0173,-0.0105,0.0311,-0.0922,0.126,-0.141,-0.0204,0.0978,-0.12,-0.0432,-0.134,0.183,0.0137,-0.067,0.119,0.00841,-0.11,-0.11,-0.0335,0.0253,0.00668,0.0159,-0.0879,-0.0427,-0.121,-0.13,-0.0549,0.0818,0.0347,-0.0798,0.205,-0.178,0.0902,-0.157,0.00766,0.0261,-0.0103,-0.107,0.0835,-0.148,0.111,-0.112,0.0247,0.0232,0.0265,0.0366,0.0165,0.135,-0.0607,-0.0285,0.267,0.0122,0.192,-0.159,0.0136,0.301,0.146,0.0364,-0.00881,-0.174,-0.0687,0.1,0.127,-0.0949,-0.146,0.0136,-0.118,-0.0251,0.074,0.00537,-0.103,0.0249,-0.152,-0.0389,-0.00568,-0.0602,-0.0644,-0.0404,0.0926,0.04,0.0688,0.102,0.0575,-0.112,-0.0842,0.0659,0.0252,0.167,-0.0173,-0.0717,-0.195,0.0363,-0.0462,-0.165,-0.116,-0.00694,0.165,0.0111,-0.0683,0.021,0.0862,0.0346,-0.0549,-0.0281,0.136,0.154,-0.0613,0.126,-0.126,-0.0537,0.117,-0.0103,-0.0192,-0.162,-0.0978,-0.0937,0.158,0.0749,0.0151,-0.245,-0.0984,-0.00265,-0.0465,0.0449,-0.185,0.0433,0.118,0.0574,0.0237,-0.14,-0.0406,0.0317,-0.0331,0.111,-0.0859,-0.00693,-0.00983,0.0366,0.0171,0.0726,-0.0255,-0.0504,0.0991,-0.102,0.0108,0.14,0.00905,-0.0625,0.0226,-0.0373,-0.171,-0.0176,0.138,0.0642,0.0435,0.0176,-0.289,0.0798,-0.0503,-0.02,-0.145,0.03,0.0187,-0.0907,-0.0282,0.11,0.0272,0.0239,-0.0524,0.201,-0.0774,0.027,-0.0134,0.0869,-0.0482,-0.0713,0.00058,0.04,0.0566,-0.031,0.0302,0.159,-0.204,-0.00555,-0.00214,0.085,-0.163,-0.0313,-0.2,-0.103,-0.012,-0.0352,-0.0246,-0.0412,-0.05,-0.104,-0.0693,-0.0881,-0.0143,0.108,0.0294,0.0826,0.0456,-0.286,-0.0533,0.0502,-0.0348,-0.0251,-0.00643,0.0305,0.248,-0.0506,0.035,0.0169,0.294,-0.187,-0.237,0.158,0.00704,0.15,-0.154,0.124,-0.0797,0.121,-0.16,0.124,-0.264,0.0592,-0.105,0.127,-0.154,0.0396,0.163,-0.0414,-0.161,0.133,0.0607,-0.0761,0.197,-0.109,0.0747,0.219,0.234,0.0107,0.0692,0.12,-0.127,0.00125,0.0142,-0.038,0.0501,0.0534,-0.117,-0.0794,0.113,-0.12,-0.0886,0.2,0.228,0.00132,-0.181,0.0085,-0.0352,0.0669,-0.0757,-0.0219,0.000871,-0.106,0.0755,-0.11,-0.0331,-0.0373,0.0258,-0.0149,-0.124,0.132,-0.0465,0.0801,-0.0502,0.101,0.0136,-0.0164,-0.096,-0.0654,-0.0764,-0.0396,-0.0522,0.138,-0.0481,0.242,-0.0402,0.0593,0.0445,-0.1,0.169,-0.197,-0.123,-0.0657,-0.125,-0.181,-0.152,0.0979,-0.0881,-0.0391,0.0861,0.0792,-0.0161,-0.0642,0.201,0.0594,-0.175,-0.00441,-0.326,-0.0277,0.143,0.0366,-0.123,0.139,-0.271,0.25,0.0513,-0.0349,-0.0301,-0.0928,-0.107,0.225,0.0757,0.00857,-0.138,-0.194,-0.227,-0.181,0.0108,0.185,0.0106,0.0338,-0.0673,-0.0219,-0.0706,0.113,-0.054,0.136,-0.0771,-0.0546,-0.0419,-0.0676,0.026,-0.183,-0.166,-0.0438,-0.118,-0.125,0.0163,0.0496,-0.118,-0.0963,-0.0473,-0.136,-0.00296,-0.136,0.0407,-0.0432,-0.0671,-0.0742,0.155,0.0308,0.0749,-0.163,0.185,-0.184,0.217,-0.129,-0.16,-0.0174,0.0353,0.0267,-0.0229,0.00361,-0.126,0.371,0.111,0.0369,-0.0415,-0.0344,-0.07,-0.271,0.0711,0.0631,-0.105,0.101,0.0434,0.0948,-0.0949,0.0116,-0.0385,0.0229,0.254,-0.0646,0.0335,-0.0989,0.00764,-0.0454,-0.133,-0.0147,-0.0949,-0.0211,-0.12,0.143,-0.123,-0.197,-0.0571,0.0189,-0.214,-0.0481,0.0914,-0.0569,0.0751,-0.0782,-0.0953,0.0819,0.177,-0.162,-0.0907,0.119,0.00903,-0.0611,-0.108,0.0238,-0.159,0.0245,-0.0809,-0.14,-0.061,-0.0053,-0.113,-0.0873,0.15,0.19,0.0811,-0.0792,0.0801,-0.11,0.167,0.0902,-0.144,-0.00952,0.0388,0.102,0.00299,0.0456,0.245,-0.0144,-0.124,-0.0527,-0.103,-0.104,0.0693,-0.128,0.0681,-0.141,-0.0316,0.0683,0.224,-0.0238,0.0356,0.026,0.101,0.068,0.0665,0.168,0.263,0.384,-0.128,0.149,-0.0366,0.178,-0.019,0.0166,0.103,-0.0267,-0.111,-0.0881,0.128,0.000802,0.0218,-0.086,0.0603,-0.0227,0.132,0.018,0.0299,0.104,-0.21,-0.21,-0.111,0.121,0.109,0.209,0.122,0.123,0.0524,-0.0408,-0.203,-0.0566,-0.157,-0.0866,-0.0168,-0.0182,-0.123,-0.0566,-0.126,-0.0762,-0.0946,0.0348,-0.0562,0.261,-0.17,0.00684,-0.193,-0.155,0.102,0.171,0.171,0.188,0.064,-0.104,0.0204,-0.015,0.0942,0.0605,-0.00428,-0.0463,-0.196,-0.0602,-0.0365,-0.00857,0.115,-0.196,-0.0207,0.088,-0.248,-0.0265,-0.0614,0.0618,-0.0511,-0.0223,-0.116,-0.258,0.0378,-0.129,-0.0581,-0.0444,-0.0106,-0.0506,-0.0757,-0.127,-0.0554,0.0714,0.0345,-0.191,0.0528,0.106,-0.0139,0.00766,0.163,0.287,-0.00412,-0.0837,0.15,0.0889,0.126,0.0271,-0.0399,-0.117,0.209,0.0456,0.149,0.218,0.00286,0.0232,-0.0316,0.0425,0.00508,0.125,0.0813,-0.0723,-0.0861,0.105,-0.123,0.0684,-0.046,0.126,-0.0703,0.089,-0.12,0.0932,0.0642,0.0814,0.00963,-0.00908,-0.316,-0.0554,0.0673,0.13,-0.0659,0.0267,-0.0791,-0.0141,-0.0629,0.16,-0.0622,0.127,0.195,0.0239,-0.0819,-0.000424,-0.0755,0.138,0.00259,-0.118,-0.115,-0.0496,0.0953,-0.1,0.204,0.081,0.144,-0.239,0.0478,-0.0262,-0.0763,-0.246,-0.0493,0.195,-0.0346,0.0723,-0.0241,0.0246,-0.146,-0.102,0.0866,-0.0669,-0.111,0.0525,-0.0601,-0.209,0.00174,0.127,-0.0565,-0.124,0.0573,-0.118,0.266,-0.0222,0.0604,0.0205,-0.0396,0.0114,-0.15,0.0295,0.216,-0.0504,-0.0496,-0.176,0.136,0.093,0.201,-0.0462,-0.0595,0.0759,0.00722,0.218,0.183,-0.00398,-0.139,0.0756,-0.0948,0.215,0.274,-0.121,-0.0848,-0.208,-0.199,0.119,0.143,-0.0275,-0.215,0.209,-0.0558,0.0221,-0.0618,0.0321,0.000415,0.0492,-0.098,-0.0316,-0.0219,0.0094,0.00761,-0.0269,-0.13,-0.0538,0.132,-0.134,0.196,0.171,-0.13,0.335,0.0225,-0.189,-0.0682,0.194,0.187,0.0176,-0.0143,-0.132,-0.22,-0.177,-0.000661,0.0501,0.0606,-0.0353,-0.269,0.0119,0.121,0.0353,-0.054,0.0625,0.177,-0.247,-0.0299,0.092,0.0616,-0.0568,0.0663,0.11,-0.14,0.0611,-0.0134,0.0435,-0.12,-0.00151,-0.055,0.00844,0.125,-0.0262,0.0683,0.033,-0.12,0.119,-0.101,-0.128,-0.0168,-0.0235,0.0523,-0.00243,0.0617,0.00535,0.215,-0.0788,-0.0834,0.0732,-0.0303,0.0225,0.0399,0.0549,0.113,-0.0266,0.24,0.0239,-0.0202,0.0316,0.0574,0.0408,0.224,0.0719,0.201,0.0526,-0.0181,-0.0186,-0.107,0.00904,-0.118,0.0294,-0.00111,0.0272,-0.0149,-0.0076,0.0134,0.107,-0.283,0.00539,0.101,-0.129,0.0329,-0.0622,-0.262,0.0982,0.327,0.0327,0.0481,-0.134,-0.0896,0.0354,0.252,-0.0423,-0.00703,-0.0653,-0.146,0.0336,-0.122,-0.0587,-0.104,0.0904,-0.134,-0.125,0.187,-0.204,0.0262,0.00849,-0.125,-0.0444,0.124,0.0526,-0.0677,0.0639,-0.0278,-0.0717,0.119,-0.0297,-0.000763,0.148,0.2,-0.0576,0.0396,0.00132,0.0756,0.0347,0.00343,0.125,-0.15,0.0695,-0.0606,0.0442,0.0574,0.00281,0.0394,0.0664,-0.0261,-0.105,-0.0387,0.0095,-0.0241,-0.208,0.21,-0.133,0.0227,-0.0134,0.0746,0.1,-0.102,0.173,0.134,0.0297,0.105,0.0593,-0.101,-0.0504,-0.0917,-0.0336,-0.0489,0.0131,0.127,-0.0267,0.145,0.0435,0.0978,-0.0871,0.144,0.0465,-0.186,0.0143,-0.00886,0.0106,-0.0441,-0.138,-0.173,-0.0137,0.127,0.219,-0.0219,-0.0539,0.0786,-0.115,0.105,-0.22,0.161,0.0629,-0.00791,0.0658,-0.0381,0.0128,0.0946,0.139,-0.116,0.148,0.0785,-0.0124,0.185,0.0644,-0.198,-0.029,-0.000963,-0.192,-0.245,-0.126,-0.00613,-0.214,0.0644,0.0368,-0.0669,0.0769,0.0676,-0.0495,0.134,0.0825,-0.24,0.0792,-0.0745,-0.0223,-0.0478,0.0183,0.0654,0.00435,0.0488,0.225,-0.0725,0.0327,0.0928,-0.0945,-0.0849,0.0132,0.0876,-0.117,0.0121,0.00642,-0.0723,-0.204,-0.00612,0.0258,0.0787,0.122,0.228,0.0755,0.0407,-0.0382,0.123,0.0465,0.0575,-0.245,-0.0223,0.0437,0.00772,-0.0709,0.0507,0.0581,-0.0155,0.0199,-0.016,-0.229,-0.0226,0.0362,0.164,0.0522,0.0713,-0.192,0.0815,-0.0443,-0.0154,-0.101,0.0175,0.00754,0.0219,0.00574,-0.131,-0.0571,0.0216,-0.0545,0.0267,-0.0878,-0.00407,-0.105,0.166,-0.0254,-0.0994,-0.139,-0.0379,-0.112,-0.278,0.222,0.0159,-0.0713,-0.0922,-0.0656,0.0328,0.187,-0.139,-0.0974,-0.0999,0.0469,-0.132,-0.134,0.157,-0.229,-0.0487,0.0325,0.1,0.0454,-0.03,-0.0492,-0.0432,-0.109,0.019,0.0698,-0.0263,-0.0785,-0.231,0.0471,0.0396,-0.0716,-0.00715,0.112,0.115,-0.31,-0.00815,-0.0445,-0.15,-0.0154,0.0672,0.341,-0.0878,0.466,0.153,-0.0807,0.0884,-0.00916,0.155,-0.0348,-0.221,0.16,-0.00474,-0.116,-0.00381,-0.0921,0.0547,-0.0277,-0.034,0.0749,0.0158,0.235,0.205,-0.0209,-0.269,0.0418,-0.0635,-0.0272,-0.117,-0.0309,-0.133,-0.0324,0.0675,-0.0257,0.188,0.197,-0.00396,0.0183,0.223,-0.0754,-0.0243,0.113,-0.000144,-0.0612,0.000798,0.0864,-0.105,-0.222,-0.0714,0.0223,0.00553,0.0956,-0.0346,-0.0279,-0.091,0.0242,-0.0592,-0.129,0.0822,-0.164,-0.0318,-0.0606,-0.0992,0.201,0.00748,0.0576,0.181,0.0514,-0.0328,-0.0129,0.162,-0.057,-0.0811,-0.0217,-0.0845,0.0419,-0.0345,-0.0321,0.0067,-0.0184,0.229,-0.133,0.0596,0.0782,0.149,-0.232,0.155,-0.129,-0.0829,0.0231,-0.173,0.0595,0.0516,-0.129,-0.0602,-0.0736,0.085,0.104,0.0229,-0.061,-0.0172,-0.144,0.00866,0.117,-0.12,-0.00553,-0.142,-0.00716,-0.0547,-0.112,0.0525,0.0179,-0.0336,0.19,0.0355,-0.0567,-0.0697,0.0216,0.0701,0.0269,-0.105,0.00552,0.0729,-0.0104,-0.371,-0.165,-0.0221,0.117,-0.125,0.0439,-0.026,-0.106,-0.135,0.164,-0.0321,0.0213,-0.0348,-0.371,-0.023,-0.152,-0.0503,0.118,-0.0105,0.0871,-0.0976,0.0873,0.0135,-0.0164,-0.0693,-0.0396,0.0861,0.248,0.0258,-0.119,0.0735,0.0109,0.0794,-0.0563,0.0734,-0.042,-0.0413,0.0538,0.0312,0.235,-0.0336,0.051,0.0568,0.0766,-0.161,0.0527,0.155,-0.203,0.109,0.12,0.246,0.0914,-0.111,0.00325,0.146,0.0753,0.0319,0.0952,-0.144,-0.189,0.111,0.00947,0.182,-0.0689,-0.0944,-0.0829,0.0307,0.063,0.00734,-0.0287,0.00956,0.0367,0.00105,0.161,0.149,0.119,-0.0347,-0.0795,0.0974,-0.0205,0.0531,-0.0225,-0.0884,0.137,-0.118,-0.16,-0.0916,0.095,0.116,-0.0742,-0.116,-0.0566,0.00681,0.0198,-0.00894,-0.0296,-0.0858,0.243,0.0166,0.218,0.0129,-0.0624,0.00807,0.101,-0.119,0.0343,0.00606,-0.0592,-0.0382,-0.115,-0.0243,0.0744,-0.11,-0.00852,-0.0491,0.00207,0.0585,0.165,0.0572,-0.0835,-0.0414,0.00461,-0.0271,-0.113,-0.122,0.175,-0.286,0.0638,-0.0592,-0.118,-0.135,-0.0551,-0.107,0.0245,0.0386,0.00552,-0.0477,0.0293,-0.0882,0.0796,-0.157,0.091,0.256,0.13,-0.0777,-0.0946,-0.0351,-0.0937,0.0459,0.0314,-0.00235,-0.0449,0.139,0.0216,0.0327,-0.000795,0.158,0.0273,0.0958,0.0947,-0.182,-0.118,-0.0946,-0.0547,-0.0941,-0.103,-0.0226,0.037,-0.0324,-0.151,0.117,-0.0761,-0.0649,0.00939,0.0646,0.169,-0.00752,0.0787,0.0202,0.213,-0.165,0.0178,0.144,-0.194,-0.198,-0.109,0.0884,-0.0873,0.0596,0.219,0.0819,0.219,0.00638,-0.0354,-0.0474,0.179,-0.15,0.0906,0.0064,0.0426,-0.231,-0.0445,0.128,0.017,-0.0567,0.0436,0.00482,0.0711,-0.0596,0.00093,-0.143,0.0786,-0.0387,0.021,0.0665,0.0278,0.0248,0.0835,-0.00855,-0.013,0.192,-0.0253,0.135,0.0205,-0.195,-0.104,0.0712,-0.11,-0.14,0.101,-0.138,0.0371,0.0862,0.211,-0.0441,-0.2,-0.0803,0.119,0.0515,-0.0565,-0.13,0.0402,-0.147,0.0121,-0.109,-0.185,0.0778,-0.0181,0.063,0.00978,-0.0611,-0.134,0.056,0.0746,-0.00387,-0.142,0.0557,0.0197,-0.0553,-0.0644,0.103,0.058,-0.0757,0.0101,-0.104,-0.055,-0.0705,0.0684,-0.0174,-0.065,-0.0198,0.149,-0.000922,-0.103,0.0194,0.00276,0.0454,-0.0774,0.309,0.0549,0.123,-0.112,0.189,0.0826,-0.116,-0.0388,-0.113,-0.0715,-0.0045,-0.125,0.226,0.0662,0.245,-0.0333,0.226,0.14,0.0045,-0.0103,-0.00291,0.0703,-0.038,0.0922,-0.12,0.0911,-0.101,0.0944,-0.0678,0.00775,-0.251,-0.0076,-0.0977,0.0547,0.113,-0.196,-0.0783,-0.042,0.0789,-0.0122,0.0774,-0.12,0.0487,0.0112,0.202,0.0706,0.0729,0.084,0.0595,0.0215,0.0241,0.0929,0.0609,-0.0136,0.0195,-0.0895,0.0136,-0.0658,0.0814,0.176,0.11,0.00168,-0.121,-0.065,-0.13,0.0547,0.000947,0.0203,0.12,-0.154,-0.0493,-0.131,0.00846,-0.0229,-0.141,-0.00744,-0.103,-0.201,-0.0375,0.0273,-0.0357,0.0123,-0.0694,0.142,0.154,0.0793,-0.0618,-0.0502,-0.297,-0.0769,-0.187,0.0299,0.0879,-0.115,-0.00336,-0.081,-0.0319,-0.1,-0.047,0.138,0.0126,0.0364,-0.124,-0.0454,-0.0175,-0.172,-0.00993,0.0728,-0.0577,0.0948,-0.085,0.00177,-0.0869,-0.0749,0.0219,0.0553,-0.0876,-0.0657,-0.0762,0.0266,-0.00745,-0.163,-0.146,-0.148,0.00526,-0.0819,-0.00197,0.149,0.0149,0.214,-0.0532,-0.0932,0.0103,0.062,-0.153,0.0524,0.0295,0.00726,-0.205,-0.231,-0.188,-0.0577,-0.075,-0.139,0.037,-0.226,0.0182,0.0502,-0.0365,-0.161,0.1,0.139,0.0336,-0.0328,-0.0972,0.237,-0.0648,0.121,-0.109,-0.0433,-0.0934,0.00684,0.0227,0.0223,0.0436,0.0479,0.17,0.0513,-0.0322,0.0685,0.0624,-0.13,0.00205,0.0737,0.081,0.0372,-0.056,0.065,0.0605,0.198,-0.0415,0.0738,0.00772,-0.183,-0.0437,-0.0133,0.232,-0.0869,-0.126,0.117,0.0464,0.061,0.107,0.0788,0.252,0.0262,-0.133,0.136,0.0303,-0.0239,-0.0742,0.148,-0.0632,-0.0137,0.0025,-0.0718,-0.0734,0.134,-0.0173,0.054,0.0494,0.0669,-0.0686,0.03,-0.0458,0.00481,0.0442,-0.023,-0.0874,-0.103,-0.000898,0.262,0.488,0.0365,0.0618,-0.0286,-0.243,0.157,0.305,0.171,0.0409,0.0351,-0.197,-0.0263,0.0614,0.0489,-0.25,-0.0938,-0.254,-0.0371,-0.198,-0.153,0.0598,0.12,-0.0816,0.122,0.159,-0.176,0.0537,-0.0962,0.0908,0.0672,0.0751,0.0611,0.0596,0.261,0.0878,0.0468,0.0414,0.0247,-0.136,0.00171,0.288,0.00087,0.103,-0.00931,0.103,0.225,-0.00855,-0.172,0.0664,0.134,-0.129,-0.242,-0.129,0.00509,-0.0807,0.0185,0.206,-0.12,-0.049,0.0682,0.113,-0.0492,0.192,0.102,0.123,0.0896,0.2,-0.0573,0.00269,0.102,0.0819,0.167,0.0158,0.000476,-0.0803,0.229,0.0558,0.0955,0.0104,-0.0526,-0.0547,0.0377,-0.0102,-0.074,-0.0445,0.0513,0.118,0.0664,-0.113,0.0208,0.121,-0.000145,-0.0283,-0.0632,0.111,0.134,-0.207,-0.0493,-0.178,-0.011,0.0153,0.0265,0.0219,0.12,0.117,-0.0409,-0.073,-0.111,0.019,0.082,0.0865,0.0358,0.102,-0.0517,-0.0493,-0.162,0.116,0.0541,0.0141,-0.122,0.098,0.089,0.139,0.0102,-0.167,-0.0317,0.0772,-0.0967,-0.216,-0.0446,0.17,-0.00934,0.13,-0.166,0.0259,-0.0148,0.158,-0.0425,-0.118,0.17,-0.114,0.166,-0.000435,-0.126,-0.117,-0.0115,-0.086,-0.0125,0.017,0.0918,0.0178,-0.0413,-0.17,-0.0817,-0.0129,0.124,-0.0115,-0.00153,-0.0636,0.0652,0.108,0.0725,0.185,0.0418,0.0126,0.011,-0.204,-0.167,0.0073,-0.205,0.00848,-0.0654,-0.0484,0.108,0.0828,-0.128,0.0658,-0.145,-0.123,0.0454,0.101,-0.234,-0.0108,-0.119,0.219,-0.0554,-0.033,-0.148,0.129,0.269,0.0468,-0.0755,-0.205,0.0765,-0.0112,-0.0336,0.148,0.0548,-0.108,-0.0587,0.221,-0.0348,-0.0308,0.231,0.177,0.182,-0.0563,0.0153,0.00269,-0.128,-0.0715,-0.0714,-0.0113,-0.101,-0.0803,-0.0785,0.0565,-0.00161,0.125,-0.0639,-0.0171,0.00712,-0.0812,0.0148,0.00528,-0.271,-0.00641,0.122,-0.149,-0.102,-0.039,0.0144,-0.18,-0.0731,-0.0728,0.0464,0.042,-0.208,-0.198,0.000912,0.105,-0.0613,-0.206,-0.175,0.0077,0.00408,0.00747,0.012,0.126,-0.0299,0.0198,-0.0516,-0.0282,-0.0566,-0.0879,0.104,0.102,0.0198,0.219,-0.00784,0.0215,-0.189,0.019,0.192,0.0742,-0.0253,-0.179,0.0805,0.22,0.0783,-0.0233,0.0869,0.0456,0.0347,-0.00852,-0.0932,-0.0406,0.122,-0.171,-0.128,0.0884,0.211,-0.081,0.135,-0.0471,0.304,-0.209,-0.155,-0.154,-0.0248,-0.0941,0.102,-0.103,0.0621,-0.148,0.12,-0.0321,-0.215,0.407,0.104,-0.0859,0.0851,0.068,0.0129,-0.114,-0.0601,0.0316,-0.0154,0.0546,0.202,0.0852,-0.0093,0.0293,0.0417,0.00409,-0.214,-0.0778,0.234,-0.0588,-0.0501,-0.0718,-0.00972,-0.119,-0.106,-0.0306,0.00339,-0.168,0.113,-0.0313,-0.192,-0.0215,0.061,0.0495,0.147,-0.035,-0.0443,0.0365,0.00448,-0.011,-0.0746,-0.262,0.154,0.119,0.0284,-0.0715,-0.106,0.0559,0.198,0.194,0.034,0.227,0.117,-0.0647,0.0871,0.111,0.193,0.136,0.0435,-0.102,-0.0566,-0.0318,-0.183,-0.118,0.0498,0.0883,0.173,-0.11,0.0979,0.217,0.301,-0.00367,0.0534,-0.132,0.185,0.000678,-0.197,-0.0815,-0.0245,0.0176,-0.0772,-0.0288,0.046,0.0222,0.0815,0.198,0.0777,0.135,0.158,-0.214,0.0937,0.0139,0.179,-0.0316,0.219,-0.209,0.0116,0.00178,0.0119,0.201,-0.0286,-0.0329,-0.0209,-0.111,-0.0962,-0.0931,-0.0742,-0.081,-0.0978,-0.0926,0.162,0.0707,0.192,-0.237,-0.275,-0.0269,-0.02,0.0762,0.222,0.145,-0.0489,0.0886,0.0822,0.124,0.172,-0.0217,-0.0983,-0.0552,0.102,0.00948,-0.118,0.0754,0.16,0.0619,0.123,-0.14,0.117,-0.177,-0.0926,-0.174,-0.167,-0.0526,-0.122,-0.0318,0.0715,0.171,-0.213,0.0574,0.00931,-0.0865,0.0338,-0.21,-0.0484,0.00389,-0.0629,-0.111,0.144,0.145,-0.0485,-0.232,0.207,0.255,0.0925,-0.0245,-0.099,-0.128,0.0195,-0.203,-0.138,0.0473,0.029,-0.0133,-0.266,-0.0316,-0.112,-0.142,0.0854,0.038,0.0903,-0.0143,-0.152,0.12,0.254,0.0875,0.0139,0.00597,0.012,0.0431,0.0473,-0.00888,0.0675,0.0685,0.0585,0.126,0.186,0.175,-0.0894,0.163,0.119,-0.0539,0.105,-0.255,0.0597,0.131,-0.062,0.238,-0.145,-0.084,-0.0269,0.158,-0.0208,-0.0294,-0.00952,0.0753,0.155,0.101,0.103,-0.068,0.0424,0.0086,-0.0239,-0.0193,0.133,0.0579,-0.0756,0.0428,0.0224,-0.0383,-0.032,0.2,0.0204,-0.0464,-0.0213,-0.134,0.0296,0.0127,0.0445,-0.0641,-0.000563,0.134,-0.0599,-0.0833,0.0218,0.192,-0.0264,0.0583,-0.0586,-0.0882,-0.291,0.00048,-0.000178,-0.0771,-0.0814,0.0193,-0.0533,-0.0219,0.0636,0.104,-0.109,-0.0406,0.0691,0.135,-0.0686,-0.077,0.0471,0.273,-0.213,0.049,0.0227,-0.0518,0.086,-0.00465,-0.106,-0.0869,-0.0151,-0.0212,0.038,0.0467,0.0669,0.0577,0.0274,-0.0222,0.125,-0.119,-0.0262,-0.00366,-0.174,-0.0286,-0.195,0.14,0.0504,0.0791,-0.0154,-0.0572,-0.105,0.00913,-0.0461,0.0595,-0.044,-0.0388,-0.213,0.159,0.0636,-0.265,0.122,-0.134,-0.076,0.0419,-0.0903,-0.149,-0.0769,0.0384,0.0616,-0.111,0.0492,-0.159,0.0295,-0.272,0.0285,-0.015,0.0411,-0.169,-0.0482,0.123,0.00839,-0.0303,-0.124,-0.173,0.0728,-0.148,-0.132,-0.0667,0.0319,-0.0752,0.0676,0.137,-0.0726,0.188,0.0977,-0.114,-0.0939,-0.11,0.19,-0.000707,0.104,0.0226,-0.144,0.037,-0.0227,-0.018,0.071,-0.0534,-0.0259,-0.00787,-0.149,-0.0309,-0.183,-0.252,0.0628,-0.17,0.176,0.192,-0.000779,-0.163,0.297,-0.0452,-0.124,0.0386,-0.046,-0.0882,-0.0645,-0.0978,-0.117,-0.0169,0.00342,0.151,0.00229,0.00318,0.0171,0.0544,-0.0416,0.157,-0.0486,-0.0755,-0.223,-0.18,-0.0974,-0.0306,-0.0341,-0.0917,-0.0566,-0.0366,-0.00609,0.163,-0.0985,0.0784,-0.0416,-0.0247,-0.118,0.0527,0.124,0.143,0.091,-0.192,0.18,0.0879,0.119,-0.0444,-0.194,-0.0582,0.0233,-0.113,-0.122,-0.0574,0.133,0.0245,0.202,0.0487,-0.296,0.0866,-0.205,-0.003,0.0485,0.162,-0.0485,-0.168,0.14,0.0242,-0.18,-0.0722,-0.192,0.0279,0.0485,0.0118,0.152,-0.0653,-0.192,-0.0417,0.139,0.0994,-0.241,-0.0225,-0.0758,-0.121,0.0635,0.125,0.0432,0.114,-0.0719,0.0874,0.145,-0.0878,-0.0139,-0.0832,-0.00185,0.047,0.128,0.1,-0.0846,-0.0676,-0.158,-0.102,-0.122,0.146,-0.0398,-0.0805,-0.139,0.113,0.0222,0.104,-0.0322,0.147,-0.184,0.111,0.0506,0.016,0.0958,0.165,-0.0516,0.0918,-0.117,0.0687,-0.0552,-0.0696,0.186,0.0914,0.0547,-0.294,0.166,-0.0275,-0.0486,0.102,-0.0987,0.072,0.026,-0.165,-0.0459,0.0158,-0.148,0.081,-0.106,-0.0734,0.0224,-0.0525,0.0801,-0.2,-0.0367,-0.265,0.117,-0.00307,-0.0356,-0.358,0.0785,0.0494,0.0658,-0.09,0.187,0.00245,0.251,-0.0208,-0.189,-0.00939,-0.0499,0.0978,0.167,-0.128,-0.192,0.228,-0.147,0.0741,0.00651,-0.19,0.0461,0.161,-0.0781,0.0429,-0.0576,-0.188,-0.148,-0.117,-0.0575,-0.103,-0.127,-0.202,-0.00991,0.000394,-0.059,0.0584,-0.182,0.0591,-0.0401,-0.0611,-0.04,0.295,0.0229,-0.0295,-0.0117,0.132,-0.169,-0.131,-0.0417,-0.0582,0.0541,-0.123,0.22,-0.0511,-0.118,0.131,0.0238,0.186,-0.0177,0.236,-0.224,0.138,0.0965,0.163,-0.196,0.0766,0.17,0.143,-0.0955,0.0713,0.16,0.12,0.207,-0.104,-0.194,-0.0828,-0.178,0.0592,-0.0249,-0.000174,0.181,-0.0554,0.122,-0.0999,-0.162,-0.0286,-0.0557,-0.127,-0.033,-0.0139,0.134,0.217,0.0677,-0.187,-0.0473,-0.0378,-0.00387,0.0379,0.0533,-0.0395,0.187,-0.0346,0.22,-0.0681,0.234,0.0698,0.0803,-0.0451,-0.0609,0.125,-0.101,-0.0171,-0.0256,-0.0206,0.0917,-0.0228,-0.00329,0.036,0.105,0.0851,-0.0395,-0.0992,0.508,-0.0462,-0.0354,0.00888,0.223,-0.00844,0.0327,0.00131,0.0342,0.172,0.0891,0.226,-0.26,0.206,0.0584,0.0834,0.054,0.157,-0.0979,-0.14,0.0839,-0.171,0.0372,0.0526,0.0989,0.198,0.182,-0.0389,0.0567,-0.0406,0.16,0.0785,0.119,-0.0971,0.196,0.0386,-0.0496,0.0659,-0.0808,0.0147,0.0658,0.0568,-0.162,0.217,-0.157,-0.0147,0.0652,-0.0528,-0.121,-0.118,-0.0627,-0.129,0.17,0.178,0.16,-0.0685,-0.117,-0.126,-0.0194,-0.0728,-0.228,0.029,-0.185,0.135,0.0431,0.0487,-0.0866,-0.139,-0.163,-0.03,0.253,-0.0568,-0.0767,-0.137,0.0454,-0.0817,-0.155,-0.0221,0.0189,-0.0135,-0.0988,0.112,0.1,-0.0122,0.0687,-0.113,0.115,-0.0534,0.0966,-0.0155,-0.146,0.0761,-0.166,-0.0518,-0.00586,-0.104,0.0141,-0.00998,0.0959,0.133,0.167,-0.0864,0.121,-0.0919,0.0131,0.0741,-0.0967,0.221,-0.221,0.0363,-0.143,0.113,0.0984,0.0749,-0.0509,0.128,-0.225,-2.27e-05,-0.13,0.0554,0.0621,0.0248,0.128,0.156,0.0989,0.112,0.166,-0.103,-0.153,-0.217,-0.109,0.0203,-0.0608,0.164,0.0311,0.296,0.12,0.0687,-0.00103,0.16,-0.0638,-0.0913,-0.121,-0.063,0.146,0.0784,-0.0144,0.00334,0.0574,-0.0304,-0.244,-0.0328,-0.158,-0.154,-0.0583,0.0706,0.0409,-0.154,0.0548,0.105,0.221,-0.0897,-0.0246,-0.189,-0.166,0.031,0.0734,-0.0877,0.11,-0.0925,0.0801,0.00169,0.0417,-0.097,-0.0413,-0.0213,-0.242,-0.193,0.0232,-0.000693,0.0114,-0.067,-0.0323,-0.02,0.0847,0.0945,-0.323,-0.0634,0.0131,0.000583,0.178,-0.0452,0.0243,0.0434,0.0432,-0.114,0.113,0.0535,-0.0422,-0.046,0.0573,0.0421,-0.203,-0.103,0.16,0.138,0.189,0.118,-0.13,0.0954,0.258,0.266,-0.106,-0.0441,-0.157,0.134,0.0163,0.196,-0.0178,-0.154,-0.272,0.0941,0.0479,0.0651,-0.144,-0.045,0.00286,0.146,-0.302,0.0136,-0.103,0.0705,0.0247,-0.0477,0.161,-0.0272,0.0264,-0.119,-0.0914,0.101,0.106,-0.0659,0.214,-0.0786,0.0242,0.153,0.0902,-0.0828,0.107,-0.00287,0.0326,0.194,0.106,-0.154,-0.0394,0.0146,0.0701,0.245,0.01,0.178,-0.182,-0.239,0.00134,-0.0355,0.0801,0.147,-0.103,0.071,-0.0422,0.0442,0.00117,0.0775,0.221,-0.0911,-0.1,0.0903,0.0992,0.136,-0.0591,0.0463,0.016,-0.151,-0.0472,-0.0472,0.0969,-0.0363,-0.0381,-0.00823,-0.0568,0.0195,-0.123,-0.0232,-0.161,-0.0749,0.0875,-0.182,0.118,-0.0108,0.146,-0.0227,-0.0891,-0.0384,0.002,-0.0897,-0.174,-0.11,0.116,0.0849,-0.0452,0.329,0.0382,0.092,-0.0815,-0.121,-0.104,0.0324,0.0549,0.157,0.0396,0.0946,0.0492,0.0845,-0.0689,-0.068,0.106,-0.127,0.129,0.0697,-0.162,0.121,-0.0843,0.163,-0.0365,0.138,-0.148,0.122,0.0862,0.036,-0.159,0.0186,0.14,0.311,0.0818,0.0812,-0.0727,0.128,-0.00882,0.0448,0.209,0.154,-0.00115,0.043,0.162,-0.101,0.0492,0.0678,0.0459,0.0625,-0.0733,0.0226,-0.104,0.00901,0.107,0.177,-0.0054,-0.0751,0.0477,-0.0668,-0.0628,-0.287,-0.215,0.169,0.156,0.172,0.176,-0.225,-0.0388,-0.0131,-0.0272,0.0799,0.152,0.0986,-0.0672,-0.0376,0.0369,-0.0207,-0.0667,0.147,-0.0544,0.101,0.0544,0.0248,-0.0418,-0.0352,-0.0124,-0.18,0.109,-0.0923,-0.00616,-0.0873,-0.22,0.128,-0.0754,0.0537,-0.00185,-0.0554,-0.17,0.0245,0.0363,-0.143,-0.139,-0.00223,-0.083,0.0613,-0.126,-0.185,-0.00152,0.136,0.121,-0.141,-0.2,0.0517,0.106,0.191,-0.0861,-0.174,0.21,-0.143,0.0505,-0.0356,-0.0657,0.193,0.206,0.0649,0.0339,0.0567,-0.11,0.0333,-0.0977,0.276,-0.018,0.00202,0.109,0.0442,0.19,0.109,0.0659,0.0444,0.194,0.0626,0.143,0.0256,-0.0375,0.342,-0.0633,-0.0729,0.101,-0.0389,-0.0776,-0.143,-0.076,0.0306,0.0757,-0.189,0.0674,0.00266,-0.011,-0.0296,-0.269,0.109,-0.0649,0.266,-0.129,0.0823,-0.0595,-0.00594,0.15,-0.0858,0.0244,0.034,0.0591,-0.0117,0.0346,0.00973,-0.0194,0.133,-0.106,-0.00863,-0.198,0.0129,0.126,-0.0203,-0.0402,0.0358,-0.0289,-0.0817,-0.132,-0.351,-0.0549,-0.05,0.219,0.0432,-0.0144,-0.0557,0.0688,0.0232,-0.177,0.165,-0.224,-0.0153,0.101,0.00511,-0.0585,0.29,-0.052,0.0316,0.0208,0.132,-0.0541,0.0317,0.112,0.0966,0.0601,0.0232,-0.0926,0.0265,-0.00502,-0.0156,0.0571,-0.0742,0.0266,0.0891,-0.113,-0.114,-0.00167,0.0876,0.0196,0.0236,0.105,-0.269,0.0691,-0.199,0.0629,-0.000271,-0.358,-0.148,-0.000526,-0.211,0.074,-0.0327,-0.166,-0.00591,0.205,0.0733,0.18,-0.108,0.0263,-0.122,-0.0945,0.117,0.0471,0.0359,-0.00846,0.23,-0.057,-0.0291,-0.0744,0.0218,0.111,0.137,0.049,-0.122,0.063,-0.012,-0.00911,0.0691,0.0307,-0.0398,0.0898,-0.0143,0.0323,0.0769,0.0262,-0.164,0.0217,-0.205,-0.0976,-0.0793,0.109,-0.178,-0.0157,0.13,0.129,0.15,0.0141,0.133,-0.0177,-0.17,-0.0335,-0.0444,-0.171,0.0134,0.115,0.19,0.051,0.0817,0.0348,-0.156,0.139,0.0963,0.127,-0.049,-0.0778,-0.176,0.0996,0.0454,-0.083,-0.194,0.102,0.112,-0.0108,0.143,-0.0293,0.12,0.12,-0.0206,-0.126,0.203,0.142,-0.0691,-0.00368,0.0026,0.215,0.0731,-0.0552,-0.00548,0.0682,-0.221,0.0626,-0.0315,0.0887,0.0391,0.0376,-0.0596,0.0334,0.132,-0.191,0.0604,-0.119,0.0691,0.0734,0.0523,-0.179,0.117,0.0884,0.0524,0.269,0.0945,0.198,0.0594,-0.0587,-0.045,0.0491,0.0713,-0.0477,0.0182,-0.0416,-0.0474,0.11,-0.0533,0.164,-0.048,0.207,-0.142,0.0427,-0.181,-0.314,-0.137,-0.0839,0.145,-0.115,-0.152,-0.182,0.0581,-0.0368,-0.329,-0.0041,-0.047,-0.0438,0.0816,-0.0565,-0.0131,0.0603,0.0562,0.0477,-0.104,-0.0149,0.177,0.0156,-0.0423,0.0426,0.0968,0.0958,0.152,0.0429,-0.167,0.0452,-0.0251,-0.051,-0.0158,0.0183,-0.0271,0.149,0.0632,0.088,-0.0484,0.218,-0.0157,0.0426,0.0252,0.112,0.0746,0.0143,-0.02,0.0321,-0.176,0.0133,-0.0808,-0.169,-0.138,-0.0191,-0.0749,0.00351,-0.0725,-0.044,-0.138,-0.126,0.00136,-0.0926,-0.296,-0.0166,-0.229,0.0758,-0.128,-0.00689,-0.141,-0.0949,0.125,-0.0102,-0.285,-0.0572,0.0962,-0.0228,0.0924,0.263,-0.00543,0.31,-0.0698,0.0183,0.0527,-0.195,0.0194,0.0213,-0.204,-0.0758,-0.106,0.0167,0.121,-0.115,-0.0791,-0.137,0.0357,-0.0385,-0.0288,0.0306,0.00186,0.143,-0.0476,0.16,0.137,-0.015,-0.12,0.162,-0.0697,0.0494,-0.0373,0.171,-0.218,0.0529,0.023,0.0414,-0.216,-0.00126,0.0641,0.0318,0.106,0.0756,0.00906,-0.0406,0.115,-0.0671,-0.16,0.0346,0.0942,-0.0166,-0.0718,0.0685,0.0658,0.195,0.0896,-0.156,-0.0847,-0.0741,-0.0883,0.0666,0.0362,-0.17,-0.0684,-0.235,-0.116,-0.0516,0.0446,0.111,-0.113,-0.0858,-0.0266,-0.123,0.0666,0.154,-0.0933,-0.0465,-0.0244,0.0412,-0.164,0.209,-0.194,-0.0127,-0.236,0.197,-0.0736,0.118,-0.0955,0.186,0.0547,-0.0283,0.0401,-0.123,-0.129,0.00867,-0.104,0.117,0.179,-0.147,-0.106,0.032,0.118,-0.0899,-0.139,-0.134,0.0992,0.0713,-0.0175,0.0265,0.0158,-0.0564,0.167,-0.0349,0.0422,-0.166,0.0358,0.0988,-0.0522,-0.04,0.143,-0.0522,-0.042,-0.0683,0.174,-0.0401,-0.151,0.0457,0.193,-0.059,-0.101,-0.178,-0.0184,-0.00956,0.145,0.0484,0.0203,0.0111,-0.0564,-0.128,0.022,-0.0605,-0.013,-0.013,0.0956,-0.078,0.0263,-0.178,-0.0649,0.0299,-0.00959,0.00288,0.118,-0.223,0.134,0.181,0.0677,0.0372,0.013,-0.00795,-0.132,0.197,0.0609,0.235,0.0434,-0.16,-0.221,-0.0449,0.239,0.101,-0.0673,-0.0427,0.00624,0.146,0.173,0.0406,-0.0941,0.0239,0.0816,-0.108,-0.0434,-0.12,0.017,-0.0933,0.0433,0.152,-0.0538,-0.295,0.0694,-0.11,-0.00302,0.0568,-0.0638,0.00192,0.149,0.00969,-0.0209,0.0261,0.0725,0.0715,-0.052,-0.0453,0.175,-0.0377,-0.0381,-0.0712,0.0294,0.0439,0.0385,-0.0717,0.00986,-0.109,0.117,0.0964,0.118,0.0583,0.0532,0.00233,-0.0372,0.0184,-0.0695,-0.26,-0.0359,-0.0343,-0.0284,0.0567,0.138,0.0629,-0.04,-0.138,-0.115,0.077,0.0961,-0.142,0.0247,-0.0301,0.0252,0.106,-0.125,0.0149,-0.0948,0.0628,0.27,-0.205,-0.0729,0.152,0.0256,0.191,0.0109,0.21,-0.0713,-0.0346,-0.125,-0.0835,0.125,-0.0855,0.371,-0.148,0.148,-0.1,-0.143,0.031,-0.187,-0.142,0.0362,-0.031,-0.0359,-0.106,0.254,-0.0966,-0.211,0.0884,-0.0169,-0.00852,-0.107,-0.134,-0.0367,-0.192,-0.268,0.0198,-0.0518,0.058,-0.0861,-0.0889,-0.116,-0.114,-0.0145,-0.0787,0.235,0.0499,-0.0376,-0.0377,0.091,-0.221,0.0541,0.0163,-0.141,-0.0654,-0.0907,0.0795,-0.0317,-0.0646,-0.0292,-0.0173,-0.0126,-0.0468,-0.0337,0.0279,-0.0154,-0.0903,-0.0549,-0.0275,-0.0375,-0.0829};
float f4_1_bias[64] = {-0.0646,0.0976,-0.108,0.0153,-0.134,-0.121,0.211,0.133,0.00633,0.0887,0.0313,-0.0295,0.0633,0.0636,-0.00928,0.0318,0.0972,0.085,-0.137,-0.057,-0.0981,-0.0193,0.00613,-0.0679,0.0437,-0.0648,0.0922,0.00642,0.0818,-0.189,0.0331,-0.137,-0.245,0.00548,0.161,-0.0509,0.17,-0.00341,-0.0654,0.0383,0.0583,0.0849,-0.0701,-0.0909,-0.0898,0.106,-0.0447,-0.116,0.222,-0.12,0.0803,-0.0553,-0.171,-0.0308,-0.098,0.00612,-0.0505,-0.151,0.105,0.172,0.0966,0.126,0.0504,0.0655};
float f4_2_weight[64*1*3*3] = {-0.194,0.576,-0.265,0.625,-1.51,0.0781,0.153,0.234,-0.315,0.291,-0.279,0.000169,0.257,0.0876,-0.0543,-0.199,0.142,0.114,0.0989,-0.46,-0.233,-0.13,0.298,-0.071,0.844,0.309,0.539,0.334,0.253,-0.0637,0.283,0.0033,0.144,-0.269,0.264,0.779,-0.16,-0.847,-0.385,0.302,-0.435,-0.469,0.114,-0.166,-0.0351,-0.425,0.0211,-0.0989,0.353,0.148,0.121,-0.383,0.0354,0.736,-0.252,0.302,-0.158,-0.925,-0.0251,-0.013,0.271,0.311,-0.318,0.296,-1.1,-0.00535,0.0792,0.569,-0.507,-0.471,0.385,0.141,0.255,-0.336,-0.551,-0.184,0.383,-0.249,-0.683,-0.779,0.243,-0.0474,0.445,-0.0292,-0.502,0.259,-0.596,-0.555,1.29,0.697,-0.155,1.17,0.501,-0.0721,-1.22,0.00471,-1.27,0.193,-0.175,0.649,-0.342,-0.268,0.316,0.0277,-0.0432,0.312,-0.416,0.446,0.718,-0.375,-0.493,-0.31,-0.6,0.488,0.0185,-0.845,0.322,0.504,-0.0671,0.85,-0.037,-0.218,-1.04,-0.054,0.437,-0.00584,-1.14,0.37,-0.257,-0.0379,0.583,0.674,-0.323,-0.093,0.632,0.213,0.996,-1.73,-0.369,0.0659,0.676,-0.0343,-0.759,0.11,0.21,0.0557,0.342,0.719,0.537,0.266,0.273,-0.508,0.642,0.506,0.377,0.472,0.0667,-0.071,-0.379,-0.0105,-0.474,-0.123,-0.199,-0.255,-0.312,0.00143,-0.0994,0.462,-0.493,0.392,-0.174,-0.0793,0.232,-0.238,-1.3,-0.0831,-0.462,0.421,0.0904,-0.75,-0.511,0.616,-0.519,0.802,-0.121,0.326,-0.058,-1.52,0.165,-0.53,0.564,0.218,-0.0629,0.632,1.14,-0.00466,-0.359,-0.183,0.0467,-0.354,-0.317,0.224,-0.418,-0.0162,-0.105,0.762,0.0512,0.184,0.104,-0.145,-0.527,0.151,-1.09,-0.243,0.229,-0.145,0.139,0.0412,0.483,0.0288,0.092,0.554,0.633,0.231,0.0481,0.115,0.581,0.936,-0.0465,-0.407,-0.27,0.288,-0.432,-0.812,0.0108,0.0598,-0.666,-0.136,0.0977,-0.313,0.888,0.28,0.157,-0.258,0.216,-0.0206,0.25,0.221,-0.619,-0.41,0.499,0.0583,-0.427,0.0828,0.132,0.0339,-0.0641,0.306,0.328,-0.747,0.773,-0.206,0.0316,0.00619,-0.579,0.642,-0.663,-0.647,0.215,1.7,0.097,-0.169,0.267,0.15,0.881,0.182,-0.204,0.137,2.32,-0.323,-0.59,0.265,0.528,-0.145,-0.0302,0.812,-0.355,-0.137,-0.241,0.426,0.238,-0.663,0.462,-0.231,-0.745,0.856,0.0227,0.24,0.303,-0.335,-0.215,-0.696,0.695,-0.24,0.717,0.397,0.105,-0.257,0.532,0.476,-0.832,-0.0627,-0.107,0.204,0.558,0.0337,0.783,0.422,-1.45,1.9,-0.114,-0.485,0.0039,0.924,-0.0145,0.245,0.443,0.318,0.342,-0.0383,-0.377,0.438,0.967,-0.382,0.144,-0.604,0.183,0.151,0.321,0.527,0.405,0.0866,0.506,-0.658,0.0207,0.426,-0.498,-0.18,-1.2,0.69,-0.402,0.186,-0.118,-0.26,0.00732,0.0262,0.457,-0.207,-0.301,0.116,0.0767,0.504,-0.472,1.99,0.656,0.0337,-0.834,-0.137,-0.367,0.261,0.0505,-0.00905,-0.659,-0.0914,-0.379,0.25,-0.017,-0.186,0.536,-0.153,0.127,-0.299,0.938,-0.352,-0.143,-0.486,0.557,0.0599,-0.405,-0.156,-0.0421,-0.557,-0.448,-0.0231,-0.249,-0.127,-0.016,-0.0222,-0.05,-0.0838,0.305,-0.0919,-0.696,-0.251,-0.383,-0.0697,-0.7,-0.101,0.0751,-0.151,0.155,-0.186,0.608,-0.0806,0.538,0.368,0.026,0.275,0.568,-0.207,0.596,-0.213,-0.213,-0.0681,-0.388,-0.273,-0.216,-0.16,-0.846,-0.137,0.0477,-0.846,0.516,0.376,0.355,0.0407,-0.143,0.257,-0.67,-0.109,-1.22,-0.194,0.562,-0.113,0.15,-0.0783,-0.306,-0.155,0.215,-0.311,-0.493,0.251,-0.00168,-0.959,-0.208,-0.777,-0.174,0.105,-0.11,0.867,-0.0231,-0.322,-0.183,0.0553,0.0538,-1.18,-0.382,-0.156,0.227,0.871,0.713,0.217,-0.042,-0.0263,-0.352,-0.0827,1.4,0.495,0.696,2.11,-0.0596,-2.3,0.297,-0.192,0.922,0.0799,0.221,0.55,-1.1,0.481,0.941,-0.316,-0.112,-0.315,0.00456,-0.614,0.113,0.152,0.822,-0.152,-0.259,-0.201,-0.524,0.175,-0.217,-0.239,0.147,0.28,0.749,-0.931,0.193,-0.139,-0.223,-0.511,-0.232,0.291,0.0786,-0.321,0.438,-0.173,0.176,0.615,-0.461,1.44,-0.0293,-0.0542,-0.0894,-0.203,0.58,-0.437,-0.233,0.409,0.271,0.816,-0.755,-0.191,0.304,0.143,-1.29,0.00445,-0.133,0.221,0.101,0.0252,-0.099,-0.647,-0.0742,-0.264,0.722,-0.0337,-0.0271,0.166,-0.35,0.339,1.46,0.564,0.525,0.00837,-0.516,-0.688,0.0463,0.111,0.101,-0.283,-0.985,0.0757,0.236,0.041,-0.0735,-0.0288,0.145,0.35,-0.504,-0.32,-0.251,-0.168};
float f4_2_bias[64] = {-0.0162,0.431,0.451,0.0817,0.216,-0.152,-0.0507,0.244,0.229,-0.122,0.363,0.272,0.307,0.155,0.467,0.285,0.136,0.421,0.129,0.382,0.135,0.21,0.242,0.0499,-0.0265,-0.248,0.147,-0.168,-0.146,-0.0632,-0.191,0.791,-0.219,0.174,-0.0652,0.112,0.0526,-0.143,0.491,-0.281,0.458,0.165,0.473,0.2,0.0521,-0.547,-0.0665,0.69,-0.105,0.379,-0.126,0.0203,0.118,0.236,0.314,0.0287,-0.299,0.0981,0.2,0.389,0.329,0.347,-0.0108,0.538};

